tree
version=v4
num_class=1
num_tree_per_iteration=1
label_index=0
max_feature_idx=8
objective=regression
feature_names=category sector log_value value_per_day region start_month planned_days is_repair n_tenderers
feature_infos=-1:0:1:2 -1:1:4:2:5:0 [0.0099503308531680833:16.852765098870258] [2.7396884975892088e-05:15.192818885977694] -1:20:11:13:26:16:4:19:8:10:12:1:21:22:29:30:3:6:17:18:2:5:9:14:27:28 [1:12] [1:1977] [0:1] none
tree_sizes=1433 1535 1519 1469 1527 1553 1515 1525 1552 1561 1543 1555 1553 1533 1523 1504 1517 1527 1510 1521 1524 1519 1540 1564 1543 1566 1549 1558 1564 1541 1550 1584 1499 1526 1563 1561 1572 1555 1539 1549 1536 1595 1551 1599 1581 1504 1561 1550 1539 1595 1593 1581 1549 1619 1580 1547 1523 1584 1613 1583 1584 1551 1589 1595 1549 1563 1578 1563 1569 1574 1539 1554 1553 1552 1559 1592 1601 1585 1588 1569 1602 1551 1534 1568 1610 1599 1538 1538 1593 1565 1534 1492 1578 1592 1553 1579 1619 1561 1630 1562 1614 1575 1508 1537 1577 1600 1558 1528 1573 1572 1541 1523 1567 1603 1554 1574 1574 1608 1558 1605 1611 1524 1556 1552 1592 1552 1581 1557 1605 1576 1621 1576 1577 1591 1545 1621 1626 1546 1583 1601 1587 1539 1533 1608 1597 1589 1591 1590 1580 1562 1622 1551 1528 1628 1547 1599 1566 1565 1587 1607 1545 1609 1603 1578 1552 1591 1591 1583 1645 1559 1609 1576 1533 1603 1590 1574 1573 1626 1594 1567 1575 1560 1561 1581 1516 1598 1580 1583 1611 1593 1615 1630 1533 1580 1622 1602 1600 1481 1552 1583 1601 1639 1503 1644 1680 1567 1580 1608 1539 1575 1600 1617 1609 1544 1625 1532 1579 1572 1574 1645 1611 1568 1608 1583 1603 1603 1577 1587 1562 1574 1579 1584 1570 1634 1610 1571 1632 1591 1632 1562 1587 1566 1514 1593 1559 1545 1592 1570 1582 1618

Tree=0
num_leaves=15
num_cat=1
split_feature=0 6 3 6 6 6 6 2 3 2 2 3 6 2
split_gain=50.2385 42.8367 30.3592 11.8181 8.61381 16.2042 14.0482 7.80027 6.38681 4.97813 6.95913 12.2436 8.29048 4.42921
threshold=0 69.500000000000014 2.5425050714339776 373.50000000000006 790.50000000000011 730.50000000000011 633.50000000000011 9.3942138106475408 8.7636121872046555 13.665684921794645 10.484713625941804 4.2607485725893204 126.50000000000001 9.2290131440358625
decision_type=1 2 2 2 2 2 2 2 2 2 2 2 2 2
left_child=1 7 -2 13 5 6 -5 -1 9 10 11 -4 -12 -3
right_child=2 3 8 4 -6 -7 -8 -9 -10 -11 12 -13 -14 -15
leaf_value=3.6731248027026964 3.6420367390603134 3.6517676430508805 3.6781097257493047 3.6813126554739326 3.643374945064469 3.6990787806302619 3.64125348597172 3.704715548743426 3.7070131476909229 3.7062636908084463 3.6587467928171469 3.7102043289482904 3.6844896111264349 3.6352197387815637
leaf_weight=12.000000000000002 13.999999999999998 24 23 12.999999999999998 19 10.999999999999998 20 17 14.999999999999998 9.9999999999999982 15.999999999999998 20 38 37
leaf_count=12 14 24 23 13 19 11 20 17 15 10 16 20 38 37
internal_value=3.67061 3.65882 3.68388 3.65114 3.66026 3.66755 3.65703 3.69164 3.68868 3.68611 3.68403 3.69304 3.67686 3.64173
internal_weight=289 153 136 124 63 44 33 29 122 107 97 43 54 61
internal_count=289 153 136 124 63 44 33 29 122 107 97 43 54 61
cat_boundaries=0 1
cat_threshold=1
is_linear=0
shrinkage=1


Tree=1
num_leaves=15
num_cat=2
split_feature=3 0 3 2 3 3 2 2 2 2 0 3 3 3
split_gain=47.6452 27.143 13.7015 14.5627 22.4224 16.0299 9.93433 6.82282 5.72714 8.44005 8.96603 5.55907 8.24865 4.50324
threshold=4.1986573397942193 0 8.3956508968715706 11.022174988429493 5.9931093479674074 6.5322823440947024 10.537824887377601 12.489856199414055 6.3065585334332077 7.5497893265983054 1 3.3014508115942092 3.7244920967472903 4.5635032206618318
decision_type=2 1 2 2 2 2 2 2 2 2 1 2 2 2
left_child=8 2 3 4 13 -5 -3 -8 -1 -10 11 -11 -13 -2
right_child=1 6 -4 5 -6 -7 7 -9 9 10 -12 12 -14 -15
leaf_value=-0.033446858559663478 0.0026998802572488771 0.038187507746571842 0.028892490237951277 -0.0070894227425257342 0.039641035592014137 -0.053057224655693222 0.0065402415050910068 0.024523845830479184 0.009346825501748493 -0.01289783074009803 -0.0015490175517542022 -0.042521264657378197 -0.011059581104200333 -0.024077984346793247
leaf_weight=12.999999999999998 10.000000000000002 22 9.9999999999999982 18.000000000000004 10.999999999999998 10.999999999999998 39 37 13.999999999999998 31 28 20 11.999999999999998 12.999999999999998
leaf_count=13 10 22 10 18 11 11 39 37 14 31 28 20 12 13
internal_value=-3.7414e-11 0.0101187 -0.00372983 -0.00890798 0.00441284 -0.0245255 0.0204345 0.0152954 -0.0146636 -0.012338 -0.0156741 -0.021952 -0.0307231 -0.0124354
internal_weight=289 171 73 63 34 29 98 76 118 105 91 63 32 23
internal_count=289 171 73 63 34 29 98 76 118 105 91 63 32 23
cat_boundaries=0 1 2
cat_threshold=1 1
is_linear=0
shrinkage=0.03


Tree=2
num_leaves=15
num_cat=0
split_feature=3 3 5 5 6 5 6 6 6 3 6 6 6 3
split_gain=44.8294 16.7022 10.9185 11.4167 9.58731 20.1433 14.0689 6.9457 10.1501 7.4152 5.2032 15.9127 6.42058 7.33962
threshold=4.1986573397942193 8.7636121872046555 7.5000000000000009 11.500000000000002 83.500000000000014 3.5000000000000004 134.00000000000003 763.00000000000011 364.50000000000006 5.4875625823042649 790.50000000000011 730.50000000000011 339.50000000000006 1.4193643430959857
decision_type=2 2 2 2 2 2 2 2 2 2 2 2 2 2
left_child=10 2 4 -4 5 -2 -6 8 -8 -10 11 12 -1 -14
right_child=1 -3 3 -5 6 -7 7 -9 9 -11 -12 -13 13 -15
leaf_value=-0.00051094058901071551 0.033240323491394511 0.033019141359254711 0.045852593942122023 0.0091770209491252898 -0.030221402138471604 -0.018906958468258378 0.015030501516241775 0.022610259633511303 -0.027253021672368049 0.00046613243457518125 -0.028168485241010784 0.024483113070018589 -0.042283494797619905 -0.015517794898171958
leaf_weight=20 20.000000000000004 24 10.999999999999998 25 14.999999999999998 9.9999999999999982 19 11.999999999999998 15.999999999999998 19 20 9.9999999999999982 10.999999999999998 57
leaf_count=20 20 24 11 25 15 10 19 12 16 19 20 10 11 57
internal_value=-7.32812e-11 0.00981515 0.00602674 0.0203834 0.00137051 0.0158579 -0.00399519 0.00196532 -0.00262245 -0.0122055 -0.0142236 -0.0113778 -0.0154529 -0.0198475
internal_weight=289 171 147 36 111 30 81 66 54 35 118 98 88 68
internal_count=289 171 147 36 111 30 81 66 54 35 118 98 88 68
is_linear=0
shrinkage=0.03


Tree=3
num_leaves=15
num_cat=1
split_feature=0 6 2 6 5 5 6 6 6 2 2 2 6 5
split_gain=43.4455 36.7801 18.3478 10.9203 8.69558 14.6918 7.60898 14.6299 12.7315 6.53572 4.20063 9.26462 3.59798 3.51522
threshold=0 69.500000000000014 7.7315214677380846 373.50000000000006 7.5000000000000009 1.5000000000000002 790.50000000000011 730.50000000000011 633.50000000000011 9.3942138106475408 9.2290131440358625 10.484713625941804 364.50000000000006 4.5000000000000009
decision_type=1 2 2 2 2 2 2 2 2 2 2 2 2 2
left_child=1 9 -2 10 5 -4 7 8 -5 -1 12 -12 -3 -7
right_child=2 3 4 6 -6 13 -8 -9 -10 -11 11 -13 -14 -15
leaf_value=0.0024976123496890058 -0.0215567888204868 -0.028037438805286696 0.031353366530257394 0.010656793197760216 0.028319767434149979 -0.0011704918884982666 -0.02518530950146286 0.02749414072118022 -0.027478891856968401 0.031414533082176656 -0.049750434563440436 -0.019627555623650553 -0.0047249771248210554 0.014218301287558126
leaf_weight=12.000000000000002 12.999999999999998 13 23 12.999999999999998 36 45 19 10.999999999999998 20 17 17 20 11 19
leaf_count=12 13 13 23 13 36 45 19 11 20 17 17 20 11 19
internal_value=-2.70696e-11 -0.0109665 0.0123373 -0.0180798 0.0159196 0.0107885 -0.00931944 -0.00246827 -0.0124557 0.0194489 -0.0271274 -0.0334678 -0.0173526 0.00339806
internal_weight=289 153 136 124 123 87 63 44 33 29 61 37 24 64
internal_count=289 153 136 124 123 87 63 44 33 29 61 37 24 64
cat_boundaries=0 1
cat_threshold=1
is_linear=0
shrinkage=0.03


Tree=4
num_leaves=15
num_cat=1
split_feature=0 6 3 6 5 5 6 6 6 3 6 6 6 2
split_gain=40.8779 34.6064 25.2348 10.2749 7.75293 12.5419 7.15929 13.7653 11.9791 6.26509 4.63542 6.5247 4.5586 4.31825
threshold=0 69.500000000000014 2.5425050714339776 373.50000000000006 7.5000000000000009 1.5000000000000002 790.50000000000011 730.50000000000011 633.50000000000011 6.1602797377244407 134.00000000000003 306.50000000000006 51.000000000000007 11.915442854498913
decision_type=1 2 2 2 2 2 2 2 2 2 2 2 2 2
left_child=1 9 -2 -3 5 -4 7 8 -5 -1 12 -12 -7 -13
right_child=2 3 4 6 -6 10 -8 -9 -10 -11 11 13 -14 -15
leaf_value=0.0022688135877251617 -0.026180430075951985 -0.026313555257730797 0.03041276562877971 0.010337089735728043 0.028033670381021995 0.0076809065043926201 -0.024429749915082202 0.026669315302913839 -0.026654525578022 0.03058071003240697 0.031435693502426143 0.011103668184527619 -0.020305714634331787 -0.012672344908118248
leaf_weight=12.000000000000002 13.999999999999998 61 23 12.999999999999998 36 10.000000000000002 19 10.999999999999998 20 17 9.9999999999999982 22 10.999999999999998 9.9999999999999982
leaf_count=12 14 61 23 13 36 10 19 11 20 17 10 22 11 10
internal_value=-1.72955e-10 -0.0106375 0.0119672 -0.0175374 0.0163448 0.0114518 -0.00903986 -0.00239422 -0.0120821 0.0188654 0.00452953 0.0102837 -0.00697875 0.00367366
internal_weight=289 153 136 124 122 86 63 44 33 29 63 42 21 32
internal_count=289 153 136 124 122 86 63 44 33 29 63 42 21 32
cat_boundaries=0 1
cat_threshold=1
is_linear=0
shrinkage=0.03


Tree=5
num_leaves=15
num_cat=1
split_feature=0 2 5 5 5 5 2 5 2 5 2 7 2 5
split_gain=38.462 16.303 7.72729 13.0105 3.41811 5.35345 3.79307 3.17577 4.12256 3.44446 2.90808 2.05171 1.52102 1.50016
threshold=0 7.7315214677380846 7.5000000000000009 1.5000000000000002 11.500000000000002 6.5000000000000009 7.5497893265983054 4.5000000000000009 11.915442854498913 3.5000000000000004 10.756523426482445 1.0000000180025095e-35 12.253004013770777 3.5000000000000004
decision_type=1 2 2 2 2 2 2 2 2 2 2 2 2 2
left_child=4 -2 3 12 5 6 -1 8 9 -5 -8 -4 -3 -12
right_child=1 2 11 7 -6 -7 10 -9 -10 -11 13 -13 -14 -15
leaf_value=0.0044865213281341954 -0.020341480019000859 0.022734047865065238 0.032058722607022069 0.01345140238602956 -0.020978866838242696 0.012656743615865707 -0.01561690111290401 0.013477800218878608 -0.01466097925390516 -0.0068139805343861749 -0.00056458601809066282 0.01714813210356694 0.038296617865562439 -0.013649438042193651
leaf_weight=13.999999999999998 12.999999999999998 13.000000000000002 23 18 23 9.9999999999999982 71 19 13.999999999999998 13.000000000000002 23 12.999999999999998 9.9999999999999982 11.999999999999998
leaf_count=14 13 13 23 18 23 10 71 19 14 13 23 13 10 12
internal_value=-9.65321e-11 0.0116082 0.014985 0.010148 -0.0103184 -0.00843231 -0.0101897 0.00319325 -0.00114912 0.00495302 -0.0121281 0.0266743 0.0295004 -0.00505082
internal_weight=289 136 123 87 153 130 120 64 45 31 106 36 23 35
internal_count=289 136 123 87 153 130 120 64 45 31 106 36 23 35
cat_boundaries=0 1
cat_threshold=1
is_linear=0
shrinkage=0.03


Tree=6
num_leaves=15
num_cat=2
split_feature=3 0 6 2 3 3 2 2 3 6 2 2 0 3
split_gain=36.9229 21.1261 26.8504 8.98493 7.2736 7.854 5.74576 4.92572 7.89882 6.79621 5.29 5.86798 5.09827 5.5468
threshold=4.1986573397942193 0 83.500000000000014 10.537824887377601 6.5322823440947024 5.4875625823042649 12.489856199414055 6.3065585334332077 3.3014508115942092 790.50000000000011 9.0414609864117157 7.5497893265983054 1 3.7244920967472903
decision_type=2 1 2 2 2 2 2 2 2 2 2 2 1 2
left_child=7 2 -2 -3 5 -4 -5 -1 9 10 11 -9 13 -10
right_child=1 3 4 6 -6 -7 -8 8 12 -11 -12 -13 -14 -15
leaf_value=-0.030328140195745687 0.021900841400027272 0.03489192125810818 -0.021540823727846145 0.0050867029687819577 -0.036667718887329101 0.0068817016184329989 0.021589919642822163 0.014319319806315683 -0.034857584685087199 -0.023261142112314701 0.020231933099302376 -0.012321325057874555 -0.0036757747356135108 -0.010140708312392234
leaf_weight=12.999999999999998 25 22 21 39 11.999999999999998 14.999999999999998 37 10.999999999999998 22 11.999999999999998 10.999999999999998 23 12.999999999999998 12.999999999999998
leaf_count=13 25 22 21 39 12 15 37 11 22 12 11 23 13 13
internal_value=-7.04776e-11 0.00890765 -0.00330991 0.0180085 -0.0164405 -0.0096981 0.0131212 -0.0129085 -0.0107518 -0.00320106 0.0021483 -0.00370229 -0.0197184 -0.025677
internal_weight=289 171 73 98 48 36 76 118 105 57 45 34 48 35
internal_count=289 171 73 98 48 36 76 118 105 57 45 34 48 35
cat_boundaries=0 1 2
cat_threshold=1 1
is_linear=0
shrinkage=0.03


Tree=7
num_leaves=15
num_cat=0
split_feature=3 6 5 7 3 5 3 6 6 3 6 6 3 6
split_gain=34.7407 14.8657 11.2314 11.3871 8.05405 7.68005 5.69594 5.634 4.72089 8.72575 5.12855 5.15548 6.68845 4.44754
threshold=4.1986573397942193 6.5000000000000009 7.5000000000000009 1.0000000180025095e-35 7.9243449068693481 11.500000000000002 6.8629009435161521 83.500000000000014 339.50000000000006 0.6343924429268345 364.50000000000006 790.50000000000011 3.2622349976900593 355.00000000000006
decision_type=2 2 2 2 2 2 2 2 2 2 2 2 2 2
left_child=8 -2 3 4 6 -4 7 -3 -1 -10 -11 12 -12 -7
right_child=1 2 5 -5 -6 13 -8 -9 9 10 11 -13 -14 -15
leaf_value=0.00076153139770030972 0.040838007926940915 0.014648894644700563 0.038678710231414212 0.023382309737304846 0.015594186012943585 0.020799785512773422 -0.024785892868844361 -0.0073110446496443314 -0.040407250171357934 -0.032260749131441113 0.0055640107659356937 -0.022986833782572495 -0.014823231854476034 -0.0030544189736247062
leaf_weight=20 11.999999999999998 12.999999999999998 12.999999999999998 18 18 17.000000000000004 12.999999999999998 55 10.999999999999998 9.9999999999999982 28 19 30 11.999999999999998
leaf_count=20 12 13 13 18 18 17 13 55 11 10 28 19 30 12
internal_value=1.16689e-10 0.00864042 0.00621041 0.00143323 -0.00255751 0.0195183 -0.00659122 -0.00311282 -0.0125213 -0.0152321 -0.012049 -0.00942408 -0.00498111 0.0109291
internal_weight=289 171 159 117 99 42 81 68 118 98 87 77 58 29
internal_count=289 171 159 117 99 42 81 68 118 98 87 77 58 29
is_linear=0
shrinkage=0.03


Tree=8
num_leaves=15
num_cat=1
split_feature=0 3 3 5 5 2 3 2 2 5 3 3 3 3
split_gain=32.9937 21.143 14.0749 6.47186 10.5823 4.9774 19.1267 5.00927 6.7641 5.29283 3.75077 6.01092 3.54397 3.42807
threshold=0 2.5425050714339776 8.3956508968715706 7.5000000000000009 1.5000000000000002 11.963899012821242 5.8149343560092444 9.2026939371726098 9.6049034461322389 2.5000000000000004 4.6878576389495468 4.0676051819398245 4.9733195598386937 6.5322823440947024
decision_type=1 2 2 2 2 2 2 2 2 2 2 2 2 2
left_child=2 -2 5 4 -3 6 7 9 -9 -1 11 -6 -5 -12
right_child=1 3 -4 12 10 -7 -8 8 -10 -11 13 -13 -14 -15
leaf_value=0.0081604755776269102 -0.024166720139661004 0.027704694737558776 0.024851716294884679 0.010260393027216196 -0.0011009679391281674 -0.027731687582563606 0.020688456762582064 -0.038590939215251377 -0.014713813255230584 -0.013417516603673758 -0.010854460977410016 0.029601178562099283 0.031275477003879275 0.0067324472538062502
leaf_weight=13.999999999999998 13.999999999999998 23 9.9999999999999982 9.9999999999999982 12.000000000000002 15.999999999999998 15.999999999999998 13.999999999999998 45 38 19 10.999999999999998 26 21
leaf_count=14 14 23 10 10 12 16 16 14 45 38 19 11 26 21
internal_value=-1.26188e-10 0.0107514 -0.00955679 0.0147584 0.0102879 -0.011963 -0.00997637 -0.0143965 -0.0203796 -0.00760806 0.00392933 0.0135827 0.025438 -0.00162133
internal_weight=289 136 153 122 86 143 127 111 59 52 63 23 36 40
internal_count=289 136 153 122 86 143 127 111 59 52 63 23 36 40
cat_boundaries=0 1
cat_threshold=1
is_linear=0
shrinkage=0.03


Tree=9
num_leaves=15
num_cat=0
split_feature=3 6 2 7 5 2 6 6 6 6 6 3 2 3
split_gain=30.8947 13.7282 10.655 12.3042 9.2115 9.18962 6.33049 10.1832 6.6779 6.18627 5.84358 4.65232 4.35335 7.27058
threshold=4.1986573397942193 6.5000000000000009 13.665684921794645 1.0000000180025095e-35 7.5000000000000009 10.793452247274908 83.500000000000014 121.00000000000001 364.50000000000006 26.500000000000004 730.50000000000011 5.2772010699014551 6.3065585334332077 3.3014508115942092
decision_type=2 2 2 2 2 2 2 2 2 2 2 2 2 2
left_child=12 -2 3 4 6 -6 9 -8 -9 -3 11 -10 -1 -14
right_child=1 2 -4 -5 5 -7 7 8 10 -11 -12 -13 13 -15
leaf_value=-0.028184124131042224 0.039089375063776965 -0.010590715807947241 0.024697372757870217 0.023735493527991432 0.035550553094256997 -0.0024112700298428535 -0.03686311227354136 0.0097249505172173189 -0.031899301516158232 0.018634732738137243 0.0068347516693174843 -0.0064434336870908731 -0.0025360547757928109 -0.018382882947335019
leaf_weight=12.999999999999998 11.999999999999998 11.000000000000002 23 21 11.000000000000002 11.999999999999998 10.999999999999998 18 14.000000000000002 15.999999999999998 9.9999999999999982 11.999999999999998 57 48
leaf_count=13 12 11 23 21 11 12 11 18 14 16 10 12 57 48
internal_value=-6.91604e-11 0.00814811 0.00581292 0.00261923 -0.00123679 0.0157444 -0.00548208 -0.010554 -0.00519472 0.00672807 -0.0126546 -0.0201504 -0.0118079 -0.00978032
internal_weight=289 171 159 136 115 23 92 65 54 27 36 26 118 105
internal_count=289 171 159 136 115 23 92 65 54 27 36 26 118 105
is_linear=0
shrinkage=0.03


Tree=10
num_leaves=15
num_cat=0
split_feature=3 6 2 7 2 6 2 3 6 2 6 3 3 6
split_gain=29.0688 12.9169 10.0253 11.577 8.444 4.3527 11.8089 5.27149 5.71984 5.19375 4.38849 4.22232 4.17891 4.1576
threshold=4.1986573397942193 6.5000000000000009 13.665684921794645 1.0000000180025095e-35 10.921706591676719 339.50000000000006 6.8615189042322591 3.3014508115942092 790.50000000000011 9.0414609864117157 365.50000000000006 2.6395217471946775 1.9540856875798778 134.00000000000003
decision_type=2 2 2 2 2 2 2 2 2 2 2 2 2 2
left_child=5 -2 3 4 -3 11 -7 8 9 12 -9 -1 -8 -6
right_child=1 2 -4 -5 13 6 7 10 -10 -11 -12 -13 -14 -15
leaf_value=0.015084926996380085 0.037916694730520242 0.0079068123330088228 0.023956451234610182 0.023023429832288198 -0.021700239032506941 -0.041935191508382555 0.0071787412464618654 -0.028578295982197709 -0.021047072643414141 0.019999017556282608 -0.0086797036390219417 -0.012483496651053428 -0.018420646224297923 -0.0040418130531907079
leaf_weight=10.000000000000002 11.999999999999998 51 23 21 15.999999999999998 11.999999999999998 12.000000000000002 19 11.999999999999998 10.999999999999998 21 9.9999999999999982 10.999999999999998 48
leaf_count=10 12 51 23 21 16 12 12 19 12 11 21 10 11 48
internal_value=1.13185e-10 0.00790367 0.00563853 0.00254065 -0.00119968 -0.0114536 -0.0140565 -0.0101665 -0.00324039 0.00304432 -0.0181315 0.00130072 -0.00506444 -0.00845642
internal_weight=289 171 159 136 115 118 98 86 46 34 40 20 23 64
internal_count=289 171 159 136 115 118 98 86 46 34 40 20 23 64
is_linear=0
shrinkage=0.03


Tree=11
num_leaves=15
num_cat=0
split_feature=3 6 2 7 2 6 2 6 2 3 2 2 2 6
split_gain=27.3508 12.1535 9.43277 10.8928 7.94495 4.09546 11.111 5.09953 5.34376 3.97278 3.94978 4.24997 7.77836 3.91189
threshold=4.1986573397942193 6.5000000000000009 13.665684921794645 1.0000000180025095e-35 10.921706591676719 339.50000000000006 6.8615189042322591 364.50000000000006 9.2026939371726098 2.6395217471946775 10.617213310524951 10.209747860766049 9.2026939371726098 134.00000000000003
decision_type=2 2 2 2 2 2 2 2 2 2 2 2 2 2
left_child=5 -2 3 4 10 9 -7 -8 -9 -1 11 12 -3 -6
right_child=1 2 -4 -5 13 6 7 8 -10 -11 -12 -13 -14 -15
leaf_value=0.014632379539310927 0.036779193505644799 -0.0081920349801128528 0.023237758227016615 0.02233272652540888 -0.021049232427030801 -0.040677135400474067 -0.030000790508463979 0.0023727644499271145 -0.013814166901012261 -0.012108992546796798 0.020603467278182505 -0.011430064307955595 0.026733432784676551 -0.003920558486133814
leaf_weight=10.000000000000002 11.999999999999998 11.000000000000002 23 21 15.999999999999998 11.999999999999998 9.9999999999999982 31 45 9.9999999999999982 14.999999999999998 12.999999999999998 11.999999999999998 48
leaf_count=10 12 11 23 21 16 12 10 31 45 10 15 13 12 48
internal_value=4.83385e-12 0.00766656 0.00546938 0.00246443 -0.00116369 -0.01111 -0.0136349 -0.00986151 -0.0072116 0.00126169 0.00766961 0.0022805 0.0100299 -0.00820273
internal_weight=289 171 159 136 115 118 98 86 76 20 51 36 23 64
internal_count=289 171 159 136 115 118 98 86 76 20 51 36 23 64
is_linear=0
shrinkage=0.03


Tree=12
num_leaves=15
num_cat=1
split_feature=0 6 3 6 6 6 6 5 5 3 6 6 6 3
split_gain=28.4463 25.6566 17.759 9.79194 5.93715 13.1702 10.054 5.35206 9.47622 5.02307 4.83884 5.70384 3.68935 3.2037
threshold=0 69.500000000000014 2.5425050714339776 373.50000000000006 790.50000000000011 730.50000000000011 633.50000000000011 7.5000000000000009 1.5000000000000002 6.1602797377244407 134.00000000000003 306.50000000000006 51.000000000000007 4.6878576389495468
decision_type=1 2 2 2 2 2 2 2 2 2 2 2 2 2
left_child=1 9 -2 -3 5 6 -5 8 -4 -1 12 -12 -10 -13
right_child=2 3 7 4 -6 -7 -8 -9 10 -11 11 13 -14 -15
leaf_value=0.0016685947403311725 -0.022018999680876731 -0.023382261792411568 0.026071434228316596 0.010595242982873549 -0.020534290877710047 0.027960862143134528 -0.023293921798467634 0.023367177865778407 0.0050029588937759379 0.027019277017782714 0.02922873383760452 0.012764040333568118 -0.020174359706315127 -0.0062205997947603463
leaf_weight=12.000000000000002 13.999999999999998 61 23 12.999999999999998 19 10.999999999999998 20 36 10.000000000000002 17 9.9999999999999982 15.999999999999998 10.999999999999998 15.999999999999998
leaf_count=12 14 61 23 13 19 11 20 36 10 17 10 16 11 16
internal_value=-1.01704e-10 -0.00887379 0.00998301 -0.0148148 -0.0065194 -0.000467518 -0.00994364 0.0136554 0.00958997 0.0165293 0.00357292 0.00945196 -0.00818516 0.00327172
internal_weight=289 153 136 124 63 44 33 122 86 29 63 42 21 32
internal_count=289 153 136 124 63 44 33 122 86 29 63 42 21 32
cat_boundaries=0 1
cat_threshold=1
is_linear=0
shrinkage=0.03


Tree=13
num_leaves=15
num_cat=0
split_feature=3 3 5 5 6 5 6 3 5 6 6 3 6 6
split_gain=24.4669 11.3661 6.98898 9.11278 5.91589 17.6918 11.5843 5.86345 4.65651 5.5868 3.79992 6.77217 4.3023 4.30453
threshold=4.1986573397942193 8.7636121872046555 7.5000000000000009 11.500000000000002 83.500000000000014 3.5000000000000004 134.00000000000003 4.4943263105851106 2.5000000000000004 365.50000000000006 339.50000000000006 0.6343924429268345 364.50000000000006 790.50000000000011
decision_type=2 2 2 2 2 2 2 2 2 2 2 2 2 2
left_child=10 2 4 -4 5 -2 -6 -8 9 -9 -1 -12 -13 -14
right_child=1 -3 3 -5 6 -7 7 8 -10 -11 11 12 13 -15
leaf_value=0.0014089917205274104 0.028071316287852817 0.026392854675650595 0.038366812738505271 0.0056002025619149211 -0.027612178951501847 -0.020799928285181523 0.021588878794149918 -0.0057981693630035089 -0.01008513363378663 0.023251444954763757 -0.03511867948553779 -0.028647987054660914 -0.0036718581565495195 -0.020124621286890222
leaf_weight=20 20.000000000000004 24 10.999999999999998 25 14.999999999999998 9.9999999999999982 10.999999999999998 13.000000000000002 31 10.999999999999998 10.999999999999998 9.9999999999999982 58 19
leaf_count=20 20 24 11 25 15 10 11 13 31 11 11 10 58 19
internal_value=1.34381e-11 0.00725112 0.00412594 0.0156122 0.000400654 0.0117809 -0.00381425 0.00159437 -0.00240454 0.00751624 -0.010508 -0.01294 -0.0101358 -0.00773163
internal_weight=289 171 147 36 111 30 81 66 55 24 118 98 87 77
internal_count=289 171 147 36 111 30 81 66 55 24 118 98 87 77
is_linear=0
shrinkage=0.03


Tree=14
num_leaves=15
num_cat=1
split_feature=0 6 6 6 6 6 6 6 5 5 6 6 6 7
split_gain=26.1418 23.1414 9.60717 9.1982 7.95947 5.29649 12.545 9.29067 4.50024 7.42319 5.8311 4.43909 3.30766 3.01303
threshold=0 69.500000000000014 489.50000000000006 373.50000000000006 763.00000000000011 790.50000000000011 730.50000000000011 633.50000000000011 6.5000000000000009 1.5000000000000002 134.00000000000003 339.50000000000006 51.000000000000007 1.0000000180025095e-35
decision_type=1 2 2 2 2 2 2 2 2 2 2 2 2 2
left_child=1 -1 8 -3 -4 6 7 -5 9 -2 12 -12 -11 -10
right_child=2 3 4 5 -6 -7 -8 -9 13 10 11 -13 -14 -15
leaf_value=0.015619085668746768 0.026050924776416077 -0.022452699328299429 -0.017825348153710365 0.010102330320156536 0.010387176455308993 -0.019346226700826693 0.027352317324416203 -0.022474962819367644 0.031281793972379283 0.0044707141220569589 0.025762208482393845 0.0021609354513930155 -0.019368654191493986 0.012080230116844172
leaf_weight=29 19 61 18 12.999999999999998 18 19 10.999999999999998 20 19 10.000000000000002 13.000000000000002 15.999999999999998 10.999999999999998 12.000000000000002
leaf_count=29 19 61 18 13 18 19 11 20 19 10 13 16 11 12
internal_value=-1.36315e-11 -0.00850675 0.0095701 -0.0141491 -0.00371909 -0.00610908 -0.000393033 -0.00964148 0.0143542 0.0100885 0.00402271 0.0127408 -0.00801657 0.0238489
internal_weight=289 153 136 124 36 63 44 33 100 69 50 29 21 31
internal_count=289 153 136 124 36 63 44 33 100 69 50 29 21 31
cat_boundaries=0 1
cat_threshold=1
is_linear=0
shrinkage=0.03


Tree=15
num_leaves=15
num_cat=1
split_feature=0 6 3 6 6 6 6 3 5 5 6 6 2 2
split_gain=24.5968 21.7738 15.8354 8.65459 4.98347 11.8036 8.74159 4.53035 4.47749 8.1749 4.4059 5.01253 3.99948 3.6173
threshold=0 69.500000000000014 2.5425050714339776 373.50000000000006 790.50000000000011 730.50000000000011 633.50000000000011 6.1602797377244407 7.5000000000000009 1.5000000000000002 134.00000000000003 306.50000000000006 11.915442854498913 9.2290131440358625
decision_type=1 2 2 2 2 2 2 2 2 2 2 2 2 2
left_child=1 7 -2 13 5 6 -5 -1 9 -4 -11 -12 -13 -3
right_child=2 3 8 4 -6 -7 -8 -9 -10 10 11 12 -14 -15
leaf_value=0.0010374220833182333 -0.020936149273599897 -0.012708350832108408 0.024340358745792635 0.0097992594081621909 -0.018765839808865595 0.026531747423789716 -0.02180071416310966 0.025112695541671094 0.021633704976799586 -0.0077760769107512069 0.027593131452798843 0.010410435036121105 -0.012471184238791464 -0.027662858642839096
leaf_weight=12.000000000000002 13.999999999999998 24 23 12.999999999999998 19 10.999999999999998 20 17 36 21 9.9999999999999982 22 9.9999999999999982 37
leaf_count=12 14 24 23 13 19 11 20 17 36 21 10 22 10 37
internal_value=7.64232e-11 -0.00825155 0.00928299 -0.0137246 -0.0059258 -0.000381243 -0.00935224 0.0151505 0.0127508 0.00903232 0.00344367 0.00905355 0.00325993 -0.0217791
internal_weight=289 153 136 124 63 44 33 29 122 86 63 42 32 61
internal_count=289 153 136 124 63 44 33 29 122 86 63 42 32 61
cat_boundaries=0 1
cat_threshold=1
is_linear=0
shrinkage=0.03


Tree=16
num_leaves=15
num_cat=1
split_feature=0 6 2 6 6 2 6 6 6 2 2 2 6 2
split_gain=23.1431 20.4869 9.94798 8.1431 4.93008 6.98543 4.68894 11.106 8.22496 4.27804 3.67757 6.13699 3.78667 3.40352
threshold=0 69.500000000000014 7.7315214677380846 373.50000000000006 489.50000000000006 10.868178957772248 790.50000000000011 730.50000000000011 633.50000000000011 9.3942138106475408 10.537824887377601 12.253004013770777 126.50000000000001 9.2290131440358625
decision_type=1 2 2 2 2 2 2 2 2 2 2 2 2 2
left_child=1 9 -2 13 10 -6 7 8 -5 -1 -4 12 -12 -3
right_child=2 3 4 6 5 -7 -8 -9 -10 -11 11 -13 -14 -15
leaf_value=0.00098153593018650981 -0.01595293907018808 -0.012327100511756724 0.022373166222670604 0.0095052821475725916 -0.019209216345101594 0.010824623030164968 -0.018202864876703213 0.025735795254057104 -0.02114669285248965 0.024376793160267609 -0.011832936598131286 0.02001223392267194 0.011536995880305767 -0.026832973465726179
leaf_weight=12.000000000000002 12.999999999999998 24 38 12.999999999999998 9.9999999999999982 23 19 10.999999999999998 20 17 13.000000000000002 27 11.999999999999998 37
leaf_count=12 13 24 38 13 10 23 19 11 20 17 13 27 12 37
internal_value=-8.34927e-11 -0.008004 0.0090045 -0.0133129 0.0116423 0.00172346 -0.00574803 -0.000369805 -0.00907167 0.014696 0.0152792 0.0100951 -0.000615369 -0.0211257
internal_weight=289 153 136 124 123 33 63 44 33 29 90 52 25 61
internal_count=289 153 136 124 123 33 63 44 33 29 90 52 25 61
cat_boundaries=0 1
cat_threshold=1
is_linear=0
shrinkage=0.03


Tree=17
num_leaves=15
num_cat=0
split_feature=3 6 5 7 5 3 3 6 3 3 6 3 5 3
split_gain=20.2862 10.1598 7.26947 7.65845 6.12786 5.37152 5.50725 3.83854 3.60403 5.8036 7.81546 7.23961 4.36742 3.49991
threshold=4.1986573397942193 6.5000000000000009 7.5000000000000009 1.0000000180025095e-35 11.500000000000002 7.9243449068693481 6.8629009435161521 83.500000000000014 3.3014508115942092 3.0010040915414078 355.00000000000006 0.6343924429268345 2.5000000000000004 3.7244920967472903
decision_type=2 2 2 2 2 2 2 2 2 2 2 2 2 2
left_child=8 -2 3 5 -4 6 7 -3 9 10 -1 -12 -13 -10
right_child=1 2 4 -5 -6 -7 -8 -9 13 -11 11 12 -14 -15
leaf_value=0.012405417619738728 0.03322054699063301 0.012264609210766279 0.032415135641080825 0.018750713548312582 0.0076278179337206332 0.012301381931950649 -0.023707318947865413 -0.0058615581484680827 -0.024000460362294689 0.013764207316562534 -0.037361854344606399 0.0062695710174739362 -0.015896505864802749 -0.0077988104522228241
leaf_weight=11.999999999999998 11.999999999999998 12.999999999999998 12.999999999999998 18 29 18 12.999999999999998 55 24 11.999999999999998 9.9999999999999982 11.999999999999998 24 24
leaf_count=12 12 13 13 18 29 18 13 55 24 12 10 12 24 24
internal_value=3.07675e-11 0.00660261 0.00459371 0.0007504 0.0153001 -0.00252238 -0.00581655 -0.00239626 -0.00956819 -0.00522663 -0.00915577 -0.0147804 -0.00850781 -0.0158996
internal_weight=289 171 159 117 42 99 81 68 118 70 58 46 36 48
internal_count=289 171 159 117 42 99 81 68 118 70 58 46 36 48
is_linear=0
shrinkage=0.03


Tree=18
num_leaves=15
num_cat=1
split_feature=0 6 3 6 6 6 6 3 5 5 6 6 2 2
split_gain=21.0379 18.4784 13.5978 7.68721 4.39743 10.5453 7.52493 3.99229 3.9353 7.40455 4.14025 4.63094 3.80027 3.17091
threshold=0 69.500000000000014 2.5425050714339776 373.50000000000006 790.50000000000011 730.50000000000011 633.50000000000011 6.1602797377244407 7.5000000000000009 1.5000000000000002 134.00000000000003 306.50000000000006 11.915442854498913 9.2290131440358625
decision_type=1 2 2 2 2 2 2 2 2 2 2 2 2 2
left_child=1 7 -2 13 5 6 -5 -1 9 -4 -11 -12 -13 -3
right_child=2 3 8 4 -6 -7 -8 -9 -10 10 11 12 -14 -15
leaf_value=0.00067879237234592406 -0.019417620232062678 -0.011771566492679995 0.022881510282016317 0.0091746596705455045 -0.017384624583156483 0.025323284776373342 -0.020143904859200121 0.023279190725263427 0.020126383528889468 -0.0078824905040008678 0.026251824170351028 0.0098333092931319373 -0.012471176639199257 -0.025772965805655395
leaf_weight=12.000000000000002 13.999999999999998 24 23 12.999999999999998 19 10.999999999999998 20 17 36 21 9.9999999999999982 22 9.9999999999999982 37
leaf_count=12 14 24 23 13 19 11 20 17 36 21 10 22 10 37
internal_value=1.24955e-11 -0.00763127 0.00858518 -0.0126732 -0.00532316 -0.000114804 -0.00859417 0.0139273 0.0117986 0.00831258 0.00299376 0.00843189 0.00286316 -0.0202642
internal_weight=289 153 136 124 63 44 33 29 122 86 63 42 32 61
internal_count=289 153 136 124 63 44 33 29 122 86 63 42 32 61
cat_boundaries=0 1
cat_threshold=1
is_linear=0
shrinkage=0.03


Tree=19
num_leaves=15
num_cat=1
split_feature=0 6 2 6 6 2 6 6 6 2 2 2 6 2
split_gain=19.7945 17.3864 8.54567 7.2329 4.35735 6.3243 4.13754 9.92205 7.0802 3.77085 3.42821 5.49747 3.39455 2.98351
threshold=0 69.500000000000014 7.7315214677380846 373.50000000000006 489.50000000000006 10.868178957772248 790.50000000000011 730.50000000000011 633.50000000000011 9.3942138106475408 10.537824887377601 12.253004013770777 126.50000000000001 9.2290131440358625
decision_type=1 2 2 2 2 2 2 2 2 2 2 2 2 2
left_child=1 9 -2 13 10 -6 7 8 -5 -1 -4 12 -12 -3
right_child=2 3 4 6 5 -7 -8 -9 -10 -11 11 -13 -14 -15
leaf_value=0.00063363902270793891 -0.014803980416976488 -0.011418419777182862 0.021040822341547985 0.0088994199782609935 -0.018469951299950479 0.01010730158375657 -0.016863086145175132 0.024563585546883669 -0.019539587621111423 0.022598313544602951 -0.011571648519199625 0.018572519645094869 0.010555231720209121 -0.024999777099740612
leaf_weight=12.000000000000002 12.999999999999998 24 38 12.999999999999998 9.9999999999999982 23 19 10.999999999999998 20 17 13.000000000000002 27 11.999999999999998 37
leaf_count=12 13 24 38 13 10 23 19 11 20 17 13 27 12 37
internal_value=-3.44775e-11 -0.00740234 0.00832763 -0.012293 0.0107724 0.00144753 -0.00516347 -0.00011136 -0.00833634 0.0135095 0.0141916 0.00918633 -0.000950746 -0.0196563
internal_weight=289 153 136 124 123 33 63 44 33 29 90 52 25 61
internal_count=289 153 136 124 123 33 63 44 33 29 90 52 25 61
cat_boundaries=0 1
cat_threshold=1
is_linear=0
shrinkage=0.03


Tree=20
num_leaves=15
num_cat=1
split_feature=0 6 6 6 6 6 6 6 5 5 6 6 6 7
split_gain=18.6247 16.3588 7.68708 6.80543 6.77292 3.89301 9.33566 6.66176 3.37184 5.77533 4.9143 3.7018 3.0189 2.77417
threshold=0 69.500000000000014 489.50000000000006 373.50000000000006 763.00000000000011 790.50000000000011 730.50000000000011 633.50000000000011 6.5000000000000009 1.5000000000000002 134.00000000000003 339.50000000000006 51.000000000000007 1.0000000180025095e-35
decision_type=1 2 2 2 2 2 2 2 2 2 2 2 2 2
left_child=1 -1 8 -3 -4 6 7 -5 9 -2 12 -12 -11 -10
right_child=2 3 4 5 -6 -7 -8 -9 13 10 11 -13 -14 -15
leaf_value=0.013104198228182463 0.022744486016270361 -0.019066603442379197 -0.016821856320990869 0.0086324375008161244 0.0092029688507318484 -0.016357193361771733 0.023826678652654993 -0.018953399936668572 0.027707963442724002 0.0041918815970420822 0.023208916955269294 0.0016565588861703871 -0.018583142174915836 0.0092832428519613996
leaf_weight=29 19 61 18 12.999999999999998 18 19 10.999999999999998 20 19 10.000000000000002 13.000000000000002 15.999999999999998 10.999999999999998 12.000000000000002
leaf_count=29 19 61 18 13 18 19 11 20 19 10 13 16 11 12
internal_value=4.44231e-11 -0.00718027 0.0080778 -0.0119242 -0.00380944 -0.00500856 -0.000108019 -0.00808625 0.0123572 0.00866479 0.0033145 0.011318 -0.00773789 0.0205758
internal_weight=289 153 136 124 36 63 44 33 100 69 50 29 21 31
internal_count=289 153 136 124 36 63 44 33 100 69 50 29 21 31
cat_boundaries=0 1
cat_threshold=1
is_linear=0
shrinkage=0.03


Tree=21
num_leaves=15
num_cat=0
split_feature=3 6 2 2 5 3 2 2 3 3 3 3 5 2
split_gain=16.8527 8.8608 6.2983 5.1815 6.56873 3.46902 5.76062 4.44531 5.69456 2.95396 3.33233 2.7121 11.4203 6.49107
threshold=4.1986573397942193 6.5000000000000009 13.665684921794645 11.022174988429493 5.5000000000000009 3.3014508115942092 6.3065585334332077 7.5497893265983054 3.0010040915414078 3.7244920967472903 3.4672462392054633 5.9290149922772786 5.5000000000000009 12.253004013770777
decision_type=2 2 2 2 2 2 2 2 2 2 2 2 2 2
left_child=5 -2 3 4 -3 6 -1 -8 -9 10 -7 12 -5 -13
right_child=1 2 -4 11 -6 9 7 8 -10 -11 -12 13 -14 -15
leaf_value=-0.022482238996487394 0.030876051038503646 0.0016241545155009423 0.018660995965499593 0.017857728699843086 0.022731284295257771 -0.011196244768798347 0.016780867386947979 -0.010719178667812444 0.013318919707089663 -0.0074904616596177219 -0.033553573861718179 -0.022269332831104594 -0.022127753399312496 0.00098841547966003421
leaf_weight=12.999999999999998 11.999999999999998 44 23 18.000000000000004 19 12.000000000000002 10.999999999999998 34 11.999999999999998 24 11.999999999999998 18 9.9999999999999982 27
leaf_count=13 12 44 23 18 19 12 11 34 12 24 12 18 10 27
internal_value=7.6955e-11 0.00601797 0.00414189 0.00168646 0.0079898 -0.00872096 -0.00446149 -0.0003515 -0.00444837 -0.0149327 -0.0223749 -0.00375341 0.0035772 -0.00831468
internal_weight=289 171 159 136 63 118 70 57 46 48 24 73 28 45
internal_count=289 171 159 136 63 118 70 57 46 48 24 73 28 45
is_linear=0
shrinkage=0.03


Tree=22
num_leaves=15
num_cat=1
split_feature=0 6 3 6 3 6 6 6 6 3 6 2 6 3
split_gain=17.0037 15.0595 11.5457 6.9833 3.73519 3.19963 3.56016 8.79109 6.11327 2.99772 2.92472 8.46197 5.67653 2.90642
threshold=0 83.500000000000014 2.5425050714339776 179.50000000000003 6.1602797377244407 373.50000000000006 790.50000000000011 730.50000000000011 633.50000000000011 8.7636121872046555 126.50000000000001 10.537824887377601 306.50000000000006 4.4718343265894953
decision_type=1 2 2 2 2 2 2 2 2 2 2 2 2 2
left_child=1 4 -2 -3 -1 13 7 8 -7 10 11 -4 -12 -5
right_child=2 3 9 5 -6 6 -8 -9 -10 -11 12 -13 -14 -15
leaf_value=0.0003357192032438303 -0.01808513167048139 -0.032388337323298821 0.015761430189013482 -0.020129376398253952 0.021260931916973168 0.0082256391529853534 -0.015586966727125015 0.023178178586743096 -0.018200165178626777 0.02323915050178766 0.027487000599503517 -0.014223303887411019 0.0076942722921791874 -0.0037408318902765001
leaf_weight=14.000000000000002 13.999999999999998 12.999999999999998 18 32 17 12.999999999999998 19 10.999999999999998 20 14.999999999999998 17 15.999999999999998 56 13.999999999999998
leaf_count=14 14 13 18 32 17 13 19 11 20 15 17 16 56 14
internal_value=-3.12267e-11 -0.0068607 0.00771828 -0.0116051 0.0118108 -0.00912637 -0.00473432 -4.79552e-05 -0.00779 0.0106793 0.00891861 0.00165097 0.0123035 -0.0151416
internal_weight=289 153 136 122 31 109 63 44 33 122 107 34 73 46
internal_count=289 153 136 122 31 109 63 44 33 122 107 34 73 46
cat_boundaries=0 1
cat_threshold=1
is_linear=0
shrinkage=0.03


Tree=23
num_leaves=15
num_cat=1
split_feature=0 6 3 6 2 3 6 6 6 6 3 2 6 2
split_gain=15.9988 14.1695 10.9062 6.57058 3.53751 3.03315 3.01053 3.34976 8.27154 5.75197 2.73465 9.33002 2.34897 7.96187
threshold=0 83.500000000000014 1.9540856875798778 179.50000000000003 9.3942138106475408 8.7636121872046555 373.50000000000006 790.50000000000011 730.50000000000011 633.50000000000011 4.4718343265894953 9.2290131440358625 126.50000000000001 10.537824887377601
decision_type=1 2 2 2 2 2 2 2 2 2 2 2 2 2
left_child=1 4 -2 -3 -1 12 10 8 9 -8 11 -5 13 -4
right_child=2 3 5 6 -6 -7 7 -9 -10 -11 -12 -13 -14 -15
leaf_value=0.00028917358589491667 -0.022669335365295407 -0.031416687988317933 0.015288587287068368 -0.0061261820244161705 0.020653140908654995 0.022541976250708102 0.0079788706795527378 -0.015119357757074268 0.022482833659107034 -0.0176541599817574 -0.0036286075945411406 -0.039109106275897754 0.011068971273670722 -0.013796604928211309
leaf_weight=14.000000000000002 9.9999999999999982 12.999999999999998 18 19 17 14.999999999999998 12.999999999999998 19 10.999999999999998 20 13.999999999999998 12.999999999999998 77 15.999999999999998
leaf_count=14 10 13 18 19 17 15 13 19 11 20 14 13 77 16
internal_value=-6.96075e-12 -0.00665488 0.00748674 -0.0112569 0.0114565 0.00988007 -0.00885258 -0.00459229 -4.65161e-05 -0.0075563 -0.0146873 -0.0195255 0.00816901 0.00160144
internal_weight=289 153 136 122 31 126 109 63 44 33 46 32 111 34
internal_count=289 153 136 122 31 126 109 63 44 33 46 32 111 34
cat_boundaries=0 1
cat_threshold=1
is_linear=0
shrinkage=0.03


Tree=24
num_leaves=15
num_cat=1
split_feature=0 6 3 6 5 5 6 6 2 3 5 2 5 6
split_gain=15.0533 13.3321 10.3356 6.18226 3.52618 6.03154 3.46382 3.81853 3.68169 3.33285 3.27377 3.89514 3.65745 4.29327
threshold=0 83.500000000000014 2.5425050714339776 179.50000000000003 1.5000000000000002 7.5000000000000009 134.00000000000003 306.50000000000006 11.915442854498913 6.1602797377244407 2.5000000000000004 9.4828055343948723 7.5000000000000009 715.50000000000011
decision_type=1 2 2 2 2 2 2 2 2 2 2 2 2 2
left_child=1 9 -2 -3 -4 6 -6 -8 -9 -1 11 -5 -12 -14
right_child=2 3 4 10 5 -7 7 8 -10 -11 12 -13 13 -15
leaf_value=0.00027333524942930245 -0.017151682939646501 -0.030474187319095316 0.020645214570281296 0.012040582929666225 -0.0079403427343017283 0.017401120428306362 0.023163443148136141 0.0087857377393679176 -0.01316801020503044 0.020039445622002376 -0.016632235172369024 -0.0088543607986399098 0.012583015104755754 -0.013153934952403816
leaf_weight=14.000000000000002 13.999999999999998 12.999999999999998 23 12.999999999999998 21 36 9.9999999999999982 22 9.9999999999999982 17 51 21 10.000000000000002 13.999999999999998
leaf_count=14 14 13 23 13 21 36 10 22 10 17 51 21 10 14
internal_value=-8.71544e-11 -0.00645523 0.00726213 -0.0109192 0.0100637 0.00760539 0.00200783 0.00698192 0.00192519 0.0111128 -0.008587 -0.000865118 -0.0120876 -0.00243021
internal_weight=289 153 136 122 122 99 63 42 32 31 109 34 75 24
internal_count=289 153 136 122 122 99 63 42 32 31 109 34 75 24
cat_boundaries=0 1
cat_threshold=1
is_linear=0
shrinkage=0.03


Tree=25
num_leaves=15
num_cat=1
split_feature=0 6 6 2 6 6 6 2 2 5 6 2 6 6
split_gain=14.1636 12.5441 6.7453 11.9614 6.02545 3.25143 4.20346 4.93982 7.80439 6.04912 9.32853 3.1569 3.1236 7.79467
threshold=0 83.500000000000014 489.50000000000006 10.868178957772248 373.50000000000006 365.50000000000006 355.00000000000006 10.537824887377601 9.2026939371726098 4.5000000000000009 106.50000000000001 9.3942138106475408 790.50000000000011 730.50000000000011
decision_type=1 2 2 2 2 2 2 2 2 2 2 2 2 2
left_child=1 11 5 -4 -3 6 7 8 -2 10 -9 -1 13 -6
right_child=2 4 3 -5 12 -7 -8 9 -10 -11 -12 -13 -14 -15
leaf_value=0.00022994226543232793 0.0074210063937832317 -0.017481047093110571 -0.027092349916123425 0.0089097467745127886 -0.0070401550804010844 0.025047121929506269 -0.004929141537286341 0.011052035292610524 0.037668055019208363 0.020187290132045746 -0.02635491210222244 0.019467245016027899 -0.014305183107131405 0.022120220661163328
leaf_weight=14.000000000000002 17.000000000000004 59 12.999999999999998 23 33 12.999999999999998 15.999999999999998 15.000000000000002 13.999999999999998 14.999999999999998 9.9999999999999982 17 19 10.999999999999998
leaf_count=14 17 59 13 23 33 13 16 15 14 15 10 17 19 11
internal_value=-1.45982e-11 -0.00626157 0.00704427 -0.00409101 -0.0105917 0.011053 0.00896189 0.0120923 0.021081 0.00512602 -0.00391074 0.0107794 -0.0041397 0.000249939
internal_weight=289 153 136 36 122 100 87 71 31 40 25 31 63 44
internal_count=289 153 136 36 122 100 87 71 31 40 25 31 63 44
cat_boundaries=0 1
cat_threshold=1
is_linear=0
shrinkage=0.03


Tree=26
num_leaves=15
num_cat=1
split_feature=0 3 3 3 3 5 5 2 2 5 3 3 3 5
split_gain=13.3266 9.44136 5.82753 4.73343 10.4963 3.58807 5.51719 3.50921 4.57695 4.28935 2.52119 5.60793 2.52965 2.49905
threshold=0 1.9540856875798778 8.3956508968715706 6.8629009435161521 5.8149343560092444 1.5000000000000002 7.5000000000000009 9.2026939371726098 9.6049034461322389 2.5000000000000004 4.6878576389495468 4.0676051819398245 6.5322823440947024 3.5000000000000004
decision_type=1 2 2 2 2 2 2 2 2 2 2 2 2 2
left_child=2 -2 3 4 7 -3 10 9 -9 -1 11 -7 -12 -11
right_child=1 5 -4 -5 -6 6 -8 8 -10 13 12 -13 -14 -15
leaf_value=0.010693284849902349 -0.021224902242422104 0.0197730077496912 0.016066689189523458 -0.025655763559043407 0.016020271208356408 -0.0031897486494854087 0.015940743031206767 -0.029162491858005523 -0.009667609371244907 -0.021605284787714483 -0.011189904274713051 0.025011432685635306 0.0039176662692001884 -0.004134118451038375
leaf_weight=13.999999999999998 9.9999999999999982 23 9.9999999999999982 11.999999999999998 17 15.000000000000002 37 13.999999999999998 48 9.9999999999999982 19 10.999999999999998 21 28
leaf_count=14 10 23 10 12 17 15 37 14 48 10 19 11 21 28
internal_value=5.36195e-11 0.00683294 -0.00607373 -0.00762201 -0.00597006 0.00905975 0.00666747 -0.00924932 -0.0140697 -0.00350196 0.00146882 0.00874152 -0.00325843 -0.00873179
internal_weight=289 136 153 143 131 126 103 114 62 52 66 26 40 38
internal_count=289 136 153 143 131 126 103 114 62 52 66 26 40 38
cat_boundaries=0 1
cat_threshold=1
is_linear=0
shrinkage=0.03


Tree=27
num_leaves=15
num_cat=1
split_feature=0 3 3 2 3 2 2 5 5 5 2 3 3 5
split_gain=12.539 8.88337 5.48312 4.62429 12.2952 3.44 4.17472 4.03585 3.37602 5.19207 5.58091 4.9624 4.68785 2.35136
threshold=0 1.9540856875798778 8.3956508968715706 11.963899012821242 5.8149343560092444 9.2026939371726098 9.6049034461322389 2.5000000000000004 1.5000000000000002 4.5000000000000009 9.6633788648893333 5.9290149922772786 4.9211515598599069 3.5000000000000004
decision_type=1 2 2 2 2 2 2 2 2 2 2 2 2 2
left_child=2 -2 3 4 5 7 -7 -1 -3 10 -10 -12 -11 -9
right_child=1 8 -4 -5 -6 6 -8 13 9 12 11 -13 -14 -15
leaf_value=0.010372486674625959 -0.020588154941797256 0.019179817434886226 0.015584687858819961 -0.02259244032204151 0.019107535472139715 -0.028287616744637489 -0.0095294275482495621 -0.020957126095891 0.017394853274930608 0.001879152288235238 0.0083297824673354611 -0.015653287237510083 0.019314238599900689 -0.0040100948304279882
leaf_weight=13.999999999999998 9.9999999999999982 23 9.9999999999999982 15.999999999999998 15.999999999999998 13.999999999999998 45 9.9999999999999982 10.999999999999998 23 11.999999999999998 22 35 28
leaf_count=14 10 23 10 16 16 14 45 10 11 23 12 22 35 28
internal_value=-4.93257e-11 0.00662795 -0.00589151 -0.00739335 -0.0054785 -0.00902243 -0.0139805 -0.00339691 0.00878796 0.00646745 -0.00117937 -0.00718867 0.0124003 -0.00846984
internal_weight=289 136 153 143 127 111 59 52 126 103 45 34 58 38
internal_count=289 136 153 143 127 111 59 52 126 103 45 34 58 38
cat_boundaries=0 1
cat_threshold=1
is_linear=0
shrinkage=0.03


Tree=28
num_leaves=15
num_cat=1
split_feature=0 2 5 5 2 5 2 5 5 2 2 2 2 5
split_gain=11.7979 5.66345 3.26074 6.50987 4.06348 2.99366 2.33754 1.78516 3.47887 2.82693 2.74919 3.3817 2.39892 2.72556
threshold=0 7.7315214677380846 1.5000000000000002 4.5000000000000009 11.915442854498913 3.5000000000000004 9.9192048708695939 11.500000000000002 6.5000000000000009 7.5497893265983054 9.122966955842438 9.4828055343948723 10.336712310818674 2.5000000000000004
decision_type=1 2 2 2 2 2 2 2 2 2 2 2 2 2
left_child=7 -2 -3 4 5 -4 -5 8 9 -1 -11 -12 13 -13
right_child=1 2 3 6 -6 -7 -8 -9 -10 10 11 12 -14 -15
leaf_value=0.0069015786869983586 -0.012401873629826764 0.018604422757078125 0.011595658933122952 0.0018838131026579783 -0.015800055659243039 -0.0072971015910689623 0.01644128185813315 -0.013418860249221324 0.012648669809103012 -0.016882415789772166 0.0079407513886690147 -0.027461522608995429 -0.0038204415013466998 -0.0066290099116472099
leaf_weight=13.999999999999998 12.999999999999998 23 18 12.999999999999998 13.999999999999998 13.000000000000002 42 23 9.9999999999999982 22 14.999999999999998 10.000000000000002 46 12.999999999999998
leaf_count=14 13 23 18 13 14 13 42 23 10 22 15 10 46 13
internal_value=3.084e-11 0.00642911 0.00841938 0.00607682 -0.00238536 0.00367289 0.0130004 -0.00571477 -0.00435174 -0.00576844 -0.00744184 -0.0049693 -0.00777584 -0.0156866
internal_weight=289 136 123 100 45 31 55 153 130 120 106 84 69 23
internal_count=289 136 123 100 45 31 55 153 130 120 106 84 69 23
cat_boundaries=0 1
cat_threshold=1
is_linear=0
shrinkage=0.03


Tree=29
num_leaves=15
num_cat=1
split_feature=6 0 2 6 2 5 6 2 6 6 2 6 2 2
split_gain=11.3483 12.4313 6.69755 6.88308 6.21047 5.28264 5.27901 4.73128 4.02083 6.64065 2.85045 2.75904 2.39758 5.90889
threshold=69.500000000000014 0 9.0414609864117157 364.50000000000006 12.328085074052293 3.5000000000000004 373.50000000000006 10.484713625941804 126.50000000000001 250.00000000000003 10.537824887377601 763.00000000000011 9.2290131440358625 10.484713625941804
decision_type=2 1 2 2 2 2 2 2 2 2 2 2 2 2
left_child=4 6 3 -3 5 7 12 -1 -4 -10 11 -8 -2 -14
right_child=1 2 8 -5 -6 -7 10 -9 9 -11 -12 -13 13 -15
leaf_value=0.029454248593403735 -0.0083171075326390568 0.0064687095108357318 -0.0065110478310712741 -0.027092025967484168 0.033553474000655115 -0.0031504696205692279 0.0080581256910227227 0.0027212080393325196 0.028118627458634363 0.0062465309086990979 -0.010932814891521748 -0.0091021390488514528 -0.033495647631147332 -0.0094389755465090278
leaf_weight=13.000000000000002 24 11.000000000000002 13.999999999999998 10.999999999999998 9.9999999999999982 22 24 10.999999999999998 15.999999999999998 57 26 12.999999999999998 17 20
leaf_count=13 24 11 14 11 10 22 24 11 16 57 26 13 17 20
internal_value=-2.40937e-12 -0.00291443 0.00447651 -0.0103117 0.0121261 0.007468 -0.00941131 0.0172016 0.00821604 0.0110404 -0.00332041 0.00202884 -0.0157019 -0.020492
internal_weight=289 233 109 22 56 46 124 24 87 73 63 37 61 37
internal_count=289 233 109 22 56 46 124 24 87 73 63 37 61 37
cat_boundaries=0 1
cat_threshold=1
is_linear=0
shrinkage=0.03


Tree=30
num_leaves=15
num_cat=1
split_feature=3 0 6 3 3 2 5 3 2 6 6 5 6 6
split_gain=10.8534 7.01028 9.27977 6.31561 6.13414 4.84305 4.28325 3.23515 5.28669 3.54101 2.68583 6.33849 9.45712 3.84235
threshold=4.1986573397942193 0 83.500000000000014 6.5322823440947024 5.4875625823042649 10.537824887377601 3.5000000000000004 3.3014508115942092 6.8615189042322591 790.50000000000011 365.50000000000006 4.5000000000000009 106.50000000000001 604.00000000000011
decision_type=2 1 2 2 2 2 2 2 2 2 2 2 2 2
left_child=7 2 6 4 -4 -3 -2 8 -1 -10 11 12 -7 -12
right_child=1 5 3 -5 -6 10 -8 -9 9 -11 13 -13 -14 -15
leaf_value=-0.017442420919371003 0.024543073793443344 0.022467442790088669 -0.014111063884837287 -0.02877589590847492 0.011007460758090018 0.010036046870052813 -0.00031203810125589369 -0.01299730046535842 0.0059791834890933291 -0.012549312226474285 0.028515898145735262 0.017506471350789071 -0.024247838450329642 0.0060882614739239211
leaf_weight=17 13.000000000000002 22 21 11.999999999999998 14.999999999999998 15.000000000000002 11.999999999999998 48 41 11.999999999999998 9.9999999999999982 14.999999999999998 13.999999999999998 22
leaf_count=17 13 22 21 12 15 15 12 48 41 12 10 15 14 22
internal_value=1.02526e-10 0.00482946 -0.00220843 -0.00992773 -0.00364501 0.010072 0.0126126 -0.00699862 -0.00288523 0.00178405 0.0064838 0.00167427 -0.00651479 0.0130969
internal_weight=289 171 73 48 36 98 25 118 70 53 76 44 29 32
internal_count=289 171 73 48 36 98 25 118 70 53 76 44 29 32
cat_boundaries=0 1
cat_threshold=1
is_linear=0
shrinkage=0.03


Tree=31
num_leaves=15
num_cat=1
split_feature=6 0 2 6 2 6 5 2 6 6 5 6 6 5
split_gain=10.0439 11.104 6.15127 6.42345 5.79236 4.97508 4.83655 4.47469 3.79913 6.10499 2.75017 3.48711 3.24602 2.31429
threshold=69.500000000000014 0 9.0414609864117157 364.50000000000006 12.328085074052293 373.50000000000006 3.5000000000000004 10.484713625941804 126.50000000000001 250.00000000000003 2.5000000000000004 633.50000000000011 730.50000000000011 2.5000000000000004
decision_type=2 1 2 2 2 2 2 2 2 2 2 2 2 2
left_child=4 5 3 -3 6 -2 7 -1 -4 -10 -7 -12 -13 -11
right_child=1 2 8 -5 -6 10 -8 -9 9 13 11 12 -14 -15
leaf_value=0.028138689203904218 -0.014988893408740519 0.0062815666469660646 -0.0064881457494837891 -0.026139254983175885 0.032101447038352493 0.0082434856556355945 -0.0032508956132964654 0.002140666991472244 0.026947535045910624 0.0156527488399297 0.009289472937583922 -0.020902547124715055 -0.0031436075066978279 0.0021998684444442026
leaf_weight=13.000000000000002 61 11.000000000000002 13.999999999999998 10.999999999999998 9.9999999999999982 14.999999999999998 22 10.999999999999998 15.999999999999998 15.999999999999998 9.9999999999999982 15.999999999999998 22 41
leaf_count=13 61 11 14 11 10 15 22 11 16 16 10 16 22 41
internal_value=-1.11179e-11 -0.00274182 0.0042434 -0.00992884 0.0114079 -0.00888206 0.00690936 0.0162229 0.00782719 0.0105726 -0.0029691 -0.00647303 -0.0106211 0.00597612
internal_weight=289 233 109 22 56 124 46 24 87 73 63 48 38 57
internal_count=289 233 109 22 56 124 46 24 87 73 63 48 38 57
cat_boundaries=0 1
cat_threshold=1
is_linear=0
shrinkage=0.03


Tree=32
num_leaves=15
num_cat=0
split_feature=3 3 2 2 3 5 2 2 5 5 3 3 2 2
split_gain=9.66871 5.818 4.28714 5.05515 3.6873 10.1775 4.00695 6.50078 3.50615 4.48278 6.5289 3.11486 4.91732 3.39096
threshold=4.1986573397942193 9.2825009747997616 11.022174988429493 13.665684921794645 5.9290149922772786 5.5000000000000009 12.253004013770777 13.228315737022699 5.5000000000000009 3.5000000000000004 6.5322823440947024 3.3014508115942092 6.8615189042322591 7.8124791694194018
decision_type=2 2 2 2 2 2 2 2 2 2 2 2 2 2
left_child=11 2 8 4 5 -4 -6 -8 9 10 -2 12 -1 -14
right_child=1 -3 3 -5 6 -7 7 -9 -10 -11 -12 -13 13 -15
leaf_value=-0.016608882482875797 0.0016855669394135475 0.020691425030430158 0.01662735988696416 0.015148074202812634 -0.021578283496201039 -0.021119901537895201 0.011308305137432535 -0.020865048017352821 0.018702825820539146 -0.008696148873252027 0.030537510082125664 -0.012491725024883634 0.014599012881517409 -0.0026127061018576987
leaf_weight=17 24 18 18.000000000000004 12.999999999999998 18 9.9999999999999982 13.000000000000002 9.9999999999999982 20 17 9.9999999999999982 48 13.999999999999998 39
leaf_count=17 24 18 18 13 18 10 13 10 20 17 10 48 14 39
internal_value=-2.30091e-11 0.00455826 0.00266025 -0.0020126 -0.00524577 0.0031462 -0.0109769 -0.00268011 0.00805705 0.00388224 0.0101714 -0.00660562 -0.00256943 0.00193379
internal_weight=289 171 153 82 69 28 41 23 71 51 34 118 70 53
internal_count=289 171 153 82 69 28 41 23 71 51 34 118 70 53
is_linear=0
shrinkage=0.03


Tree=33
num_leaves=15
num_cat=0
split_feature=6 2 6 2 6 6 6 6 6 3 2 6 3 3
split_gain=9.41804 6.56357 4.63137 11.2103 5.97505 5.82937 8.69699 5.74477 8.12288 4.79368 4.18008 3.19464 9.78321 2.95399
threshold=7.5000000000000009 13.665684921794645 355.00000000000006 6.8615189042322591 179.50000000000003 365.50000000000006 489.50000000000006 106.50000000000001 126.50000000000001 5.2111275001726387 9.2290131440358625 730.50000000000011 3.7730396152745151 5.3733646249027451
decision_type=2 2 2 2 2 2 2 2 2 2 2 2 2 2
left_child=-1 2 4 -4 7 10 -7 -2 -9 11 -5 -8 -13 -6
right_child=1 -3 3 5 13 6 9 8 -10 -11 -12 12 -14 -15
leaf_value=0.023146337553858757 0.0033853331104748779 0.014071577975283498 -0.035130437070673162 -0.0017014889912679791 0.024300625185881334 0.020822067868430168 -0.0072156393116948976 -0.032896330613981582 0.004462172850966453 -0.017037409283220766 -0.019658758454024792 -0.0039253188313349433 0.031617764286696909 0.00295212310552597
leaf_weight=14.999999999999998 54 23 10.999999999999998 20 14.000000000000002 15.999999999999998 26 11.000000000000002 9.9999999999999982 18 28 23 9.9999999999999982 9.9999999999999982
leaf_count=15 54 23 11 20 14 16 26 11 10 18 28 23 10 10
internal_value=7.75834e-12 -0.00126714 -0.00267267 -0.00596146 0.00237677 -0.00368586 0.000696434 -0.0017924 -0.0151066 -0.00348552 -0.0121766 0.000648961 0.00684531 0.0154054
internal_weight=289 274 251 152 99 141 93 75 21 77 48 59 33 24
internal_count=289 274 251 152 99 141 93 75 21 77 48 59 33 24
is_linear=0
shrinkage=0.03


Tree=34
num_leaves=15
num_cat=1
split_feature=6 0 6 6 2 6 5 6 5 5 5 6 2 2
split_gain=8.86144 7.59506 5.53859 5.43054 4.02491 7.00866 3.7166 4.72637 4.26268 3.01402 3.42176 3.87822 3.2662 2.8869
threshold=7.5000000000000009 0 83.500000000000014 179.50000000000003 9.0414609864117157 364.50000000000006 7.5000000000000009 134.00000000000003 2.5000000000000004 2.5000000000000004 7.5000000000000009 715.50000000000011 9.4828055343948723 10.756523426482445
decision_type=2 1 2 2 2 2 2 2 2 2 2 2 2 2
left_child=-1 2 -2 -4 5 -3 7 -6 -9 12 -11 -12 -5 -14
right_child=1 4 3 9 6 -7 -8 8 -10 10 11 -13 13 -15
leaf_value=0.022451948761940003 0.0072681997204199437 0.0073872018073286314 -0.026824983495932358 0.012915563422899979 -0.009043163838131087 -0.024612672796303574 0.015214590827235952 0.019595878003165125 0.0013469987927237526 -0.014066208587849842 0.013939676268026226 -0.010521606395819356 -0.017884269967675202 0.0043872627074068235
leaf_weight=14.999999999999998 24 14.000000000000002 12.999999999999998 12.999999999999998 21 10.999999999999998 32 18 32 51 10.000000000000002 13.999999999999998 10.000000000000002 10.999999999999998
leaf_count=15 24 14 13 13 21 11 32 18 32 51 10 14 10 11
internal_value=1.55263e-10 -0.00122912 -0.00590583 -0.00849744 0.00410525 -0.00669274 0.00672612 0.00290033 0.0079166 -0.00631159 -0.00967043 -0.000329405 0.00109763 -0.00621823
internal_weight=289 274 146 122 128 25 103 71 50 109 75 24 34 21
internal_count=289 274 146 122 128 25 103 71 50 109 75 24 34 21
cat_boundaries=0 1
cat_threshold=1
is_linear=0
shrinkage=0.03


Tree=35
num_leaves=15
num_cat=1
split_feature=0 2 5 5 2 5 2 2 2 5 5 2 2 2
split_gain=8.21481 4.07602 2.70709 5.25863 3.65119 2.66264 1.82919 1.83357 1.54255 1.44178 3.24381 2.60665 2.86006 3.18687
threshold=0 7.7315214677380846 1.5000000000000002 4.5000000000000009 11.915442854498913 3.5000000000000004 9.9192048708695939 10.537824887377601 13.03370253830245 11.500000000000002 6.5000000000000009 7.5497893265983054 9.122966955842438 9.4828055343948723
decision_type=1 2 2 2 2 2 2 2 2 2 2 2 2 2
left_child=9 -2 -3 4 5 -4 -5 -8 -9 10 11 -1 -13 -14
right_child=1 2 3 6 -6 -7 7 8 -10 -11 -12 12 13 -15
leaf_value=0.0072546614706516261 -0.010610645550947923 0.016333341961321621 0.010527765428026517 0.001307667359136618 -0.01540281284068312 -0.0072898996707338529 0.025398254841333255 0.0036691881269216536 0.016868352381622088 -0.011692260123546357 0.012872336111962795 -0.016147641739384697 0.0085359685420989973 -0.0067211633167513036
leaf_weight=13.999999999999998 12.999999999999998 23 18 12.999999999999998 13.999999999999998 13.000000000000002 9.9999999999999982 14.999999999999998 17 23 9.9999999999999982 22 14.999999999999998 69
leaf_count=14 13 23 18 13 14 13 10 15 17 23 10 22 15 69
internal_value=-2.93657e-11 0.00536472 0.00705318 0.00491874 -0.00268685 0.00305584 0.0111415 0.0141853 0.0106812 -0.00476864 -0.00354369 -0.0049117 -0.00651857 -0.00399668
internal_weight=289 136 123 100 45 31 55 42 32 153 130 120 106 84
internal_count=289 136 123 100 45 31 55 42 32 153 130 120 106 84
cat_boundaries=0 1
cat_threshold=1
is_linear=0
shrinkage=0.03


Tree=36
num_leaves=15
num_cat=1
split_feature=0 2 5 5 2 5 2 2 2 2 5 5 2 2
split_gain=7.72931 3.83513 2.5471 4.94785 3.43541 2.50528 1.72109 1.72521 1.45139 1.38536 1.35657 3.0521 2.45259 2.69103
threshold=0 7.7315214677380846 1.5000000000000002 4.5000000000000009 11.915442854498913 3.5000000000000004 9.9192048708695939 10.537824887377601 13.03370253830245 12.253004013770777 11.500000000000002 6.5000000000000009 7.5497893265983054 9.122966955842438
decision_type=1 2 2 2 2 2 2 2 2 2 2 2 2 2
left_child=10 -2 9 4 5 -4 -5 -8 -9 -3 11 12 -1 -14
right_child=1 2 3 6 -6 -7 7 8 -10 -11 -12 -13 13 -15
leaf_value=0.007037021790498069 -0.010292326211929321 0.0093858089240697693 0.010211932932337124 0.0012684372067451476 -0.014940728800637381 -0.0070712029475432153 0.024636307206004859 0.0035591121464967723 0.016362301847513982 0.024238134384155272 -0.011341492032389279 0.01248616562783718 -0.01566321220079606 -0.0038767755177936381
leaf_weight=13.999999999999998 12.999999999999998 13.000000000000002 18 12.999999999999998 13.999999999999998 13.000000000000002 9.9999999999999982 14.999999999999998 17 9.9999999999999982 23 9.9999999999999982 22 84
leaf_count=14 13 13 18 13 14 13 10 15 17 10 23 10 22 84
internal_value=-9.5517e-11 0.00520378 0.00684158 0.00477118 -0.00260625 0.00296417 0.0108072 0.0137597 0.0103608 0.0158433 -0.00462558 -0.00343738 -0.00476435 -0.00632302
internal_weight=289 136 123 100 45 31 55 42 32 23 153 130 120 106
internal_count=289 136 123 100 45 31 55 42 32 23 153 130 120 106
cat_boundaries=0 1
cat_threshold=1
is_linear=0
shrinkage=0.03


Tree=37
num_leaves=15
num_cat=1
split_feature=6 0 6 3 3 6 3 2 6 6 3 6 6 6
split_gain=8.26047 6.29583 5.19389 5.02221 6.02005 6.65064 4.86766 3.93919 3.45132 2.97822 2.75312 2.46686 7.40164 2.53609
threshold=7.5000000000000009 0 83.500000000000014 6.5322823440947024 5.8149343560092444 373.50000000000006 1.9540856875798778 9.2290131440358625 364.50000000000006 364.50000000000006 6.1602797377244407 790.50000000000011 730.50000000000011 670.00000000000011
decision_type=2 1 2 2 2 2 2 2 2 2 2 2 2 2
left_child=-1 2 10 4 5 7 -3 9 -9 -4 -2 12 13 -7
right_child=1 6 3 -5 -6 11 -8 8 -10 -11 -12 -13 -14 -15
leaf_value=0.021677257180213929 -0.0020337636955082413 -0.016426338672637941 -0.018678909635001958 -0.026383037883788346 0.016249519720673559 0.0072850862480699982 0.0053731009910293554 -0.013259468871084125 -0.036523817703127855 0.0033970005166801534 0.018358797458085146 -0.010664252726470721 0.025239381819963453 -0.011557744741439818
leaf_weight=14.999999999999998 13.000000000000002 9.9999999999999982 11 11.999999999999998 9.9999999999999982 10.000000000000002 118 11 12 11 10.999999999999998 17 9.9999999999999982 18
leaf_count=15 13 10 11 12 10 10 118 11 12 11 11 17 10 18
internal_value=-5.81996e-11 -0.00118671 -0.00544467 -0.00795434 -0.00594393 -0.00816328 0.00367002 -0.0167165 -0.0253974 -0.00764095 0.00731283 -0.00116522 0.00308435 -0.00482816
internal_weight=289 274 146 122 110 100 128 45 23 22 24 55 38 28
internal_count=289 274 146 122 110 100 128 45 23 22 24 55 38 28
cat_boundaries=0 1
cat_threshold=1
is_linear=0
shrinkage=0.03


Tree=38
num_leaves=15
num_cat=0
split_feature=6 2 6 2 6 6 6 6 6 3 3 2 3 3
split_gain=7.77227 5.36649 3.9357 10.0828 5.72857 5.05487 7.72634 4.96447 7.16337 4.51206 5.18624 4.16724 3.92766 2.93281
threshold=7.5000000000000009 13.665684921794645 355.00000000000006 6.8615189042322591 179.50000000000003 365.50000000000006 489.50000000000006 106.50000000000001 126.50000000000001 4.4202726259546354 3.7244920967472903 9.4828055343948723 3.3014508115942092 5.3733646249027451
decision_type=2 2 2 2 2 2 2 2 2 2 2 2 2 2
left_child=-1 2 4 -4 7 12 -7 -2 -9 10 11 -8 -5 -6
right_child=1 -3 3 5 13 6 9 8 -10 -11 -12 -13 -14 -15
leaf_value=0.021026939511299133 0.0029637488614146904 0.012718497992533705 -0.033117040775038978 -0.00012341822187105812 0.023853118664452 0.019754497861722484 0.0054924162438041279 -0.030932552106678477 0.0041501763761043545 -0.012499476208769041 0.017855675263064245 -0.01566012352705002 -0.017849458269774913 0.0025812723934650417
leaf_weight=14.999999999999998 54 23 10.999999999999998 18 14.000000000000002 15.999999999999998 19 11.000000000000002 9.9999999999999982 29 13.999999999999998 14.999999999999998 30 9.9999999999999982
leaf_count=15 54 23 11 18 14 16 19 11 10 29 14 15 30 10
internal_value=4.73718e-12 -0.00115111 -0.00242203 -0.00545376 0.00223275 -0.00329564 0.000785168 -0.00184952 -0.0142265 -0.00315651 0.0024882 -0.00383959 -0.0112022 0.0149898
internal_weight=289 274 251 152 99 141 93 75 21 77 48 34 48 24
internal_count=289 274 251 152 99 141 93 75 21 77 48 34 48 24
is_linear=0
shrinkage=0.03


Tree=39
num_leaves=15
num_cat=0
split_feature=3 6 5 7 5 3 3 6 3 6 6 6 6 6
split_gain=7.36871 5.07145 3.35775 4.793 4.02532 3.05867 3.74159 3.47434 6.92946 2.78868 6.4517 6.01233 4.55166 3.70971
threshold=4.1986573397942193 6.5000000000000009 7.5000000000000009 1.0000000180025095e-35 11.500000000000002 3.4672462392054633 3.7244920967472903 355.00000000000006 0.6343924429268345 26.500000000000004 69.500000000000014 121.00000000000001 364.50000000000006 730.50000000000011
decision_type=2 2 2 2 2 2 2 2 2 2 2 2 2 2
left_child=5 -2 3 9 -4 7 -7 -1 -9 -3 -11 -12 -13 -14
right_child=1 2 4 -5 -6 6 -8 8 -10 10 11 12 13 -15
leaf_value=0.010484591085463763 0.02278536606580019 -0.016882364837960764 0.023707916599053604 0.014188093151897192 0.0036181255943816284 -0.026733944416046141 -0.0062173901521600777 -0.028522304713726042 -0.0014471584382025819 0.016370529010891914 -0.024074995722621676 0.010872209925670177 -0.012282726975350544 0.0081782410395416349
leaf_weight=14.999999999999998 11.999999999999998 10.999999999999998 12.999999999999998 18 29 11.999999999999998 24 9.9999999999999982 57 15.999999999999998 11.999999999999998 20 29 10.999999999999998
leaf_count=15 12 11 13 18 29 12 24 10 57 16 12 20 29 11
internal_value=-3.79941e-11 0.00397934 0.00256002 -5.20175e-05 0.00983639 -0.00576667 -0.0130562 -0.00256637 -0.00548823 -0.00264113 -0.000860974 -0.0046902 -0.000813237 -0.00665596
internal_weight=289 171 159 117 42 118 36 82 67 99 88 72 60 40
internal_count=289 171 159 117 42 118 36 82 67 99 88 72 60 40
is_linear=0
shrinkage=0.03


Tree=40
num_leaves=15
num_cat=1
split_feature=3 0 3 6 3 3 6 3 2 6 6 6 6 6
split_gain=7.08425 6.2178 4.37956 3.86603 7.39247 5.49117 6.15708 4.58172 3.54767 3.0626 2.73308 2.32759 7.01049 2.15692
threshold=9.2825009747997616 0 1.9540856875798778 83.500000000000014 6.5322823440947024 5.8149343560092444 373.50000000000006 6.8629009435161521 9.2290131440358625 364.50000000000006 364.50000000000006 790.50000000000011 730.50000000000011 670.00000000000011
decision_type=2 1 2 2 2 2 2 2 2 2 2 2 2 2
left_child=1 3 -3 7 5 6 8 -1 10 -10 -5 12 13 -8
right_child=-2 2 -4 4 -6 -7 11 -9 9 -11 -12 -13 -14 -15
leaf_value=0.014350795277106736 0.018225001568595568 -0.015298921823501585 0.0054070120422463662 -0.017757290953939606 -0.032387550272047518 0.015749407321214673 0.0067653786689043016 -0.011240539133548735 -0.012600336264480242 -0.034515421241521835 0.0033905525573275298 -0.010059986508944454 0.024856578826904296 -0.01061187870800495
leaf_weight=17.000000000000004 18 9.9999999999999982 114 11 9.9999999999999982 9.9999999999999982 10.000000000000002 9.9999999999999982 11 12 11 17 9.9999999999999982 18
leaf_count=17 18 10 114 11 10 10 10 10 11 12 11 17 10 18
internal_value=-2.39638e-11 -0.00121052 0.00373718 -0.00538408 -0.00769182 -0.00544675 -0.00756637 0.00487252 -0.0157961 -0.0240343 -0.00718337 -0.000832982 0.00329489 -0.00440572
internal_weight=289 271 124 147 120 110 100 27 45 23 22 55 38 28
internal_count=289 271 124 147 120 110 100 27 45 23 22 55 38 28
cat_boundaries=0 1
cat_threshold=1
is_linear=0
shrinkage=0.03


Tree=41
num_leaves=15
num_cat=1
split_feature=6 0 6 6 6 2 6 6 6 5 5 6 2 5
split_gain=6.80845 5.06941 4.25462 4.64233 3.59588 8.52993 3.8927 5.01698 3.19318 2.86378 3.12119 3.27176 2.83681 2.77427
threshold=7.5000000000000009 0 83.500000000000014 179.50000000000003 489.50000000000006 10.868178957772248 134.00000000000003 90.500000000000014 51.000000000000007 2.5000000000000004 7.5000000000000009 715.50000000000011 9.4828055343948723 3.5000000000000004
decision_type=2 1 2 2 2 2 2 2 2 2 2 2 2 2
left_child=-1 2 13 -4 6 -6 7 8 -3 12 -11 -12 -5 -2
right_child=1 4 3 9 5 -7 -8 -9 -10 10 11 -13 -14 -15
leaf_value=0.019680042684078216 0.015268691631167057 -0.005552343651652334 -0.024114965827992326 0.013087338553025171 -0.024181365777666754 0.0062211544617362642 0.011602757792505953 -0.015202397400779385 0.016643640744899001 -0.012620939130292219 0.013604685729369516 -0.0088627562725118233 -0.004744434633425304 -0.0054202083684504031
leaf_weight=14.999999999999998 14.000000000000002 10.000000000000002 12.999999999999998 12.999999999999998 12.999999999999998 23 54 13.999999999999998 13.999999999999998 51 10.000000000000002 13.999999999999998 21 9.9999999999999982
leaf_count=15 14 10 13 13 13 23 54 14 14 51 10 14 21 10
internal_value=6.91241e-11 -0.00107737 -0.00489817 -0.00716961 0.00328072 -0.00475753 0.00642612 -0.000930159 0.00739531 -0.0051486 -0.00842266 0.000498678 0.0020736 0.00664832
internal_weight=289 274 146 122 128 36 92 38 24 109 75 24 34 24
internal_count=289 274 146 122 128 36 92 38 24 109 75 24 34 24
cat_boundaries=0 1
cat_threshold=1
is_linear=0
shrinkage=0.03


Tree=42
num_leaves=15
num_cat=1
split_feature=3 0 3 3 3 3 3 3 3 5 3 5 5 5
split_gain=6.5256 5.5169 4.02854 3.66198 8.48927 2.11328 3.77445 3.76941 3.3711 1.80365 2.14558 1.75537 1.60592 2.85957
threshold=9.2825009747997616 0 1.9540856875798778 6.8629009435161521 5.8149343560092444 3.3014508115942092 3.7244920967472903 3.4672462392054633 4.0676051819398245 2.5000000000000004 1.6095889617119965 2.5000000000000004 7.5000000000000009 1.5000000000000002
decision_type=2 1 2 2 2 2 2 2 2 2 2 2 2 2
left_child=1 3 -3 4 5 9 7 -7 -8 -1 -11 -10 13 -4
right_child=-2 2 12 -5 -6 6 8 -9 11 10 -12 -13 -14 -15
leaf_value=0.0080935151445177874 0.017491658752163249 -0.014758627563714981 0.012739709406159818 -0.018641764316707849 0.016338156207519418 -0.0075237746943126998 0.010569102633744477 -0.032359488877383144 -0.0011489276476204394 -0.016679771080613134 7.9570054499940435e-05 -0.01445804903622378 0.010800046145450323 -0.00030600512220013525
leaf_weight=12.999999999999998 18 9.9999999999999982 20 15.999999999999998 17 11.000000000000002 9.9999999999999982 10.999999999999998 14.999999999999998 9.9999999999999982 22 22 32 62
leaf_count=13 18 10 20 16 17 11 10 11 15 10 22 22 32 62
internal_value=5.66528e-11 -0.00116181 0.00349869 -0.00509311 -0.00343831 -0.00638743 -0.00968603 -0.0199416 -0.00488553 -0.00132959 -0.00515772 -0.00906246 0.0051002 0.00287588
internal_weight=289 271 124 147 131 114 69 22 47 45 32 37 114 82
internal_count=289 271 124 147 131 114 69 22 47 45 32 37 114 82
cat_boundaries=0 1
cat_threshold=1
is_linear=0
shrinkage=0.03


Tree=43
num_leaves=15
num_cat=1
split_feature=6 0 6 6 3 5 6 6 3 5 5 6 3 7
split_gain=6.3533 4.45527 4.06192 4.38478 3.63263 2.81599 2.96479 5.58619 2.70226 2.64589 2.99103 3.00796 2.74842 2.46718
threshold=7.5000000000000009 0 83.500000000000014 179.50000000000003 1.9540856875798778 7.5000000000000009 182.50000000000003 90.500000000000014 6.1602797377244407 2.5000000000000004 7.5000000000000009 715.50000000000011 3.8535249898742276 1.0000000180025095e-35
decision_type=2 1 2 2 2 2 2 2 2 2 2 2 2 2
left_child=-1 2 8 -4 -3 6 7 -6 -2 12 -11 -12 -5 -7
right_child=1 4 3 9 5 13 -8 -9 -10 10 11 -13 -14 -15
leaf_value=0.019010859966278076 -0.0026005122810602178 -0.014315868884325027 -0.023310628672345325 -0.0055145397096088055 0.0032858746224328087 0.017775534018874169 0.0056649895156030807 -0.024415502429008484 0.01760280961340124 -0.012134737512644598 0.013274950403720134 -0.0082676733657717702 0.011663749054074286 0.0016654641074793678
leaf_weight=14.999999999999998 13.000000000000002 9.9999999999999982 12.999999999999998 19 19.000000000000004 22 53 9.9999999999999982 10.999999999999998 51 10.000000000000002 13.999999999999998 14.999999999999998 13.999999999999998
leaf_count=15 13 10 13 19 19 22 53 10 11 51 10 14 15 14
internal_value=4.45923e-11 -0.00104074 -0.00462263 -0.00684203 0.00304485 0.0045161 0.00144538 -0.00626632 0.00665934 -0.00487789 -0.00802493 0.00070842 0.00206412 0.0115105
internal_weight=289 274 146 122 128 118 82 29 24 109 75 24 34 36
internal_count=289 274 146 122 128 118 82 29 24 109 75 24 34 36
cat_boundaries=0 1
cat_threshold=1
is_linear=0
shrinkage=0.03


Tree=44
num_leaves=15
num_cat=1
split_feature=6 0 6 3 3 6 3 3 6 6 6 6 6 6
split_gain=5.97782 4.19197 3.82186 4.33061 4.89062 5.84895 3.41794 2.54256 2.16206 6.54827 1.95372 5.89729 3.70997 3.02522
threshold=7.5000000000000009 0 83.500000000000014 6.5322823440947024 5.8149343560092444 373.50000000000006 1.9540856875798778 6.1602797377244407 790.50000000000011 730.50000000000011 126.50000000000001 90.500000000000014 250.00000000000003 51.000000000000007
decision_type=2 1 2 2 2 2 2 2 2 2 2 2 2 2
left_child=-1 2 7 4 5 -4 -3 -2 9 -7 11 13 -12 -8
right_child=1 6 3 -5 -6 8 10 -9 -10 -11 12 -13 -14 -15
leaf_value=0.018440534979104996 -0.0025224972487642204 -0.013886393040418624 -0.014791394793894143 -0.023749587945640086 0.01523361812531948 -0.0036715623776295355 -0.0058295474946498853 0.017074726223945617 -0.0091003837787053173 0.024609602898359298 0.017785499154457023 -0.019753482382405887 0.0031960198284697629 0.0157748108596674
leaf_weight=14.999999999999998 13.000000000000002 9.9999999999999982 45 11.999999999999998 9.9999999999999982 28 10.000000000000002 10.999999999999998 17 9.9999999999999982 21 10.999999999999998 62 13.999999999999998
leaf_count=15 13 10 45 12 10 28 10 11 17 10 21 11 62 14
internal_value=6.6973e-11 -0.00100952 -0.00448395 -0.00663677 -0.00476992 -0.00677027 0.0029535 0.00645956 -0.000207532 0.00377085 0.00438061 -0.0015639 0.00688733 0.00677299
internal_weight=289 274 146 122 110 100 128 24 55 38 118 35 83 24
internal_count=289 274 146 122 110 100 128 24 55 38 118 35 83 24
cat_boundaries=0 1
cat_threshold=1
is_linear=0
shrinkage=0.03


Tree=45
num_leaves=15
num_cat=0
split_feature=3 3 2 6 6 6 6 2 2 5 2 3 2 2
split_gain=5.83547 3.52514 3.70788 6.01 4.36193 7.10393 3.78241 3.42319 3.22181 8.32546 5.75604 2.78164 3.17646 6.68444
threshold=9.2825009747997616 4.1986573397942193 11.022174988429493 192.50000000000003 633.50000000000011 730.50000000000011 365.50000000000006 10.815681464423035 10.209747860766049 4.5000000000000009 9.2026939371726098 3.4672462392054633 6.3065585334332077 7.5497893265983054
decision_type=2 2 2 2 2 2 2 2 2 2 2 2 2 2
left_child=1 11 7 -4 6 -6 -5 8 10 -10 -3 12 -1 -14
right_child=-2 2 3 4 5 -7 -8 -9 9 -11 -12 -13 13 -15
leaf_value=-0.01554594059689687 0.016540875385204951 -0.0012356865720357744 -0.017228741359553837 0.00082884134234566438 -0.022952560977293889 0.006507607251405716 0.021379310151429048 0.022309783720834687 -0.018651048123836517 0.012956791639328001 0.025104549424722788 -0.011946372520178555 0.020970635190606119 -0.0036642364579203878
leaf_weight=12.999999999999998 18 16.000000000000004 19 19 13.000000000000002 17 13.999999999999998 10.999999999999998 15 15 13.999999999999998 36 11.999999999999998 57
leaf_count=13 18 16 19 19 13 17 14 11 15 15 14 36 12 57
internal_value=5.34624e-11 -0.00109866 0.00190617 -0.00243953 0.0020207 -0.00625847 0.00954722 0.00692516 0.00410465 -0.00284713 0.0110564 -0.00499475 -0.00194282 0.000620089
internal_weight=289 271 153 82 63 30 33 71 60 30 30 118 82 69
internal_count=289 271 153 82 63 30 33 71 60 30 30 118 82 69
is_linear=0
shrinkage=0.03


Tree=46
num_leaves=15
num_cat=1
split_feature=3 4 3 3 5 3 3 3 2 3 6 6 6 6
split_gain=5.49059 3.31757 7.32625 4.42375 6.96331 3.28608 3.05212 3.70549 8.46067 2.38322 2.00192 4.06303 6.15492 4.53805
threshold=9.2825009747997616 0 4.2607485725893204 7.9243449068693481 10.500000000000002 3.5622721060076739 6.8629009435161521 5.9290149922772786 10.756523426482445 2.4654399271894127 489.50000000000006 126.50000000000001 83.500000000000014 355.00000000000006
decision_type=2 9 2 2 2 2 2 2 2 2 2 2 2 2
left_child=1 10 5 4 6 9 7 8 -4 -3 11 12 -1 -13
right_child=-2 2 3 -5 -6 -7 -8 -9 -10 -11 -12 13 -14 -15
leaf_value=0.00092358409810592125 0.016044649084409078 -0.010236501574516296 -0.0032477962220197206 -0.0050200500492663946 0.03516921089217067 -0.014952333199658564 0.022569963142275808 -0.0099077902222052209 0.030518383383750916 0.00449289501869473 -0.0089584028860554103 0.016990609243512152 -0.027876292819326572 -0.0029116926194521888
leaf_weight=17.000000000000004 18 14.999999999999998 17.000000000000004 17 9.9999999999999982 21 9.9999999999999982 11.999999999999998 10.999999999999998 29 56 15.999999999999998 10.999999999999998 29
leaf_count=17 18 15 17 17 10 21 10 12 11 29 56 16 11 29
internal_value=5.36558e-11 -0.0010657 0.00208154 0.00848892 0.0123165 -0.0051885 0.00774592 0.0040399 0.0100175 -0.00052849 -0.00435394 -0.00141819 -0.0103907 0.00416468
internal_weight=289 271 142 77 60 65 50 40 28 44 129 73 28 45
internal_count=289 271 142 77 60 65 50 40 28 44 129 73 28 45
cat_boundaries=0 1
cat_threshold=1646592
is_linear=0
shrinkage=0.03


Tree=47
num_leaves=15
num_cat=1
split_feature=6 0 2 6 6 3 3 6 2 6 6 2 6 2
split_gain=5.35043 3.99517 3.5747 4.01845 3.30502 4.17566 4.44291 5.56993 3.21851 2.81216 2.38323 2.2864 4.04364 2.53388
threshold=6.5000000000000009 0 9.0414609864117157 364.50000000000006 83.500000000000014 6.5322823440947024 5.8149343560092444 373.50000000000006 9.2290131440358625 364.50000000000006 364.50000000000006 10.484713625941804 355.00000000000006 10.868178957772248
decision_type=2 1 2 2 2 2 2 2 2 2 2 2 2 2
left_child=-1 4 3 -3 -2 6 7 8 10 -10 -6 12 -4 -13
right_child=1 2 11 -5 5 -7 -8 -9 9 -11 -12 13 -14 -15
leaf_value=0.019611726403236388 0.005699352788552642 0.0031319845207035532 0.025960948616266244 -0.020740355002609165 -0.015845530019565061 -0.023077932093292473 0.014625081539154053 5.6806973604993384e-05 -0.011065212227404116 -0.032065146043896667 0.0039024553583426897 -0.011251640081405639 0.0025966333001852032 0.0049374328806662737
leaf_weight=11.999999999999998 25 15.000000000000002 12.000000000000002 10.999999999999998 11 11.999999999999998 9.9999999999999982 55 11 12 11 9.9999999999999982 14.999999999999998 67
leaf_count=12 25 15 12 11 11 12 10 55 11 12 11 10 15 67
internal_value=-3.48038e-11 -0.000849606 0.0029816 -0.00696785 -0.00423775 -0.00627404 -0.00444089 -0.00634749 -0.014175 -0.0220217 -0.00597154 0.00546897 0.0129808 0.00283496
internal_weight=289 277 130 26 147 122 110 100 45 23 22 104 27 77
internal_count=289 277 130 26 147 122 110 100 45 23 22 104 27 77
cat_boundaries=0 1
cat_threshold=1
is_linear=0
shrinkage=0.03


Tree=48
num_leaves=15
num_cat=1
split_feature=3 0 3 3 3 2 2 5 5 5 5 3 3 3
split_gain=5.06364 4.18427 3.83724 7.26627 2.99273 1.98491 3.46286 2.81655 2.1465 1.51761 2.36949 2.81773 4.45723 1.92722
threshold=9.2825009747997616 0 6.8629009435161521 5.8149343560092444 1.9540856875798778 9.2026939371726098 9.6049034461322389 2.5000000000000004 3.5000000000000004 1.5000000000000002 7.5000000000000009 4.6878576389495468 4.0676051819398245 6.4721932275325162
decision_type=2 1 2 2 2 2 2 2 2 2 2 2 2 2
left_child=1 2 3 5 -3 7 -7 -1 -9 -6 11 12 -11 -13
right_child=-2 4 -4 -5 9 6 -8 8 -10 10 -12 13 -14 -15
leaf_value=0.010343701638547437 0.015408202211062113 -0.012700746059417725 -0.018316233779769389 0.015543343876214586 0.011919795328751207 -0.022234978542796203 -0.0052779450220987196 -0.017327990949153899 -0.0011360235345949021 -0.0037141733504831779 0.0094489714305382218 -0.013376093287678326 0.021427753845399074 0.00052781094845972566
leaf_weight=13.999999999999998 18 9.9999999999999982 15.999999999999998 17 20 13.999999999999998 48 9.9999999999999982 28 15.000000000000002 32 17 10.999999999999998 19
leaf_count=14 18 10 16 17 20 14 48 10 28 15 32 17 11 19
internal_value=-5.20123e-11 -0.00102342 -0.00444715 -0.00275321 0.00303535 -0.00548165 -0.00910695 -0.00115917 -0.00539707 0.00441571 0.00281909 -0.000602782 0.0069228 -0.00603792
internal_weight=289 271 147 131 124 114 62 52 38 114 94 62 26 36
internal_count=289 271 147 131 124 114 62 52 38 114 94 62 26 36
cat_boundaries=0 1
cat_threshold=1
is_linear=0
shrinkage=0.03


Tree=49
num_leaves=15
num_cat=1
split_feature=6 0 2 6 6 6 5 2 5 6 5 6 2 2
split_gain=4.99727 3.51968 3.21343 3.68469 3.06135 4.01724 2.51216 2.687 2.60946 2.62872 2.2526 2.14853 2.24104 2.12457
threshold=6.5000000000000009 0 9.0414609864117157 364.50000000000006 83.500000000000014 179.50000000000003 2.5000000000000004 9.4828055343948723 7.5000000000000009 715.50000000000011 3.5000000000000004 715.50000000000011 9.4173652874823883 10.484713625941804
decision_type=2 1 2 2 2 2 2 2 2 2 2 2 2 2
left_child=-1 4 3 -3 10 -6 7 -7 11 -10 -2 12 -8 -4
right_child=1 2 13 -5 5 6 8 -9 9 -11 -12 -13 -14 -15
leaf_value=0.0189534442871809 0.012915247030556198 0.0030129214823245991 0.012374318097200658 -0.019846548410979183 -0.021724303744088572 0.01340230016181102 -0.0082924769520759563 -0.0039522455295082186 0.012757462520152325 -0.0073813862672873903 -0.0054665271565318106 -0.0039165866171771832 -0.024981684354799132 0.0025941620851782235
leaf_weight=11.999999999999998 15.000000000000002 15.000000000000002 27 10.999999999999998 12.999999999999998 12.999999999999998 15.000000000000002 21 10.000000000000002 13.999999999999998 9.9999999999999982 22 13.999999999999998 77
leaf_count=12 15 15 27 11 13 13 15 21 10 14 10 22 14 77
internal_value=-6.2961e-12 -0.000821088 0.00277491 -0.00665839 -0.00400123 -0.00596101 -0.00408099 0.00268332 -0.00714747 0.0010098 0.00556254 -0.0109862 -0.0163493 0.00513324
internal_weight=289 277 130 26 147 122 109 34 75 24 25 51 29 104
internal_count=289 277 130 26 147 122 109 34 75 24 25 51 29 104
cat_boundaries=0 1
cat_threshold=1
is_linear=0
shrinkage=0.03


Tree=50
num_leaves=15
num_cat=1
split_feature=6 6 6 0 3 3 3 6 3 3 6 6 6 6
split_gain=4.70193 3.45209 5.65461 4.69221 4.96705 8.26936 4.35104 4.03139 4.25726 4.22915 4.00674 3.63944 3.96575 5.04314
threshold=6.5000000000000009 20.500000000000004 69.500000000000014 0 4.9211515598599069 5.6775457236312077 6.6012924557185277 489.50000000000006 3.7244920967472903 3.8920616539992623 179.50000000000003 334.50000000000006 373.50000000000006 457.00000000000006
decision_type=2 2 2 1 2 2 2 2 2 2 2 2 2 2
left_child=-1 -2 -3 4 7 -6 -7 8 -4 -9 -5 -12 -13 -14
right_child=1 2 3 10 5 6 -8 9 -10 -11 11 12 13 -15
leaf_value=0.018384841009974479 -0.018101702800020575 0.011280610940473921 0.014925311056568339 -0.015968910151720046 0.0356982706412673 -0.010607838689942247 0.015513453483581543 -0.024931801201944992 -0.0078807726502418511 0.0020245373770594599 0.01454956479370594 -0.011515820466068593 0.018701947526371276 -0.0033948266301304102
leaf_weight=11.999999999999998 9.9999999999999982 34 17.000000000000004 25 9.9999999999999982 11.000000000000002 11.999999999999998 11.000000000000002 12.999999999999998 9.9999999999999982 9.9999999999999982 43 10.999999999999998 60
leaf_count=12 10 34 17 25 10 11 12 11 13 10 10 43 11 60
internal_value=6.4532e-12 -0.000796455 -0.000148319 -0.00181606 0.00385397 0.012923 0.00302066 -0.0020142 0.00504267 -0.0120954 -0.00501259 -0.00280365 -0.00432586 2.86173e-05
internal_weight=289 277 267 233 84 33 23 51 30 21 149 124 114 71
internal_count=289 277 267 233 84 33 23 51 30 21 149 124 114 71
cat_boundaries=0 1
cat_threshold=2
is_linear=0
shrinkage=0.03


Tree=51
num_leaves=15
num_cat=1
split_feature=6 4 6 6 6 5 2 2 2 2 2 2 2 2
split_gain=4.493 3.51833 6.72514 8.21744 5.33177 4.85616 4.58002 6.73362 5.46181 2.94523 4.8481 3.84079 7.10827 3.02284
threshold=7.5000000000000009 0 732.50000000000011 364.50000000000006 1094.5000000000002 7.5000000000000009 10.793452247274908 12.328085074052293 9.122966955842438 7.5497893265983054 10.336712310818674 10.95445712733253 11.739315122261234 12.842306387474991
decision_type=2 9 2 2 2 2 2 2 2 2 2 2 2 2
left_child=-1 4 3 6 5 9 8 -8 -3 -2 -11 -12 -13 -14
right_child=1 2 -4 -5 -6 -7 7 -9 -10 10 11 12 13 -15
leaf_value=0.015987126708030701 0.014148912753623266 -0.0043203383976859709 0.014445753782987594 -0.015667543774119247 -0.015719789598996822 0.014154284355942817 -0.023727206433457982 0.0076385124434124336 0.017585351424291729 -0.01029198162490502 0.019481422160752118 -0.020213245437903836 0.021502340242266646 0.00020855595916509628
leaf_weight=14.999999999999998 12.999999999999998 21 14.999999999999998 53 12.999999999999998 34 14.000000000000002 10.999999999999998 20 32 11.999999999999998 10.999999999999998 10.000000000000002 14.999999999999998
leaf_count=15 13 21 15 53 13 34 14 11 20 32 12 11 10 15
internal_value=7.37646e-11 -0.000875208 -0.00417271 -0.00687023 0.00240709 0.00445214 0.000194283 -0.00992629 0.00636536 0.000905114 -0.001247 0.00478298 -0.000116499 0.00872607
internal_weight=289 274 134 119 140 127 66 25 41 93 80 48 36 25
internal_count=289 274 134 119 140 127 66 25 41 93 80 48 36 25
cat_boundaries=0 1
cat_threshold=68159504
is_linear=0
shrinkage=0.03


Tree=52
num_leaves=15
num_cat=0
split_feature=3 2 3 6 3 5 6 6 5 5 6 3 3 2
split_gain=4.36555 3.07353 4.56666 5.35523 7.75171 3.39195 3.86876 7.67887 5.6794 3.80695 3.85153 3.79147 3.68104 3.87345
threshold=8.7636121872046555 13.665684921794645 7.8345031409742694 69.500000000000014 6.1602797377244407 7.5000000000000009 179.50000000000003 250.00000000000003 2.5000000000000004 11.500000000000002 489.50000000000006 2.1678951225530789 4.6878576389495468 10.209747860766049
decision_type=2 2 2 2 2 2 2 2 2 2 2 2 2 2
left_child=1 2 3 4 -1 6 -5 -8 -9 -7 -11 -10 13 -13
right_child=-2 -3 -4 5 -6 9 7 8 11 10 -12 12 -14 -15
leaf_value=-0.0019235581935693816 0.01225206384435296 0.014415586888790129 -0.018437005685908454 -0.01633487854002107 0.028477793324452178 0.020883505381643772 0.022529617041349412 0.0033914355994784273 -0.024488351528461162 0.0079987873326678276 -0.011167877926491201 -0.0077829745904572549 -0.016841675508767365 0.011229183902697903
leaf_weight=18.000000000000004 24 10.999999999999998 13.999999999999998 22 12.999999999999998 9.9999999999999982 9.9999999999999982 48 12.999999999999998 23 15.999999999999998 31 22 13.999999999999998
leaf_count=18 24 11 14 22 13 10 10 48 13 23 16 31 22 14
internal_value=-9.552e-11 -0.00110962 -0.00178197 -0.000810429 0.0108254 -0.00253632 -0.00465132 -0.00278872 -0.00476672 0.00436982 0.00013554 -0.00966161 -0.00678478 -0.00186808
internal_weight=289 265 254 240 31 209 160 138 128 49 39 80 67 45
internal_count=289 265 254 240 31 209 160 138 128 49 39 80 67 45
is_linear=0
shrinkage=0.03


Tree=53
num_leaves=15
num_cat=1
split_feature=3 0 3 3 3 3 3 3 3 2 3 2 2 3
split_gain=4.12879 3.38831 3.83907 6.65741 2.38721 1.86708 3.09653 3.32372 3.26762 2.56102 1.84779 3.20607 1.14344 1.13059
threshold=9.2825009747997616 0 6.8629009435161521 5.8149343560092444 1.9540856875798778 3.3014508115942092 3.7244920967472903 3.4672462392054633 4.0676051819398245 7.0678682352842186 2.2656418439882322 9.122966955842438 10.336712310818674 4.9733195598386937
decision_type=2 1 2 2 2 2 2 2 2 2 2 2 2 2
left_child=1 2 3 5 -3 9 7 -7 -8 -1 -11 -12 -10 -14
right_child=-2 4 -4 -5 -6 6 8 -9 12 10 11 -13 13 -15
leaf_value=-0.012750680513510649 0.013913354699810346 -0.011326017469167709 -0.017877433213870971 0.015202506609699304 0.0039610750416881942 -0.0056512672792781464 0.011540823620511217 -0.028972526131705804 -0.013829039783449843 0.013372086584568023 -0.013808126773685212 0.009191911686211824 0.0041169303506612765 -0.009820623750036412
leaf_weight=10.999999999999998 18 9.9999999999999982 15.999999999999998 17 114 11.000000000000002 9.9999999999999982 10.999999999999998 15.999999999999998 11.999999999999998 10.000000000000002 11.999999999999998 10.000000000000002 10.999999999999998
leaf_count=11 18 10 16 17 114 11 10 11 16 12 10 12 10 11
internal_value=-4.88944e-11 -0.000924134 -0.00400505 -0.00231072 0.00272825 -0.00492234 -0.00802284 -0.0173119 -0.00367477 -0.000168239 0.00390255 -0.00126265 -0.00778709 -0.00318369
internal_weight=289 271 147 131 124 114 69 22 47 45 34 22 37 21
internal_count=289 271 147 131 124 114 69 22 47 45 34 22 37 21
cat_boundaries=0 1
cat_threshold=1
is_linear=0
shrinkage=0.03


Tree=54
num_leaves=15
num_cat=1
split_feature=6 6 6 0 6 3 6 6 6 6 6 2 3 2
split_gain=4.13325 3.34978 5.03873 4.19261 4.63467 6.48915 3.75357 3.43357 3.14638 3.6754 4.48544 2.92523 2.40672 1.95768
threshold=6.5000000000000009 20.500000000000004 69.500000000000014 0 489.50000000000006 3.8920616539992623 179.50000000000003 763.00000000000011 334.50000000000006 373.50000000000006 457.00000000000006 10.537824887377601 6.1602797377244407 11.293776790736532
decision_type=2 2 2 1 2 2 2 2 2 2 2 2 2 2
left_child=-1 -2 12 4 -4 -6 -5 -7 -8 -10 -11 -12 -3 -14
right_child=1 2 3 6 5 7 8 -9 9 10 11 -13 13 -15
leaf_value=0.017237229794263838 -0.017793622199445965 0.0011403741953628403 0.0092050497869674407 -0.015308663660287858 -0.023971909430216657 -0.0082510892897844287 0.013568843588232994 0.016037787693468007 -0.010903234970647583 0.017821140987798571 0.0029736634343862532 -0.010341247328453594 0.026744194686412804 0.007972342059016228
leaf_weight=11.999999999999998 9.9999999999999982 13.999999999999998 52 25 10.999999999999998 10.000000000000002 9.9999999999999982 10.999999999999998 43 10.999999999999998 33 27 10.000000000000002 9.9999999999999982
leaf_count=12 10 14 52 25 11 10 10 11 43 11 33 27 10 10
internal_value=1.94321e-11 -0.000746739 -0.000108279 -0.00168258 0.0036771 -0.00530582 -0.00470414 0.00447166 -0.00256614 -0.00398149 0.00021056 -0.00301805 0.0106803 0.0173583
internal_weight=289 277 267 233 84 32 149 21 124 114 71 60 34 20
internal_count=289 277 267 233 84 32 149 21 124 114 71 60 34 20
cat_boundaries=0 1
cat_threshold=2
is_linear=0
shrinkage=0.03


Tree=55
num_leaves=15
num_cat=1
split_feature=6 5 5 0 5 3 3 6 6 6 6 6 3 3
split_gain=3.9651 2.34858 5.32793 4.38268 3.52353 4.26921 3.30645 4.39681 3.67463 4.07388 2.92404 7.73433 3.71675 5.4566
threshold=7.5000000000000009 7.5000000000000009 11.500000000000002 0 2.5000000000000004 2.1678951225530789 3.2622349976900593 457.00000000000006 732.50000000000011 355.00000000000006 179.50000000000003 106.50000000000001 3.9489027088836148 3.3014508115942092
decision_type=2 2 2 1 2 2 2 2 2 2 2 2 2 2
left_child=-1 4 -3 -4 10 -6 7 -7 9 -8 11 -2 13 -12
right_child=1 2 3 -5 5 6 8 -9 -10 -11 12 -13 -14 -15
leaf_value=0.015018587112426755 0.004284185121561257 0.018007744687298932 0.010816133428985875 -0.0076878349611070006 -0.021483704969286917 0.021178000509738913 -0.0010931098088622093 -0.0069543026871979234 0.0068215507119894023 -0.016350668373828134 0.0094034187169745546 -0.025724741057916119 0.013688336763659428 -0.018044390664859248
leaf_weight=14.999999999999998 26 18 18 32 13.999999999999998 10.000000000000002 28 9.9999999999999982 14.999999999999998 36 16.000000000000004 10.999999999999998 29 10.999999999999998
leaf_count=15 26 18 18 32 14 10 28 10 15 36 16 11 29 11
internal_value=-1.48508e-10 -0.000822186 0.00401205 -0.00102641 -0.00241795 -0.00597737 -0.00378455 0.00711185 -0.00654314 -0.00967549 0.00190693 -0.00463739 0.00623086 -0.00177902
internal_weight=289 274 68 50 206 113 99 20 79 64 93 37 56 27
internal_count=289 274 68 50 206 113 99 20 79 64 93 37 56 27
cat_boundaries=0 1
cat_threshold=2
is_linear=0
shrinkage=0.03


Tree=56
num_leaves=15
num_cat=2
split_feature=3 4 3 3 5 3 3 3 6 3 0 6 6 6
split_gain=3.73197 2.91125 5.60213 5.70794 5.75345 2.95617 2.60505 3.57193 3.9824 2.12909 2.00639 1.74653 4.10969 2.88982
threshold=8.7636121872046555 0 4.2607485725893204 7.9243449068693481 10.500000000000002 3.5622721060076739 6.8629009435161521 5.9290149922772786 355.00000000000006 2.3818024932581081 1 489.50000000000006 730.50000000000011 126.50000000000001
decision_type=2 9 2 2 2 2 2 2 2 2 1 2 2 2
left_child=1 10 5 4 6 9 7 8 -4 -3 -1 13 -13 -12
right_child=-2 2 3 -5 -6 -7 -8 -9 -10 -11 11 12 -14 -15
leaf_value=-0.01729523035883903 0.011328149056062102 -0.0094401630227054865 -0.00061058276891708357 -0.011876443468711593 0.032404479190707207 -0.013460550718009471 0.021172507166862486 -0.0096407429687678809 0.022075283928559376 0.0047282221009954809 -0.0082592354291409712 -0.015567788903911908 0.00098453652734557784 0.0048481298655998414
leaf_weight=10 24 13.999999999999998 15.000000000000002 10.999999999999998 9.9999999999999982 21 9.9999999999999982 11.999999999999998 12.999999999999998 30 24 27 27 41
leaf_count=10 24 14 15 11 10 21 10 12 13 30 24 27 27 41
internal_value=-1.08145e-10 -0.00102595 0.00201557 0.00798958 0.0116317 -0.0041998 0.00747712 0.00405328 0.00992214 0.0002201 -0.00407301 -0.00330417 -0.00729163 8.4873e-06
internal_weight=289 265 136 71 60 65 50 40 28 44 129 119 54 65
internal_count=289 265 136 71 60 65 50 40 28 44 129 119 54 65
cat_boundaries=0 1 2
cat_threshold=1646592 4
is_linear=0
shrinkage=0.03


Tree=57
num_leaves=15
num_cat=1
split_feature=6 4 6 6 6 3 2 5 2 2 3 2 3 2
split_gain=3.64911 3.13068 6.18853 7.08409 5.05518 4.47036 8.68773 3.79779 3.63139 4.57228 3.06499 4.50381 6.62144 4.40516
threshold=7.5000000000000009 0 732.50000000000011 364.50000000000006 1094.5000000000002 5.6775457236312077 9.122966955842438 7.5000000000000009 12.328085074052293 10.921706591676719 2.3818024932581081 10.336712310818674 6.8629009435161521 10.95445712733253
decision_type=2 9 2 2 2 2 2 2 2 2 2 2 2 2
left_child=-1 4 3 5 7 6 -3 10 9 -7 -2 -12 13 -13
right_child=1 2 -4 -5 -6 8 -8 -9 -10 -11 11 12 -14 -15
leaf_value=0.014407730638980865 0.014093365574621463 -0.0034039787147194141 0.013966622039675712 -0.014649403761053141 -0.015348907422560914 -0.0017670054619128882 0.029788822643458841 0.012872825713061234 0.0070036352764476419 -0.02804701072925871 -0.010049908077794937 0.029508286340162147 -0.0097648435396452751 0.0051218954510986806
leaf_weight=14.999999999999998 13.999999999999998 20.000000000000004 14.999999999999998 53 12.999999999999998 13.000000000000002 10.999999999999998 34 10.999999999999998 10.999999999999998 31 10.000000000000002 18 20
leaf_count=15 14 20 15 53 13 13 11 34 11 11 31 10 18 20
internal_value=-4.37464e-12 -0.000788744 -0.00390118 -0.00648125 0.00230436 7.80193e-05 0.00837411 0.00429283 -0.00726995 -0.013812 0.00115606 -0.00113663 0.00461987 0.0132507
internal_weight=289 274 134 119 140 66 31 127 35 24 93 79 48 30
internal_count=289 274 134 119 140 66 31 127 35 24 93 79 48 30
cat_boundaries=0 1
cat_threshold=68159504
is_linear=0
shrinkage=0.03


Tree=58
num_leaves=15
num_cat=1
split_feature=6 0 6 3 3 6 6 3 6 6 6 5 5 3
split_gain=3.43345 2.16235 2.79078 3.08271 6.2901 4.86054 2.43568 6.01836 3.52179 3.87485 3.07473 2.7425 2.51761 4.41825
threshold=7.5000000000000009 0 42.500000000000007 6.5322823440947024 5.8149343560092444 373.50000000000006 489.50000000000006 3.8920616539992623 134.00000000000003 93.500000000000014 763.00000000000011 2.5000000000000004 4.5000000000000009 4.9211515598599069
decision_type=2 1 2 2 2 2 2 2 2 2 2 2 2 2
left_child=-1 2 -2 4 5 -4 8 -8 9 -3 -9 -10 -13 -14
right_child=1 6 3 -5 -6 -7 7 10 11 -11 -12 12 13 -15
leaf_value=0.013975498735904692 0.0089969056397676463 0.0041810936466432531 -0.011984090134501456 -0.017967939193227461 0.018520985455675557 0.00087322053888981988 -0.023026340506674552 -0.0082671626183119656 0.020012861900031566 -0.016428195256739855 0.01292789983430079 -0.0068910953131589023 -0.0015586898868371328 0.022729346649004861
leaf_weight=14.999999999999998 14.999999999999998 26 51 13.999999999999998 10.999999999999998 55 10.999999999999998 11.000000000000002 15.999999999999998 11.999999999999998 13.999999999999998 10.999999999999998 14.000000000000002 12.999999999999998
leaf_count=15 15 26 51 14 11 55 11 11 16 12 14 11 14 13
internal_value=1.20194e-10 -0.000765082 -0.00326047 -0.00466398 -0.00307206 -0.00531284 0.00208122 -0.00453439 0.00466993 -0.0023271 0.00360207 0.00959377 0.00520678 0.0101355
internal_weight=289 274 146 131 117 106 128 36 92 38 25 54 38 27
internal_count=289 274 146 131 117 106 128 36 92 38 25 54 38 27
cat_boundaries=0 1
cat_threshold=1
is_linear=0
shrinkage=0.03


Tree=59
num_leaves=15
num_cat=0
split_feature=3 2 2 5 5 2 5 6 6 2 7 2 6 3
split_gain=3.35755 2.27238 3.67959 2.7628 3.70319 4.05401 2.99607 8.53078 4.16597 4.84777 4.14568 3.55547 3.26015 2.74004
threshold=9.2825009747997616 6.3065585334332077 7.5497893265983054 7.5000000000000009 11.500000000000002 11.022174988429493 3.5000000000000004 69.500000000000014 134.00000000000003 9.122966955842438 1.0000000180025095e-35 9.4828055343948723 182.50000000000003 4.9733195598386937
decision_type=2 2 2 2 2 2 2 2 2 2 2 2 2 2
left_child=1 -1 -3 6 -5 13 7 -4 -9 -10 12 -11 -8 -6
right_child=-2 2 3 4 5 -7 10 8 9 11 -12 -13 -14 -15
leaf_value=-0.013071503766875069 0.01254678005973498 0.014203389406204223 0.017437654786876269 0.016863535679876803 -0.00046608684318406228 -0.014847845379263163 -0.022057402232894673 -0.019520878945119106 -0.020570545949041844 0.0166120598744601 0.010449071891605852 -0.0014720933729747555 -0.0064604873352741097 0.01861360140144825
leaf_weight=12.999999999999998 18 14.999999999999998 21 15.999999999999998 21.000000000000004 11.999999999999998 15.999999999999998 12.999999999999998 9.9999999999999982 11.999999999999998 9.9999999999999982 53 49 9.9999999999999982
leaf_count=13 18 15 21 16 21 12 16 13 10 12 10 53 49 10
internal_value=-4.12872e-11 -0.000833366 -0.000216715 -0.00110685 0.00454221 -4.24641e-05 -0.00291823 0.000257226 -0.00384265 -0.00112509 -0.00753322 0.00186652 -0.0102997 0.00568865
internal_weight=289 271 258 243 59 43 184 109 88 75 75 65 65 31
internal_count=289 271 258 243 59 43 184 109 88 75 75 65 65 31
is_linear=0
shrinkage=0.03


Tree=60
num_leaves=15
num_cat=0
split_feature=3 2 2 5 5 2 5 6 6 2 7 2 6 3
split_gain=3.15912 2.13808 3.46212 2.59952 3.48433 3.81442 2.819 8.02661 3.91976 4.56126 3.90067 3.34535 3.06748 2.57811
threshold=9.2825009747997616 6.3065585334332077 7.5497893265983054 7.5000000000000009 11.500000000000002 11.022174988429493 3.5000000000000004 69.500000000000014 134.00000000000003 9.122966955842438 1.0000000180025095e-35 9.4828055343948723 182.50000000000003 4.9733195598386937
decision_type=2 2 2 2 2 2 2 2 2 2 2 2 2 2
left_child=1 -1 -3 6 -5 13 7 -4 -9 -10 12 -11 -8 -6
right_child=-2 2 3 4 5 -7 10 8 9 11 -12 -13 -14 -15
leaf_value=-0.012679358352548801 0.012170376703143118 0.013777289092540741 0.016914524819169725 0.016357630100101231 -0.00045210432527320718 -0.01440241003409028 -0.021395679898560047 -0.018935252559872773 -0.019953429998829958 0.016113698184490204 0.010135599670931698 -0.0014279307931099297 -0.006266672691159254 0.018055193491280076
leaf_weight=12.999999999999998 18 14.999999999999998 21 15.999999999999998 21.000000000000004 11.999999999999998 15.999999999999998 12.999999999999998 9.9999999999999982 11.999999999999998 9.9999999999999982 53 49 9.9999999999999982
leaf_count=13 18 15 21 16 21 12 16 13 10 12 10 53 49 10
internal_value=1.49366e-11 -0.000808364 -0.000210214 -0.00107364 0.00440595 -4.11901e-05 -0.00283068 0.000249509 -0.00372737 -0.00109134 -0.00730722 0.00181052 -0.00999074 0.00551799
internal_weight=289 271 258 243 59 43 184 109 88 75 75 65 65 31
internal_count=289 271 258 243 59 43 184 109 88 75 75 65 65 31
is_linear=0
shrinkage=0.03


Tree=61
num_leaves=15
num_cat=1
split_feature=3 0 3 3 5 3 3 3 5 2 2 5 5 3
split_gain=2.97242 2.66615 3.73135 5.86994 2.2145 1.78634 1.99021 3.47767 2.19869 1.50886 3.76444 2.20769 1.92107 1.13145
threshold=9.2825009747997616 0 6.8629009435161521 6.0855272751119491 1.5000000000000002 2.5425050714339776 4.39066096688979 4.0676051819398245 7.5000000000000009 9.2026939371726098 9.6049034461322389 2.5000000000000004 3.5000000000000004 6.4721932275325162
decision_type=2 1 2 2 2 2 2 2 2 2 2 2 2 2
left_child=1 2 3 9 -3 -6 7 -7 13 11 -11 -1 -13 -8
right_child=-2 4 -4 -5 5 6 8 -9 -10 10 -12 12 -14 -15
leaf_value=0.010051322922642741 0.011805265421668688 0.011334603498024599 -0.017193444807780907 0.017285836282266803 -0.0097497297872681729 0.001080359322460074 -0.010536657318864998 0.022937199890613557 0.0063919758165012237 -0.020773844655070987 -0.0032480470780641415 -0.015171655967831611 0.00014648567219930034 -0.00018340837014348883
leaf_weight=13.999999999999998 18 21 15.999999999999998 12.999999999999998 12.999999999999998 19.000000000000004 19 9.9999999999999982 23 13.999999999999998 52 9.9999999999999982 28 19
leaf_count=14 18 21 16 13 13 19 19 10 23 14 52 10 28 19
internal_value=9.3807e-11 -0.000784113 -0.00351706 -0.00184666 0.00245575 0.0006455 0.00214703 0.0086172 -0.000928948 -0.00395448 -0.00696564 -0.000132624 -0.0038846 -0.00536003
internal_weight=289 271 147 131 124 103 90 29 61 118 66 52 38 38
internal_count=289 271 147 131 124 103 90 29 61 118 66 52 38 38
cat_boundaries=0 1
cat_threshold=1
is_linear=0
shrinkage=0.03


Tree=62
num_leaves=15
num_cat=2
split_feature=3 4 3 3 5 3 3 3 2 3 0 2 3 3
split_gain=2.79675 2.86105 4.87978 4.43649 5.04078 2.90987 2.41831 3.22707 7.20186 2.00382 1.87924 1.07221 1.49282 1.02065
threshold=9.2825009747997616 0 4.2607485725893204 7.9243449068693481 10.500000000000002 3.5622721060076739 6.8629009435161521 5.9290149922772786 10.756523426482445 2.3818024932581081 1 9.2290131440358625 3.0010040915414078 3.9489027088836148
decision_type=2 9 2 2 2 2 2 2 2 2 1 2 2 2
left_child=1 10 5 4 6 9 7 8 -4 -3 -1 12 -11 -7
right_child=-2 2 3 -5 -6 13 -8 -9 -10 11 -12 -13 -14 -15
leaf_value=-0.016612855017185207 0.011451107536753017 -0.0087464314379862382 -0.0026121834665536877 -0.0061256844462717281 0.030679489460773764 -0.019253761113028626 0.020542404055595397 -0.0089679994061589233 0.028540944294496013 0.00081303058192133833 -0.0030723694539746315 -0.0030219576582312582 0.017205330692231655 -0.006011162504553795
leaf_weight=10 18 13.999999999999998 17.000000000000004 17 9.9999999999999982 11.000000000000002 9.9999999999999982 11.999999999999998 10.999999999999998 10.000000000000005 119 9.9999999999999982 9.9999999999999982 9.9999999999999982
leaf_count=10 18 14 17 17 10 11 10 12 11 10 119 10 10 10
internal_value=-2.00122e-11 -0.00076059 0.00214224 0.00740272 0.0112358 -0.00375983 0.00734703 0.00404818 0.00962655 0.000625318 -0.00382547 0.0049988 0.00900918 -0.0129478
internal_weight=289 271 142 77 60 65 50 40 28 44 129 30 20 21
internal_count=289 271 142 77 60 65 50 40 28 44 129 30 20 21
cat_boundaries=0 1 2
cat_threshold=1646592 4
is_linear=0
shrinkage=0.03


Tree=63
num_leaves=15
num_cat=1
split_feature=6 4 6 6 6 3 2 2 2 2 2 3 2 2
split_gain=2.97024 2.81685 5.77047 6.27703 4.82462 4.42802 7.77516 3.29756 4.05962 3.03592 4.23115 3.12597 2.57093 5.82848
threshold=7.5000000000000009 0 732.50000000000011 364.50000000000006 1094.5000000000002 5.6775457236312077 9.122966955842438 12.328085074052293 10.921706591676719 11.739315122261234 12.328085074052293 2.2656418439882322 10.074700889430906 10.95445712733253
decision_type=2 9 2 2 2 2 2 2 2 2 2 2 2 2
left_child=-1 4 3 5 9 6 -3 8 -7 11 -11 -2 -13 -14
right_child=1 2 -4 -5 -6 7 -8 -9 -10 10 -12 12 13 -15
