tree
version=v4
num_class=1
num_tree_per_iteration=1
label_index=0
max_feature_idx=10
objective=regression_l1
feature_names=category sector log_value value_per_day region start_month planned_days is_repair n_tenderers buyer_rate supplier_rate
feature_infos=-1:0:1:2 -1:1:4:2:5:0 [0.0099503308531680833:16.852765098870258] [2.7396884975892088e-05:15.192818885977694] -1:20:11:13:26:16:4:19:8:10:12:1:21:22:29:30:3:6:17:18:2:5:9:14:27:28 [1:12] [1:1977] [0:1] none [0.0082888774163941952:0.44360551826994782] [0.0026281806442225494:0.23232662192393735]
tree_sizes=409 432 432 432 432 402 432 410 435 421 415 403 431 433 421 433 413 421 414 411 413 413 404 421 422 422 400 417 400 420 422 401 420 404 420 420 401 404 403 418 422 404 404 404 448 404 448 409 408 414 431 404 431 401 401 404 404 447 428 414 413 414 447 413 413 411 432 414 432 414 417 415 411 413 433 415 414 415 433 415 415 411 433 413 415 415 414 432 415 413 415 415 415 411 412 412 411 414 411 412 413 433 416 405 434 413 422 413 413 414 422 412 422 413 412 423 413 415 415 423 415 413 423 416 416 416 446 413 422 433 434 415 416 446 446 417 416 415 433 434 445 445 414 433 434 444 414 432 413 434 434 403 416 450 415 414 440 449 450 450 440 433 448 450 435 413 433 416 434 433 434 435 429 412 415 434 449 435 412 404 434 413 434 432 413 434 451 449 414 429 413 451 414 445 441 451 434 441 432 435 412 433 440 416 451 449 433 444 412 434 434 451 441 431 435 416 451 450 431 432 413 435 415 412 430 411 444 447 412 447 439 412 432 412 435 404 412 432 447 448 431 438 434 439 431 420 412 412 448 445 448 413 431 412 432 413 447 413 432 429 435 413 449 413 433 441 448 431 448 412 431 441 447 439 416 442 434 441 442 414 440 435 416 431 413 441 451 432 442 404 432 413 403 404 432 448 404 404 447 415

Tree=0
num_leaves=3
num_cat=1
split_feature=0 6
split_gain=23.1299 9.61528
threshold=0 42.500000000000007
decision_type=1 2
left_child=1 -1
right_child=-2 -3
leaf_value=3.4715504443645475 3.4720219993591308 3.4594106864929199
leaf_weight=22 136 131
leaf_count=22 136 131
internal_value=3.4657 3.46301
internal_weight=289 153
internal_count=289 153
cat_boundaries=0 1
cat_threshold=1
is_linear=0
shrinkage=1


Tree=1
num_leaves=3
num_cat=1
split_feature=3 0
split_gain=19.3892 11.7912
threshold=5.4875625823042649 0
decision_type=2 1
left_child=1 -1
right_child=-2 -3
leaf_value=0.0019153958320617681 0.0065511232376098639 -0.0068682195663452156
leaf_weight=63 117 109
leaf_count=63 117 109
internal_value=-0.000206897 -0.00236994
internal_weight=289 172
internal_count=289 172
cat_boundaries=0 1
cat_threshold=2
is_linear=0
shrinkage=0.01


Tree=2
num_leaves=3
num_cat=1
split_feature=3 0
split_gain=19.3892 11.7912
threshold=5.4875625823042649 0
decision_type=2 1
left_child=1 -1
right_child=-2 -3
leaf_value=0.0018962418737411514 0.0064856120052337657 -0.0067995373706817609
leaf_weight=63 117 109
leaf_count=63 117 109
internal_value=-0.000206897 -0.00236994
internal_weight=289 172
internal_count=289 172
cat_boundaries=0 1
cat_threshold=2
is_linear=0
shrinkage=0.01


Tree=3
num_leaves=3
num_cat=1
split_feature=3 0
split_gain=19.3892 11.7912
threshold=5.4875625823042649 0
decision_type=2 1
left_child=1 -1
right_child=-2 -3
leaf_value=0.0018772794550037421 0.0064207558851814284 -0.0067315419969749433
leaf_weight=63 117 109
leaf_count=63 117 109
internal_value=-0.000206897 -0.00236994
internal_weight=289 172
internal_count=289 172
cat_boundaries=0 1
cat_threshold=2
is_linear=0
shrinkage=0.01


Tree=4
num_leaves=3
num_cat=1
split_feature=3 0
split_gain=19.3892 11.7912
threshold=5.4875625823042649 0
decision_type=2 1
left_child=1 -1
right_child=-2 -3
leaf_value=0.0018585066604537026 0.0063565483263296144 -0.0066642265770051924
leaf_weight=63 117 109
leaf_count=63 117 109
internal_value=-0.000206897 -0.00236994
internal_weight=289 172
internal_count=289 172
cat_boundaries=0 1
cat_threshold=2
is_linear=0
shrinkage=0.01


Tree=5
num_leaves=3
num_cat=0
split_feature=3 9
split_gain=14.5714 6.05151
threshold=4.9211515598599069 0.19917326335111571
decision_type=2 2
left_child=-1 -2
right_child=1 -3
leaf_value=-0.0021347127597214667 0.0062929828430663198 -0.002130953523968593
leaf_weight=151 120 18
leaf_count=151 120 18
internal_value=0 0.0023741
internal_weight=289 138
internal_count=289 138
is_linear=0
shrinkage=0.01


Tree=6
num_leaves=3
num_cat=1
split_feature=0 6
split_gain=14.5073 9.52603
threshold=0 83.500000000000014
decision_type=1 2
left_child=1 -1
right_child=-2 -3
leaf_value=0.0039842896642014302 0.0060356274989766881 -0.0068827634864786734
leaf_weight=31 136 122
leaf_count=31 136 122
internal_value=-6.89655e-05 -0.00220779
internal_weight=289 153
internal_count=289 153
cat_boundaries=0 1
cat_threshold=1
is_linear=0
shrinkage=0.01


Tree=7
num_leaves=3
num_cat=0
split_feature=3 5
split_gain=15.7451 6.36015
threshold=5.4875625823042649 4.5000000000000009
decision_type=2 2
left_child=-1 -2
right_child=1 -3
leaf_value=-0.0020445379972594681 0.0033920318153649489 0.011342264107199603
leaf_weight=172 72 45
leaf_count=172 72 45
internal_value=-6.89655e-05 0.00271186
internal_weight=289 117
internal_count=289 117
is_linear=0
shrinkage=0.01


Tree=8
num_leaves=3
num_cat=1
split_feature=0 2
split_gain=13.6639 5.20524
threshold=0 13.665684921794645
decision_type=1 2
left_child=1 -1
right_child=-2 -3
leaf_value=-0.0046415044897166902 0.0059320767241138796 0.012747075096746316
leaf_weight=148 136 4.9999999999999991
leaf_count=148 136 5
internal_value=0 -0.00207792
internal_weight=289 153
internal_count=289 153
cat_boundaries=0 1
cat_threshold=1
is_linear=0
shrinkage=0.01


Tree=9
num_leaves=3
num_cat=1
split_feature=3 0
split_gain=14.9728 8.81316
threshold=5.4875625823042649 0
decision_type=2 1
left_child=1 -1
right_child=-2 -3
leaf_value=0.0017620370591880708 0.0060764556542511053 -0.0064405491239033809
leaf_weight=63 117 109
leaf_count=63 117 109
internal_value=0 -0.00190751
internal_weight=289 172
internal_count=289 172
cat_boundaries=0 1
cat_threshold=2
is_linear=0
shrinkage=0.01


Tree=10
num_leaves=3
num_cat=0
split_feature=3 6
split_gain=13.7418 6.64197
threshold=4.9211515598599069 339.50000000000006
decision_type=2 2
left_child=1 -1
right_child=-2 -3
leaf_value=0.00044665766047484733 0.0059361887747902478 -0.0050522256908908901
leaf_weight=33 138 118
leaf_count=33 138 118
internal_value=6.89655e-05 -0.00197368
internal_weight=289 151
internal_count=289 151
is_linear=0
shrinkage=0.01


Tree=11
num_leaves=3
num_cat=0
split_feature=3 6
split_gain=14.2329 8.20732
threshold=5.4875625823042649 339.50000000000006
decision_type=2 2
left_child=1 -1
right_child=-2 -3
leaf_value=0.0010777436935797181 0.0059563292099606936 -0.004607119331077705
leaf_weight=43 117 129
leaf_count=43 117 129
internal_value=0 -0.00179191
internal_weight=289 172
internal_count=289 172
is_linear=0
shrinkage=0.01


Tree=12
num_leaves=3
num_cat=1
split_feature=3 0
split_gain=13.5254 7.48305
threshold=5.4875625823042649 0
decision_type=2 1
left_child=1 -1
right_child=-2 -3
leaf_value=0.0018410101388158752 0.0058967659178610892 -0.0062795501824446645
leaf_weight=63 117 109
leaf_count=63 117 109
internal_value=6.89655e-05 -0.0016763
internal_weight=289 172
internal_count=289 172
cat_boundaries=0 1
cat_threshold=2
is_linear=0
shrinkage=0.01


Tree=13
num_leaves=3
num_cat=1
split_feature=6 0
split_gain=12.7053 12.2187
threshold=83.500000000000014 0
decision_type=2 1
left_child=-1 -2
right_child=1 -3
leaf_value=0.0058377982586824782 -0.0065394470748768099 0.0048837843303611832
leaf_weight=59 122 108
leaf_count=59 122 108
internal_value=0.000206897 -0.000822511
internal_weight=289 230
internal_count=289 230
cat_boundaries=0 1
cat_threshold=1
is_linear=0
shrinkage=0.01


Tree=14
num_leaves=3
num_cat=1
split_feature=3 0
split_gain=14.2329 6.4769
threshold=5.4875625823042649 0
decision_type=2 1
left_child=1 -1
right_child=-2 -3
leaf_value=0.0017737621941241067 0.0057794202760956545 -0.0061513602098714508
leaf_weight=63 117 109
leaf_count=63 117 109
internal_value=0 -0.00179191
internal_weight=289 172
internal_count=289 172
cat_boundaries=0 1
cat_threshold=2
is_linear=0
shrinkage=0.01


Tree=15
num_leaves=3
num_cat=1
split_feature=6 0
split_gain=13.1206 11.2852
threshold=83.500000000000014 0
decision_type=2 1
left_child=-1 -2
right_child=1 -3
leaf_value=0.0057216260733346982 -0.0064125390020293299 0.0047971805747064724
leaf_weight=59 122 108
leaf_count=59 122 108
internal_value=0.000137931 -0.000909091
internal_weight=289 230
internal_count=289 230
cat_boundaries=0 1
cat_threshold=1
is_linear=0
shrinkage=0.01


Tree=16
num_leaves=3
num_cat=0
split_feature=3 6
split_gain=13.5254 6.53588
threshold=5.4875625823042649 250.00000000000003
decision_type=2 2
left_child=1 -1
right_child=-2 -3
leaf_value=0.0024772412588198824 0.0056644098126013495 -0.0041621785230673818
leaf_weight=38 117 134
leaf_count=38 117 134
internal_value=6.89655e-05 -0.0016763
internal_weight=289 172
internal_count=289 172
is_linear=0
shrinkage=0.01


Tree=17
num_leaves=3
num_cat=1
split_feature=3 0
split_gain=14.2329 6.4769
threshold=5.4875625823042649 0
decision_type=2 1
left_child=1 -1
right_child=-2 -3
leaf_value=0.0017496745516664713 0.0056077657144753346 -0.0059840994325217698
leaf_weight=63 117 109
leaf_count=63 117 109
internal_value=0 -0.00179191
internal_weight=289 172
internal_count=289 172
cat_boundaries=0 1
cat_threshold=2
is_linear=0
shrinkage=0.01


Tree=18
num_leaves=3
num_cat=0
split_feature=3 9
split_gain=12.9373 6.05151
threshold=4.9211515598599069 0.19917326335111571
decision_type=2 2
left_child=-1 -2
right_child=1 -3
leaf_value=-0.0019450687644373499 0.0055516880573305821 -0.0027692243517644897
leaf_weight=151 120 18
leaf_count=151 120 18
internal_value=0.000137931 0.0023741
internal_weight=289 138
internal_count=289 138
is_linear=0
shrinkage=0.01


Tree=19
num_leaves=3
num_cat=0
split_feature=3 6
split_gain=13.5254 6.53588
threshold=5.4875625823042649 250.00000000000003
decision_type=2 2
left_child=1 -1
right_child=-2 -3
leaf_value=0.002455607874171495 0.005496171176757274 -0.0040799339257880556
leaf_weight=38 117 134
leaf_count=38 117 134
internal_value=6.89655e-05 -0.0016763
internal_weight=289 172
internal_count=289 172
is_linear=0
shrinkage=0.01


Tree=20
num_leaves=3
num_cat=0
split_feature=3 6
split_gain=12.8367 7.2099
threshold=5.4875625823042649 339.50000000000006
decision_type=2 2
left_child=1 -1
right_child=-2 -3
leaf_value=0.0010306767396689098 0.0054412094649897028 -0.0044996429349420317
leaf_weight=43 117 129
leaf_count=43 117 129
internal_value=0.000137931 -0.00156069
internal_weight=289 172
internal_count=289 172
is_linear=0
shrinkage=0.01


Tree=21
num_leaves=3
num_cat=0
split_feature=3 6
split_gain=13.5254 6.53588
threshold=5.4875625823042649 250.00000000000003
decision_type=2 2
left_child=1 -1
right_child=-2 -3
leaf_value=0.0024207450280330934 0.0053867973703398062 -0.0039941381571807514
leaf_weight=38 117 134
leaf_count=38 117 134
internal_value=6.89655e-05 -0.0016763
internal_weight=289 172
internal_count=289 172
is_linear=0
shrinkage=0.01


Tree=22
num_leaves=3
num_cat=0
split_feature=3 6
split_gain=12.4884 5.92614
threshold=5.4875625823042649 339.50000000000006
decision_type=2 2
left_child=1 -1
right_child=-2 -3
leaf_value=0.00099616252199189229 0.0053329293966364105 -0.0044147051240208011
leaf_weight=43 117 129
leaf_count=43 117 129
internal_value=0 -0.0016763
internal_weight=289 172
internal_count=289 172
is_linear=0
shrinkage=0.01


Tree=23
num_leaves=3
num_cat=1
split_feature=0 6
split_gain=12.8588 6.41093
threshold=0 83.500000000000014
decision_type=1 2
left_child=1 -1
right_child=-2 -3
leaf_value=0.0032594522866444156 0.005094684999561179 -0.0061607575840856256
leaf_weight=31 136 122
leaf_count=31 136 122
internal_value=0 -0.00194805
internal_weight=289 153
internal_count=289 153
cat_boundaries=0 1
cat_threshold=1
is_linear=0
shrinkage=0.01


Tree=24
num_leaves=3
num_cat=1
split_feature=0 6
split_gain=11.9828 6.41093
threshold=0 83.500000000000014
decision_type=1 2
left_child=1 -1
right_child=-2 -3
leaf_value=0.0032268577637779706 0.0050437381495655664 -0.0060991500082447697
leaf_weight=31 136 122
leaf_count=31 136 122
internal_value=0 -0.00194805
internal_weight=289 153
internal_count=289 153
cat_boundaries=0 1
cat_threshold=1
is_linear=0
shrinkage=0.01


Tree=25
num_leaves=3
num_cat=1
split_feature=0 6
split_gain=11.9828 6.41093
threshold=0 83.500000000000014
decision_type=1 2
left_child=1 -1
right_child=-2 -3
leaf_value=0.0031945891861401912 0.0049933007680699106 -0.0060381585081623213
leaf_weight=31 136 122
leaf_count=31 136 122
internal_value=0 -0.00194805
internal_weight=289 153
internal_count=289 153
cat_boundaries=0 1
cat_threshold=1
is_linear=0
shrinkage=0.01


Tree=26
num_leaves=3
num_cat=0
split_feature=3 5
split_gain=11.5053 6.00096
threshold=5.4875625823042649 4.5000000000000009
decision_type=2 2
left_child=-1 -2
right_child=1 -3
leaf_value=-0.0011924629492624207 0.0024307399686894614 0.010240132502402939
leaf_weight=172 72 45
leaf_count=172 72 45
internal_value=0 0.00237288
internal_weight=289 117
internal_count=289 117
is_linear=0
shrinkage=0.01


Tree=27
num_leaves=3
num_cat=1
split_feature=0 5
split_gain=10.4121 6.36931
threshold=0 6.5000000000000009
decision_type=1 2
left_child=-1 -2
right_child=1 -3
leaf_value=-0.003406202444665718 0.0016745292434132387 0.0081015487025552172
leaf_weight=153 95 41
leaf_count=153 95 41
internal_value=0 0.0019708
internal_weight=289 136
internal_count=289 136
cat_boundaries=0 1
cat_threshold=1
is_linear=0
shrinkage=0.01


Tree=28
num_leaves=3
num_cat=0
split_feature=3 5
split_gain=11.5053 6.00096
threshold=5.4875625823042649 4.5000000000000009
decision_type=2 2
left_child=-1 -2
right_child=1 -3
leaf_value=-0.0011972836122039255 0.0024150909350088303 0.010056715690353357
leaf_weight=172 72 45
leaf_count=172 72 45
internal_value=0 0.00237288
internal_weight=289 117
internal_count=289 117
is_linear=0
shrinkage=0.01


Tree=29
num_leaves=3
num_cat=1
split_feature=3 0
split_gain=11.5053 5.89782
threshold=5.4875625823042649 0
decision_type=2 1
left_child=1 -1
right_child=-2 -3
leaf_value=0.001777347629222068 0.0051010688825709185 -0.0054939833980666066
leaf_weight=63 117 109
leaf_count=63 117 109
internal_value=0 -0.0016763
internal_weight=289 172
internal_count=289 172
cat_boundaries=0 1
cat_threshold=2
is_linear=0
shrinkage=0.01


Tree=30
num_leaves=3
num_cat=1
split_feature=0 6
split_gain=9.71078 7.56974
threshold=0 83.500000000000014
decision_type=1 2
left_child=1 -1
right_child=-2 -3
leaf_value=0.0030972363208627528 0.0047177632863513886 -0.0059540307477677201
leaf_weight=31 136 122
leaf_count=31 136 122
internal_value=0 -0.00168831
internal_weight=289 153
internal_count=289 153
cat_boundaries=0 1
cat_threshold=1
is_linear=0
shrinkage=0.01


Tree=31
num_leaves=3
num_cat=0
split_feature=3 5
split_gain=11.5053 6.00096
threshold=5.4875625823042649 4.5000000000000009
decision_type=2 2
left_child=-1 -2
right_child=1 -3
leaf_value=-0.0012502618852376201 0.0023008543387969603 0.0098579602117606011
leaf_weight=172 72 45
leaf_count=172 72 45
internal_value=0 0.00237288
internal_weight=289 117
internal_count=289 117
is_linear=0
shrinkage=0.01


Tree=32
num_leaves=3
num_cat=1
split_feature=3 0
split_gain=11.5053 5.89782
threshold=5.4875625823042649 0
decision_type=2 1
left_child=1 -1
right_child=-2 -3
leaf_value=0.0017248991389187118 0.004941882396949775 -0.0053670006377558857
leaf_weight=63 117 109
leaf_count=63 117 109
internal_value=0 -0.0016763
internal_weight=289 172
internal_count=289 172
cat_boundaries=0 1
cat_threshold=2
is_linear=0
shrinkage=0.01


Tree=33
num_leaves=3
num_cat=0
split_feature=3 6
split_gain=10.8579 6.11661
threshold=5.4875625823042649 250.00000000000003
decision_type=2 2
left_child=1 -1
right_child=-2 -3
leaf_value=0.0023052899755396884 0.0048924635729802766 -0.0038061845393334592
leaf_weight=38 117 134
leaf_count=38 117 134
internal_value=0 -0.00156069
internal_weight=289 172
internal_count=289 172
is_linear=0
shrinkage=0.01


Tree=34
num_leaves=3
num_cat=0
split_feature=6 2
split_gain=8.76693 9.21283
threshold=250.00000000000003 13.665684921794645
decision_type=2 2
left_child=-1 -2
right_child=1 -3
leaf_value=0.0044884697823899837 -0.0019958047722557206 0.0092349517106659132
leaf_weight=112 163 13.999999999999998
leaf_count=112 163 14
internal_value=0 -0.00134831
internal_weight=289 177
internal_count=289 177
is_linear=0
shrinkage=0.01


Tree=35
num_leaves=3
num_cat=1
split_feature=3 0
split_gain=11.5053 5.89782
threshold=5.4875625823042649 0
decision_type=2 1
left_child=1 -1
right_child=-2 -3
leaf_value=0.0017656700406454195 0.0047986542394265717 -0.005255310738262433
leaf_weight=63 117 109
leaf_count=63 117 109
internal_value=0 -0.0016763
internal_weight=289 172
internal_count=289 172
cat_boundaries=0 1
cat_threshold=2
is_linear=0
shrinkage=0.01


Tree=36
num_leaves=3
num_cat=0
split_feature=3 5
split_gain=10.8579 6.00096
threshold=5.4875625823042649 4.5000000000000009
decision_type=2 2
left_child=-1 -2
right_child=1 -3
leaf_value=-0.0012146450650649899 0.0020866310954915203 0.0095504397400514359
leaf_weight=172 72 45
leaf_count=172 72 45
internal_value=0 0.00237288
internal_weight=289 117
internal_count=289 117
is_linear=0
shrinkage=0.01


Tree=37
num_leaves=3
num_cat=0
split_feature=3 6
split_gain=10.8579 6.11661
threshold=5.4875625823042649 250.00000000000003
decision_type=2 2
left_child=1 -1
right_child=-2 -3
leaf_value=0.0022669470320991225 0.0047298013860773884 -0.0037185699920788307
leaf_weight=38 117 134
leaf_count=38 117 134
internal_value=0 -0.00156069
internal_weight=289 172
internal_count=289 172
is_linear=0
shrinkage=0.01


Tree=38
num_leaves=3
num_cat=0
split_feature=3 6
split_gain=10.8579 6.11661
threshold=5.4875625823042649 250.00000000000003
decision_type=2 2
left_child=1 -1
right_child=-2 -3
leaf_value=0.0022442775617781321 0.0046825033722166154 -0.003681384292158041
leaf_weight=38 117 134
leaf_count=38 117 134
internal_value=0 -0.00156069
internal_weight=289 172
internal_count=289 172
is_linear=0
shrinkage=0.01


Tree=39
num_leaves=3
num_cat=1
split_feature=0 5
split_gain=10.4121 6.36931
threshold=0 6.5000000000000009
decision_type=1 2
left_child=-1 -2
right_child=1 -3
leaf_value=-0.0033183777735798525 0.0012062321180964996 0.0073423559899183791
leaf_weight=153 95 41
leaf_count=153 95 41
internal_value=0 0.0019708
internal_weight=289 136
internal_count=289 136
cat_boundaries=0 1
cat_threshold=1
is_linear=0
shrinkage=0.01


Tree=40
num_leaves=3
num_cat=1
split_feature=3 0
split_gain=10.8579 5.34522
threshold=5.4875625823042649 0
decision_type=2 1
left_child=1 -1
right_child=-2 -3
leaf_value=0.0018220970125510183 0.0046236160173134836 -0.0050834278596509951
leaf_weight=63 117 109
leaf_count=63 117 109
internal_value=0 -0.00156069
internal_weight=289 172
internal_count=289 172
cat_boundaries=0 1
cat_threshold=2
is_linear=0
shrinkage=0.01


Tree=41
num_leaves=3
num_cat=0
split_feature=3 6
split_gain=10.8579 6.11661
threshold=5.4875625823042649 250.00000000000003
decision_type=2 2
left_child=1 -1
right_child=-2 -3
leaf_value=0.0022487021686732668 0.0045773798571403469 -0.0036177030667235454
leaf_weight=38 117 134
leaf_count=38 117 134
internal_value=0 -0.00156069
internal_weight=289 172
internal_count=289 172
is_linear=0
shrinkage=0.01


Tree=42
num_leaves=3
num_cat=0
split_feature=3 6
split_gain=10.8579 6.11661
threshold=5.4875625823042649 250.00000000000003
decision_type=2 2
left_child=1 -1
right_child=-2 -3
leaf_value=0.0022262151469865342 0.0045316060585689445 -0.0035815260360563084
leaf_weight=38 117 134
leaf_count=38 117 134
internal_value=0 -0.00156069
internal_weight=289 172
internal_count=289 172
is_linear=0
shrinkage=0.01


Tree=43
num_leaves=3
num_cat=0
split_feature=3 6
split_gain=10.8579 6.11661
threshold=5.4875625823042649 250.00000000000003
decision_type=2 2
left_child=1 -1
right_child=-2 -3
leaf_value=0.0022039529955166673 0.0044862899979832569 -0.0035457107756957473
leaf_weight=38 117 134
leaf_count=38 117 134
internal_value=0 -0.00156069
internal_weight=289 172
internal_count=289 172
is_linear=0
shrinkage=0.01


Tree=44
num_leaves=3
num_cat=1
split_feature=0 3
split_gain=10.5145 8.25806
threshold=0 2.5425050714339776
decision_type=1 2
left_child=-1 -2
right_child=1 -3
leaf_value=-0.0032066421375919951 -0.0072796011106085867 0.0044414270980034235
leaf_weight=153 13.999999999999998 122
leaf_count=153 14 122
internal_value=6.89655e-05 0.00211679
internal_weight=289 136
internal_count=289 136
cat_boundaries=0 1
cat_threshold=1
is_linear=0
shrinkage=0.01


Tree=45
num_leaves=3
num_cat=0
split_feature=3 6
split_gain=10.8579 6.11661
threshold=5.4875625823042649 250.00000000000003
decision_type=2 2
left_child=1 -1
right_child=-2 -3
leaf_value=0.0021757395407594449 0.0043970128270233878 -0.0034578224516977896
leaf_weight=38 117 134
leaf_count=38 117 134
internal_value=0 -0.00156069
internal_weight=289 172
internal_count=289 172
is_linear=0
shrinkage=0.01


Tree=46
num_leaves=3
num_cat=1
split_feature=0 3
split_gain=10.5145 8.25806
threshold=0 2.5425050714339776
decision_type=1 2
left_child=-1 -2
right_child=1 -3
leaf_value=-0.0031399974916990958 -0.0071722268749855236 0.0043530426987531531
leaf_weight=153 13.999999999999998 122
leaf_count=153 14 122
internal_value=6.89655e-05 0.00211679
internal_weight=289 136
internal_count=289 136
cat_boundaries=0 1
cat_threshold=1
is_linear=0
shrinkage=0.01


Tree=47
num_leaves=3
num_cat=0
split_feature=3 5
split_gain=10.243 6.00096
threshold=5.4875625823042649 4.5000000000000009
decision_type=2 2
left_child=-1 -2
right_child=1 -3
leaf_value=-0.001104699437544281 0.0017438042668134579 0.0091220123448562378
leaf_weight=172 72 45
leaf_count=172 72 45
internal_value=6.89655e-05 0.00237288
internal_weight=289 117
internal_count=289 117
is_linear=0
shrinkage=0.01


Tree=48
num_leaves=3
num_cat=0
split_feature=3 5
split_gain=10.243 6.00096
threshold=5.4875625823042649 4.5000000000000009
decision_type=2 2
left_child=-1 -2
right_child=1 -3
leaf_value=-0.00109365244316884 0.0017263662241453238 0.0090307922214076762
leaf_weight=172 72 45
leaf_count=172 72 45
internal_value=6.89655e-05 0.00237288
internal_weight=289 117
internal_count=289 117
is_linear=0
shrinkage=0.01


Tree=49
num_leaves=3
num_cat=0
split_feature=9 2
split_gain=8.82969 6.89565
threshold=0.19917326335111571 12.489856199414055
decision_type=2 2
left_child=1 -1
right_child=-2 -3
leaf_value=8.5173286575734869e-06 -0.0054553572605369992 0.0082401379009936944
leaf_weight=199 45 45
leaf_count=199 45 45
internal_value=6.89655e-05 0.000857143
internal_weight=289 244
internal_count=289 244
is_linear=0
shrinkage=0.01


Tree=50
num_leaves=3
num_cat=1
split_feature=0 6
split_gain=9.04763 7.1134
threshold=0 83.500000000000014
decision_type=1 2
left_child=1 -1
right_child=-2 -3
leaf_value=0.0025727556040630794 0.0037306839186264451 -0.0057298243083337532
leaf_weight=31 136 122
leaf_count=31 136 122
internal_value=6.89655e-05 -0.00155844
internal_weight=289 153
internal_count=289 153
cat_boundaries=0 1
cat_threshold=1
is_linear=0
shrinkage=0.01


Tree=51
num_leaves=3
num_cat=0
split_feature=3 6
split_gain=9.34153 5.71036
threshold=5.4875625823042649 250.00000000000003
decision_type=2 2
left_child=1 -1
right_child=-2 -3
leaf_value=0.0021382980672236852 0.0042374185543831945 -0.0033397890578782973
leaf_weight=38 117 134
leaf_count=38 117 134
internal_value=0 -0.00144509
internal_weight=289 172
internal_count=289 172
is_linear=0
shrinkage=0.01


Tree=52
num_leaves=3
num_cat=1
split_feature=0 6
split_gain=9.04763 7.1134
threshold=0 83.500000000000014
decision_type=1 2
left_child=1 -1
right_child=-2 -3
leaf_value=0.0025046538624786184 0.0036510028938963493 -0.0056770142127329408
leaf_weight=31 136 122
leaf_count=31 136 122
internal_value=6.89655e-05 -0.00155844
internal_weight=289 153
internal_count=289 153
cat_boundaries=0 1
cat_threshold=1
is_linear=0
shrinkage=0.01


Tree=53
num_leaves=3
num_cat=0
split_feature=3 5
split_gain=9.94269 4.91621
threshold=5.4875625823042649 4.5000000000000009
decision_type=2 2
left_child=-1 -2
right_child=1 -3
leaf_value=-0.0011232200695701744 0.0016043477216781434 0.0090120933255738618
leaf_weight=172 72 45
leaf_count=172 72 45
internal_value=0 0.00220339
internal_weight=289 117
internal_count=289 117
is_linear=0
shrinkage=0.01


Tree=54
num_leaves=3
num_cat=0
split_feature=3 5
split_gain=9.34153 4.91621
threshold=5.4875625823042649 4.5000000000000009
decision_type=2 2
left_child=-1 -2
right_child=1 -3
leaf_value=-0.0011119878688744711 0.0015883042444613626 0.0089219723923181244
leaf_weight=172 72 45
leaf_count=172 72 45
internal_value=0 0.00220339
internal_weight=289 117
internal_count=289 117
is_linear=0
shrinkage=0.01


Tree=55
num_leaves=3
num_cat=0
split_feature=9 5
split_gain=8.51695 8.89646
threshold=0.19917326335111571 7.5000000000000009
decision_type=2 2
left_child=1 -1
right_child=-2 -3
leaf_value=-0.00017251130925171498 -0.0053278090845276923 0.0055843174386062252
leaf_weight=189 45 55
leaf_count=189 45 55
internal_value=0 0.00077551
internal_weight=289 244
internal_count=289 244
is_linear=0
shrinkage=0.01


Tree=56
num_leaves=3
num_cat=0
split_feature=3 6
split_gain=9.34153 5.71036
threshold=5.4875625823042649 250.00000000000003
decision_type=2 2
left_child=1 -1
right_child=-2 -3
leaf_value=0.0021102139952465415 0.0041283329333315242 -0.0032721839182283641
leaf_weight=38 117 134
leaf_count=38 117 134
internal_value=0 -0.00144509
internal_weight=289 172
internal_count=289 172
is_linear=0
shrinkage=0.01


Tree=57
num_leaves=3
num_cat=1
split_feature=0 3
split_gain=9.04763 7.90485
threshold=0 2.5425050714339776
decision_type=1 2
left_child=-1 -2
right_child=1 -3
leaf_value=-0.0029868695082538779 -0.0070622262066023112 0.0040870496039982071
leaf_weight=153 13.999999999999998 122
leaf_count=153 14 122
internal_value=6.89655e-05 0.0019708
internal_weight=289 136
internal_count=289 136
cat_boundaries=0 1
cat_threshold=1
is_linear=0
shrinkage=0.01


Tree=58
num_leaves=3
num_cat=1
split_feature=0 5
split_gain=9.04763 6.36931
threshold=0 6.5000000000000009
decision_type=1 2
left_child=-1 -2
right_child=1 -3
leaf_value=-0.0029570008131713402 0.0010598004430512641 0.0063396867549147772
leaf_weight=153 95 41
leaf_count=153 95 41
internal_value=6.89655e-05 0.0019708
internal_weight=289 136
internal_count=289 136
cat_boundaries=0 1
cat_threshold=1
is_linear=0
shrinkage=0.01


Tree=59
num_leaves=3
num_cat=0
split_feature=3 6
split_gain=8.77282 5.31713
threshold=5.4875625823042649 250.00000000000003
decision_type=2 2
left_child=1 -1
right_child=-2 -3
leaf_value=0.0020930969566659539 0.0040355811035277123 -0.0031797305986212021
leaf_weight=38 117 134
leaf_count=38 117 134
internal_value=6.89655e-05 -0.00132948
internal_weight=289 172
internal_count=289 172
is_linear=0
shrinkage=0.01


Tree=60
num_leaves=3
num_cat=0
split_feature=9 5
split_gain=8.3134 11.7625
threshold=0.24587760999254291 7.5000000000000009
decision_type=2 2
left_child=1 -1
right_child=-2 -3
leaf_value=-6.4065744184698122e-05 -0.010774936521563989 0.0053821737911119039
leaf_weight=198 32 59
leaf_count=198 32 59
internal_value=0.000137931 0.000775194
internal_weight=289 257
internal_count=289 257
is_linear=0
shrinkage=0.01


Tree=61
num_leaves=3
num_cat=0
split_feature=3 6
split_gain=8.77282 5.31713
threshold=5.4875625823042649 250.00000000000003
decision_type=2 2
left_child=1 -1
right_child=-2 -3
leaf_value=0.0020728066445411409 0.0039958659499342852 -0.0031472926351931397
leaf_weight=38 117 134
leaf_count=38 117 134
internal_value=6.89655e-05 -0.00132948
internal_weight=289 172
internal_count=289 172
is_linear=0
shrinkage=0.01


Tree=62
num_leaves=3
num_cat=1
split_feature=0 3
split_gain=8.40885 7.90485
threshold=0 2.5425050714339776
decision_type=1 2
left_child=-1 -2
right_child=1 -3
leaf_value=-0.0030615670134853624 -0.0069382910591868057 0.0039559072904349433
leaf_weight=153 13.999999999999998 122
leaf_count=153 14 122
internal_value=0.000137931 0.0019708
internal_weight=289 136
internal_count=289 136
cat_boundaries=0 1
cat_threshold=1
is_linear=0
shrinkage=0.01


Tree=63
num_leaves=3
num_cat=0
split_feature=9 5
split_gain=9.36039 10.0279
threshold=0.24587760999254291 7.5000000000000009
decision_type=2 2
left_child=1 -1
right_child=-2 -3
leaf_value=-3.3835630679890372e-06 -0.010631199056260237 0.0052680649138510246
leaf_weight=198 32 59
leaf_count=198 32 59
internal_value=0.000413793 0.00108527
internal_weight=289 257
internal_count=289 257
is_linear=0
shrinkage=0.01


Tree=64
num_leaves=3
num_cat=0
split_feature=9 5
split_gain=9.36039 10.0279
threshold=0.24587760999254291 7.5000000000000009
decision_type=2 2
left_child=1 -1
right_child=-2 -3
leaf_value=-3.3497274373095467e-06 -0.010524887065697633 0.0052153842647125123
leaf_weight=198 32 59
leaf_count=198 32 59
internal_value=0.000413793 0.00108527
internal_weight=289 257
internal_count=289 257
is_linear=0
shrinkage=0.01


Tree=65
num_leaves=3
num_cat=0
split_feature=9 2
split_gain=9.09351 5.73667
threshold=0.24587760999254291 13.322087948473209
decision_type=2 2
left_child=1 -1
right_child=-2 -3
leaf_value=8.6294417650478747e-05 -0.010419638195040657 0.010765571169358279
leaf_weight=226 32 31
leaf_count=226 32 31
internal_value=0.000344828 0.00100775
internal_weight=289 257
internal_count=289 257
is_linear=0
shrinkage=0.01


Tree=66
num_leaves=3
num_cat=1
split_feature=9 0
split_gain=9.09351 5.85353
threshold=0.24587760999254291 0
decision_type=2 1
left_child=1 -1
right_child=-2 -3
leaf_value=-0.0015457954377259232 -0.010315441813090251 0.0036188611336448861
leaf_weight=125 32 132
leaf_count=125 32 132
internal_value=0.000344828 0.00100775
internal_weight=289 257
internal_count=289 257
cat_boundaries=0 1
cat_threshold=1
is_linear=0
shrinkage=0.01


Tree=67
num_leaves=3
num_cat=0
split_feature=9 5
split_gain=8.57001 9.43592
threshold=0.24587760999254291 7.5000000000000009
decision_type=2 2
left_child=1 -1
right_child=-2 -3
leaf_value=-1.9214306177273157e-05 -0.010212287394959347 0.0051261788665524352
leaf_weight=198 32 59
leaf_count=198 32 59
internal_value=0.000206897 0.000852713
internal_weight=289 257
internal_count=289 257
is_linear=0
shrinkage=0.01


Tree=68
num_leaves=3
num_cat=1
split_feature=3 0
split_gain=7.72045 5.40412
threshold=8.2501392023999092 0
decision_type=2 1
left_child=1 -1
right_child=-2 -3
leaf_value=-0.0037126356786925108 0.0077090554523519253 0.002706437287832091
leaf_weight=143 33 113
leaf_count=143 33 113
internal_value=0.000206897 -0.000350195
internal_weight=289 256
internal_count=289 256
cat_boundaries=0 1
cat_threshold=1
is_linear=0
shrinkage=0.01


Tree=69
num_leaves=3
num_cat=0
split_feature=9 5
split_gain=8.83005 9.03913
threshold=0.24587760999254291 7.5000000000000009
decision_type=2 2
left_child=1 -1
right_child=-2 -3
leaf_value=-3.7582468298436034e-05 -0.010073038164222827 0.0050478527050085908
leaf_weight=198 32 59
leaf_count=198 32 59
internal_value=0.000275862 0.000930233
internal_weight=289 257
internal_count=289 257
is_linear=0
shrinkage=0.01


Tree=70
num_leaves=3
num_cat=0
split_feature=9 3
split_gain=8.83005 6.02421
threshold=0.24587760999254291 4.9211515598599069
decision_type=2 2
left_child=1 -1
right_child=-2 -3
leaf_value=-0.00035374718869635836 -0.0099723077825806007 0.0038528675897891284
leaf_weight=128 32 129
leaf_count=128 32 129
internal_value=0.000275862 0.000930233
internal_weight=289 257
internal_count=289 257
is_linear=0
shrinkage=0.01


Tree=71
num_leaves=3
num_cat=0
split_feature=9 5
split_gain=8.57001 9.43592
threshold=0.24587760999254291 7.5000000000000009
decision_type=2 2
left_child=1 -1
right_child=-2 -3
leaf_value=-3.3669171728489826e-05 -0.0098725847047547947 0.0050009116498454676
leaf_weight=198 32 59
leaf_count=198 32 59
internal_value=0.000206897 0.000852713
internal_weight=289 257
internal_count=289 257
is_linear=0
shrinkage=0.01


Tree=72
num_leaves=3
num_cat=0
split_feature=3 6
split_gain=7.72045 4.1732
threshold=8.2501392023999092 250.00000000000003
decision_type=2 2
left_child=1 -1
right_child=-2 -3
leaf_value=0.0024326678316648567 0.007492948578381977 -0.0013621441669019374
leaf_weight=85 33 171
leaf_count=85 33 171
internal_value=0.000206897 -0.000350195
internal_weight=289 256
internal_count=289 256
is_linear=0
shrinkage=0.01


Tree=73
num_leaves=3
num_cat=0
split_feature=9 2
split_gain=8.57001 6.23416
threshold=0.24587760999254291 13.322087948473209
decision_type=2 2
left_child=1 -1
right_child=-2 -3
leaf_value=0.00011992757752872674 -0.0097792114760310595 0.010432082789585059
leaf_weight=226 32 31
leaf_count=226 32 31
internal_value=0.000206897 0.000852713
internal_weight=289 257
internal_count=289 257
is_linear=0
shrinkage=0.01


Tree=74
num_leaves=3
num_cat=1
split_feature=3 0
split_gain=7.72045 5.40412
threshold=8.2501392023999092 0
decision_type=2 1
left_child=1 -1
right_child=-2 -3
leaf_value=-0.0033483798035541801 0.0073136982647023039 0.0025814552309047258
leaf_weight=143 33 113
leaf_count=143 33 113
internal_value=0.000206897 -0.000350195
internal_weight=289 256
internal_count=289 256
cat_boundaries=0 1
cat_threshold=1
is_linear=0
shrinkage=0.01


Tree=75
num_leaves=3
num_cat=0
split_feature=9 5
split_gain=8.57001 9.43592
threshold=0.24587760999254291 7.5000000000000009
decision_type=2 2
left_child=1 -1
right_child=-2 -3
leaf_value=-4.6724866426521852e-05 -0.0096479355632352083 0.0048995620269460319
leaf_weight=198 32 59
leaf_count=198 32 59
internal_value=0.000206897 0.000852713
internal_weight=289 257
internal_count=289 257
is_linear=0
shrinkage=0.01


Tree=76
num_leaves=3
num_cat=0
split_feature=3 9
split_gain=7.49938 6.09363
threshold=8.2501392023999092 0.24587760999254291
decision_type=2 2
left_child=1 -1
right_child=-2 -3
leaf_value=0.00018685374691903789 0.0071915656617858219 -0.010066425129938779
leaf_weight=225 33 31
leaf_count=225 33 31
internal_value=0.000275862 -0.000272374
internal_weight=289 256
internal_count=289 256
is_linear=0
shrinkage=0.01


Tree=77
num_leaves=3
num_cat=0
split_feature=3 9
split_gain=7.49938 6.09363
threshold=8.2501392023999092 0.24587760999254291
decision_type=2 2
left_child=1 -1
right_child=-2 -3
leaf_value=0.00018498520944984609 0.0071196500051679615 -0.0099657608786393893
leaf_weight=225 33 31
leaf_count=225 33 31
internal_value=0.000275862 -0.000272374
internal_weight=289 256
internal_count=289 256
is_linear=0
shrinkage=0.01


Tree=78
num_leaves=3
num_cat=1
split_feature=3 0
split_gain=7.49938 4.88975
threshold=8.2501392023999092 0
decision_type=2 1
left_child=1 -1
right_child=-2 -3
leaf_value=-0.0033190987421499642 0.0070484535051162835 0.0025029266687625284
leaf_weight=143 33 113
leaf_count=143 33 113
internal_value=0.000275862 -0.000272374
internal_weight=289 256
internal_count=289 256
cat_boundaries=0 1
cat_threshold=1
is_linear=0
shrinkage=0.01


Tree=79
num_leaves=3
num_cat=0
split_feature=3 9
split_gain=7.28186 6.31091
threshold=8.2501392023999092 0.24587760999254291
decision_type=2 2
left_child=1 -1
right_child=-2 -3
leaf_value=0.00021632634477684488 0.0069779689700651204 -0.0098329122824314958
leaf_weight=225 33 31
leaf_count=225 33 31
internal_value=0.000344828 -0.000194553
internal_weight=289 256
internal_count=289 256
is_linear=0
shrinkage=0.01


Tree=80
num_leaves=3
num_cat=0
split_feature=3 9
split_gain=7.28186 6.31091
threshold=8.2501392023999092 0.24587760999254291
decision_type=2 2
left_child=1 -1
right_child=-2 -3
leaf_value=0.00021416308132907514 0.0069081892803644698 -0.0097345831596071797
leaf_weight=225 33 31
leaf_count=225 33 31
internal_value=0.000344828 -0.000194553
internal_weight=289 256
internal_count=289 256
is_linear=0
shrinkage=0.01


Tree=81
num_leaves=3
num_cat=0
split_feature=3 6
split_gain=7.28186 4.50737
threshold=8.2501392023999092 250.00000000000003
decision_type=2 2
left_child=1 -1
right_child=-2 -3
leaf_value=0.0024662606278694765 0.006839107387560826 -0.001457584724099088
leaf_weight=85 33 171
leaf_count=85 33 171
internal_value=0.000344828 -0.000194553
internal_weight=289 256
internal_count=289 256
is_linear=0
shrinkage=0.01


Tree=82
num_leaves=3
num_cat=1
split_feature=3 0
split_gain=7.49938 4.88975
threshold=8.2501392023999092 0
decision_type=2 1
left_child=1 -1
right_child=-2 -3
leaf_value=-0.0033148752552682216 0.0067707163136852171 0.0024489299015351485
leaf_weight=143 33 113
leaf_count=143 33 113
internal_value=0.000275862 -0.000272374
internal_weight=289 256
internal_count=289 256
cat_boundaries=0 1
cat_threshold=1
is_linear=0
shrinkage=0.01


Tree=83
num_leaves=3
num_cat=0
split_feature=3 6
split_gain=7.28186 4.50737
threshold=8.2501392023999092 250.00000000000003
decision_type=2 2
left_child=1 -1
right_child=-2 -3
leaf_value=0.0024244406025197974 0.0067030091505483648 -0.0014674981758734473
leaf_weight=85 33 171
leaf_count=85 33 171
internal_value=0.000344828 -0.000194553
internal_weight=289 256
internal_count=289 256
is_linear=0
shrinkage=0.01


Tree=84
num_leaves=3
num_cat=0
split_feature=3 9
split_gain=7.49938 6.09363
threshold=8.2501392023999092 0.24587760999254291
decision_type=2 2
left_child=1 -1
right_child=-2 -3
leaf_value=0.00022790726564223541 0.0066359790590428827 -0.0095748377464586996
leaf_weight=225 33 31
leaf_count=225 33 31
internal_value=0.000275862 -0.000272374
internal_weight=289 256
internal_count=289 256
is_linear=0
shrinkage=0.01


Tree=85
num_leaves=3
num_cat=0
split_feature=3 9
split_gain=7.49938 6.09363
threshold=8.2501392023999092 0.24587760999254291
decision_type=2 2
left_child=1 -1
right_child=-2 -3
leaf_value=0.00022562819298581173 0.0065696192684524535 -0.0094790893689941143
leaf_weight=225 33 31
leaf_count=225 33 31
internal_value=0.000275862 -0.000272374
internal_weight=289 256
internal_count=289 256
is_linear=0
shrinkage=0.01


Tree=86
num_leaves=3
num_cat=0
split_feature=3 9
split_gain=7.49938 6.09363
threshold=8.2501392023999092 0.24587760999254291
decision_type=2 2
left_child=1 -1
right_child=-2 -3
leaf_value=0.00022337191105595178 0.0065039230757679301 -0.009384298475304172
leaf_weight=225 33 31
leaf_count=225 33 31
internal_value=0.000275862 -0.000272374
internal_weight=289 256
internal_count=289 256
is_linear=0
shrinkage=0.01


Tree=87
num_leaves=3
num_cat=1
split_feature=3 0
split_gain=7.49938 4.88975
threshold=8.2501392023999092 0
decision_type=2 1
left_child=1 -1
right_child=-2 -3
leaf_value=-0.0033117883867056766 0.006438883845010253 0.0023934271227977577
leaf_weight=143 33 113
leaf_count=143 33 113
internal_value=0.000275862 -0.000272374
internal_weight=289 256
internal_count=289 256
cat_boundaries=0 1
cat_threshold=1
is_linear=0
shrinkage=0.01


Tree=88
num_leaves=3
num_cat=0
split_feature=3 9
split_gain=7.28186 6.31091
threshold=8.2501392023999092 0.24587760999254291
decision_type=2 2
left_child=1 -1
right_child=-2 -3
leaf_value=0.00023242104530682984 0.0063744950065601456 -0.0092573376066840702
leaf_weight=225 33 31
leaf_count=225 33 31
internal_value=0.000344828 -0.000194553
internal_weight=289 256
internal_count=289 256
is_linear=0
shrinkage=0.01


Tree=89
num_leaves=3
num_cat=0
split_feature=3 6
split_gain=7.28186 4.50737
threshold=8.2501392023999092 250.00000000000003
decision_type=2 2
left_child=1 -1
right_child=-2 -3
leaf_value=0.0023671686411167146 0.0063107500564945429 -0.0014858507494925988
leaf_weight=85 33 171
leaf_count=85 33 171
internal_value=0.000344828 -0.000194553
internal_weight=289 256
internal_count=289 256
is_linear=0
shrinkage=0.01


Tree=90
num_leaves=3
num_cat=0
split_feature=3 9
split_gain=7.49938 6.09363
threshold=8.2501392023999092 0.24587760999254291
decision_type=2 2
left_child=1 -1
right_child=-2 -3
leaf_value=0.00024495534234869165 0.0062476425559296004 -0.0091499057231222997
leaf_weight=225 33 31
leaf_count=225 33 31
internal_value=0.000275862 -0.000272374
internal_weight=289 256
internal_count=289 256
is_linear=0
shrinkage=0.01


Tree=91
num_leaves=3
num_cat=0
split_feature=3 9
split_gain=7.49938 6.09363
threshold=8.2501392023999092 0.24587760999254291
decision_type=2 2
left_child=1 -1
right_child=-2 -3
leaf_value=0.00024250578892520469 0.0061851661303703055 -0.0090584066658910799
leaf_weight=225 33 31
leaf_count=225 33 31
internal_value=0.000275862 -0.000272374
internal_weight=289 256
internal_count=289 256
is_linear=0
shrinkage=0.01


Tree=92
num_leaves=3
num_cat=0
split_feature=3 6
split_gain=7.96976 4.21552
threshold=5.4875625823042649 250.00000000000003
decision_type=2 2
left_child=1 -1
right_child=-2 -3
leaf_value=0.0019220944192590796 0.0033302002912625464 -0.0022703197751930771
leaf_weight=38 117 134
leaf_count=38 117 134
internal_value=0.000344828 -0.000982659
internal_weight=289 172
internal_count=289 172
is_linear=0
shrinkage=0.01


Tree=93
num_leaves=3
num_cat=0
split_feature=3 5
split_gain=7.96976 4.22014
threshold=5.4875625823042649 4.5000000000000009
decision_type=2 2
left_child=-1 -2
right_child=1 -3
leaf_value=-0.001194700805365807 0.00086771623470752516 0.0086426282951248597
leaf_weight=172 72 45
leaf_count=172 72 45
internal_value=0.000344828 0.00237288
internal_weight=289 117
internal_count=289 117
is_linear=0
shrinkage=0.01


Tree=94
num_leaves=3
num_cat=0
split_feature=3 5
split_gain=7.96976 4.22014
threshold=5.4875625823042649 4.5000000000000009
decision_type=2 2
left_child=-1 -2
right_child=1 -3
leaf_value=-0.0011827537973121505 0.00085903907236045023 0.0085562020121736099
leaf_weight=172 72 45
leaf_count=172 72 45
internal_value=0.000344828 0.00237288
internal_weight=289 117
internal_count=289 117
is_linear=0
shrinkage=0.01


Tree=95
num_leaves=3
num_cat=0
split_feature=3 5
split_gain=7.96976 4.22014
threshold=5.4875625823042649 4.5000000000000009
decision_type=2 2
left_child=-1 -2
right_child=1 -3
leaf_value=-0.0011709262593390291 0.00085044868163684393 0.0084706399920518732
leaf_weight=172 72 45
leaf_count=172 72 45
internal_value=0.000344828 0.00237288
internal_weight=289 117
internal_count=289 117
is_linear=0
shrinkage=0.01


Tree=96
num_leaves=3
num_cat=0
split_feature=6 2
split_gain=7.92076 7.5013
threshold=83.500000000000014 13.665684921794645
decision_type=2 2
left_child=-1 -2
right_child=1 -3
leaf_value=0.0035367055901387181 -0.0012677822477678725 0.0065751457489942287
leaf_weight=59 210 20
leaf_count=59 210 20
internal_value=0.000413793 -0.00038961
internal_weight=289 230
internal_count=289 230
is_linear=0
shrinkage=0.01


Tree=97
num_leaves=3
num_cat=0
split_feature=3 9
split_gain=7.49938 6.09363
threshold=8.2501392023999092 0.24587760999254291
decision_type=2 2
left_child=1 -1
right_child=-2 -3
leaf_value=0.0002620333076455328 0.0057675663056705245 -0.0088969577703823886
leaf_weight=225 33 31
leaf_count=225 33 31
internal_value=0.000275862 -0.000272374
internal_weight=289 256
internal_count=289 256
is_linear=0
shrinkage=0.01


Tree=98
num_leaves=3
num_cat=0
split_feature=3 5
split_gain=7.96976 4.22014
threshold=5.4875625823042649 4.5000000000000009
decision_type=2 2
left_child=-1 -2
right_child=1 -3
leaf_value=-0.0011491595073444172 0.00080045158004203869 0.008395991081532576
leaf_weight=172 72 45
leaf_count=172 72 45
internal_value=0.000344828 0.00237288
internal_weight=289 117
internal_count=289 117
is_linear=0
shrinkage=0.01


Tree=99
num_leaves=3
num_cat=0
split_feature=6 5
split_gain=6.67249 10.4855
threshold=83.500000000000014 7.5000000000000009
decision_type=2 2
left_child=-1 -2
right_child=1 -3
leaf_value=0.0034907136853604514 -0.0028781201520820198 0.0028497740744318789
leaf_weight=59 170 60
leaf_count=59 170 60
internal_value=0.000344828 -0.00038961
internal_weight=289 230
internal_count=289 230
is_linear=0
shrinkage=0.01


Tree=100
num_leaves=3
num_cat=0
split_feature=3 5
split_gain=6.94508 4.22014
threshold=5.4875625823042649 4.5000000000000009
decision_type=2 2
left_child=-1 -2
right_child=1 -3
leaf_value=-0.0011088867107501522 0.00078938409657522521 0.0082835334299729314
leaf_weight=172 72 45
leaf_count=172 72 45
internal_value=0.000482759 0.00237288
internal_weight=289 117
internal_count=289 117
is_linear=0
shrinkage=0.01


Tree=101
num_leaves=3
num_cat=1
split_feature=3 0
split_gain=6.94508 4.42312
threshold=5.4875625823042649 0
decision_type=2 1
left_child=1 -1
right_child=-2 -3
leaf_value=0.0018648605616613035 0.003177781822106538 -0.0044844451498806228
leaf_weight=63 117 109
leaf_count=63 117 109
internal_value=0.000482759 -0.000751445
internal_weight=289 172
internal_count=289 172
cat_boundaries=0 1
cat_threshold=2
is_linear=0
shrinkage=0.01


Tree=102
num_leaves=3
num_cat=0
split_feature=3 9
split_gain=7.28186 6.31091
threshold=8.2501392023999092 0.24587760999254291
decision_type=2 2
left_child=1 -1
right_child=-2 -3
leaf_value=0.00025209604037451427 0.0054828198385333858 -0.0087117820774779905
leaf_weight=225 33 31
leaf_count=225 33 31
internal_value=0.000344828 -0.000194553
internal_weight=289 256
internal_count=289 256
is_linear=0
shrinkage=0.01


Tree=103
num_leaves=3
num_cat=0
split_feature=2 6
split_gain=6.26345 5.94388
threshold=13.665684921794645 250.00000000000003
decision_type=2 2
left_child=1 -1
right_child=-2 -3
leaf_value=0.0027850459171290388 0.0080577972221813603 -0.0015627725666579727
leaf_weight=102 24 163
leaf_count=102 24 163
internal_value=0.000413793 0
internal_weight=289 265
internal_count=289 265
is_linear=0
shrinkage=0.01


Tree=104
num_leaves=3
num_cat=1
split_feature=3 0
split_gain=7.06788 4.98837
threshold=8.2501392023999092 0
decision_type=2 1
left_child=1 -1
right_child=-2 -3
leaf_value=-0.0033291191783147412 0.0053474136679262331 0.0021124977946412661
leaf_weight=143 33 113
leaf_count=143 33 113
internal_value=0.000413793 -0.000116732
internal_weight=289 256
internal_count=289 256
cat_boundaries=0 1
cat_threshold=1
is_linear=0
shrinkage=0.01


Tree=105
num_leaves=3
num_cat=0
split_feature=3 5
split_gain=7.49938 4.22954
threshold=8.2501392023999092 7.5000000000000009
decision_type=2 2
left_child=1 -1
right_child=-2 -3
leaf_value=-0.0011244646619428434 0.0052939395312469719 0.002443201161790949
leaf_weight=197 33 59
leaf_count=197 33 59
internal_value=0.000275862 -0.000272374
internal_weight=289 256
internal_count=289 256
is_linear=0
shrinkage=0.01


Tree=106
num_leaves=3
num_cat=1
split_feature=2 0
split_gain=6.08414 4.68536
threshold=13.665684921794645 0
decision_type=2 1
left_child=1 -1
right_child=-2 -3
leaf_value=-0.0032238845505540284 0.007919072318300191 0.0021307922935970415
leaf_weight=148 24 117
leaf_count=148 24 117
internal_value=0.000482759 0
internal_weight=289 265
internal_count=289 265
cat_boundaries=0 1
cat_threshold=1
is_linear=0
shrinkage=0.01


Tree=107
num_leaves=3
num_cat=0
split_feature=6 5
split_gain=6.96979 9.13202
threshold=83.500000000000014 7.5000000000000009
decision_type=2 2
left_child=-1 -2
right_child=1 -3
leaf_value=0.0033545752154820409 -0.0029070920987481364 0.0027704206461594571
leaf_weight=59 170 60
leaf_count=59 170 60
internal_value=0.000275862 -0.00047619
internal_weight=289 230
internal_count=289 230
is_linear=0
shrinkage=0.01


Tree=108
num_leaves=3
num_cat=0
split_feature=6 5
split_gain=6.38224 9.31799
threshold=83.500000000000014 5.5000000000000009
decision_type=2 2
left_child=-1 -2
right_child=1 -3
leaf_value=0.0033210294633272187 -0.0031671354063301993 0.0019665882737517526
leaf_weight=59 158 72
leaf_count=59 158 72
internal_value=0.000413793 -0.00030303
internal_weight=289 230
internal_count=289 230
is_linear=0
shrinkage=0.01


Tree=109
num_leaves=3
num_cat=0
split_feature=3 5
split_gain=6.30311 4.09887
threshold=9.2825009747997616 7.5000000000000009
decision_type=2 2
left_child=1 -1
right_child=-2 -3
leaf_value=-0.0010737856632086018 0.0086249204597459179 0.0020892966397984504
leaf_weight=207 18 64
leaf_count=207 18 64
internal_value=0.000206897 -0.000147059
internal_weight=289 271
internal_count=289 271
is_linear=0
shrinkage=0.01


Tree=110
num_leaves=3
num_cat=1
split_feature=3 0
split_gain=6.02359 5.5907
threshold=9.2825009747997616 0
decision_type=2 1
left_child=1 -1
right_child=-2 -3
leaf_value=-0.0033083626845626314 0.0085386712551484573 0.0020146189321352793
leaf_weight=147 18 124
leaf_count=147 18 124
internal_value=0.000344828 0
internal_weight=289 271
internal_count=289 271
cat_boundaries=0 1
cat_threshold=1
is_linear=0
shrinkage=0.01


Tree=111
num_leaves=3
num_cat=0
split_feature=6 5
split_gain=6.96979 7.42787
threshold=83.500000000000014 7.5000000000000009
decision_type=2 2
left_child=-1 -2
right_child=1 -3
leaf_value=0.0032784108360046815 -0.002855758156386621 0.0027086263093244957
leaf_weight=59 170 60
leaf_count=59 170 60
internal_value=0.000275862 -0.00047619
internal_weight=289 230
internal_count=289 230
is_linear=0
shrinkage=0.01


Tree=112
num_leaves=3
num_cat=1
split_feature=3 0
split_gain=6.02359 5.5907
threshold=9.2825009747997616 0
decision_type=2 1
left_child=1 -1
right_child=-2 -3
leaf_value=-0.0033080631660770531 0.0084233493568703285 0.0020230303243777949
leaf_weight=147 18 124
leaf_count=147 18 124
internal_value=0.000344828 0
internal_weight=289 271
internal_count=289 271
cat_boundaries=0 1
cat_threshold=1
is_linear=0
shrinkage=0.01


Tree=113
num_leaves=3
num_cat=0
split_feature=6 5
split_gain=6.96979 7.42787
threshold=83.500000000000014 7.5000000000000009
decision_type=2 2
left_child=-1 -2
right_child=1 -3
leaf_value=0.0032253964244008549 -0.0028474308780665324 0.0026879652104397447
leaf_weight=59 170 60
leaf_count=59 170 60
internal_value=0.000275862 -0.00047619
internal_weight=289 230
internal_count=289 230
is_linear=0
shrinkage=0.01


Tree=114
num_leaves=3
num_cat=0
split_feature=6 5
split_gain=5.26729 7.6776
threshold=83.500000000000014 5.5000000000000009
decision_type=2 2
left_child=-1 -2
right_child=1 -3
leaf_value=0.0031931424601568462 -0.0031080707978554112 0.0019562717066753609
leaf_weight=59 158 72
leaf_count=59 158 72
internal_value=0.000344828 -0.00030303
internal_weight=289 230
internal_count=289 230
is_linear=0
shrinkage=0.01


Tree=115
num_leaves=3
num_cat=1
split_feature=3 0
split_gain=5.87187 5.07719
threshold=9.2825009747997616 0
decision_type=2 1
left_child=1 -1
right_child=-2 -3
leaf_value=-0.0033391679232618633 0.0082838019842932618 0.0020370333253705809
leaf_weight=147 18 124
leaf_count=147 18 124
internal_value=0.000413793 0
internal_weight=289 271
internal_count=289 271
cat_boundaries=0 1
cat_threshold=1
is_linear=0
shrinkage=0.01


Tree=116
num_leaves=3
num_cat=0
split_feature=6 5
split_gain=5.26729 6.56997
threshold=83.500000000000014 7.5000000000000009
decision_type=2 2
left_child=-1 -2
right_child=1 -3
leaf_value=0.0031408407023015704 -0.0028082461945610196 0.0026480335142580504
leaf_weight=59 170 60
leaf_count=59 170 60
internal_value=0.000344828 -0.00030303
internal_weight=289 230
internal_count=289 230
is_linear=0
shrinkage=0.01


Tree=117
num_leaves=3
num_cat=0
split_feature=9 5
split_gain=5.40267 5.83913
threshold=0.24587760999254291 7.5000000000000009
decision_type=2 2
left_child=1 -1
right_child=-2 -3
leaf_value=3.6230142352733365e-05 -0.0080730092276429209 0.0041980402720586743
leaf_weight=198 32 59
leaf_count=198 32 59
internal_value=0.000413793 0.000930233
internal_weight=289 257
internal_count=289 257
is_linear=0
shrinkage=0.01


Tree=118
num_leaves=3
num_cat=0
split_feature=9 5
split_gain=5.40267 5.83913
threshold=0.24587760999254291 7.5000000000000009
decision_type=2 2
left_child=1 -1
right_child=-2 -3
leaf_value=3.5867840929204588e-05 -0.0079922791353664886 0.0041560598693380869
leaf_weight=198 32 59
leaf_count=198 32 59
internal_value=0.000413793 0.000930233
internal_weight=289 257
internal_count=289 257
is_linear=0
shrinkage=0.01


Tree=119
num_leaves=3
num_cat=1
split_feature=3 0
split_gain=6.02359 4.50119
threshold=9.2825009747997616 0
decision_type=2 1
left_child=1 -1
right_child=-2 -3
leaf_value=-0.0033379056308850828 0.0081298886027441376 0.0020440244742296644
leaf_weight=147 18 124
leaf_count=147 18 124
internal_value=0.000344828 0
internal_weight=289 271
internal_count=289 271
cat_boundaries=0 1
cat_threshold=1
is_linear=0
shrinkage=0.01


Tree=120
num_leaves=3
num_cat=0
split_feature=3 9
split_gain=6.16244 4.17945
threshold=9.2825009747997616 0.19917326335111571
decision_type=2 2
left_child=1 -1
right_child=-2 -3
leaf_value=0.00056380494121279325 0.0080485897167166913 -0.005496372646032999
leaf_weight=227 18 44
leaf_count=227 18 44
internal_value=0.000275862 -7.35294e-05
internal_weight=289 271
internal_count=289 271
is_linear=0
shrinkage=0.01


Tree=121
num_leaves=3
num_cat=0
split_feature=6 5
split_gain=5.52996 5.51341
threshold=83.500000000000014 7.5000000000000009
decision_type=2 2
left_child=-1 -2
right_child=1 -3
leaf_value=0.0030826330212913077 -0.0028069630066026542 0.0025388435340726501
leaf_weight=59 170 60
leaf_count=59 170 60
internal_value=0.000275862 -0.00038961
internal_weight=289 230
internal_count=289 230
is_linear=0
shrinkage=0.01


Tree=122
num_leaves=3
num_cat=1
split_feature=3 0
split_gain=6.02359 4.50119
threshold=9.2825009747997616 0
decision_type=2 1
left_child=1 -1
right_child=-2 -3
leaf_value=-0.0033409909542012751 0.0079399964367727043 0.0020460158101412661
leaf_weight=147 18 124
leaf_count=147 18 124
internal_value=0.000344828 0
internal_weight=289 271
internal_count=289 271
cat_boundaries=0 1
cat_threshold=1
is_linear=0
shrinkage=0.01


Tree=123
num_leaves=3
num_cat=0
split_feature=3 9
split_gain=6.16244 4.17945
threshold=9.2825009747997616 0.19917326335111571
decision_type=2 2
left_child=1 -1
right_child=-2 -3
leaf_value=0.00056075047112976503 0.0078605964724049789 -0.0054335934464897172
leaf_weight=227 18 44
leaf_count=227 18 44
internal_value=0.000275862 -7.35294e-05
internal_weight=289 271
internal_count=289 271
is_linear=0
shrinkage=0.01


Tree=124
num_leaves=3
num_cat=0
split_feature=3 9
split_gain=6.16244 4.17945
threshold=9.2825009747997616 0.19917326335111571
decision_type=2 2
left_child=1 -1
right_child=-2 -3
leaf_value=0.00055514296641846707 0.0077819905076809319 -0.0053792575120248202
leaf_weight=227 18 44
leaf_count=227 18 44
internal_value=0.000275862 -7.35294e-05
internal_weight=289 271
internal_count=289 271
is_linear=0
shrinkage=0.01


Tree=125
num_leaves=3
num_cat=0
split_feature=3 9
split_gain=6.16244 4.17945
threshold=9.2825009747997616 0.19917326335111571
decision_type=2 2
left_child=1 -1
right_child=-2 -3
leaf_value=0.00054959153675428142 0.0077041706026041235 -0.0053254649369045741
leaf_weight=227 18 44
leaf_count=227 18 44
internal_value=0.000275862 -7.35294e-05
internal_weight=289 271
internal_count=289 271
is_linear=0
shrinkage=0.01


Tree=126
num_leaves=3
num_cat=0
split_feature=3 7
split_gain=6.16244 3.91729
threshold=9.2825009747997616 1.0000000180025095e-35
decision_type=2 2
left_child=-1 -2
right_child=1 -3
leaf_value=-2.9598078461625655e-05 0.013701832589631096 -0.0045025474689990566
leaf_weight=271 13.000000000000002 4.9999999999999991
leaf_count=271 13 5
internal_value=0.000275862 0.00578947
internal_weight=289 18
internal_count=289 18
is_linear=0
shrinkage=0.01


Tree=127
num_leaves=3
num_cat=0
split_feature=6 5
split_gain=5.52996 5.51341
threshold=83.500000000000014 7.5000000000000009
decision_type=2 2
left_child=-1 -2
right_child=1 -3
leaf_value=0.0030149876640185713 -0.0028157124035964511 0.0025035711054938138
leaf_weight=59 170 60
leaf_count=59 170 60
internal_value=0.000275862 -0.00038961
internal_weight=289 230
internal_count=289 230
is_linear=0
shrinkage=0.01


Tree=128
num_leaves=3
num_cat=1
split_feature=3 0
split_gain=6.02359 4.50119
threshold=9.2825009747997616 0
decision_type=2 1
left_child=1 -1
right_child=-2 -3
leaf_value=-0.003354089790257855 0.0075535396771273609 0.0020373539071174098
leaf_weight=147 18 124
leaf_count=147 18 124
internal_value=0.000344828 0
internal_weight=289 271
internal_count=289 271
cat_boundaries=0 1
cat_threshold=1
is_linear=0
shrinkage=0.01


Tree=129
num_leaves=3
num_cat=1
split_feature=6 0
split_gain=5.52996 5.50062
threshold=83.500000000000014 0
decision_type=2 1
left_child=-1 -2
right_child=1 -3
leaf_value=0.0029644642483072125 -0.0046483626338100015 0.0017606191076277168
leaf_weight=59 122 108
leaf_count=59 122 108
internal_value=0.000275862 -0.00038961
internal_weight=289 230
internal_count=289 230
cat_boundaries=0 1
cat_threshold=1
is_linear=0
shrinkage=0.01


Tree=130
num_leaves=3
num_cat=1
split_feature=3 0
split_gain=6.16244 3.97448
threshold=9.2825009747997616 0
decision_type=2 1
left_child=1 -1
right_child=-2 -3
leaf_value=-0.0033501935348383507 0.0074543788635764146 0.0019993741769699569
leaf_weight=147 18 124
leaf_count=147 18 124
internal_value=0.000275862 -7.35294e-05
internal_weight=289 271
internal_count=289 271
cat_boundaries=0 1
cat_threshold=1
is_linear=0
shrinkage=0.01


Tree=131
num_leaves=3
num_cat=0
split_feature=3 9
split_gain=6.30311 3.97743
threshold=9.2825009747997616 0.19917326335111571
decision_type=2 2
left_child=1 -1
right_child=-2 -3
leaf_value=0.00055163991629906043 0.007379835074940653 -0.0052425771064244439
leaf_weight=227 18 44
leaf_count=227 18 44
internal_value=0.000206897 -0.000147059
internal_weight=289 271
internal_count=289 271
is_linear=0
shrinkage=0.01


Tree=132
num_leaves=3
num_cat=0
split_feature=3 9
split_gain=6.30311 3.97743
threshold=9.2825009747997616 0.19917326335111571
decision_type=2 2
left_child=1 -1
right_child=-2 -3
leaf_value=0.00054612351713606794 0.0073060367241912427 -0.0051901513353602002
leaf_weight=227 18 44
leaf_count=227 18 44
internal_value=0.000206897 -0.000147059
internal_weight=289 271
internal_count=289 271
is_linear=0
shrinkage=0.01


Tree=133
num_leaves=3
num_cat=0
split_feature=3 7
split_gain=6.30311 3.91729
threshold=9.2825009747997616 1.0000000180025095e-35
decision_type=2 2
left_child=-1 -2
right_child=1 -3
leaf_value=-6.6111181537573674e-05 0.013208081841213169 -0.0048142544168306772
leaf_weight=271 13.000000000000002 4.9999999999999991
leaf_count=271 13 5
internal_value=0.000206897 0.00578947
internal_weight=289 18
internal_count=289 18
is_linear=0
shrinkage=0.01


Tree=134
num_leaves=3
num_cat=0
split_feature=3 7
split_gain=6.30311 3.91729
threshold=9.2825009747997616 1.0000000180025095e-35
decision_type=2 2
left_child=-1 -2
right_child=1 -3
leaf_value=-6.5450069722197137e-05 0.013076001022801034 -0.0047661118726623729
leaf_weight=271 13.000000000000002 4.9999999999999991
leaf_count=271 13 5
internal_value=0.000206897 0.00578947
internal_weight=289 18
internal_count=289 18
is_linear=0
shrinkage=0.01


Tree=135
num_leaves=3
num_cat=0
split_feature=6 10
split_gain=5.79967 6.67619
threshold=83.500000000000014 0.034122545364156105
decision_type=2 2
left_child=-1 -2
right_child=1 -3
leaf_value=0.0029051638422326852 -0.0056567221810079676 3.7185092821148124e-05
leaf_weight=59 19 211
leaf_count=59 19 211
internal_value=0.000206897 -0.00047619
internal_weight=289 230
internal_count=289 230
is_linear=0
shrinkage=0.01


Tree=136
num_leaves=3
num_cat=0
split_feature=3 9
split_gain=6.16244 4.17945
threshold=9.2825009747997616 0.19917326335111571
decision_type=2 2
left_child=1 -1
right_child=-2 -3
leaf_value=0.00051292625605497749 0.0071347460294014509 -0.0051373060604222153
leaf_weight=227 18 44
leaf_count=227 18 44
internal_value=0.000275862 -7.35294e-05
internal_weight=289 271
internal_count=289 271
is_linear=0
shrinkage=0.01


Tree=137
num_leaves=3
num_cat=0
split_feature=3 9
split_gain=6.16244 4.17945
threshold=9.2825009747997616 0.19917326335111571
decision_type=2 2
left_child=1 -1
right_child=-2 -3
leaf_value=0.00050779699349442705 0.007063398569107435 -0.0050859329998179928
leaf_weight=227 18 44
leaf_count=227 18 44
internal_value=0.000275862 -7.35294e-05
internal_weight=289 271
internal_count=289 271
is_linear=0
shrinkage=0.01


Tree=138
num_leaves=3
num_cat=1
split_feature=3 0
split_gain=6.16244 3.97448
threshold=9.2825009747997616 0
decision_type=2 1
left_child=1 -1
right_child=-2 -3
leaf_value=-0.003365612492229544 0.0069927645834163641 0.0019591393299547935
leaf_weight=147 18 124
leaf_count=147 18 124
internal_value=0.000275862 -7.35294e-05
internal_weight=289 271
internal_count=289 271
cat_boundaries=0 1
cat_threshold=1
is_linear=0
shrinkage=0.01


Tree=139
num_leaves=3
num_cat=1
split_feature=3 0
split_gain=6.16244 3.97448
threshold=9.2825009747997616 0
decision_type=2 1
left_child=1 -1
right_child=-2 -3
leaf_value=-0.0033319563673072494 0.0069228369375822002 0.0019395479366552438
leaf_weight=147 18 124
leaf_count=147 18 124
internal_value=0.000275862 -7.35294e-05
internal_weight=289 271
internal_count=289 271
cat_boundaries=0 1
cat_threshold=1
is_linear=0
shrinkage=0.01


Tree=140
num_leaves=3
num_cat=0
split_feature=3 7
split_gain=6.4456 3.91729
threshold=9.2825009747997616 1.0000000180025095e-35
decision_type=2 2
left_child=-1 -2
right_child=1 -3
leaf_value=-5.7422452376494351e-05 0.012635051912955629 -0.0050286398535531428
leaf_weight=271 13.000000000000002 4.9999999999999991
leaf_count=271 13 5
internal_value=0.000137931 0.00578947
internal_weight=289 18
internal_count=289 18
is_linear=0
shrinkage=0.01


Tree=141
num_leaves=3
num_cat=0
split_feature=3 7
split_gain=6.4456 3.91729
threshold=9.2825009747997616 1.0000000180025095e-35
decision_type=2 2
left_child=-1 -2
right_child=1 -3
leaf_value=-5.6848227852728251e-05 0.012508701393826076 -0.0049783534550176083
leaf_weight=271 13.000000000000002 4.9999999999999991
leaf_count=271 13 5
internal_value=0.000137931 0.00578947
internal_weight=289 18
internal_count=289 18
is_linear=0
shrinkage=0.01


Tree=142
num_leaves=3
num_cat=0
split_feature=6 5
split_gain=6.36023 6.71459
threshold=83.500000000000014 7.5000000000000009
decision_type=2 2
left_child=-1 -2
right_child=1 -3
leaf_value=0.0028280608054510516 -0.0029036140225869112 0.0025012078977962983
leaf_weight=59 170 60
leaf_count=59 170 60
internal_value=6.89655e-05 -0.000649351
internal_weight=289 230
internal_count=289 230
is_linear=0
shrinkage=0.01


Tree=143
num_leaves=3
num_cat=1
split_feature=6 0
split_gain=5.79967 6.10795
threshold=83.500000000000014 0
decision_type=2 1
left_child=-1 -2
right_child=1 -3
leaf_value=0.0027997801973965418 -0.0044914636417454504 0.0017808182052214661
leaf_weight=59 122 108
leaf_count=59 122 108
internal_value=0.000206897 -0.00047619
internal_weight=289 230
internal_count=289 230
cat_boundaries=0 1
cat_threshold=1
is_linear=0
shrinkage=0.01


Tree=144
num_leaves=3
num_cat=1
split_feature=6 0
split_gain=6.07643 5.45979
threshold=83.500000000000014 0
decision_type=2 1
left_child=-1 -2
right_child=1 -3
leaf_value=0.0027717823954225775 -0.0044465490053279978 0.0017630100231692514
leaf_weight=59 122 108
leaf_count=59 122 108
internal_value=0.000137931 -0.000562771
internal_weight=289 230
internal_count=289 230
cat_boundaries=0 1
cat_threshold=1
is_linear=0
shrinkage=0.01


Tree=145
num_leaves=3
num_cat=0
split_feature=3 7
split_gain=6.4456 3.91729
threshold=9.2825009747997616 1.0000000180025095e-35
decision_type=2 2
left_child=-1 -2
right_child=1 -3
leaf_value=-8.6852514873925207e-05 0.012299618145905109 -0.005012566154450138
leaf_weight=271 13.000000000000002 4.9999999999999991
leaf_count=271 13 5
internal_value=0.000137931 0.00578947
internal_weight=289 18
internal_count=289 18
is_linear=0
shrinkage=0.01


Tree=146
num_leaves=3
num_cat=0
split_feature=6 5
split_gain=6.36023 6.71459
threshold=83.500000000000014 7.5000000000000009
decision_type=2 2
left_child=-1 -2
right_child=1 -3
leaf_value=0.0027449330966170882 -0.0029091476394962124 0.0025040352660604891
leaf_weight=59 170 60
leaf_count=59 170 60
internal_value=6.89655e-05 -0.000649351
internal_weight=289 230
internal_count=289 230
is_linear=0
shrinkage=0.01


Tree=147
num_leaves=3
num_cat=1
split_feature=6 0
split_gain=5.79967 6.10795
threshold=83.500000000000014 0
decision_type=2 1
left_child=-1 -2
right_child=1 -3
leaf_value=0.0027174837656509165 -0.004372123513731019 0.0017482740099534744
leaf_weight=59 122 108
leaf_count=59 122 108
internal_value=0.000206897 -0.00047619
internal_weight=289 230
internal_count=289 230
cat_boundaries=0 1
cat_threshold=1
is_linear=0
shrinkage=0.01


Tree=148
num_leaves=3
num_cat=0
split_feature=6 5
split_gain=4.98448 6.30205
threshold=83.500000000000014 7.5000000000000009
decision_type=2 2
left_child=-1 -2
right_child=1 -3
leaf_value=0.0026903089279944094 -0.002897538903200787 0.0024921141609187724
leaf_weight=59 170 60
leaf_count=59 170 60
internal_value=6.89655e-05 -0.000562771
internal_weight=289 230
internal_count=289 230
is_linear=0
shrinkage=0.01


Tree=149
num_leaves=3
num_cat=1
split_feature=3 0
split_gain=6.30311 4.44388
threshold=9.2825009747997616 0
decision_type=2 1
left_child=1 -1
right_child=-2 -3
leaf_value=-0.0031984531667419215 0.0065947804644997943 0.0019315754520661677
leaf_weight=147 18 124
leaf_count=147 18 124
internal_value=0.000206897 -0.000147059
internal_weight=289 271
internal_count=289 271
cat_boundaries=0 1
cat_threshold=1
is_linear=0
shrinkage=0.01


Tree=150
num_leaves=3
num_cat=1
split_feature=0 6
split_gain=4.82614 5.41896
threshold=0 83.500000000000014
decision_type=1 2
left_child=1 -1
right_child=-2 -3
leaf_value=0.00092423349213691444 0.0022510368906005062 -0.0042674423578942869
leaf_weight=31 136 122
leaf_count=31 136 122
internal_value=0.000137931 -0.00103896
internal_weight=289 153
internal_count=289 153
cat_boundaries=0 1
cat_threshold=1
is_linear=0
shrinkage=0.01


Tree=151
num_leaves=3
num_cat=0
split_feature=6 5
split_gain=5.24069 6.71459
threshold=83.500000000000014 7.5000000000000009
decision_type=2 2
left_child=-1 -2
right_child=1 -3
leaf_value=0.002621579715287794 -0.0029103896375954497 0.0024297237257002767
leaf_weight=59 170 60
leaf_count=59 170 60
internal_value=0 -0.000649351
internal_weight=289 230
internal_count=289 230
is_linear=0
shrinkage=0.01


Tree=152
num_leaves=3
num_cat=0
split_feature=3 9
split_gain=6.30311 3.97743
threshold=9.2825009747997616 0.19917326335111571
decision_type=2 2
left_child=1 -1
right_child=-2 -3
leaf_value=0.00064876612856914486 0.0064810657737438548 -0.0049540933986199874
leaf_weight=227 18 44
leaf_count=227 18 44
internal_value=0.000206897 -0.000147059
internal_weight=289 271
internal_count=289 271
is_linear=0
shrinkage=0.01


Tree=153
num_leaves=3
num_cat=1
split_feature=0 9
split_gain=4.36757 3.47943
threshold=0 0.19917326335111571
decision_type=1 2
left_child=-1 -2
right_child=1 -3
leaf_value=-0.0013826759317275617 0.0025888762568492263 -0.0050593464269780512
leaf_weight=153 125 10.999999999999998
leaf_count=153 125 11
internal_value=0.000206897 0.00153285
internal_weight=289 136
internal_count=289 136
cat_boundaries=0 1
cat_threshold=1
is_linear=0
shrinkage=0.01


Tree=154
num_leaves=3
num_cat=0
split_feature=3 5
split_gain=4.38172 3.28688
threshold=9.2825009747997616 7.5000000000000009
decision_type=2 2
left_child=1 -1
right_child=-2 -3
leaf_value=-0.00078296066373733991 0.0063903663534379219 0.0023499890728738214
leaf_weight=207 18 64
leaf_count=207 18 64
internal_value=6.89655e-05 -0.000220588
internal_weight=289 271
internal_count=289 271
is_linear=0
shrinkage=0.01


Tree=155
num_leaves=3
num_cat=0
split_feature=6 5
split_gain=4.98448 6.30205
threshold=83.500000000000014 7.5000000000000009
decision_type=2 2
left_child=-1 -2
right_child=1 -3
leaf_value=0.0025708171009181102 -0.0029058325584363008 0.0023278084813586597
leaf_weight=59 170 60
leaf_count=59 170 60
internal_value=6.89655e-05 -0.000562771
internal_weight=289 230
internal_count=289 230
is_linear=0
shrinkage=0.01


Tree=156
num_leaves=3
num_cat=1
split_feature=6 4
split_gain=4.49318 5.54256
threshold=83.500000000000014 0
decision_type=2 9
left_child=-1 -2
right_child=1 -3
leaf_value=0.0025451089299089302 0.0014124082666473869 -0.0011042100723631877
leaf_weight=59 103 127
leaf_count=59 103 127
internal_value=0.000206897 -0.00038961
internal_weight=289 230
internal_count=289 230
cat_boundaries=0 1
cat_threshold=68157456
is_linear=0
shrinkage=0.01


Tree=157
num_leaves=3
num_cat=1
split_feature=0 3
split_gain=4.36757 4.37452
threshold=0 2.5425050714339776
decision_type=1 2
left_child=-1 -2
right_child=1 -3
leaf_value=-0.0013460853228550241 -0.0068685383987287145 0.0025557855331032699
leaf_weight=153 13.999999999999998 122
leaf_count=153 14 122
internal_value=0.000206897 0.00153285
internal_weight=289 136
internal_count=289 136
cat_boundaries=0 1
cat_threshold=1
is_linear=0
shrinkage=0.01


Tree=158
num_leaves=3
num_cat=1
split_feature=0 6
split_gain=4.91335 5.11687
threshold=0 29.500000000000004
decision_type=1 2
left_child=1 -1
right_child=-2 -3
leaf_value=0.0014878146809784143 0.0021678288586506247 -0.0033667547876697944
leaf_weight=15.999999999999998 136 137
leaf_count=16 136 137
internal_value=0.000275862 -0.000909091
internal_weight=289 153
internal_count=289 153
cat_boundaries=0 1
cat_threshold=1
is_linear=0
shrinkage=0.01


Tree=159
num_leaves=3
num_cat=1
split_feature=0 9
split_gain=4.36757 3.47943
threshold=0 0.19917326335111571
decision_type=1 2
left_child=-1 -2
right_child=1 -3
leaf_value=-0.0012989569217497765 0.0024724216966923018 -0.0050917249814445009
leaf_weight=153 125 10.999999999999998
leaf_count=153 125 11
internal_value=0.000206897 0.00153285
internal_weight=289 136
internal_count=289 136
cat_boundaries=0 1
cat_threshold=1
is_linear=0
shrinkage=0.01


Tree=160
num_leaves=3
num_cat=1
split_feature=6 4
split_gain=4.49318 5.54256
threshold=83.500000000000014 0
decision_type=2 9
left_child=-1 -2
right_child=1 -3
leaf_value=0.0024476974797253792 0.0014584021543036574 -0.0011651283325240147
leaf_weight=59 103 127
leaf_count=59 103 127
internal_value=0.000206897 -0.00038961
internal_weight=289 230
internal_count=289 230
cat_boundaries=0 1
cat_threshold=68157456
is_linear=0
shrinkage=0.01


Tree=161
num_leaves=3
num_cat=1
split_feature=3 0
split_gain=6.16244 3.97448
threshold=9.2825009747997616 0
decision_type=2 1
left_child=1 -1
right_child=-2 -3
leaf_value=-0.002984432073671486 0.0061906911169547652 0.0017570431932844356
leaf_weight=147 18 124
leaf_count=147 18 124
internal_value=0.000275862 -7.35294e-05
internal_weight=289 271
internal_count=289 271
cat_boundaries=0 1
cat_threshold=1
is_linear=0
shrinkage=0.01


Tree=162
num_leaves=3
num_cat=1
split_feature=0 3
split_gain=4.28358 4.11293
threshold=0 2.5425050714339776
decision_type=1 2
left_child=-1 -2
right_child=1 -3
leaf_value=-0.0012707070533386001 -0.006852174668902462 0.0024467242421158208
leaf_weight=153 13.999999999999998 122
leaf_count=153 14 122
internal_value=6.89655e-05 0.00138686
internal_weight=289 136
internal_count=289 136
cat_boundaries=0 1
cat_threshold=1
is_linear=0
shrinkage=0.01


Tree=163
num_leaves=3
num_cat=1
split_feature=0 9
split_gain=4.36757 3.47943
threshold=0 0.19917326335111571
decision_type=1 2
left_child=-1 -2
right_child=1 -3
leaf_value=-0.0012579999828052158 0.0023811828305741224 -0.0050711941226588217
leaf_weight=153 125 10.999999999999998
leaf_count=153 125 11
internal_value=0.000206897 0.00153285
internal_weight=289 136
internal_count=289 136
cat_boundaries=0 1
cat_threshold=1
is_linear=0
shrinkage=0.01


Tree=164
num_leaves=3
num_cat=1
split_feature=0 6
split_gain=4.91335 5.02809
threshold=0 83.500000000000014
decision_type=1 2
left_child=1 -1
right_child=-2 -3
leaf_value=0.00089501149636051825 0.0020319422417101963 -0.0040134942622162975
leaf_weight=31 136 122
leaf_count=31 136 122
internal_value=0.000275862 -0.000909091
internal_weight=289 153
internal_count=289 153
cat_boundaries=0 1
cat_threshold=1
is_linear=0
shrinkage=0.01


Tree=165
num_leaves=3
num_cat=0
split_feature=6 5
split_gain=4.03006 5.74755
threshold=83.500000000000014 5.5000000000000009
decision_type=2 2
left_child=-1 -2
right_child=1 -3
leaf_value=0.0023370515798512813 -0.0029064764124919541 0.0020604455013835633
leaf_weight=59 158 72
leaf_count=59 158 72
internal_value=0.000344828 -0.00021645
internal_weight=289 230
internal_count=289 230
is_linear=0
shrinkage=0.01


Tree=166
num_leaves=3
num_cat=0
split_feature=3 10
split_gain=4.45629 4.18638
threshold=5.4875625823042649 0.034122545364156105
decision_type=2 2
left_child=-1 -2
right_child=1 -3
leaf_value=-0.0005412987516216994 -0.0038748373756988252 0.0022166150561654897
leaf_weight=172 8.9999999999999982 108
leaf_count=172 9 108
internal_value=0.000344828 0.00186441
internal_weight=289 117
internal_count=289 117
is_linear=0
shrinkage=0.01


Tree=167
num_leaves=3
num_cat=0
split_feature=9 5
split_gain=3.48967 5.41588
threshold=0.24587760999254291 7.5000000000000009
decision_type=2 2
left_child=1 -1
right_child=-2 -3
leaf_value=-4.2830858258746666e-05 -0.0070150756700861506 0.0034621878600356792
leaf_weight=198 32 59
leaf_count=198 32 59
internal_value=0.000275862 0.000697674
internal_weight=289 257
internal_count=289 257
is_linear=0
shrinkage=0.01


Tree=168
num_leaves=3
num_cat=0
split_feature=3 10
split_gain=4.45629 4.18638
threshold=5.4875625823042649 0.034122545364156105
decision_type=2 2
left_child=-1 -2
right_child=1 -3
leaf_value=-0.00050059623146375687 -0.0038356606933592509 0.0021773521205949485
leaf_weight=172 8.9999999999999982 108
leaf_count=172 9 108
internal_value=0.000344828 0.00186441
internal_weight=289 117
internal_count=289 117
is_linear=0
shrinkage=0.01


Tree=169
num_leaves=3
num_cat=1
split_feature=0 6
split_gain=5.39951 3.76348
threshold=0 83.500000000000014
decision_type=1 2
left_child=1 -1
right_child=-2 -3
leaf_value=0.00081917950241338299 0.0019819958278713789 -0.003933447297055772
leaf_weight=31 136 122
leaf_count=31 136 122
internal_value=0.000206897 -0.00103896
internal_weight=289 153
internal_count=289 153
cat_boundaries=0 1
cat_threshold=1
is_linear=0
shrinkage=0.01


Tree=170
num_leaves=3
num_cat=0
split_feature=3 10
split_gain=4.87454 4.73937
threshold=4.9211515598599069 0.034122545364156105
decision_type=2 2
left_child=-1 -2
right_child=1 -3
leaf_value=-0.0011260385448460797 -0.0071174285321514751 0.0019746178550975693
leaf_weight=151 11.999999999999998 126
leaf_count=151 12 126
internal_value=0.000275862 0.00165468
internal_weight=289 138
internal_count=289 138
is_linear=0
shrinkage=0.01


Tree=171
num_leaves=3
num_cat=1
split_feature=0 6
split_gain=4.01411 4.28561
threshold=0 83.500000000000014
decision_type=1 2
left_child=1 -1
right_child=-2 -3
leaf_value=0.00079124152883827572 0.0019548716765465947 -0.0038828524386367524
leaf_weight=31 136 122
leaf_count=31 136 122
internal_value=0.000413793 -0.000649351
internal_weight=289 153
internal_count=289 153
cat_boundaries=0 1
cat_threshold=1
is_linear=0
shrinkage=0.01


Tree=172
num_leaves=3
num_cat=1
split_feature=3 4
split_gain=4.04247 4.21592
threshold=9.2825009747997616 0
decision_type=2 9
left_child=1 -1
right_child=-2 -3
leaf_value=0.0008940691603034123 0.0059180469168633957 -0.0012183913731253515
leaf_weight=118 18 153
leaf_count=118 18 153
internal_value=0.000275862 0
internal_weight=289 271
internal_count=289 271
cat_boundaries=0 1
cat_threshold=1050640
is_linear=0
shrinkage=0.01


Tree=173
num_leaves=3
num_cat=0
split_feature=6 5
split_gain=4.2581 6.56997
threshold=83.500000000000014 7.5000000000000009
decision_type=2 2
left_child=-1 -2
right_child=1 -3
leaf_value=0.0022232387610038496 -0.0027498186519549004 0.0022184868852035745
leaf_weight=59 170 60
leaf_count=59 170 60
internal_value=0.000275862 -0.00030303
internal_weight=289 230
internal_count=289 230
is_linear=0
shrinkage=0.01


Tree=174
num_leaves=3
num_cat=0
split_feature=3 6
split_gain=4.45629 3.23106
threshold=5.4875625823042649 730.50000000000011
decision_type=2 2
left_child=1 -1
right_child=-2 -3
leaf_value=-0.0011702529073801715 0.001807407937226495 0.0018935903989446958
leaf_weight=134 117 38
leaf_count=134 117 38
internal_value=0.000344828 -0.000635838
internal_weight=289 172
internal_count=289 172
is_linear=0
shrinkage=0.01


Tree=175
num_leaves=3
num_cat=0
split_feature=3 10
split_gain=4.07335 4.18638
threshold=5.4875625823042649 0.034122545364156105
decision_type=2 2
left_child=-1 -2
right_child=1 -3
leaf_value=-0.00043961367788654339 -0.0037703565646677096 0.0020744122577576363
leaf_weight=172 8.9999999999999982 108
leaf_count=172 9 108
internal_value=0.000413793 0.00186441
internal_weight=289 117
internal_count=289 117
is_linear=0
shrinkage=0.01


Tree=176
num_leaves=3
num_cat=1
split_feature=0 9
split_gain=3.93335 3.47943
threshold=0 0.19917326335111571
decision_type=1 2
left_child=-1 -2
right_child=1 -3
leaf_value=-0.001041293474242071 0.0021621881714439708 -0.0052690262252311996
leaf_weight=153 125 10.999999999999998
leaf_count=153 125 11
internal_value=0.000275862 0.00153285
internal_weight=289 136
internal_count=289 136
cat_boundaries=0 1
cat_threshold=1
is_linear=0
shrinkage=0.01


Tree=177
num_leaves=3
num_cat=1
split_feature=0 6
split_gain=4.01411 4.28561
threshold=0 83.500000000000014
decision_type=1 2
left_child=1 -1
right_child=-2 -3
leaf_value=0.00074487537246368694 0.0018291997295461204 -0.0037778302134044983
leaf_weight=31 136 122
leaf_count=31 136 122
internal_value=0.000413793 -0.000649351
internal_weight=289 153
internal_count=289 153
cat_boundaries=0 1
cat_threshold=1
is_linear=0
shrinkage=0.01


Tree=178
num_leaves=3
num_cat=0
split_feature=6 5
split_gain=3.65543 5.89718
threshold=90.500000000000014 5.5000000000000009
decision_type=2 2
left_child=-1 -2
right_child=1 -3
leaf_value=0.002035193286184003 -0.002724932042565804 0.0017286758562667438
leaf_weight=66 152 71
leaf_count=66 152 71
internal_value=0.000482759 -8.92857e-05
internal_weight=289 223
internal_count=289 223
is_linear=0
shrinkage=0.01


Tree=179
num_leaves=3
num_cat=0
split_feature=3 5
split_gain=4.04247 3.54231
threshold=9.2825009747997616 7.5000000000000009
decision_type=2 2
left_child=1 -1
right_child=-2 -3
leaf_value=-0.00053893665294198363 0.0057391063927917201 0.0021454363544448052
leaf_weight=207 18 64
leaf_count=207 18 64
internal_value=0.000275862 0
internal_weight=289 271
internal_count=289 271
is_linear=0
shrinkage=0.01


Tree=180
num_leaves=3
num_cat=0
split_feature=3 10
split_gain=4.45629 4.18638
threshold=5.4875625823042649 0.034122545364156105
decision_type=2 2
left_child=-1 -2
right_child=1 -3
leaf_value=-0.00039844017521931677 -0.0037446513843356665 0.0020202307198515812
leaf_weight=172 8.9999999999999982 108
leaf_count=172 9 108
internal_value=0.000344828 0.00186441
internal_weight=289 117
internal_count=289 117
is_linear=0
shrinkage=0.01


Tree=181
num_leaves=3
num_cat=0
split_feature=5 6
split_gain=3.89952 6.04078
threshold=7.5000000000000009 83.500000000000014
decision_type=2 2
left_child=1 -1
right_child=-2 -3
leaf_value=0.0020000284126530654 0.0021247675455353401 -0.0026520459070621949
leaf_weight=50 69 170
leaf_count=50 69 170
internal_value=0.000206897 -0.00040724
internal_weight=289 220
internal_count=289 220
is_linear=0
shrinkage=0.01


Tree=182
num_leaves=3
num_cat=0
split_feature=3 10
split_gain=4.07335 4.18638
threshold=5.4875625823042649 0.034122545364156105
decision_type=2 2
left_child=-1 -2
right_child=1 -3
leaf_value=-0.00036793531439650141 -0.0037272051546188402 0.0019800281285265366
leaf_weight=172 8.9999999999999982 108
leaf_count=172 9 108
internal_value=0.000413793 0.00186441
internal_weight=289 117
internal_count=289 117
is_linear=0
shrinkage=0.01


Tree=183
num_leaves=3
num_cat=1
split_feature=0 6
split_gain=3.93335 3.32492
threshold=0 457.00000000000006
decision_type=1 2
left_child=-1 -2
right_child=1 -3
leaf_value=-0.00092627933644374495 0.0026753829789016104 -0.0009756439961337149
leaf_weight=153 98 38
leaf_count=153 98 38
internal_value=0.000275862 0.00153285
internal_weight=289 136
internal_count=289 136
cat_boundaries=0 1
cat_threshold=1
is_linear=0
shrinkage=0.01


Tree=184
num_leaves=3
num_cat=0
split_feature=5 6
split_gain=3.89952 6.04078
threshold=7.5000000000000009 83.500000000000014
decision_type=2 2
left_child=1 -1
right_child=-2 -3
leaf_value=0.0019514823290289818 0.0020986730018721024 -0.0026125833014831712
leaf_weight=50 69 170
leaf_count=50 69 170
internal_value=0.000206897 -0.00040724
internal_weight=289 220
internal_count=289 220
is_linear=0
shrinkage=0.01


Tree=185
num_leaves=3
num_cat=1
split_feature=3 0
split_gain=4.15373 3.06702
threshold=9.2825009747997616 0
decision_type=2 1
left_child=1 -1
right_child=-2 -3
leaf_value=-0.0026054098427238915 0.0055740841541455487 0.0015838305576703893
leaf_weight=147 18 124
leaf_count=147 18 124
internal_value=0.000206897 -7.35294e-05
internal_weight=289 271
internal_count=289 271
cat_boundaries=0 1
cat_threshold=1
is_linear=0
shrinkage=0.01


Tree=186
num_leaves=3
num_cat=1
split_feature=0 9
split_gain=3.44596 3.26973
threshold=0 0.19917326335111571
decision_type=1 2
left_child=-1 -2
right_child=1 -3
leaf_value=-0.00086483661163723642 0.0020201407234102754 -0.0053616879419546935
leaf_weight=153 125 10.999999999999998
leaf_count=153 125 11
internal_value=0.000206897 0.00138686
internal_weight=289 136
internal_count=289 136
cat_boundaries=0 1
cat_threshold=1
is_linear=0
shrinkage=0.01


Tree=187
num_leaves=3
num_cat=1
split_feature=0 3
split_gain=3.44596 4.11293
threshold=0 2.5425050714339776
decision_type=1 2
left_child=-1 -2
right_child=1 -3
leaf_value=-0.00085618824552086365 -0.0067487673083444725 0.002019914234299214
leaf_weight=153 13.999999999999998 122
leaf_count=153 14 122
internal_value=0.000206897 0.00138686
internal_weight=289 136
internal_count=289 136
cat_boundaries=0 1
cat_threshold=1
is_linear=0
shrinkage=0.01


Tree=188
num_leaves=3
num_cat=0
split_feature=6 5
split_gain=3.88831 5.01027
threshold=90.500000000000014 5.5000000000000009
decision_type=2 2
left_child=-1 -2
right_child=1 -3
leaf_value=0.0019254802516612002 -0.0025794561682658569 0.0016429674284133399
leaf_weight=66 152 71
leaf_count=66 152 71
internal_value=0.000413793 -0.000178571
internal_weight=289 223
internal_count=289 223
is_linear=0
shrinkage=0.01


Tree=189
num_leaves=3
num_cat=1
split_feature=3 4
split_gain=3.91833 2.93931
threshold=9.2825009747997616 0
decision_type=2 9
left_child=1 -1
right_child=-2 -3
leaf_value=0.0010116281491890121 0.0054601005246266215 -0.0014278521184998905
leaf_weight=118 18 153
leaf_count=118 18 153
internal_value=0.000344828 0
internal_weight=289 271
internal_count=289 271
cat_boundaries=0 1
cat_threshold=1050640
is_linear=0
shrinkage=0.01


Tree=190
num_leaves=3
num_cat=0
split_feature=6 5
split_gain=3.88831 5.01027
threshold=90.500000000000014 5.5000000000000009
decision_type=2 2
left_child=-1 -2
right_child=1 -3
leaf_value=0.001920503970329588 -0.0025637778880750919 0.0016408162753142053
leaf_weight=66 152 71
leaf_count=66 152 71
internal_value=0.000413793 -0.000178571
internal_weight=289 223
internal_count=289 223
is_linear=0
shrinkage=0.01


Tree=191
num_leaves=3
num_cat=1
split_feature=0 9
split_gain=3.44596 3.26973
threshold=0 0.19917326335111571
decision_type=1 2
left_child=-1 -2
right_child=1 -3
leaf_value=-0.00080631030399413994 0.0019555588527982604 -0.0053712243234073044
leaf_weight=153 125 10.999999999999998
leaf_count=153 125 11
internal_value=0.000206897 0.00138686
internal_weight=289 136
internal_count=289 136
cat_boundaries=0 1
cat_threshold=1
is_linear=0
shrinkage=0.01


Tree=192
num_leaves=3
num_cat=0
split_feature=6 5
split_gain=3.08481 5.01027
threshold=90.500000000000014 5.5000000000000009
decision_type=2 2
left_child=-1 -2
right_child=1 -3
leaf_value=0.0018955526878822715 -0.0025300770061543964 0.0016048525240330803
leaf_weight=66 152 71
leaf_count=66 152 71
internal_value=0.000344828 -0.000178571
internal_weight=289 223
internal_count=289 223
is_linear=0
shrinkage=0.01


Tree=193
num_leaves=3
num_cat=0
split_feature=3 7
split_gain=4.04247 2.8797
threshold=9.2825009747997616 1.0000000180025095e-35
decision_type=2 2
left_child=-1 -2
right_child=1 -3
leaf_value=-6.9887261431311745e-07 0.010849846104907676 -0.0062892163524440204
leaf_weight=271 13.000000000000002 4.9999999999999991
leaf_count=271 13 5
internal_value=0.000275862 0.00473684
internal_weight=289 18
internal_count=289 18
is_linear=0
shrinkage=0.01


Tree=194
num_leaves=3
num_cat=1
split_feature=6 4
split_gain=3.51979 4.84875
threshold=90.500000000000014 0
decision_type=2 9
left_child=-1 -2
right_child=1 -3
leaf_value=0.0018766041497295927 0.0015001067413093795 -0.0024251590236379307
leaf_weight=66 100 123
leaf_count=66 100 123
internal_value=0.000206897 -0.000357143
internal_weight=289 223
internal_count=289 223
cat_boundaries=0 1
cat_threshold=68157456
is_linear=0
shrinkage=0.01


Tree=195
num_leaves=3
num_cat=1
split_feature=0 9
split_gain=3.93335 3.47943
threshold=0 0.19917326335111571
decision_type=1 2
left_child=-1 -2
right_child=1 -3
leaf_value=-0.00078794050957960333 0.0018982886846202974 -0.0053093020264510394
leaf_weight=153 125 10.999999999999998
leaf_count=153 125 11
internal_value=0.000275862 0.00153285
internal_weight=289 136
internal_count=289 136
cat_boundaries=0 1
cat_threshold=1
is_linear=0
shrinkage=0.01


Tree=196
num_leaves=3
num_cat=1
split_feature=0 5
split_gain=4.45155 2.04948
threshold=0 1.5000000000000002
decision_type=1 2
left_child=-1 -2
right_child=1 -3
leaf_value=-0.00078006110448380905 0.0070560517376738853 0.00072695304511692042
leaf_weight=153 24 112
leaf_count=153 24 112
internal_value=0.000344828 0.00167883
internal_weight=289 136
internal_count=289 136
cat_boundaries=0 1
cat_threshold=1
is_linear=0
shrinkage=0.01


Tree=197
num_leaves=3
num_cat=1
split_feature=6 4
split_gain=3.51979 4.84875
threshold=90.500000000000014 0
decision_type=2 9
left_child=-1 -2
right_child=1 -3
leaf_value=0.0018370974387479943 0.0014798194733179181 -0.0023852274172609178
leaf_weight=66 100 123
leaf_count=66 100 123
internal_value=0.000206897 -0.000357143
internal_weight=289 223
internal_count=289 223
cat_boundaries=0 1
cat_threshold=68157456
is_linear=0
shrinkage=0.01


Tree=198
num_leaves=3
num_cat=1
split_feature=0 6
split_gain=4.01411 3.73309
threshold=0 457.00000000000006
decision_type=1 2
left_child=-1 -2
right_child=1 -3
leaf_value=-0.0007870586881721487 0.0024195228772303803 -0.00090268609919161411
leaf_weight=153 98 38
leaf_count=153 98 38
internal_value=0.000413793 0.00167883
internal_weight=289 136
internal_count=289 136
cat_boundaries=0 1
cat_threshold=1
is_linear=0
shrinkage=0.01


Tree=199
num_leaves=3
num_cat=0
split_feature=3 10
split_gain=3.89934 4.49057
threshold=4.9211515598599069 0.034122545364156105
decision_type=2 2
left_child=-1 -2
right_child=1 -3
leaf_value=-0.00077918810129042895 -0.0069731556473818217 0.0016229441262648049
leaf_weight=151 11.999999999999998 126
leaf_count=151 12 126
internal_value=0.000275862 0.00151079
internal_weight=289 138
internal_count=289 138
is_linear=0
shrinkage=0.01


Tree=200
num_leaves=3
num_cat=0
split_feature=6 9
split_gain=2.9608 3.1688
threshold=83.500000000000014 0.19917326335111571
decision_type=2 2
left_child=-1 -2
right_child=1 -3
leaf_value=0.0017783017943255608 0.00024254250254556411 -0.005760360160769409
leaf_weight=59 190 40
leaf_count=59 190 40
internal_value=0.000344828 -0.00012987
internal_weight=289 230
internal_count=289 230
is_linear=0
shrinkage=0.01


Tree=201
num_leaves=3
num_cat=1
split_feature=0 6
split_gain=3.60104 3.73309
threshold=0 457.00000000000006
decision_type=1 2
left_child=-1 -2
right_child=1 -3
leaf_value=-0.00077382164530297897 0.0023810046468488522 -0.00088829278221224772
leaf_weight=153 98 38
leaf_count=153 98 38
internal_value=0.000482759 0.00167883
internal_weight=289 136
internal_count=289 136
cat_boundaries=0 1
cat_threshold=1
is_linear=0
shrinkage=0.01


Tree=202
num_leaves=3
num_cat=1
split_feature=6 4
split_gain=3.08481 4.94067
threshold=90.500000000000014 0
decision_type=2 9
left_child=-1 -2
right_child=1 -3
leaf_value=0.0017367087299138184 0.001463125708371027 -0.0023403998837661089
leaf_weight=66 100 123
leaf_count=66 100 123
internal_value=0.000344828 -0.000178571
internal_weight=289 223
internal_count=289 223
cat_boundaries=0 1
cat_threshold=68157456
is_linear=0
shrinkage=0.01


Tree=203
num_leaves=3
num_cat=0
split_feature=3 6
split_gain=3.09716 2.50202
threshold=4.9211515598599069 730.50000000000011
decision_type=2 2
left_child=1 -1
right_child=-2 -3
leaf_value=-0.0021188184923598354 0.0012844088779297635 0.0021596847328381407
leaf_weight=116 138 35
leaf_count=116 138 35
internal_value=0.000413793 -0.000526316
internal_weight=289 151
internal_count=289 151
is_linear=0
shrinkage=0.01


Tree=204
num_leaves=3
num_cat=1
split_feature=0 9
split_gain=3.13801 3.47943
threshold=0 0.19917326335111571
decision_type=1 2
left_child=-1 -2
right_child=1 -3
leaf_value=-0.00075952650101005935 0.0017414363824103242 -0.0051697824032476448
leaf_weight=153 125 10.999999999999998
leaf_count=153 125 11
internal_value=0.000413793 0.00153285
internal_weight=289 136
internal_count=289 136
cat_boundaries=0 1
cat_threshold=1
is_linear=0
shrinkage=0.01


Tree=205
num_leaves=3
num_cat=1
split_feature=0 3
split_gain=3.60104 2.69289
threshold=0 2.5794329248576044
decision_type=1 2
left_child=-1 -2
right_child=1 -3
leaf_value=-0.00075193123599996085 -0.0022700584151909742 0.001835480926903419
leaf_weight=153 15.999999999999998 120
leaf_count=153 16 120
internal_value=0.000482759 0.00167883
internal_weight=289 136
internal_count=289 136
cat_boundaries=0 1
cat_threshold=1
is_linear=0
shrinkage=0.01


Tree=206
num_leaves=3
num_cat=1
split_feature=0 6
split_gain=3.13801 3.32492
threshold=0 457.00000000000006
decision_type=1 2
left_child=-1 -2
right_child=1 -3
leaf_value=-0.00074441192363996047 0.0023095983031679525 -0.00085005914701152818
leaf_weight=153 98 38
leaf_count=153 98 38
internal_value=0.000413793 0.00153285
internal_weight=289 136
internal_count=289 136
cat_boundaries=0 1
cat_threshold=1
is_linear=0
shrinkage=0.01


Tree=207
num_leaves=3
num_cat=0
split_feature=3 7
split_gain=3.64612 2.8797
threshold=9.2825009747997616 1.0000000180025095e-35
decision_type=2 2
left_child=-1 -2
right_child=1 -3
leaf_value=5.8367660144766907e-05 0.010506864144026516 -0.0064608076887516666
leaf_weight=271 13.000000000000002 4.9999999999999991
leaf_count=271 13 5
internal_value=0.000482759 0.00473684
internal_weight=289 18
internal_count=289 18
is_linear=0
shrinkage=0.01


Tree=208
num_leaves=3
num_cat=0
split_feature=6 5
split_gain=2.9608 5.31367
threshold=83.500000000000014 5.5000000000000009
decision_type=2 2
left_child=-1 -2
right_child=1 -3
leaf_value=0.0016470487211091235 -0.0024241826139022949 0.0016060167519409796
leaf_weight=59 158 72
leaf_count=59 158 72
internal_value=0.000344828 -0.00012987
internal_weight=289 230
internal_count=289 230
is_linear=0
shrinkage=0.01


Tree=209
num_leaves=3
num_cat=0
split_feature=3 10
split_gain=3.48573 4.49057
threshold=4.9211515598599069 0.034122545364156105
decision_type=2 2
left_child=-1 -2
right_child=1 -3
leaf_value=-0.00071330965486598346 -0.0068798915229929822 0.001573149550015851
leaf_weight=151 11.999999999999998 126
leaf_count=151 12 126
internal_value=0.000344828 0.00151079
internal_weight=289 138
internal_count=289 138
is_linear=0
shrinkage=0.01


Tree=210
num_leaves=3
num_cat=0
split_feature=3 10
split_gain=3.48573 4.49057
threshold=4.9211515598599069 0.034122545364156105
decision_type=2 2
left_child=-1 -2
right_child=1 -3
leaf_value=-0.0007061765583173241 -0.0068110926077630538 0.0015574180545156935
leaf_weight=151 11.999999999999998 126
leaf_count=151 12 126
internal_value=0.000344828 0.00151079
internal_weight=289 138
internal_count=289 138
is_linear=0
shrinkage=0.01


Tree=211
num_leaves=3
num_cat=1
split_feature=0 9
split_gain=3.13801 3.47943
threshold=0 0.19917326335111571
decision_type=1 2
left_child=-1 -2
right_child=1 -3
leaf_value=-0.00085339674838516902 0.0016342113864276531 -0.0051758883171802595
leaf_weight=153 125 10.999999999999998
leaf_count=153 125 11
internal_value=0.000413793 0.00153285
internal_weight=289 136
internal_count=289 136
cat_boundaries=0 1
cat_threshold=1
is_linear=0
shrinkage=0.01


Tree=212
num_leaves=3
num_cat=1
split_feature=6 4
split_gain=3.08481 4.94067
threshold=90.500000000000014 0
decision_type=2 9
left_child=-1 -2
right_child=1 -3
leaf_value=0.0015829304439884417 0.0014112112254056665 -0.0022696470564970684
leaf_weight=66 100 123
leaf_count=66 100 123
internal_value=0.000344828 -0.000178571
internal_weight=289 223
internal_count=289 223
cat_boundaries=0 1
cat_threshold=68157456
is_linear=0
shrinkage=0.01


Tree=213
num_leaves=3
num_cat=1
split_feature=0 6
split_gain=3.60104 3.73309
threshold=0 457.00000000000006
decision_type=1 2
left_child=-1 -2
right_child=1 -3
leaf_value=-0.0008606920853411992 0.002200194920123859 -0.00079735118717131129
leaf_weight=153 98 38
leaf_count=153 98 38
internal_value=0.000482759 0.00167883
internal_weight=289 136
internal_count=289 136
cat_boundaries=0 1
cat_threshold=1
is_linear=0
shrinkage=0.01


Tree=214
num_leaves=3
num_cat=0
split_feature=3 10
split_gain=3.48573 4.49057
threshold=4.9211515598599069 0.034122545364156105
decision_type=2 2
left_child=-1 -2
right_child=1 -3
leaf_value=-0.00069608601665094305 -0.0067224072102856167 0.0015117002517646006
leaf_weight=151 11.999999999999998 126
leaf_count=151 12 126
internal_value=0.000344828 0.00151079
internal_weight=289 138
internal_count=289 138
is_linear=0
shrinkage=0.01


Tree=215
num_leaves=3
num_cat=0
split_feature=6 10
split_gain=3.1542 4.96725
threshold=83.500000000000014 0.034122545364156105
decision_type=2 2
left_child=-1 -2
right_child=1 -3
leaf_value=0.0015299821878296748 -0.0050233602391398513 0.00011954412766596701
leaf_weight=59 19 211
leaf_count=59 19 211
internal_value=0.000275862 -0.00021645
internal_weight=289 230
internal_count=289 230
is_linear=0
shrinkage=0.01


Tree=216
num_leaves=3
num_cat=1
split_feature=0 9
split_gain=3.13801 3.47943
threshold=0 0.19917326335111571
decision_type=1 2
left_child=-1 -2
right_child=1 -3
leaf_value=-0.00088250198888372821 0.0015753447640547559 -0.0051097718953660781
leaf_weight=153 125 10.999999999999998
leaf_count=153 125 11
internal_value=0.000413793 0.00153285
internal_weight=289 136
internal_count=289 136
cat_boundaries=0 1
cat_threshold=1
is_linear=0
shrinkage=0.01


Tree=217
num_leaves=3
num_cat=1
split_feature=0 3
split_gain=3.60104 2.69289
threshold=0 2.5794329248576044
decision_type=1 2
left_child=-1 -2
right_child=1 -3
leaf_value=-0.00087367696899488757 -0.0022352196763165601 0.0017887904838880875
leaf_weight=153 15.999999999999998 120
leaf_count=153 16 120
internal_value=0.000482759 0.00167883
internal_weight=289 136
internal_count=289 136
cat_boundaries=0 1
cat_threshold=1
is_linear=0
shrinkage=0.01


Tree=218
num_leaves=3
num_cat=1
split_feature=0 6
split_gain=3.60104 3.73309
threshold=0 457.00000000000006
decision_type=1 2
left_child=-1 -2
right_child=1 -3
leaf_value=-0.0008649401993049377 0.0021503170373330426 -0.0007971335580881523
leaf_weight=153 98 38
leaf_count=153 98 38
internal_value=0.000482759 0.00167883
internal_weight=289 136
internal_count=289 136
cat_boundaries=0 1
cat_threshold=1
is_linear=0
shrinkage=0.01


Tree=219
num_leaves=3
num_cat=1
split_feature=0 6
split_gain=3.13801 3.32492
threshold=0 457.00000000000006
decision_type=1 2
left_child=-1 -2
right_child=1 -3
leaf_value=-0.0008562907973118872 0.0021288138669597113 -0.00078916222250727144
leaf_weight=153 98 38
leaf_count=153 98 38
internal_value=0.000413793 0.00153285
internal_weight=289 136
internal_count=289 136
cat_boundaries=0 1
cat_threshold=1
is_linear=0
shrinkage=0.01


Tree=220
num_leaves=3
num_cat=0
split_feature=6 5
split_gain=3.80908 5.31367
threshold=83.500000000000014 5.5000000000000009
decision_type=2 2
left_child=-1 -2
right_child=1 -3
leaf_value=0.0014382497044290198 -0.0023237733397039142 0.0015809844432526333
leaf_weight=59 158 72
leaf_count=59 158 72
internal_value=0.000413793 -0.00012987
internal_weight=289 230
internal_count=289 230
is_linear=0
shrinkage=0.01


Tree=221
num_leaves=3
num_cat=0
split_feature=3 10
split_gain=3.48573 4.49057
threshold=4.9211515598599069 0.034122545364156105
decision_type=2 2
left_child=-1 -2
right_child=1 -3
leaf_value=-0.00063230876481909612 -0.0066180383191196636 0.0013968067854087107
leaf_weight=151 11.999999999999998 126
leaf_count=151 12 126
internal_value=0.000344828 0.00151079
internal_weight=289 138
internal_count=289 138
is_linear=0
shrinkage=0.01


Tree=222
num_leaves=3
num_cat=0
split_feature=6 10
split_gain=3.1542 4.96725
threshold=83.500000000000014 0.034122545364156105
decision_type=2 2
left_child=-1 -2
right_child=1 -3
leaf_value=0.0014098991395306414 -0.0049087917161582699 0.0001623924514772135
leaf_weight=59 19 211
leaf_count=59 19 211
internal_value=0.000275862 -0.00021645
internal_weight=289 230
internal_count=289 230
is_linear=0
shrinkage=0.01


Tree=223
num_leaves=3
num_cat=0
split_feature=6 5
split_gain=2.9608 4.09372
threshold=83.500000000000014 5.5000000000000009
decision_type=2 2
left_child=-1 -2
right_child=1 -3
leaf_value=0.0013958001481353356 -0.0022958364431734557 0.0015698737619535242
leaf_weight=59 158 72
leaf_count=59 158 72
internal_value=0.000344828 -0.00012987
internal_weight=289 230
internal_count=289 230
is_linear=0
shrinkage=0.01


Tree=224
num_leaves=3
num_cat=1
split_feature=0 6
split_gain=3.26718 4.36514
threshold=0 489.50000000000006
decision_type=1 2
left_child=1 -1
right_child=-2 -3
leaf_value=0.0031302021085369523 -0.0002611163078285106 -0.001208251612781548
leaf_weight=68 189 32
leaf_count=68 189 32
internal_value=0.000413793 0.00188119
internal_weight=289 100
internal_count=289 100
cat_boundaries=0 1
cat_threshold=2
is_linear=0
shrinkage=0.01


Tree=225
num_leaves=3
num_cat=0
split_feature=6 5
split_gain=2.9608 4.09372
threshold=83.500000000000014 5.5000000000000009
decision_type=2 2
left_child=-1 -2
right_child=1 -3
leaf_value=0.0013505401255686112 -0.002270266915663437 0.0015398295953304463
leaf_weight=59 158 72
leaf_count=59 158 72
internal_value=0.000344828 -0.00012987
internal_weight=289 230
internal_count=289 230
is_linear=0
shrinkage=0.01


Tree=226
num_leaves=3
num_cat=0
split_feature=3 7
split_gain=3.78131 2.8797
threshold=9.2825009747997616 1.0000000180025095e-35
decision_type=2 2
left_child=-1 -2
right_child=1 -3
leaf_value=3.6244439744446132e-05 0.010125694689953715 -0.0066723004244966782
leaf_weight=271 13.000000000000002 4.9999999999999991
leaf_count=271 13 5
internal_value=0.000413793 0.00473684
internal_weight=289 18
internal_count=289 18
is_linear=0
shrinkage=0.01


Tree=227
num_leaves=3
num_cat=1
split_feature=0 3
split_gain=2.70603 4.88574
threshold=0 2.5425050714339776
decision_type=1 2
left_child=1 -1
right_child=-2 -3
leaf_value=-0.006361976423997189 -0.00027426588510097715 0.0023566867442157812
leaf_weight=13.999999999999998 189 86
leaf_count=14 189 86
internal_value=0.000344828 0.00168317
internal_weight=289 100
internal_count=289 100
cat_boundaries=0 1
cat_threshold=2
is_linear=0
shrinkage=0.01


Tree=228
num_leaves=3
num_cat=0
split_feature=6 5
split_gain=2.9608 4.09372
threshold=83.500000000000014 5.5000000000000009
decision_type=2 2
left_child=-1 -2
right_child=1 -3
leaf_value=0.0013131054124733189 -0.0022451840320532358 0.0015136567506841227
leaf_weight=59 158 72
leaf_count=59 158 72
internal_value=0.000344828 -0.00012987
internal_weight=289 230
internal_count=289 230
is_linear=0
shrinkage=0.01


Tree=229
num_leaves=3
num_cat=1
split_feature=0 3
split_gain=3.26718 3.17868
threshold=0 2.5794329248576044
decision_type=1 2
left_child=1 -1
right_child=-2 -3
leaf_value=-0.002102311941746815 -0.00028665979375681162 0.0023555717170941561
leaf_weight=15.999999999999998 189 84
leaf_count=16 189 84
internal_value=0.000413793 0.00188119
internal_weight=289 100
internal_count=289 100
cat_boundaries=0 1
cat_threshold=2
is_linear=0
shrinkage=0.01


Tree=230
num_leaves=3
num_cat=1
split_feature=6 4
split_gain=2.9608 4.02816
threshold=83.500000000000014 0
decision_type=2 9
left_child=-1 -2
right_child=1 -3
leaf_value=0.0012764186411776412 0.0013029717678229335 -0.0017848125059889597
leaf_weight=59 103 127
leaf_count=59 103 127
internal_value=0.000344828 -0.00012987
internal_weight=289 230
internal_count=289 230
cat_boundaries=0 1
cat_threshold=68157456
is_linear=0
shrinkage=0.01


Tree=231
num_leaves=3
num_cat=0
split_feature=6 5
split_gain=2.9608 4.09372
threshold=83.500000000000014 5.5000000000000009
decision_type=2 2
left_child=-1 -2
right_child=1 -3
leaf_value=0.0012636544547658614 -0.0022174563901043022 0.0014905848272514244
leaf_weight=59 158 72
leaf_count=59 158 72
internal_value=0.000344828 -0.00012987
internal_weight=289 230
internal_count=289 230
is_linear=0
shrinkage=0.01


Tree=232
