tree
version=v4
num_class=1
num_tree_per_iteration=1
label_index=0
max_feature_idx=10
objective=regression_l1
feature_names=category sector log_value value_per_day region start_month planned_days is_repair n_tenderers buyer_rate supplier_rate
feature_infos=-1:0:1:2 -1:1:4:2:5:0 [0.0099503308531680833:16.852765098870258] [2.7396884975892088e-05:15.192818885977694] -1:20:11:13:26:16:4:19:8:10:12:1:21:22:29:30:3:6:17:18:2:5:9:14:27:28 [1:12] [1:1977] [0:1] none [0.033081655480984337:0.48640509378764413] [0.010671501768059465:0.33189517417705339]
tree_sizes=409 432 432 432 432 419 432 410 435 421 415 403 431 433 421 433 413 421 430 411 413 413 419 431 421 422 418 418 400 421 422 418 418 418 429 418 411 417 411 422 417 418 411 417 418 411 418 410 432 419 419 422 421 405 437 429 431 431 438 431 402 401 419 403 422 419 402 416 418 431 447 412 429 431 422 433 413 414 433 414 414 433 433 413 414 413 414 433 413 411 413 414 415 415 415 415 414 415 415 414 416 413 416 415 416 414 432 414 415 415 415 415 412 414 416 433 413 416 416 433 413 413 434 414 433 416 412 413 434 433 431 433 414 432 446 416 434 434 414 434 412 433 414 433 445 413 414 432 413 416 439 412 411 414 423 412 440 443 412 443 440 411 443 443 443 449 435 410 433 435 443 433 443 450 415 433 434 450 415 444 415 414 432 431 434 439 434 448 434 429 415 435 429 414 415 434 434 430 432 413 429 448 435 412 423 434 438 432 432 439 424 449 413 413 444 412 434 429 414 431 412 427 413 427 414 414 434 435 434 427 428 428 412 426 454 412 444 428 428 427 414 450 428 454 450 450 416 403 432 435 435 431 413 431 428 432 415 419 414 429 428 431 416 412 414 415 434 430 425 429 432 428 434 459 416 432 434 440 423 432 417 450 415 432 422 414 432 442 415 422 432 428 423 415 433 419 420 450 434 415

Tree=0
num_leaves=3
num_cat=1
split_feature=0 6
split_gain=23.1299 9.61528
threshold=0 42.500000000000007
decision_type=1 2
left_child=1 -1
right_child=-2 -3
leaf_value=3.4715504443645475 3.4720219993591308 3.4594106864929199
leaf_weight=22 136 131
leaf_count=22 136 131
internal_value=3.4657 3.46301
internal_weight=289 153
internal_count=289 153
cat_boundaries=0 1
cat_threshold=1
is_linear=0
shrinkage=1


Tree=1
num_leaves=3
num_cat=1
split_feature=3 0
split_gain=19.3892 11.7912
threshold=5.4875625823042649 0
decision_type=2 1
left_child=1 -1
right_child=-2 -3
leaf_value=0.0019153958320617681 0.0065511232376098639 -0.0068682195663452156
leaf_weight=63 117 109
leaf_count=63 117 109
internal_value=-0.000206897 -0.00236994
internal_weight=289 172
internal_count=289 172
cat_boundaries=0 1
cat_threshold=2
is_linear=0
shrinkage=0.01


Tree=2
num_leaves=3
num_cat=1
split_feature=3 0
split_gain=19.3892 11.7912
threshold=5.4875625823042649 0
decision_type=2 1
left_child=1 -1
right_child=-2 -3
leaf_value=0.0018962418737411514 0.0064856120052337657 -0.0067995373706817609
leaf_weight=63 117 109
leaf_count=63 117 109
internal_value=-0.000206897 -0.00236994
internal_weight=289 172
internal_count=289 172
cat_boundaries=0 1
cat_threshold=2
is_linear=0
shrinkage=0.01


Tree=3
num_leaves=3
num_cat=1
split_feature=3 0
split_gain=19.3892 11.7912
threshold=5.4875625823042649 0
decision_type=2 1
left_child=1 -1
right_child=-2 -3
leaf_value=0.0018772794550037421 0.0064207558851814284 -0.0067315419969749433
leaf_weight=63 117 109
leaf_count=63 117 109
internal_value=-0.000206897 -0.00236994
internal_weight=289 172
internal_count=289 172
cat_boundaries=0 1
cat_threshold=2
is_linear=0
shrinkage=0.01


Tree=4
num_leaves=3
num_cat=1
split_feature=3 0
split_gain=19.3892 11.7912
threshold=5.4875625823042649 0
decision_type=2 1
left_child=1 -1
right_child=-2 -3
leaf_value=0.0018585066604537026 0.0063565483263296144 -0.0066642265770051924
leaf_weight=63 117 109
leaf_count=63 117 109
internal_value=-0.000206897 -0.00236994
internal_weight=289 172
internal_count=289 172
cat_boundaries=0 1
cat_threshold=2
is_linear=0
shrinkage=0.01


Tree=5
num_leaves=3
num_cat=0
split_feature=3 10
split_gain=14.5714 6.55393
threshold=4.9211515598599069 0.091368381804623436
decision_type=2 2
left_child=-1 -2
right_child=1 -3
leaf_value=-0.0021347127597214667 -0.013702641863387389 0.0062929828430663198
leaf_weight=151 7.9999999999999991 130
leaf_count=151 8 130
internal_value=0 0.0023741
internal_weight=289 138
internal_count=289 138
is_linear=0
shrinkage=0.01


Tree=6
num_leaves=3
num_cat=1
split_feature=0 6
split_gain=14.5073 9.52603
threshold=0 83.500000000000014
decision_type=1 2
left_child=1 -1
right_child=-2 -3
leaf_value=0.0039842896642014302 0.0060356274989766881 -0.0068827634864786734
leaf_weight=31 136 122
leaf_count=31 136 122
internal_value=-6.89655e-05 -0.00220779
internal_weight=289 153
internal_count=289 153
cat_boundaries=0 1
cat_threshold=1
is_linear=0
shrinkage=0.01


Tree=7
num_leaves=3
num_cat=0
split_feature=3 5
split_gain=15.7451 6.36015
threshold=5.4875625823042649 4.5000000000000009
decision_type=2 2
left_child=-1 -2
right_child=1 -3
leaf_value=-0.0020445379972594681 0.0033920318153649489 0.011342264107199603
leaf_weight=172 72 45
leaf_count=172 72 45
internal_value=-6.89655e-05 0.00271186
internal_weight=289 117
internal_count=289 117
is_linear=0
shrinkage=0.01


Tree=8
num_leaves=3
num_cat=1
split_feature=0 2
split_gain=13.6639 5.20524
threshold=0 13.665684921794645
decision_type=1 2
left_child=1 -1
right_child=-2 -3
leaf_value=-0.0046415044897166902 0.0059320767241138796 0.012747075096746316
leaf_weight=148 136 4.9999999999999991
leaf_count=148 136 5
internal_value=0 -0.00207792
internal_weight=289 153
internal_count=289 153
cat_boundaries=0 1
cat_threshold=1
is_linear=0
shrinkage=0.01


Tree=9
num_leaves=3
num_cat=1
split_feature=3 0
split_gain=14.9728 8.81316
threshold=5.4875625823042649 0
decision_type=2 1
left_child=1 -1
right_child=-2 -3
leaf_value=0.0017620370591880708 0.0060764556542511053 -0.0064405491239033809
leaf_weight=63 117 109
leaf_count=63 117 109
internal_value=0 -0.00190751
internal_weight=289 172
internal_count=289 172
cat_boundaries=0 1
cat_threshold=2
is_linear=0
shrinkage=0.01


Tree=10
num_leaves=3
num_cat=0
split_feature=3 6
split_gain=13.7418 6.64197
threshold=4.9211515598599069 339.50000000000006
decision_type=2 2
left_child=1 -1
right_child=-2 -3
leaf_value=0.00044665766047484733 0.0059361887747902478 -0.0050522256908908901
leaf_weight=33 138 118
leaf_count=33 138 118
internal_value=6.89655e-05 -0.00197368
internal_weight=289 151
internal_count=289 151
is_linear=0
shrinkage=0.01


Tree=11
num_leaves=3
num_cat=0
split_feature=3 6
split_gain=14.2329 8.20732
threshold=5.4875625823042649 339.50000000000006
decision_type=2 2
left_child=1 -1
right_child=-2 -3
leaf_value=0.0010777436935797181 0.0059563292099606936 -0.004607119331077705
leaf_weight=43 117 129
leaf_count=43 117 129
internal_value=0 -0.00179191
internal_weight=289 172
internal_count=289 172
is_linear=0
shrinkage=0.01


Tree=12
num_leaves=3
num_cat=1
split_feature=3 0
split_gain=13.5254 7.48305
threshold=5.4875625823042649 0
decision_type=2 1
left_child=1 -1
right_child=-2 -3
leaf_value=0.0018410101388158752 0.0058967659178610892 -0.0062795501824446645
leaf_weight=63 117 109
leaf_count=63 117 109
internal_value=6.89655e-05 -0.0016763
internal_weight=289 172
internal_count=289 172
cat_boundaries=0 1
cat_threshold=2
is_linear=0
shrinkage=0.01


Tree=13
num_leaves=3
num_cat=1
split_feature=6 0
split_gain=12.7053 12.2187
threshold=83.500000000000014 0
decision_type=2 1
left_child=-1 -2
right_child=1 -3
leaf_value=0.0058377982586824782 -0.0065394470748768099 0.0048837843303611832
leaf_weight=59 122 108
leaf_count=59 122 108
internal_value=0.000206897 -0.000822511
internal_weight=289 230
internal_count=289 230
cat_boundaries=0 1
cat_threshold=1
is_linear=0
shrinkage=0.01


Tree=14
num_leaves=3
num_cat=1
split_feature=3 0
split_gain=14.2329 6.4769
threshold=5.4875625823042649 0
decision_type=2 1
left_child=1 -1
right_child=-2 -3
leaf_value=0.0017737621941241067 0.0057794202760956545 -0.0061513602098714508
leaf_weight=63 117 109
leaf_count=63 117 109
internal_value=0 -0.00179191
internal_weight=289 172
internal_count=289 172
cat_boundaries=0 1
cat_threshold=2
is_linear=0
shrinkage=0.01


Tree=15
num_leaves=3
num_cat=1
split_feature=6 0
split_gain=13.1206 11.2852
threshold=83.500000000000014 0
decision_type=2 1
left_child=-1 -2
right_child=1 -3
leaf_value=0.0057216260733346982 -0.0064125390020293299 0.0047971805747064724
leaf_weight=59 122 108
leaf_count=59 122 108
internal_value=0.000137931 -0.000909091
internal_weight=289 230
internal_count=289 230
cat_boundaries=0 1
cat_threshold=1
is_linear=0
shrinkage=0.01


Tree=16
num_leaves=3
num_cat=0
split_feature=3 6
split_gain=13.5254 6.53588
threshold=5.4875625823042649 250.00000000000003
decision_type=2 2
left_child=1 -1
right_child=-2 -3
leaf_value=0.0024772412588198824 0.0056644098126013495 -0.0041621785230673818
leaf_weight=38 117 134
leaf_count=38 117 134
internal_value=6.89655e-05 -0.0016763
internal_weight=289 172
internal_count=289 172
is_linear=0
shrinkage=0.01


Tree=17
num_leaves=3
num_cat=1
split_feature=3 0
split_gain=14.2329 6.4769
threshold=5.4875625823042649 0
decision_type=2 1
left_child=1 -1
right_child=-2 -3
leaf_value=0.0017496745516664713 0.0056077657144753346 -0.0059840994325217698
leaf_weight=63 117 109
leaf_count=63 117 109
internal_value=0 -0.00179191
internal_weight=289 172
internal_count=289 172
cat_boundaries=0 1
cat_threshold=2
is_linear=0
shrinkage=0.01


Tree=18
num_leaves=3
num_cat=0
split_feature=3 10
split_gain=12.9373 6.55393
threshold=4.9211515598599069 0.091368381804623436
decision_type=2 2
left_child=-1 -2
right_child=1 -3
leaf_value=-0.0019450687644373499 -0.013624358325879025 0.0055516880573305821
leaf_weight=151 7.9999999999999991 130
leaf_count=151 8 130
internal_value=0.000137931 0.0023741
internal_weight=289 138
internal_count=289 138
is_linear=0
shrinkage=0.01


Tree=19
num_leaves=3
num_cat=0
split_feature=3 6
split_gain=13.5254 6.53588
threshold=5.4875625823042649 250.00000000000003
decision_type=2 2
left_child=1 -1
right_child=-2 -3
leaf_value=0.002455607874171495 0.005496171176757274 -0.0040799339257880556
leaf_weight=38 117 134
leaf_count=38 117 134
internal_value=6.89655e-05 -0.0016763
internal_weight=289 172
internal_count=289 172
is_linear=0
shrinkage=0.01


Tree=20
num_leaves=3
num_cat=0
split_feature=3 6
split_gain=12.8367 7.2099
threshold=5.4875625823042649 339.50000000000006
decision_type=2 2
left_child=1 -1
right_child=-2 -3
leaf_value=0.0010306767396689098 0.0054412094649897028 -0.0046670914227033315
leaf_weight=43 117 129
leaf_count=43 117 129
internal_value=0.000137931 -0.00156069
internal_weight=289 172
internal_count=289 172
is_linear=0
shrinkage=0.01


Tree=21
num_leaves=3
num_cat=0
split_feature=3 6
split_gain=13.5254 6.53588
threshold=5.4875625823042649 250.00000000000003
decision_type=2 2
left_child=1 -1
right_child=-2 -3
leaf_value=0.0024207450280330934 0.0053867973703398062 -0.0039924636723031419
leaf_weight=38 117 134
leaf_count=38 117 134
internal_value=6.89655e-05 -0.0016763
internal_weight=289 172
internal_count=289 172
is_linear=0
shrinkage=0.01


Tree=22
num_leaves=3
num_cat=0
split_feature=3 10
split_gain=12.4884 6.93248
threshold=5.4875625823042649 0.106030947054437
decision_type=2 2
left_child=-1 -2
right_child=1 -3
leaf_value=-0.0013145413088305614 -0.0063124100722842386 0.0057651905555159777
leaf_weight=172 7.9999999999999991 109
leaf_count=172 8 109
internal_value=0 0.00254237
internal_weight=289 117
internal_count=289 117
is_linear=0
shrinkage=0.01


Tree=23
num_leaves=3
num_cat=1
split_feature=0 6
split_gain=11.349 9.86547
threshold=0 83.500000000000014
decision_type=1 2
left_child=1 -1
right_child=-2 -3
leaf_value=0.0032551296750556171 0.0050903623879723801 -0.0061775908389415605
leaf_weight=31 136 122
leaf_count=31 136 122
internal_value=0.000137931 -0.00168831
internal_weight=289 153
internal_count=289 153
cat_boundaries=0 1
cat_threshold=1
is_linear=0
shrinkage=0.01


Tree=24
num_leaves=3
num_cat=1
split_feature=0 6
split_gain=12.8588 6.41093
threshold=0 83.500000000000014
decision_type=1 2
left_child=1 -1
right_child=-2 -3
leaf_value=0.003222578378305059 0.0050394587640926547 -0.0061158149305521464
leaf_weight=31 136 122
leaf_count=31 136 122
internal_value=0 -0.00194805
internal_weight=289 153
internal_count=289 153
cat_boundaries=0 1
cat_threshold=1
is_linear=0
shrinkage=0.01


Tree=25
num_leaves=3
num_cat=1
split_feature=0 6
split_gain=11.9828 6.41093
threshold=0 83.500000000000014
decision_type=1 2
left_child=1 -1
right_child=-2 -3
leaf_value=0.0031903525945220102 0.0049890641764517296 -0.0060546567812466232
leaf_weight=31 136 122
leaf_count=31 136 122
internal_value=0 -0.00194805
internal_weight=289 153
internal_count=289 153
cat_boundaries=0 1
cat_threshold=1
is_linear=0
shrinkage=0.01


Tree=26
num_leaves=3
num_cat=0
split_feature=3 10
split_gain=11.5053 6.6428
threshold=5.4875625823042649 0.106030947054437
decision_type=2 2
left_child=-1 -2
right_child=1 -3
leaf_value=-0.0012216784614986942 -0.0063732207014433918 0.0058910192754682194
leaf_weight=172 7.9999999999999991 109
leaf_count=172 8 109
internal_value=0 0.00237288
internal_weight=289 117
internal_count=289 117
is_linear=0
shrinkage=0.01


Tree=27
num_leaves=3
num_cat=1
split_feature=0 5
split_gain=10.4121 6.36931
threshold=0 6.5000000000000009
decision_type=1 2
left_child=-1 -2
right_child=1 -3
leaf_value=-0.0033826748653483342 0.0016357322246434471 0.0081408456091225604
leaf_weight=153 95 41
leaf_count=153 95 41
internal_value=0 0.0019708
internal_weight=289 136
internal_count=289 136
cat_boundaries=0 1
cat_threshold=1
is_linear=0
shrinkage=0.01


Tree=28
num_leaves=3
num_cat=0
split_feature=3 5
split_gain=12.4884 7.19182
threshold=5.4875625823042649 4.5000000000000009
decision_type=2 2
left_child=-1 -2
right_child=1 -3
leaf_value=-0.0012258189991301415 0.0023763702634363006 0.010095619627855027
leaf_weight=172 72 45
leaf_count=172 72 45
internal_value=0 0.00254237
internal_weight=289 117
internal_count=289 117
is_linear=0
shrinkage=0.01


Tree=29
num_leaves=3
num_cat=1
split_feature=3 0
split_gain=11.5053 5.89782
threshold=5.4875625823042649 0
decision_type=2 1
left_child=1 -1
right_child=-2 -3
leaf_value=0.0017490975961651145 0.0051395837806975696 -0.0055224850984887568
leaf_weight=63 117 109
leaf_count=63 117 109
internal_value=0 -0.0016763
internal_weight=289 172
internal_count=289 172
cat_boundaries=0 1
cat_threshold=2
is_linear=0
shrinkage=0.01


Tree=30
num_leaves=3
num_cat=1
split_feature=0 6
split_gain=9.71078 7.56974
threshold=0 83.500000000000014
decision_type=1 2
left_child=1 -1
right_child=-2 -3
leaf_value=0.0030582060840342474 0.0047176246655002618 -0.0059874684185830997
leaf_weight=31 136 122
leaf_count=31 136 122
internal_value=0 -0.00168831
internal_weight=289 153
internal_count=289 153
cat_boundaries=0 1
cat_threshold=1
is_linear=0
shrinkage=0.01


Tree=31
num_leaves=3
num_cat=0
split_feature=3 10
split_gain=11.5053 6.6428
threshold=5.4875625823042649 0.106030947054437
decision_type=2 2
left_child=-1 -2
right_child=1 -3
leaf_value=-0.0012782280317554929 -0.0064324410943375756 0.0058506509751115087
leaf_weight=172 7.9999999999999991 109
leaf_count=172 8 109
internal_value=0 0.00237288
internal_weight=289 117
internal_count=289 117
is_linear=0
shrinkage=0.01


Tree=32
num_leaves=3
num_cat=0
split_feature=3 10
split_gain=10.8579 6.6428
threshold=5.4875625823042649 0.106030947054437
decision_type=2 2
left_child=-1 -2
right_child=1 -3
leaf_value=-0.0012654457514379392 -0.0063681166833941981 0.0057921444653603917
leaf_weight=172 7.9999999999999991 109
leaf_count=172 8 109
internal_value=0 0.00237288
internal_weight=289 117
internal_count=289 117
is_linear=0
shrinkage=0.01


Tree=33
num_leaves=3
num_cat=0
split_feature=3 10
split_gain=10.8579 6.6428
threshold=5.4875625823042649 0.106030947054437
decision_type=2 2
left_child=-1 -2
right_child=1 -3
leaf_value=-0.0012527912939235585 -0.0063044355165602561 0.0057342230207067862
leaf_weight=172 7.9999999999999991 109
leaf_count=172 8 109
internal_value=0 0.00237288
internal_weight=289 117
internal_count=289 117
is_linear=0
shrinkage=0.01


Tree=34
num_leaves=3
num_cat=0
split_feature=6 2
split_gain=9.67349 9.21283
threshold=250.00000000000003 13.665684921794645
decision_type=2 2
left_child=-1 -2
right_child=1 -3
leaf_value=0.0045497537949489965 -0.0020199026801123177 0.009220181823863598
leaf_weight=112 163 13.999999999999998
leaf_count=112 163 14
internal_value=6.89655e-05 -0.00134831
internal_weight=289 177
internal_count=289 177
is_linear=0
shrinkage=0.01


Tree=35
num_leaves=3
num_cat=0
split_feature=3 10
split_gain=11.5053 6.6428
threshold=5.4875625823042649 0.106030947054437
decision_type=2 2
left_child=-1 -2
right_child=1 -3
leaf_value=-0.0012200643541831991 -0.0062868886993441443 0.0055846789722610833
leaf_weight=172 7.9999999999999991 109
leaf_count=172 8 109
internal_value=0 0.00237288
internal_weight=289 117
internal_count=289 117
is_linear=0
shrinkage=0.01


Tree=36
num_leaves=3
num_cat=0
split_feature=3 5
split_gain=11.8272 7.19182
threshold=5.4875625823042649 4.5000000000000009
decision_type=2 2
left_child=-1 -2
right_child=1 -3
leaf_value=-0.0012078637106413658 0.0019872170569633996 0.0096049667467484889
leaf_weight=172 72 45
leaf_count=172 72 45
internal_value=6.89655e-05 0.00254237
internal_weight=289 117
internal_count=289 117
is_linear=0
shrinkage=0.01


Tree=37
num_leaves=3
num_cat=0
split_feature=3 10
split_gain=10.8579 6.6428
threshold=5.4875625823042649 0.106030947054437
decision_type=2 2
left_child=-1 -2
right_child=1 -3
leaf_value=-0.0011957850735349539 -0.0062819807313692615 0.005508960011968842
leaf_weight=172 7.9999999999999991 109
leaf_count=172 8 109
internal_value=0 0.00237288
internal_weight=289 117
internal_count=289 117
is_linear=0
shrinkage=0.01


Tree=38
num_leaves=3
num_cat=0
split_feature=3 5
split_gain=11.8272 7.19182
threshold=5.4875625823042649 4.5000000000000009
decision_type=2 2
left_child=-1 -2
right_child=1 -3
leaf_value=-0.0011838272227996027 0.0019122552862740783 0.0094538274791613162
leaf_weight=172 72 45
leaf_count=172 72 45
internal_value=6.89655e-05 0.00254237
internal_weight=289 117
internal_count=289 117
is_linear=0
shrinkage=0.01


Tree=39
num_leaves=3
num_cat=1
split_feature=0 6
split_gain=9.71078 7.56974
threshold=0 83.500000000000014
decision_type=1 2
left_child=1 -1
right_child=-2 -3
leaf_value=0.0026584251873579537 0.0042027319248981107 -0.0060262253293479938
leaf_weight=31 136 122
leaf_count=31 136 122
internal_value=0 -0.00168831
internal_weight=289 153
internal_count=289 153
cat_boundaries=0 1
cat_threshold=1
is_linear=0
shrinkage=0.01


Tree=40
num_leaves=3
num_cat=0
split_feature=3 10
split_gain=10.8579 6.6428
threshold=5.4875625823042649 0.106030947054437
decision_type=2 2
left_child=-1 -2
right_child=1 -3
leaf_value=-0.001214016269820588 -0.0063102971234440261 0.0054950101122798901
leaf_weight=172 7.9999999999999991 109
leaf_count=172 8 109
internal_value=0 0.00237288
internal_weight=289 117
internal_count=289 117
is_linear=0
shrinkage=0.01


Tree=41
num_leaves=3
num_cat=0
split_feature=3 10
split_gain=10.8579 6.6428
threshold=5.4875625823042649 0.106030947054437
decision_type=2 2
left_child=-1 -2
right_child=1 -3
leaf_value=-0.0012018761071223817 -0.0062471941522095854 0.0054400600111570926
leaf_weight=172 7.9999999999999991 109
leaf_count=172 8 109
internal_value=0 0.00237288
internal_weight=289 117
internal_count=289 117
is_linear=0
shrinkage=0.01


Tree=42
num_leaves=3
num_cat=0
split_feature=3 5
split_gain=11.8272 7.19182
threshold=5.4875625823042649 4.5000000000000009
decision_type=2 2
left_child=-1 -2
right_child=1 -3
leaf_value=-0.0011898573460511575 0.0017494762466156867 0.0093102007564288148
leaf_weight=172 72 45
leaf_count=172 72 45
internal_value=6.89655e-05 0.00254237
internal_weight=289 117
internal_count=289 117
is_linear=0
shrinkage=0.01


Tree=43
num_leaves=3
num_cat=0
split_feature=3 10
split_gain=10.8579 6.6428
threshold=5.4875625823042649 0.106030947054437
decision_type=2 2
left_child=-1 -2
right_child=1 -3
leaf_value=-0.001177958772590646 -0.0062400205957027135 0.0053137092027586742
leaf_weight=172 7.9999999999999991 109
leaf_count=172 8 109
internal_value=0 0.00237288
internal_weight=289 117
internal_count=289 117
is_linear=0
shrinkage=0.01


Tree=44
num_leaves=3
num_cat=0
split_feature=3 10
split_gain=10.8579 6.6428
threshold=5.4875625823042649 0.106030947054437
decision_type=2 2
left_child=-1 -2
right_child=1 -3
leaf_value=-0.0011661791848647375 -0.0061776203897456888 0.0052605721107310856
leaf_weight=172 7.9999999999999991 109
leaf_count=172 8 109
internal_value=0 0.00237288
internal_weight=289 117
internal_count=289 117
is_linear=0
shrinkage=0.01


Tree=45
num_leaves=3
num_cat=0
split_feature=3 5
split_gain=11.8272 7.19182
threshold=5.4875625823042649 4.5000000000000009
decision_type=2 2
left_child=-1 -2
right_child=1 -3
leaf_value=-0.0011545173930160902 0.0016262386710146305 0.0091113559357296255
leaf_weight=172 72 45
leaf_count=172 72 45
internal_value=6.89655e-05 0.00254237
internal_weight=289 117
internal_count=289 117
is_linear=0
shrinkage=0.01


Tree=46
num_leaves=3
num_cat=0
split_feature=3 10
split_gain=10.8579 6.6428
threshold=5.4875625823042649 0.106030947054437
decision_type=2 2
left_child=-1 -2
right_child=1 -3
leaf_value=-0.0011429722190859292 -0.0061695321588819494 0.0051168528302664787
leaf_weight=172 7.9999999999999991 109
leaf_count=172 8 109
internal_value=0 0.00237288
internal_weight=289 117
internal_count=289 117
is_linear=0
shrinkage=0.01


Tree=47
num_leaves=3
num_cat=0
split_feature=3 5
split_gain=11.8272 7.19182
threshold=5.4875625823042649 4.5000000000000009
decision_type=2 2
left_child=-1 -2
right_child=1 -3
leaf_value=-0.0011315424968950706 0.001558807756001821 0.0089690738480696641
leaf_weight=172 72 45
leaf_count=172 72 45
internal_value=6.89655e-05 0.00254237
internal_weight=289 117
internal_count=289 117
is_linear=0
shrinkage=0.01


Tree=48
num_leaves=3
num_cat=1
split_feature=0 6
split_gain=9.04763 9.34409
threshold=0 83.500000000000014
decision_type=1 2
left_child=1 -1
right_child=-2 -3
leaf_value=0.0023162336660761218 0.0037929718560496539 -0.0060114517266025413
leaf_weight=31 136 122
leaf_count=31 136 122
internal_value=6.89655e-05 -0.00155844
internal_weight=289 153
internal_count=289 153
cat_boundaries=0 1
cat_threshold=1
is_linear=0
shrinkage=0.01


Tree=49
num_leaves=3
num_cat=0
split_feature=3 10
split_gain=9.94269 6.35806
threshold=5.4875625823042649 0.106030947054437
decision_type=2 2
left_child=-1 -2
right_child=1 -3
leaf_value=-0.0011581567904866174 -0.0061910222729241139 0.0049380638449226227
leaf_weight=172 7.9999999999999991 109
leaf_count=172 8 109
internal_value=0 0.00220339
internal_weight=289 117
internal_count=289 117
is_linear=0
shrinkage=0.01


Tree=50
num_leaves=3
num_cat=0
split_feature=3 10
split_gain=9.94269 6.35806
threshold=5.4875625823042649 0.106030947054437
decision_type=2 2
left_child=-1 -2
right_child=1 -3
leaf_value=-0.0011465752225817516 -0.0061291120501948716 0.0048886832064733944
leaf_weight=172 7.9999999999999991 109
leaf_count=172 8 109
internal_value=0 0.00220339
internal_weight=289 117
internal_count=289 117
is_linear=0
shrinkage=0.01


Tree=51
num_leaves=3
num_cat=1
split_feature=3 0
split_gain=10.6539 7.7059
threshold=8.2501392023999092 0
decision_type=2 1
left_child=1 -1
right_child=-2 -3
leaf_value=-0.0045306357457886338 0.0080287820562686338 0.0031564419966620782
leaf_weight=143 33 113
leaf_count=143 33 113
internal_value=0 -0.000661479
internal_weight=289 256
internal_count=289 256
cat_boundaries=0 1
cat_threshold=1
is_linear=0
shrinkage=0.01


Tree=52
num_leaves=3
num_cat=0
split_feature=3 10
split_gain=9.69197 8.70607
threshold=4.9211515598599069 0.09643767089236889
decision_type=2 2
left_child=-1 -2
right_child=1 -3
leaf_value=-0.0018340889485183622 -0.012955144168502313 0.0040320176960899554
leaf_weight=151 9.9999999999999982 128
leaf_count=151 10 128
internal_value=0 0.00194245
internal_weight=289 138
internal_count=289 138
is_linear=0
shrinkage=0.01


Tree=53
num_leaves=3
num_cat=0
split_feature=3 9
split_gain=10.6539 5.30854
threshold=8.2501392023999092 0.27357149515287105
decision_type=2 2
left_child=1 -1
right_child=-2 -3
leaf_value=-1.4329910438697358e-05 0.0079081740587450475 -0.011062647309153266
leaf_weight=222 33 34
leaf_count=222 33 34
internal_value=0 -0.000661479
internal_weight=289 256
internal_count=289 256
is_linear=0
shrinkage=0.01


Tree=54
num_leaves=3
num_cat=1
split_feature=0 3
split_gain=8.95165 7.55828
threshold=0 2.5425050714339776
decision_type=1 2
left_child=-1 -2
right_child=1 -3
leaf_value=-0.0031405241445874579 -0.007376457848247875 0.0040118585458756529
leaf_weight=153 13.999999999999998 122
leaf_count=153 14 122
internal_value=0 0.00182482
internal_weight=289 136
internal_count=289 136
cat_boundaries=0 1
cat_threshold=1
is_linear=0
shrinkage=0.01


Tree=55
num_leaves=3
num_cat=1
split_feature=0 5
split_gain=7.69111 5.12843
threshold=0 6.5000000000000009
decision_type=1 2
left_child=-1 -2
right_child=1 -3
leaf_value=-0.0031091189031415833 0.0009739241117950792 0.0063809156376606821
leaf_weight=153 95 41
leaf_count=153 95 41
internal_value=6.89655e-05 0.00182482
internal_weight=289 136
internal_count=289 136
cat_boundaries=0 1
cat_threshold=1
is_linear=0
shrinkage=0.01


Tree=56
num_leaves=3
num_cat=0
split_feature=3 10
split_gain=10.4839 6.07856
threshold=4.9211515598599069 0.091368381804623436
decision_type=2 2
left_child=-1 -2
right_child=1 -3
leaf_value=-0.0016426251554643567 -0.012763888538769037 0.0039418555977311347
leaf_weight=151 7.9999999999999991 130
leaf_count=151 8 130
internal_value=6.89655e-05 0.00208633
internal_weight=289 138
internal_count=289 138
is_linear=0
shrinkage=0.01


Tree=57
num_leaves=3
num_cat=0
split_feature=3 10
split_gain=10.4839 6.07856
threshold=4.9211515598599069 0.091368381804623436
decision_type=2 2
left_child=-1 -2
right_child=1 -3
leaf_value=-0.0016261989039097148 -0.012636249653381349 0.0039024370417538234
leaf_weight=151 7.9999999999999991 130
leaf_count=151 8 130
internal_value=6.89655e-05 0.00208633
internal_weight=289 138
internal_count=289 138
is_linear=0
shrinkage=0.01


Tree=58
num_leaves=3
num_cat=1
split_feature=0 3
split_gain=8.95165 7.55828
threshold=0 2.5425050714339776
decision_type=1 2
left_child=-1 -2
right_child=1 -3
leaf_value=-0.0030453394735164264 -0.0072797442702896079 0.0039120884187690622
leaf_weight=153 13.999999999999998 122
leaf_count=153 14 122
internal_value=0 0.00182482
internal_weight=289 136
internal_count=289 136
cat_boundaries=0 1
cat_threshold=1
is_linear=0
shrinkage=0.01


Tree=59
num_leaves=3
num_cat=0
split_feature=3 10
split_gain=10.4839 6.07856
threshold=4.9211515598599069 0.091368381804623436
decision_type=2 2
left_child=-1 -2
right_child=1 -3
leaf_value=-0.0015794835201354519 -0.012514220901573798 0.0038242917871485951
leaf_weight=151 7.9999999999999991 130
leaf_count=151 8 130
internal_value=6.89655e-05 0.00208633
internal_weight=289 138
internal_count=289 138
is_linear=0
shrinkage=0.01


Tree=60
num_leaves=3
num_cat=0
split_feature=3 6
split_gain=10.069 6.61723
threshold=7.4947872009499106 250.00000000000003
decision_type=2 2
left_child=1 -1
right_child=-2 -3
leaf_value=0.0029889147644687466 0.0068923637579784572 -0.0020223945510889373
leaf_weight=70 54 165
leaf_count=70 54 165
internal_value=0 -0.000932203
internal_weight=289 235
internal_count=289 235
is_linear=0
shrinkage=0.01


Tree=61
num_leaves=3
num_cat=0
split_feature=3 6
split_gain=9.7131 6.17798
threshold=7.4947872009499106 250.00000000000003
decision_type=2 2
left_child=1 -1
right_child=-2 -3
leaf_value=0.0029590256168240581 0.006823440120398672 -0.0020021706055780488
leaf_weight=70 54 165
leaf_count=70 54 165
internal_value=0 -0.000847458
internal_weight=289 235
internal_count=289 235
is_linear=0
shrinkage=0.01


Tree=62
num_leaves=3
num_cat=0
split_feature=3 10
split_gain=9.34153 6.35806
threshold=5.4875625823042649 0.106030947054437
decision_type=2 2
left_child=-1 -2
right_child=1 -3
leaf_value=-0.0011496752759460359 -0.0056096054758095386 0.0044488412024832119
leaf_weight=172 7.9999999999999991 109
leaf_count=172 8 109
internal_value=0 0.00220339
internal_weight=289 117
internal_count=289 117
is_linear=0
shrinkage=0.01


Tree=63
num_leaves=3
num_cat=0
split_feature=6 9
split_gain=8.76693 5.94464
threshold=250.00000000000003 0.21673750932140196
decision_type=2 2
left_child=1 -1
right_child=-2 -3
leaf_value=0.0043289150656327414 -0.0011369429323761526 -0.0030095816895026849
leaf_weight=81 177 31
leaf_count=81 177 31
internal_value=0 0.00221239
internal_weight=289 112
internal_count=289 112
is_linear=0
shrinkage=0.01


Tree=64
num_leaves=3
num_cat=1
split_feature=0 6
split_gain=8.95165 7.56974
threshold=0 83.500000000000014
decision_type=1 2
left_child=1 -1
right_child=-2 -3
leaf_value=0.0019512617179839608 0.0033301576133268119 -0.0059771847078925067
leaf_weight=31 136 122
leaf_count=31 136 122
internal_value=0 -0.00168831
internal_weight=289 153
internal_count=289 153
cat_boundaries=0 1
cat_threshold=1
is_linear=0
shrinkage=0.01


Tree=65
num_leaves=3
num_cat=0
split_feature=3 10
split_gain=9.34153 6.35806
threshold=5.4875625823042649 0.106030947054437
decision_type=2 2
left_child=-1 -2
right_child=1 -3
leaf_value=-0.0011665042699926143 -0.0055865131845886443 0.0043277620636687835
leaf_weight=172 7.9999999999999991 109
leaf_count=172 8 109
internal_value=0 0.00220339
internal_weight=289 117
internal_count=289 117
is_linear=0
shrinkage=0.01


Tree=66
num_leaves=3
num_cat=0
split_feature=3 6
split_gain=9.7131 6.17798
threshold=7.4947872009499106 250.00000000000003
decision_type=2 2
left_child=1 -1
right_child=-2 -3
leaf_value=0.0027650786012047048 0.0066275414435192498 -0.0019809192508723904
leaf_weight=70 54 165
leaf_count=70 54 165
internal_value=0 -0.000847458
internal_weight=289 235
internal_count=289 235
is_linear=0
shrinkage=0.01


Tree=67
num_leaves=3
num_cat=1
split_feature=0 5
split_gain=8.3023 5.12843
threshold=0 6.5000000000000009
decision_type=1 2
left_child=-1 -2
right_child=1 -3
leaf_value=-0.0029858497858792801 0.001034831555009803 0.005879629599369802
leaf_weight=153 95 41
leaf_count=153 95 41
internal_value=0 0.00182482
internal_weight=289 136
internal_count=289 136
cat_boundaries=0 1
cat_threshold=1
is_linear=0
shrinkage=0.01


Tree=68
num_leaves=3
num_cat=0
split_feature=3 10
split_gain=9.34153 6.35806
threshold=5.4875625823042649 0.106030947054437
decision_type=2 2
left_child=-1 -2
right_child=1 -3
leaf_value=-0.0011377491595271128 -0.0055485437476004585 0.004198037361026352
leaf_weight=172 7.9999999999999991 109
leaf_count=172 8 109
internal_value=0 0.00220339
internal_weight=289 117
internal_count=289 117
is_linear=0
shrinkage=0.01


Tree=69
num_leaves=3
num_cat=0
split_feature=6 10
split_gain=8.23628 5.95732
threshold=250.00000000000003 0.106030947054437
decision_type=2 2
left_child=-1 -2
right_child=1 -3
leaf_value=0.0034822332308406569 -0.010950430730702397 -0.00045945768172578561
leaf_weight=112 13.999999999999998 163
leaf_count=112 14 163
internal_value=6.89655e-05 -0.00123596
internal_weight=289 177
internal_count=289 177
is_linear=0
shrinkage=0.01


Tree=70
num_leaves=3
num_cat=1
split_feature=0 3
split_gain=9.04763 7.90485
threshold=0 2.5425050714339776
decision_type=1 2
left_child=-1 -2
right_child=1 -3
leaf_value=-0.0029400192196079589 -0.0071242437467976582 0.0037038559291518781
leaf_weight=153 13.999999999999998 122
leaf_count=153 14 122
internal_value=6.89655e-05 0.0019708
internal_weight=289 136
internal_count=289 136
cat_boundaries=0 1
cat_threshold=1
is_linear=0
shrinkage=0.01


Tree=71
num_leaves=3
num_cat=0
split_feature=3 5
split_gain=9.37727 5.74993
threshold=7.4947872009499106 7.5000000000000009
decision_type=2 2
left_child=1 -1
right_child=-2 -3
leaf_value=-0.0026755358133875398 0.006412852458101968 0.0033237993064880247
leaf_weight=179 54 56
leaf_count=179 54 56
internal_value=6.89655e-05 -0.000762712
internal_weight=289 235
internal_count=289 235
is_linear=0
shrinkage=0.01


Tree=72
num_leaves=3
num_cat=0
split_feature=3 10
split_gain=8.77282 6.35806
threshold=5.4875625823042649 0.106030947054437
decision_type=2 2
left_child=-1 -2
right_child=1 -3
leaf_value=-0.0010863667006309364 -0.0055349411434460864 0.0040509581027512809
leaf_weight=172 7.9999999999999991 109
leaf_count=172 8 109
internal_value=6.89655e-05 0.00220339
internal_weight=289 117
internal_count=289 117
is_linear=0
shrinkage=0.01


Tree=73
num_leaves=3
num_cat=1
split_feature=3 0
split_gain=9.37727 5.12646
threshold=7.4947872009499106 0
decision_type=2 1
left_child=1 -1
right_child=-2 -3
leaf_value=-0.0043761091424725194 0.0063082143524934358 0.0021043223400008305
leaf_weight=137 54 98
leaf_count=137 54 98
internal_value=6.89655e-05 -0.000762712
internal_weight=289 235
internal_count=289 235
cat_boundaries=0 1
cat_threshold=1
is_linear=0
shrinkage=0.01


Tree=74
num_leaves=3
num_cat=1
split_feature=3 0
split_gain=8.4049 7.09381
threshold=8.2501392023999092 0
decision_type=2 1
left_child=1 -1
right_child=-2 -3
leaf_value=-0.0043323480510477942 0.0070371126881143865 0.0024594348405072219
leaf_weight=143 33 113
leaf_count=143 33 113
internal_value=0 -0.000583658
internal_weight=289 256
internal_count=289 256
cat_boundaries=0 1
cat_threshold=1
is_linear=0
shrinkage=0.01


Tree=75
num_leaves=3
num_cat=1
split_feature=3 0
split_gain=8.17321 6.50616
threshold=8.2501392023999092 0
decision_type=2 1
left_child=1 -1
right_child=-2 -3
leaf_value=-0.0042890245705373168 0.0069667415612332433 0.0024348404921021504
leaf_weight=143 33 113
leaf_count=143 33 113
internal_value=6.89655e-05 -0.000505837
internal_weight=289 256
internal_count=289 256
cat_boundaries=0 1
cat_threshold=1
is_linear=0
shrinkage=0.01


Tree=76
num_leaves=3
num_cat=0
split_feature=3 9
split_gain=8.09708 6.08405
threshold=7.4947872009499106 0.27357149515287105
decision_type=2 2
left_child=1 -1
right_child=-2 -3
leaf_value=1.3443222048170612e-06 0.0061050936664750277 -0.01048453056248044
leaf_weight=201 54 34
leaf_count=201 54 34
internal_value=0.000344828 -0.000423729
internal_weight=289 235
internal_count=289 235
is_linear=0
shrinkage=0.01


Tree=77
num_leaves=3
num_cat=0
split_feature=3 9
split_gain=7.49938 6.45764
threshold=8.2501392023999092 0.27357149515287105
decision_type=2 2
left_child=1 -1
right_child=-2 -3
leaf_value=5.3013403848174434e-05 0.0068360232089561632 -0.010379685256855634
leaf_weight=222 33 34
leaf_count=222 33 34
internal_value=0.000275862 -0.000272374
internal_weight=289 256
internal_count=289 256
is_linear=0
shrinkage=0.01


Tree=78
num_leaves=3
num_cat=1
split_feature=3 0
split_gain=7.49938 4.88975
threshold=8.2501392023999092 0
decision_type=2 1
left_child=1 -1
right_child=-2 -3
leaf_value=-0.0040374921666385833 0.0067676629768665996 0.0023489110164778993
leaf_weight=143 33 113
leaf_count=143 33 113
internal_value=0.000275862 -0.000272374
internal_weight=289 256
internal_count=289 256
cat_boundaries=0 1
cat_threshold=1
is_linear=0
shrinkage=0.01


Tree=79
num_leaves=3
num_cat=0
split_feature=3 9
split_gain=8.09708 6.08405
threshold=7.4947872009499106 0.27357149515287105
decision_type=2 2
left_child=1 -1
right_child=-2 -3
leaf_value=4.1175666610673289e-05 0.0059080058679520488 -0.010235513482620693
leaf_weight=201 54 34
leaf_count=201 54 34
internal_value=0.000344828 -0.000423729
internal_weight=289 235
internal_count=289 235
is_linear=0
shrinkage=0.01


Tree=80
num_leaves=3
num_cat=0
split_feature=3 9
split_gain=7.49938 6.45764
threshold=8.2501392023999092 0.27357149515287105
decision_type=2 2
left_child=1 -1
right_child=-2 -3
leaf_value=7.4603091263438786e-05 0.0066409062884184109 -0.010133158347794487
leaf_weight=222 33 34
leaf_count=222 33 34
internal_value=0.000275862 -0.000272374
internal_weight=289 256
internal_count=289 256
is_linear=0
shrinkage=0.01


Tree=81
num_leaves=3
num_cat=1
split_feature=3 0
split_gain=7.49938 4.88975
threshold=8.2501392023999092 0
decision_type=2 1
left_child=1 -1
right_child=-2 -3
leaf_value=-0.0037934305266680468 0.0065744972255342262 0.0022655958167209669
leaf_weight=143 33 113
leaf_count=143 33 113
internal_value=0.000275862 -0.000272374
internal_weight=289 256
internal_count=289 256
cat_boundaries=0 1
cat_threshold=1
is_linear=0
shrinkage=0.01


Tree=82
num_leaves=3
num_cat=1
split_feature=3 0
split_gain=7.72045 4.30909
threshold=8.2501392023999092 0
decision_type=2 1
left_child=1 -1
right_child=-2 -3
leaf_value=-0.0037554962214013665 0.0065087522532788844 0.0022429398585537587
leaf_weight=143 33 113
leaf_count=143 33 113
internal_value=0.000206897 -0.000350195
internal_weight=289 256
internal_count=289 256
cat_boundaries=0 1
cat_threshold=1
is_linear=0
shrinkage=0.01


Tree=83
num_leaves=3
num_cat=0
split_feature=3 5
split_gain=8.40766 4.71264
threshold=7.4947872009499106 7.5000000000000009
decision_type=2 2
left_child=1 -1
right_child=-2 -3
leaf_value=-0.0020311221529960123 0.0056516842516002109 0.0031401688784864113
leaf_weight=179 54 56
leaf_count=179 54 56
internal_value=0.000275862 -0.000508475
internal_weight=289 235
internal_count=289 235
is_linear=0
shrinkage=0.01


Tree=84
num_leaves=3
num_cat=0
split_feature=3 9
split_gain=7.72045 6.2255
threshold=8.2501392023999092 0.27357149515287105
decision_type=2 2
left_child=1 -1
right_child=-2 -3
leaf_value=0.00016965754936145716 0.0063871478882300938 -0.0099360262753058898
leaf_weight=222 33 34
leaf_count=222 33 34
internal_value=0.000206897 -0.000350195
internal_weight=289 256
internal_count=289 256
is_linear=0
shrinkage=0.01


Tree=85
num_leaves=3
num_cat=0
split_feature=3 9
split_gain=7.72045 6.2255
threshold=8.2501392023999092 0.27357149515287105
decision_type=2 2
left_child=1 -1
right_child=-2 -3
leaf_value=0.00016796097386784448 0.006323276409347791 -0.0098366660125528277
leaf_weight=222 33 34
leaf_count=222 33 34
internal_value=0.000206897 -0.000350195
internal_weight=289 256
internal_count=289 256
is_linear=0
shrinkage=0.01


Tree=86
num_leaves=3
num_cat=0
split_feature=3 9
split_gain=7.72045 6.2255
threshold=8.2501392023999092 0.27357149515287105
decision_type=2 2
left_child=1 -1
right_child=-2 -3
leaf_value=0.00016628136412916606 0.0062600436452543116 -0.0097382993524273015
leaf_weight=222 33 34
leaf_count=222 33 34
internal_value=0.000206897 -0.000350195
internal_weight=289 256
internal_count=289 256
is_linear=0
shrinkage=0.01


Tree=87
num_leaves=3
num_cat=1
split_feature=3 0
split_gain=7.72045 4.30909
threshold=8.2501392023999092 0
decision_type=2 1
left_child=1 -1
right_child=-2 -3
leaf_value=-0.0034025201212545355 0.0061974432088017697 0.0021589546185786369
leaf_weight=143 33 113
leaf_count=143 33 113
internal_value=0.000206897 -0.000350195
internal_weight=289 256
internal_count=289 256
cat_boundaries=0 1
cat_threshold=1
is_linear=0
shrinkage=0.01


Tree=88
num_leaves=3
num_cat=0
split_feature=3 9
split_gain=8.40766 5.8382
threshold=7.4947872009499106 0.27357149515287105
decision_type=2 2
left_child=1 -1
right_child=-2 -3
leaf_value=0.00016480457038154929 0.0053434882975678666 -0.009606891157690485
leaf_weight=201 54 34
leaf_count=201 54 34
internal_value=0.000275862 -0.000508475
internal_weight=289 235
internal_count=289 235
is_linear=0
shrinkage=0.01


Tree=89
num_leaves=3
num_cat=0
split_feature=3 6
split_gain=7.72045 4.1732
threshold=8.2501392023999092 250.00000000000003
decision_type=2 2
left_child=1 -1
right_child=-2 -3
leaf_value=0.0020839301894171715 0.0060820338937380702 -0.001269423802982037
leaf_weight=85 33 171
leaf_count=85 33 171
internal_value=0.000206897 -0.000350195
internal_weight=289 256
internal_count=289 256
is_linear=0
shrinkage=0.01


Tree=90
num_leaves=3
num_cat=0
split_feature=3 9
split_gain=7.72045 6.2255
threshold=8.2501392023999092 0.27357149515287105
decision_type=2 2
left_child=1 -1
right_child=-2 -3
leaf_value=0.00019292317406442773 0.006021213554800689 -0.0095148947780457557
leaf_weight=222 33 34
leaf_count=222 33 34
internal_value=0.000206897 -0.000350195
internal_weight=289 256
internal_count=289 256
is_linear=0
shrinkage=0.01


Tree=91
num_leaves=3
num_cat=0
split_feature=3 9
split_gain=7.72045 6.2255
threshold=8.2501392023999092 0.27357149515287105
decision_type=2 2
left_child=1 -1
right_child=-2 -3
leaf_value=0.00019099394232378276 0.0059610014192526825 -0.0094197458302652977
leaf_weight=222 33 34
leaf_count=222 33 34
internal_value=0.000206897 -0.000350195
internal_weight=289 256
internal_count=289 256
is_linear=0
shrinkage=0.01


Tree=92
num_leaves=3
num_cat=0
split_feature=3 9
split_gain=7.49938 4.75002
threshold=8.2501392023999092 0.27357149515287105
decision_type=2 2
left_child=1 -1
right_child=-2 -3
leaf_value=0.00018908400290054361 0.0059013914050601544 -0.0093255483719626442
leaf_weight=222 33 34
leaf_count=222 33 34
internal_value=0.000275862 -0.000272374
internal_weight=289 256
internal_count=289 256
is_linear=0
shrinkage=0.01


Tree=93
num_leaves=3
num_cat=0
split_feature=3 9
split_gain=7.49938 4.75002
threshold=8.2501392023999092 0.27357149515287105
decision_type=2 2
left_child=1 -1
right_child=-2 -3
leaf_value=0.00018719316287153955 0.0058423774910095544 -0.0092322928882430186
leaf_weight=222 33 34
leaf_count=222 33 34
internal_value=0.000275862 -0.000272374
internal_weight=289 256
internal_count=289 256
is_linear=0
shrinkage=0.01


Tree=94
num_leaves=3
num_cat=0
split_feature=3 9
split_gain=7.49938 4.75002
threshold=8.2501392023999092 0.27357149515287105
decision_type=2 2
left_child=1 -1
right_child=-2 -3
leaf_value=0.00018532123124282541 0.0057839537160994589 -0.0091399699593605905
leaf_weight=222 33 34
leaf_count=222 33 34
internal_value=0.000275862 -0.000272374
internal_weight=289 256
internal_count=289 256
is_linear=0
shrinkage=0.01


Tree=95
num_leaves=3
num_cat=0
split_feature=3 9
split_gain=7.49938 4.75002
threshold=8.2501392023999092 0.27357149515287105
decision_type=2 2
left_child=1 -1
right_child=-2 -3
leaf_value=0.00018346801893039501 0.0057261141789384639 -0.0090485702597669845
leaf_weight=222 33 34
leaf_count=222 33 34
internal_value=0.000275862 -0.000272374
internal_weight=289 256
internal_count=289 256
is_linear=0
shrinkage=0.01


Tree=96
num_leaves=3
num_cat=0
split_feature=3 9
split_gain=7.49938 4.75002
threshold=8.2501392023999092 0.27357149515287105
decision_type=2 2
left_child=1 -1
right_child=-2 -3
leaf_value=0.00018163333874108957 0.0056688530371490796 -0.008958084557169314
leaf_weight=222 33 34
leaf_count=222 33 34
internal_value=0.000275862 -0.000272374
internal_weight=289 256
internal_count=289 256
is_linear=0
shrinkage=0.01


Tree=97
num_leaves=3
num_cat=0
split_feature=3 9
split_gain=7.49938 4.75002
threshold=8.2501392023999092 0.27357149515287105
decision_type=2 2
left_child=1 -1
right_child=-2 -3
leaf_value=0.00017981700535367961 0.0056121645067775906 -0.0088685037115976192
leaf_weight=222 33 34
leaf_count=222 33 34
internal_value=0.000275862 -0.000272374
internal_weight=289 256
internal_count=289 256
is_linear=0
shrinkage=0.01


Tree=98
num_leaves=3
num_cat=0
split_feature=3 9
split_gain=7.49938 4.75002
threshold=8.2501392023999092 0.27357149515287105
decision_type=2 2
left_child=1 -1
right_child=-2 -3
leaf_value=0.00017801883530014218 0.0055560428617098135 -0.0087798186744816459
leaf_weight=222 33 34
leaf_count=222 33 34
internal_value=0.000275862 -0.000272374
internal_weight=289 256
internal_count=289 256
is_linear=0
shrinkage=0.01


Tree=99
num_leaves=3
num_cat=0
split_feature=2 6
split_gain=6.59946 6.9569
threshold=13.665684921794645 250.00000000000003
decision_type=2 2
left_child=1 -1
right_child=-2 -3
leaf_value=0.0023120624458333205 0.0081100221908772616 -0.0020472274775618126
leaf_weight=102 24 163
leaf_count=102 24 163
internal_value=0.000275862 -0.000150376
internal_weight=289 265
internal_count=289 265
is_linear=0
shrinkage=0.01


Tree=100
num_leaves=3
num_cat=0
split_feature=3 9
split_gain=7.49938 4.75002
threshold=8.2501392023999092 0.27357149515287105
decision_type=2 2
left_child=1 -1
right_child=-2 -3
leaf_value=0.00017963851036588709 0.0054773618086343843 -0.0086933446625781872
leaf_weight=222 33 34
leaf_count=222 33 34
internal_value=0.000275862 -0.000272374
internal_weight=289 256
internal_count=289 256
is_linear=0
shrinkage=0.01


Tree=101
num_leaves=3
num_cat=0
split_feature=3 5
split_gain=7.49938 4.22954
threshold=8.2501392023999092 7.5000000000000009
decision_type=2 2
left_child=1 -1
right_child=-2 -3
leaf_value=-0.0011645204546876409 0.005422588190548039 0.0025347361368809728
leaf_weight=197 33 59
leaf_count=197 33 59
internal_value=0.000275862 -0.000272374
internal_weight=289 256
internal_count=289 256
is_linear=0
shrinkage=0.01


Tree=102
num_leaves=3
num_cat=0
split_feature=3 9
split_gain=7.49938 4.75002
threshold=8.2501392023999092 0.27357149515287105
decision_type=2 2
left_child=1 -1
right_child=-2 -3
leaf_value=0.00018948732980910156 0.0053683623086425583 -0.0085947660114055312
leaf_weight=222 33 34
leaf_count=222 33 34
internal_value=0.000275862 -0.000272374
internal_weight=289 256
internal_count=289 256
is_linear=0
shrinkage=0.01


Tree=103
num_leaves=3
num_cat=0
split_feature=2 6
split_gain=6.59946 6.9569
threshold=13.665684921794645 250.00000000000003
decision_type=2 2
left_child=1 -1
right_child=-2 -3
leaf_value=0.0022014195186250787 0.0079515573805019266 -0.0018792214574151701
leaf_weight=102 24 163
leaf_count=102 24 163
internal_value=0.000275862 -0.000150376
internal_weight=289 265
internal_count=289 265
is_linear=0
shrinkage=0.01


Tree=104
num_leaves=3
num_cat=0
split_feature=3 9
split_gain=7.28186 4.95103
threshold=8.2501392023999092 0.27357149515287105
decision_type=2 2
left_child=1 -1
right_child=-2 -3
leaf_value=0.00020638467108516245 0.0052926644903698826 -0.0085104293415975262
leaf_weight=222 33 34
leaf_count=222 33 34
internal_value=0.000344828 -0.000194553
internal_weight=289 256
internal_count=289 256
is_linear=0
shrinkage=0.01


Tree=105
num_leaves=3
num_cat=0
split_feature=3 5
split_gain=7.49938 4.22954
threshold=8.2501392023999092 7.5000000000000009
decision_type=2 2
left_child=1 -1
right_child=-2 -3
leaf_value=-0.0011380417555755561 0.0052397378454661862 0.0025242222700773719
leaf_weight=197 33 59
leaf_count=197 33 59
internal_value=0.000275862 -0.000272374
internal_weight=289 256
internal_count=289 256
is_linear=0
shrinkage=0.01


Tree=106
num_leaves=3
num_cat=1
split_feature=2 0
split_gain=6.43021 4.57727
threshold=13.665684921794645 0
decision_type=2 1
left_child=1 -1
right_child=-2 -3
leaf_value=-0.002640656470103391 0.0078240380804401773 0.0023160477899463938
leaf_weight=148 24 117
leaf_count=148 24 117
internal_value=0.000344828 -7.5188e-05
internal_weight=289 265
internal_count=289 265
cat_boundaries=0 1
cat_threshold=1
is_linear=0
shrinkage=0.01


Tree=107
num_leaves=3
num_cat=0
split_feature=3 5
split_gain=7.49938 4.22954
threshold=8.2501392023999092 7.5000000000000009
decision_type=2 2
left_child=1 -1
right_child=-2 -3
leaf_value=-0.0011351298331393966 0.0051641799891120593 0.0025253866120776357
leaf_weight=197 33 59
leaf_count=197 33 59
internal_value=0.000275862 -0.000272374
internal_weight=289 256
internal_count=289 256
is_linear=0
shrinkage=0.01


Tree=108
num_leaves=3
num_cat=0
split_feature=3 9
split_gain=7.49938 4.75002
threshold=8.2501392023999092 0.27357149515287105
decision_type=2 2
left_child=1 -1
right_child=-2 -3
leaf_value=0.0002534591049624968 0.0051125381892209365 -0.0083761867675933629
leaf_weight=222 33 34
leaf_count=222 33 34
internal_value=0.000275862 -0.000272374
internal_weight=289 256
internal_count=289 256
is_linear=0
shrinkage=0.01


Tree=109
num_leaves=3
num_cat=0
split_feature=3 9
split_gain=7.06217 5.41603
threshold=8.5689824612577947 0.27357149515287105
decision_type=2 2
left_child=1 -1
right_child=-2 -3
leaf_value=0.00025092451391287355 0.0053635110103004459 -0.0088015308419632631
leaf_weight=227 27 35
leaf_count=227 27 35
internal_value=0.000206897 -0.00026616
internal_weight=289 262
internal_count=289 262
is_linear=0
shrinkage=0.01


Tree=110
num_leaves=3
num_cat=0
split_feature=3 9
split_gain=7.06217 5.41603
threshold=8.5689824612577947 0.27357149515287105
decision_type=2 2
left_child=1 -1
right_child=-2 -3
leaf_value=0.00024841526877374511 0.0053098759001974387 -0.0087135155335436292
leaf_weight=227 27 35
leaf_count=227 27 35
internal_value=0.000206897 -0.00026616
internal_weight=289 262
internal_count=289 262
is_linear=0
shrinkage=0.01


Tree=111
num_leaves=3
num_cat=0
split_feature=3 9
split_gain=7.06217 5.41603
threshold=8.5689824612577947 0.27357149515287105
decision_type=2 2
left_child=1 -1
right_child=-2 -3
leaf_value=0.00024593111608600893 0.0052567771411954657 -0.0086263803782081934
leaf_weight=227 27 35
leaf_count=227 27 35
internal_value=0.000206897 -0.00026616
internal_weight=289 262
internal_count=289 262
is_linear=0
shrinkage=0.01


Tree=112
num_leaves=3
num_cat=0
split_feature=3 5
split_gain=7.06217 4.75659
threshold=8.5689824612577947 7.5000000000000009
decision_type=2 2
left_child=1 -1
right_child=-2 -3
leaf_value=-0.0011163283049350349 0.005204209369783515 0.0030516244488582589
leaf_weight=202 27 60
leaf_count=202 27 60
internal_value=0.000206897 -0.00026616
internal_weight=289 262
internal_count=289 262
is_linear=0
shrinkage=0.01


Tree=113
num_leaves=3
num_cat=0
split_feature=3 5
split_gain=6.30311 5.32579
threshold=9.2825009747997616 7.5000000000000009
decision_type=2 2
left_child=1 -1
right_child=-2 -3
leaf_value=-0.0011226025517960014 0.0082278656384669451 0.0023433795514155764
leaf_weight=207 18 64
leaf_count=207 18 64
internal_value=0.000206897 -0.000147059
internal_weight=289 271
internal_count=289 271
is_linear=0
shrinkage=0.01


Tree=114
num_leaves=3
num_cat=0
split_feature=9 5
split_gain=4.87659 7.00685
threshold=0.27357149515287105 7.5000000000000009
decision_type=2 2
left_child=1 -1
right_child=-2 -3
leaf_value=-0.00011038005248067418 -0.0073745121612746401 0.0050968222631036751
leaf_weight=193 37 59
leaf_count=193 37 59
internal_value=0.000137931 0.000671937
internal_weight=289 252
internal_count=289 252
is_linear=0
shrinkage=0.01


Tree=115
num_leaves=3
num_cat=1
split_feature=3 0
split_gain=6.4456 4.93792
threshold=9.2825009747997616 0
decision_type=2 1
left_child=1 -1
right_child=-2 -3
leaf_value=-0.0027013810032137098 0.0081206547710291552 0.0020104468548162767
leaf_weight=147 18 124
leaf_count=147 18 124
internal_value=0.000137931 -0.000220588
internal_weight=289 271
internal_count=289 271
cat_boundaries=0 1
cat_threshold=1
is_linear=0
shrinkage=0.01


Tree=116
num_leaves=3
num_cat=0
split_feature=6 5
split_gain=6.07643 7.87505
threshold=83.500000000000014 7.5000000000000009
decision_type=2 2
left_child=-1 -2
right_child=1 -3
leaf_value=0.003164594967903498 -0.0030057146091231157 0.0029501608569664729
leaf_weight=59 170 60
leaf_count=59 170 60
internal_value=0.000137931 -0.000562771
internal_weight=289 230
internal_count=289 230
is_linear=0
shrinkage=0.01


Tree=117
num_leaves=3
num_cat=0
split_feature=9 5
split_gain=4.87659 7.00685
threshold=0.27357149515287105 7.5000000000000009
decision_type=2 2
left_child=1 -1
right_child=-2 -3
leaf_value=-9.9323574412797381e-05 -0.0073053991793087915 0.0049351458841926819
leaf_weight=193 37 59
leaf_count=193 37 59
internal_value=0.000137931 0.000671937
internal_weight=289 252
internal_count=289 252
is_linear=0
shrinkage=0.01


Tree=118
num_leaves=3
num_cat=0
split_feature=9 5
split_gain=4.87659 7.00685
threshold=0.27357149515287105 7.5000000000000009
decision_type=2 2
left_child=1 -1
right_child=-2 -3
leaf_value=-9.8330338668670692e-05 -0.0072323451875157029 0.0048857944253507578
leaf_weight=193 37 59
leaf_count=193 37 59
internal_value=0.000137931 0.000671937
internal_weight=289 252
internal_count=289 252
is_linear=0
shrinkage=0.01


Tree=119
num_leaves=3
num_cat=1
split_feature=3 0
split_gain=6.30311 4.44388
threshold=9.2825009747997616 0
decision_type=2 1
left_child=1 -1
right_child=-2 -3
leaf_value=-0.002678318314713777 0.0079607580122122053 0.0019876886055916242
leaf_weight=147 18 124
leaf_count=147 18 124
internal_value=0.000206897 -0.000147059
internal_weight=289 271
internal_count=289 271
cat_boundaries=0 1
cat_threshold=1
is_linear=0
shrinkage=0.01


Tree=120
num_leaves=3
num_cat=0
split_feature=6 5
split_gain=6.96979 7.42787
threshold=83.500000000000014 7.5000000000000009
decision_type=2 2
left_child=-1 -2
right_child=1 -3
leaf_value=0.0030218693892984393 -0.0029935578099569904 0.0028259029938469803
leaf_weight=59 170 60
leaf_count=59 170 60
internal_value=0.000275862 -0.00047619
internal_weight=289 230
internal_count=289 230
is_linear=0
shrinkage=0.01


Tree=121
num_leaves=3
num_cat=0
split_feature=6 5
split_gain=5.79967 7.42787
threshold=83.500000000000014 7.5000000000000009
decision_type=2 2
left_child=-1 -2
right_child=1 -3
leaf_value=0.0029916506954054522 -0.0029636222318574212 0.0027976439639085114
leaf_weight=59 170 60
leaf_count=59 170 60
internal_value=0.000206897 -0.00047619
internal_weight=289 230
internal_count=289 230
is_linear=0
shrinkage=0.01


Tree=122
num_leaves=3
num_cat=1
split_feature=3 0
split_gain=6.30311 4.44388
threshold=9.2825009747997616 0
decision_type=2 1
left_child=1 -1
right_child=-2 -3
leaf_value=-0.0025919633311484967 0.0078229650968777882 0.0019096263843234108
leaf_weight=147 18 124
leaf_count=147 18 124
internal_value=0.000206897 -0.000147059
internal_weight=289 271
internal_count=289 271
cat_boundaries=0 1
cat_threshold=1
is_linear=0
shrinkage=0.01


Tree=123
num_leaves=3
num_cat=0
split_feature=3 5
split_gain=6.30311 4.09887
threshold=9.2825009747997616 7.5000000000000009
decision_type=2 2
left_child=1 -1
right_child=-2 -3
leaf_value=-0.0010251906877290962 0.0077447354459090076 0.0020953505560494488
leaf_weight=207 18 64
leaf_count=207 18 64
internal_value=0.000206897 -0.000147059
internal_weight=289 271
internal_count=289 271
is_linear=0
shrinkage=0.01


Tree=124
num_leaves=3
num_cat=1
split_feature=3 0
split_gain=6.4456 3.92235
threshold=9.2825009747997616 0
decision_type=2 1
left_child=1 -1
right_child=-2 -3
leaf_value=-0.0025557917909597226 0.0076672880914499158 0.0018851793211385748
leaf_weight=147 18 124
leaf_count=147 18 124
internal_value=0.000137931 -0.000220588
internal_weight=289 271
internal_count=289 271
cat_boundaries=0 1
cat_threshold=1
is_linear=0
shrinkage=0.01


Tree=125
num_leaves=3
num_cat=0
split_feature=6 10
split_gain=7.27413 6.2684
threshold=83.500000000000014 0.12128704922770626
decision_type=2 2
left_child=-1 -2
right_child=1 -3
leaf_value=0.0029028326258362736 -0.0068655952648485922 0.00047409685093509959
leaf_weight=59 27 203
leaf_count=59 27 203
internal_value=0.000206897 -0.000562771
internal_weight=289 230
internal_count=289 230
is_linear=0
shrinkage=0.01


Tree=126
num_leaves=3
num_cat=0
split_feature=3 5
split_gain=6.30311 4.09887
threshold=9.2825009747997616 7.5000000000000009
decision_type=2 2
left_child=1 -1
right_child=-2 -3
leaf_value=-0.0010176887922459699 0.00757373056315156 0.0020730091443287124
leaf_weight=207 18 64
leaf_count=207 18 64
internal_value=0.000206897 -0.000147059
internal_weight=289 271
internal_count=289 271
is_linear=0
shrinkage=0.01


Tree=127
num_leaves=3
num_cat=0
split_feature=6 5
split_gain=5.79967 7.42787
threshold=83.500000000000014 7.5000000000000009
decision_type=2 2
left_child=-1 -2
right_child=1 -3
leaf_value=0.0028530742081346182 -0.0029562462403030666 0.0027300077058395279
leaf_weight=59 170 60
leaf_count=59 170 60
internal_value=0.000206897 -0.00047619
internal_weight=289 230
internal_count=289 230
is_linear=0
shrinkage=0.01


Tree=128
num_leaves=3
num_cat=1
split_feature=3 0
split_gain=6.30311 4.44388
threshold=9.2825009747997616 0
decision_type=2 1
left_child=1 -1
right_child=-2 -3
leaf_value=-0.0024952354912339868 0.0074700778479501783 0.0018162508692130474
leaf_weight=147 18 124
leaf_count=147 18 124
internal_value=0.000206897 -0.000147059
internal_weight=289 271
internal_count=289 271
cat_boundaries=0 1
cat_threshold=1
is_linear=0
shrinkage=0.01


Tree=129
num_leaves=3
num_cat=1
split_feature=6 0
split_gain=5.79967 6.10795
threshold=83.500000000000014 0
decision_type=2 1
left_child=-1 -2
right_child=1 -3
leaf_value=0.0028063809573611385 -0.0050035805908786113 0.0017936023210668806
leaf_weight=59 122 108
leaf_count=59 122 108
internal_value=0.000206897 -0.00047619
internal_weight=289 230
internal_count=289 230
cat_boundaries=0 1
cat_threshold=1
is_linear=0
shrinkage=0.01


Tree=130
num_leaves=3
num_cat=1
split_feature=3 0
split_gain=6.4456 3.92235
threshold=9.2825009747997616 0
decision_type=2 1
left_child=1 -1
right_child=-2 -3
leaf_value=-0.0024202473304128567 0.007372377153078538 0.001775666297856211
leaf_weight=147 18 124
leaf_count=147 18 124
internal_value=0.000137931 -0.000220588
internal_weight=289 271
internal_count=289 271
cat_boundaries=0 1
cat_threshold=1
is_linear=0
shrinkage=0.01


Tree=131
num_leaves=3
num_cat=1
split_feature=3 0
split_gain=6.4456 3.92235
threshold=9.2825009747997616 0
decision_type=2 1
left_child=1 -1
right_child=-2 -3
leaf_value=-0.0023960448571087277 0.0072986533815477504 0.0017579096348776481
leaf_weight=147 18 124
leaf_count=147 18 124
internal_value=0.000137931 -0.000220588
internal_weight=289 271
internal_count=289 271
cat_boundaries=0 1
cat_threshold=1
is_linear=0
shrinkage=0.01


Tree=132
num_leaves=3
num_cat=0
split_feature=6 5
split_gain=7.27413 6.30205
threshold=83.500000000000014 7.5000000000000009
decision_type=2 2
left_child=-1 -2
right_child=1 -3
leaf_value=0.0027429813884601905 -0.0029981180691301778 0.0027285660245142339
leaf_weight=59 170 60
leaf_count=59 170 60
internal_value=0.000206897 -0.000562771
internal_weight=289 230
internal_count=289 230
is_linear=0
shrinkage=0.01


Tree=133
num_leaves=3
num_cat=1
split_feature=3 0
split_gain=6.4456 3.92235
threshold=9.2825009747997616 0
decision_type=2 1
left_child=1 -1
right_child=-2 -3
leaf_value=-0.0023421032278463372 0.0071983091106674023 0.001741678298751952
leaf_weight=147 18 124
leaf_count=147 18 124
internal_value=0.000137931 -0.000220588
internal_weight=289 271
internal_count=289 271
cat_boundaries=0 1
cat_threshold=1
is_linear=0
shrinkage=0.01


Tree=134
num_leaves=3
num_cat=0
split_feature=3 7
split_gain=6.30311 3.91729
threshold=9.2825009747997616 1.0000000180025095e-35
decision_type=2 2
left_child=-1 -2
right_child=1 -3
leaf_value=-0.00012872109831361557 0.013014151935035452 -0.0055676969262885038
leaf_weight=271 13.000000000000002 4.9999999999999991
leaf_count=271 13 5
internal_value=0.000206897 0.00578947
internal_weight=289 18
internal_count=289 18
is_linear=0
shrinkage=0.01


Tree=135
num_leaves=3
num_cat=0
split_feature=6 10
split_gain=7.27413 6.2684
threshold=83.500000000000014 0.12128704922770626
decision_type=2 2
left_child=-1 -2
right_child=1 -3
leaf_value=0.0026994220025712058 -0.0065793594552253686 0.00038832919027437463
leaf_weight=59 27 203
leaf_count=59 27 203
internal_value=0.000206897 -0.000562771
internal_weight=289 230
internal_count=289 230
is_linear=0
shrinkage=0.01


Tree=136
num_leaves=3
num_cat=1
split_feature=3 0
split_gain=6.30311 4.44388
threshold=9.2825009747997616 0
decision_type=2 1
left_child=1 -1
right_child=-2 -3
leaf_value=-0.0023212782764874796 0.0070736549885527644 0.0017216654348448279
leaf_weight=147 18 124
leaf_count=147 18 124
internal_value=0.000206897 -0.000147059
internal_weight=289 271
internal_count=289 271
cat_boundaries=0 1
cat_threshold=1
is_linear=0
shrinkage=0.01


Tree=137
num_leaves=3
num_cat=1
split_feature=3 0
split_gain=6.16244 3.97448
threshold=9.2825009747997616 0
decision_type=2 1
left_child=1 -1
right_child=-2 -3
leaf_value=-0.0022980654937226055 0.0070029184386672409 0.0017044487804963792
leaf_weight=147 18 124
leaf_count=147 18 124
internal_value=0.000275862 -7.35294e-05
internal_weight=289 271
internal_count=289 271
cat_boundaries=0 1
cat_threshold=1
is_linear=0
shrinkage=0.01


Tree=138
num_leaves=3
num_cat=0
split_feature=6 5
split_gain=7.27413 6.30205
threshold=83.500000000000014 7.5000000000000009
decision_type=2 2
left_child=-1 -2
right_child=1 -3
leaf_value=0.0026381666403920792 -0.0030224108944994122 0.0027076525557693022
leaf_weight=59 170 60
leaf_count=59 170 60
internal_value=0.000206897 -0.000562771
internal_weight=289 230
internal_count=289 230
is_linear=0
shrinkage=0.01


Tree=139
num_leaves=3
num_cat=1
split_feature=3 0
split_gain=6.16244 3.97448
threshold=9.2825009747997616 0
decision_type=2 1
left_child=1 -1
right_child=-2 -3
leaf_value=-0.0022904722756411154 0.0069061601582997593 0.0016889780843850643
leaf_weight=147 18 124
leaf_count=147 18 124
internal_value=0.000275862 -7.35294e-05
internal_weight=289 271
internal_count=289 271
cat_boundaries=0 1
cat_threshold=1
is_linear=0
shrinkage=0.01


Tree=140
num_leaves=3
num_cat=0
split_feature=6 5
split_gain=6.96979 7.14329
threshold=83.500000000000014 5.5000000000000009
decision_type=2 2
left_child=-1 -2
right_child=1 -3
leaf_value=0.002594895193144309 -0.0032614202682588168 0.0020166385315145163
leaf_weight=59 158 72
leaf_count=59 158 72
internal_value=0.000275862 -0.00047619
internal_weight=289 230
internal_count=289 230
is_linear=0
shrinkage=0.01


Tree=141
num_leaves=3
num_cat=1
split_feature=3 0
split_gain=6.4456 3.92235
threshold=9.2825009747997616 0
decision_type=2 1
left_child=1 -1
right_child=-2 -3
leaf_value=-0.0022935165048161466 0.0068140408880934672 0.0016783122122249329
leaf_weight=147 18 124
leaf_count=147 18 124
internal_value=0.000137931 -0.000220588
internal_weight=289 271
internal_count=289 271
cat_boundaries=0 1
cat_threshold=1
is_linear=0
shrinkage=0.01


Tree=142
num_leaves=3
num_cat=0
split_feature=6 5
split_gain=7.27413 6.30205
threshold=83.500000000000014 7.5000000000000009
decision_type=2 2
left_child=-1 -2
right_child=1 -3
leaf_value=0.0025521631190906116 -0.0029932454858379344 0.0026664931373156977
leaf_weight=59 170 60
leaf_count=59 170 60
internal_value=0.000206897 -0.000562771
internal_weight=289 230
internal_count=289 230
is_linear=0
shrinkage=0.01


Tree=143
num_leaves=3
num_cat=1
split_feature=6 0
split_gain=5.79967 6.10795
threshold=83.500000000000014 0
decision_type=2 1
left_child=-1 -2
right_child=1 -3
leaf_value=0.0025266414878997081 -0.0046697716390518137 0.0016631628518452945
leaf_weight=59 122 108
leaf_count=59 122 108
internal_value=0.000206897 -0.00047619
internal_weight=289 230
internal_count=289 230
cat_boundaries=0 1
cat_threshold=1
is_linear=0
shrinkage=0.01


Tree=144
num_leaves=3
num_cat=0
split_feature=3 7
split_gain=6.30311 3.91729
threshold=9.2825009747997616 1.0000000180025095e-35
decision_type=2 2
left_child=-1 -2
right_child=1 -3
leaf_value=-8.074580205765792e-05 0.012475929786517988 -0.0059201005861927317
leaf_weight=271 13.000000000000002 4.9999999999999991
leaf_count=271 13 5
internal_value=0.000206897 0.00578947
internal_weight=289 18
internal_count=289 18
is_linear=0
shrinkage=0.01


Tree=145
num_leaves=3
num_cat=0
split_feature=6 10
split_gain=4.7353 6.4958
threshold=83.500000000000014 0.12128704922770626
decision_type=2 2
left_child=-1 -2
right_child=1 -3
leaf_value=0.0025021825310412903 -0.006281256594269387 0.00012118733864680209
leaf_weight=59 27 203
leaf_count=59 27 203
internal_value=0.000137931 -0.00047619
internal_weight=289 230
internal_count=289 230
is_linear=0
shrinkage=0.01


Tree=146
num_leaves=3
num_cat=0
split_feature=9 5
split_gain=4.54615 5.58742
threshold=0.3229683961186029 7.5000000000000009
decision_type=2 2
left_child=1 -1
right_child=-2 -3
leaf_value=-0.00010496016934749441 -0.010700215127993115 0.0041324418066450083
leaf_weight=203 27 59
leaf_count=203 27 59
internal_value=0.000206897 0.000646388
internal_weight=289 262
internal_count=289 262
is_linear=0
shrinkage=0.01


Tree=147
num_leaves=3
num_cat=1
split_feature=6 0
split_gain=4.49318 5.50062
threshold=83.500000000000014 0
decision_type=2 1
left_child=-1 -2
right_child=1 -3
leaf_value=0.002435836287664426 -0.0046224287363337124 0.0016259893997744635
leaf_weight=59 122 108
leaf_count=59 122 108
internal_value=0.000206897 -0.00038961
internal_weight=289 230
internal_count=289 230
cat_boundaries=0 1
cat_threshold=1
is_linear=0
shrinkage=0.01


Tree=148
num_leaves=3
num_cat=0
split_feature=6 5
split_gain=4.49318 6.66236
threshold=83.500000000000014 5.5000000000000009
decision_type=2 2
left_child=-1 -2
right_child=1 -3
leaf_value=0.0024114779247877837 -0.0031331249426439015 0.0021501110545336655
leaf_weight=59 158 72
leaf_count=59 158 72
internal_value=0.000206897 -0.00038961
internal_weight=289 230
internal_count=289 230
is_linear=0
shrinkage=0.01


Tree=149
num_leaves=3
num_cat=0
split_feature=9 5
split_gain=4.87659 5.54499
threshold=0.27357149515287105 7.5000000000000009
decision_type=2 2
left_child=1 -1
right_child=-2 -3
leaf_value=-0.00015238370977854298 -0.0072464140457135827 0.0041158405653965602
leaf_weight=193 37 59
leaf_count=193 37 59
internal_value=0.000137931 0.000671937
internal_weight=289 252
internal_count=289 252
is_linear=0
shrinkage=0.01


Tree=150
num_leaves=3
num_cat=1
split_feature=9 4
split_gain=4.54615 3.81142
threshold=0.3229683961186029 0
decision_type=2 9
left_child=1 -1
right_child=-2 -3
leaf_value=0.0020632809620284133 -0.010496025659438048 -0.0003124106884081135
leaf_weight=100 27 162
leaf_count=100 27 162
internal_value=0.000206897 0.000646388
internal_weight=289 262
internal_count=289 262
cat_boundaries=0 1
cat_threshold=1056784
is_linear=0
shrinkage=0.01


Tree=151
num_leaves=3
num_cat=0
split_feature=9 5
split_gain=4.54615 5.58742
threshold=0.3229683961186029 7.5000000000000009
decision_type=2 2
left_child=1 -1
right_child=-2 -3
leaf_value=-0.00017149268230104209 -0.01039106540284367 0.004054049350122311
leaf_weight=203 27 59
leaf_count=203 27 59
internal_value=0.000206897 0.000646388
internal_weight=289 262
internal_count=289 262
is_linear=0
shrinkage=0.01


Tree=152
num_leaves=3
num_cat=0
split_feature=9 5
split_gain=4.54615 5.58742
threshold=0.3229683961186029 7.5000000000000009
decision_type=2 2
left_child=1 -1
right_child=-2 -3
leaf_value=-0.0001697777554780311 -0.01028715474881523 0.004013508856621089
leaf_weight=203 27 59
leaf_count=203 27 59
internal_value=0.000206897 0.000646388
internal_weight=289 262
internal_count=289 262
is_linear=0
shrinkage=0.01


Tree=153
num_leaves=3
num_cat=0
split_feature=9 5
split_gain=4.54615 5.58742
threshold=0.3229683961186029 7.5000000000000009
decision_type=2 2
left_child=1 -1
right_child=-2 -3
leaf_value=-0.00016807997792325224 -0.010184283201327081 0.0039733737680548798
leaf_weight=203 27 59
leaf_count=203 27 59
internal_value=0.000206897 0.000646388
internal_weight=289 262
internal_count=289 262
is_linear=0
shrinkage=0.01


Tree=154
num_leaves=3
num_cat=1
split_feature=3 0
split_gain=4.04247 3.52973
threshold=9.2825009747997616 0
decision_type=2 1
left_child=1 -1
right_child=-2 -3
leaf_value=-0.0023832658454198841 0.0064915996976675676 0.0015925760207790417
leaf_weight=147 18 124
leaf_count=147 18 124
internal_value=0.000275862 0
internal_weight=289 271
internal_count=289 271
cat_boundaries=0 1
cat_threshold=1
is_linear=0
shrinkage=0.01


Tree=155
num_leaves=3
num_cat=0
split_feature=6 5
split_gain=4.2581 6.19711
threshold=83.500000000000014 5.5000000000000009
decision_type=2 2
left_child=-1 -2
right_child=1 -3
leaf_value=0.0022129937668142396 -0.0030999772542075511 0.0023043670502220981
leaf_weight=59 158 72
leaf_count=59 158 72
internal_value=0.000275862 -0.00030303
internal_weight=289 230
internal_count=289 230
is_linear=0
shrinkage=0.01


Tree=156
num_leaves=3
num_cat=1
split_feature=6 4
split_gain=4.49318 5.54256
threshold=83.500000000000014 0
decision_type=2 9
left_child=-1 -2
right_child=1 -3
leaf_value=0.0021908638291461015 0.0011794658899889666 -0.0013647413338228631
leaf_weight=59 103 127
leaf_count=59 103 127
internal_value=0.000206897 -0.00038961
internal_weight=289 230
internal_count=289 230
cat_boundaries=0 1
cat_threshold=68157456
is_linear=0
shrinkage=0.01


Tree=157
num_leaves=3
num_cat=1
split_feature=3 4
split_gain=4.15373 4.19477
threshold=9.2825009747997616 0
decision_type=2 9
left_child=1 -1
right_child=-2 -3
leaf_value=0.00089956948206985747 0.0063872452480100341 -0.00086898492574438713
leaf_weight=111 18 160
leaf_count=111 18 160
internal_value=0.000206897 -7.35294e-05
internal_weight=289 271
internal_count=289 271
cat_boundaries=0 1
cat_threshold=68157456
is_linear=0
shrinkage=0.01


Tree=158
num_leaves=3
num_cat=0
split_feature=6 5
split_gain=4.2581 6.19711
threshold=83.500000000000014 5.5000000000000009
decision_type=2 2
left_child=-1 -2
right_child=1 -3
leaf_value=0.0021776450401120861 -0.0030897678353860635 0.0022605330259992873
leaf_weight=59 158 72
leaf_count=59 158 72
internal_value=0.000275862 -0.00030303
internal_weight=289 230
internal_count=289 230
is_linear=0
shrinkage=0.01


Tree=159
num_leaves=3
num_cat=1
split_feature=3 4
split_gain=4.15373 4.19477
threshold=9.2825009747997616 0
decision_type=2 9
left_child=1 -1
right_child=-2 -3
leaf_value=0.00086796845698916775 0.0063011819051993802 -0.00084554394093099288
leaf_weight=111 18 160
leaf_count=111 18 160
internal_value=0.000206897 -7.35294e-05
internal_weight=289 271
internal_count=289 271
cat_boundaries=0 1
cat_threshold=68157456
is_linear=0
shrinkage=0.01


Tree=160
num_leaves=3
num_cat=1
split_feature=6 4
split_gain=4.49318 5.54256
threshold=83.500000000000014 0
decision_type=2 9
left_child=-1 -2
right_child=1 -3
leaf_value=0.0021643240291202839 0.0010716846379108524 -0.0013030509534640178
leaf_weight=59 103 127
leaf_count=59 103 127
internal_value=0.000206897 -0.00038961
internal_weight=289 230
internal_count=289 230
cat_boundaries=0 1
cat_threshold=68157456
is_linear=0
shrinkage=0.01


Tree=161
num_leaves=3
num_cat=0
split_feature=6 5
split_gain=4.2581 6.19711
threshold=83.500000000000014 5.5000000000000009
decision_type=2 2
left_child=-1 -2
right_child=1 -3
leaf_value=0.002142680788829079 -0.0030782666879812038 0.0022185311647902918
leaf_weight=59 158 72
leaf_count=59 158 72
internal_value=0.000275862 -0.00030303
internal_weight=289 230
internal_count=289 230
is_linear=0
shrinkage=0.01


Tree=162
num_leaves=3
num_cat=1
split_feature=3 4
split_gain=4.26681 4.61848
threshold=9.2825009747997616 0
decision_type=2 9
left_child=1 -1
right_child=-2 -3
leaf_value=0.00082638661439227157 0.0062001839830441389 -0.00080896124117930013
leaf_weight=111 18 160
leaf_count=111 18 160
internal_value=0.000137931 -0.000147059
internal_weight=289 271
internal_count=289 271
cat_boundaries=0 1
cat_threshold=68157456
is_linear=0
shrinkage=0.01


Tree=163
num_leaves=3
num_cat=1
split_feature=3 4
split_gain=4.15373 4.19477
threshold=9.2825009747997616 0
decision_type=2 9
left_child=1 -1
right_child=-2 -3
leaf_value=0.00081812274824835109 0.0061381821432136933 -0.00080087162876750777
leaf_weight=111 18 160
leaf_count=111 18 160
internal_value=0.000206897 -7.35294e-05
internal_weight=289 271
internal_count=289 271
cat_boundaries=0 1
cat_threshold=68157456
is_linear=0
shrinkage=0.01


Tree=164
num_leaves=3
num_cat=1
split_feature=3 4
split_gain=4.26681 3.65884
threshold=9.2825009747997616 0
decision_type=2 9
left_child=1 -1
right_child=-2 -3
leaf_value=0.00080994152076586446 0.0060768003217815591 -0.00079286291247983483
leaf_weight=111 18 160
leaf_count=111 18 160
internal_value=0.000137931 -0.000147059
internal_weight=289 271
internal_count=289 271
cat_boundaries=0 1
cat_threshold=68157456
is_linear=0
shrinkage=0.01


Tree=165
num_leaves=3
num_cat=1
split_feature=0 3
split_gain=4.82614 4.37452
threshold=0 2.5425050714339776
decision_type=1 2
left_child=-1 -2
right_child=1 -3
leaf_value=-0.00075881831305141928 -0.006945518575514802 0.0025763333308314439
leaf_weight=153 13.999999999999998 122
leaf_count=153 14 122
internal_value=0.000137931 0.00153285
internal_weight=289 136
internal_count=289 136
cat_boundaries=0 1
cat_threshold=1
is_linear=0
shrinkage=0.01


Tree=166
num_leaves=3
num_cat=1
split_feature=0 9
split_gain=5.39951 4.14774
threshold=0 0.20945507931665652
decision_type=1 2
left_child=-1 -2
right_child=1 -3
leaf_value=-0.00075123012992090571 0.0026157716293683819 -0.0034964296941038821
leaf_weight=153 103 33
leaf_count=153 103 33
internal_value=0.000206897 0.00167883
internal_weight=289 136
internal_count=289 136
cat_boundaries=0 1
cat_threshold=1
is_linear=0
shrinkage=0.01


Tree=167
num_leaves=3
num_cat=0
split_feature=6 5
split_gain=4.2581 6.19711
threshold=83.500000000000014 5.5000000000000009
decision_type=2 2
left_child=-1 -2
right_child=1 -3
leaf_value=0.0020933598891630556 -0.00309043881252159 0.0021869018287380458
leaf_weight=59 158 72
leaf_count=59 158 72
internal_value=0.000275862 -0.00030303
internal_weight=289 230
internal_count=289 230
is_linear=0
shrinkage=0.01


Tree=168
num_leaves=3
num_cat=1
split_feature=0 6
split_gain=5.39951 3.76348
threshold=0 83.500000000000014
decision_type=1 2
left_child=1 -1
right_child=-2 -3
leaf_value=0.0007359991685805101 0.0022290761680821601 -0.0043166423915084497
leaf_weight=31 136 122
leaf_count=31 136 122
internal_value=0.000206897 -0.00103896
internal_weight=289 153
internal_count=289 153
cat_boundaries=0 1
cat_threshold=1
is_linear=0
shrinkage=0.01


Tree=169
num_leaves=3
num_cat=1
split_feature=0 9
split_gain=4.91335 4.14774
threshold=0 0.20945507931665652
decision_type=1 2
left_child=-1 -2
right_child=1 -3
leaf_value=-0.00077201141919913229 0.0025454541331064997 -0.0035056251771310443
leaf_weight=153 103 33
leaf_count=153 103 33
internal_value=0.000275862 0.00167883
internal_weight=289 136
internal_count=289 136
cat_boundaries=0 1
cat_threshold=1
is_linear=0
shrinkage=0.01


Tree=170
num_leaves=3
num_cat=1
split_feature=3 4
split_gain=4.26681 3.65884
threshold=9.2825009747997616 0
decision_type=2 9
left_child=1 -1
right_child=-2 -3
leaf_value=0.00083896653883089648 0.0059557810605288973 -0.00078270397692798983
leaf_weight=111 18 160
leaf_count=111 18 160
internal_value=0.000137931 -0.000147059
internal_weight=289 271
internal_count=289 271
cat_boundaries=0 1
cat_threshold=68157456
is_linear=0
shrinkage=0.01


Tree=171
num_leaves=3
num_cat=1
split_feature=0 6
split_gain=4.28358 3.76348
threshold=0 83.500000000000014
decision_type=1 2
left_child=1 -1
right_child=-2 -3
leaf_value=0.0007279696256983837 0.0021810495522607545 -0.0042579288136320951
leaf_weight=31 136 122
leaf_count=31 136 122
internal_value=6.89655e-05 -0.00103896
internal_weight=289 153
internal_count=289 153
cat_boundaries=0 1
cat_threshold=1
is_linear=0
shrinkage=0.01


Tree=172
num_leaves=3
num_cat=1
split_feature=3 4
split_gain=4.26681 3.65884
threshold=9.2825009747997616 0
decision_type=2 9
left_child=1 -1
right_child=-2 -3
leaf_value=0.00087315616157890741 0.0058744127544009929 -0.00079668743268131777
leaf_weight=111 18 160
leaf_count=111 18 160
internal_value=0.000137931 -0.000147059
internal_weight=289 271
internal_count=289 271
cat_boundaries=0 1
cat_threshold=68157456
is_linear=0
shrinkage=0.01


Tree=173
num_leaves=3
num_cat=1
split_feature=0 3
split_gain=4.28358 6.55846
threshold=0 2.5425050714339776
decision_type=1 2
left_child=-1 -2
right_child=1 -3
leaf_value=-0.00080591029265751678 -0.0069250786023665259 0.0024553812984852044
leaf_weight=153 13.999999999999998 122
leaf_count=153 14 122
internal_value=6.89655e-05 0.00138686
internal_weight=289 136
internal_count=289 136
cat_boundaries=0 1
cat_threshold=1
is_linear=0
shrinkage=0.01


Tree=174
num_leaves=3
num_cat=0
split_feature=9 5
split_gain=3.16388 5.58742
threshold=0.3229683961186029 7.5000000000000009
decision_type=2 2
left_child=1 -1
right_child=-2 -3
leaf_value=-3.5440067818846011e-05 -0.0099480415444974345 0.0039025421512229653
leaf_weight=203 27 59
leaf_count=203 27 59
internal_value=0.000275862 0.000646388
internal_weight=289 262
internal_count=289 262
is_linear=0
shrinkage=0.01


Tree=175
num_leaves=3
num_cat=1
split_feature=0 6
split_gain=4.91335 3.73309
threshold=0 457.00000000000006
decision_type=1 2
left_child=-1 -2
right_child=1 -3
leaf_value=-0.00079749678905274737 0.0029181265121176626 -0.00096892395937705274
leaf_weight=153 98 38
leaf_count=153 98 38
internal_value=0.000275862 0.00167883
internal_weight=289 136
internal_count=289 136
cat_boundaries=0 1
cat_threshold=1
is_linear=0
shrinkage=0.01


Tree=176
num_leaves=3
num_cat=1
split_feature=0 9
split_gain=4.91335 4.14774
threshold=0 0.20945507931665652
decision_type=1 2
left_child=-1 -2
right_child=1 -3
leaf_value=-0.00078952182116221793 0.0023507246296758399 -0.003602261147504704
leaf_weight=153 103 33
leaf_count=153 103 33
internal_value=0.000275862 0.00167883
internal_weight=289 136
internal_count=289 136
cat_boundaries=0 1
cat_threshold=1
is_linear=0
shrinkage=0.01


Tree=177
num_leaves=3
num_cat=1
split_feature=0 3
split_gain=3.85259 6.55846
threshold=0 2.5425050714339776
decision_type=1 2
left_child=-1 -2
right_child=1 -3
leaf_value=-0.00078162660295059364 -0.0068692914223676604 0.0023624663239064916
leaf_weight=153 13.999999999999998 122
leaf_count=153 14 122
internal_value=0.000137931 0.00138686
internal_weight=289 136
internal_count=289 136
cat_boundaries=0 1
cat_threshold=1
is_linear=0
shrinkage=0.01


Tree=178
num_leaves=3
num_cat=0
split_feature=9 5
split_gain=3.31351 5.29404
threshold=0.3229683961186029 7.5000000000000009
decision_type=2 2
left_child=1 -1
right_child=-2 -3
leaf_value=-1.1399215008998099e-05 -0.0098248746769208015 0.0038872031818423958
leaf_weight=203 27 59
leaf_count=203 27 59
internal_value=0.000344828 0.000722433
internal_weight=289 262
internal_count=289 262
is_linear=0
shrinkage=0.01


Tree=179
num_leaves=3
num_cat=0
split_feature=3 7
split_gain=3.91833 2.8797
threshold=9.2825009747997616 1.0000000180025095e-35
decision_type=2 2
left_child=-1 -2
right_child=1 -3
leaf_value=3.1975353562061496e-05 0.011442518583529866 -0.0067933084019581097
leaf_weight=271 13.000000000000002 4.9999999999999991
leaf_count=271 13 5
internal_value=0.000344828 0.00473684
internal_weight=289 18
internal_count=289 18
is_linear=0
shrinkage=0.01


Tree=180
num_leaves=3
num_cat=0
split_feature=9 5
split_gain=3.16388 5.58742
threshold=0.3229683961186029 7.5000000000000009
decision_type=2 2
left_child=1 -1
right_child=-2 -3
leaf_value=-0.00010064038413835075 -0.0097269456836872169 0.0038480113964883514
leaf_weight=203 27 59
leaf_count=203 27 59
internal_value=0.000275862 0.000646388
internal_weight=289 262
internal_count=289 262
is_linear=0
shrinkage=0.01


Tree=181
num_leaves=3
num_cat=0
split_feature=9 5
split_gain=3.16388 5.58742
threshold=0.3229683961186029 7.5000000000000009
decision_type=2 2
left_child=1 -1
right_child=-2 -3
leaf_value=-9.9633980296967014e-05 -0.009629676226850346 0.0038095312825234683
leaf_weight=203 27 59
leaf_count=203 27 59
internal_value=0.000275862 0.000646388
internal_weight=289 262
internal_count=289 262
is_linear=0
shrinkage=0.01


Tree=182
num_leaves=3
num_cat=1
split_feature=0 9
split_gain=4.91335 4.14774
threshold=0 0.20945507931665652
decision_type=1 2
left_child=-1 -2
right_child=1 -3
leaf_value=-0.00087882416576619 0.0022583233890506715 -0.0037056304114128791
leaf_weight=153 103 33
leaf_count=153 103 33
internal_value=0.000275862 0.00167883
internal_weight=289 136
internal_count=289 136
cat_boundaries=0 1
cat_threshold=1
is_linear=0
shrinkage=0.01


Tree=183
num_leaves=3
num_cat=1
split_feature=0 6
split_gain=4.91335 3.73309
threshold=0 457.00000000000006
decision_type=1 2
left_child=-1 -2
right_child=1 -3
leaf_value=-0.00087003592410852984 0.002823559067567363 -0.0010271528809507925
leaf_weight=153 98 38
leaf_count=153 98 38
internal_value=0.000275862 0.00167883
internal_weight=289 136
internal_count=289 136
cat_boundaries=0 1
cat_threshold=1
is_linear=0
shrinkage=0.01


Tree=184
num_leaves=3
num_cat=1
split_feature=0 6
split_gain=4.45155 4.6503
threshold=0 83.500000000000014
decision_type=1 2
left_child=1 -1
right_child=-2 -3
leaf_value=0.00076334390671959349 0.0020258342187645263 -0.0041371223044597795
leaf_weight=31 136 122
leaf_count=31 136 122
internal_value=0.000344828 -0.000779221
internal_weight=289 153
internal_count=289 153
cat_boundaries=0 1
cat_threshold=1
is_linear=0
shrinkage=0.01


Tree=185
num_leaves=3
num_cat=1
split_feature=6 4
split_gain=4.49318 5.54256
threshold=83.500000000000014 0
decision_type=2 9
left_child=-1 -2
right_child=1 -3
leaf_value=0.0016919276177809373 0.001245627127091895 -0.0014361786418935997
leaf_weight=59 103 127
leaf_count=59 103 127
internal_value=0.000206897 -0.00038961
internal_weight=289 230
internal_count=289 230
cat_boundaries=0 1
cat_threshold=68157456
is_linear=0
shrinkage=0.01


Tree=186
num_leaves=3
num_cat=1
split_feature=0 9
split_gain=4.91335 4.14774
threshold=0 0.20945507931665652
decision_type=1 2
left_child=-1 -2
right_child=1 -3
leaf_value=-0.0008858882801124502 0.0021740462019133044 -0.0037295243114329859
leaf_weight=153 103 33
leaf_count=153 103 33
internal_value=0.000275862 0.00167883
internal_weight=289 136
internal_count=289 136
cat_boundaries=0 1
cat_threshold=1
is_linear=0
shrinkage=0.01


Tree=187
num_leaves=3
num_cat=1
split_feature=0 3
split_gain=3.85259 6.55846
threshold=0 2.5425050714339776
decision_type=1 2
left_child=-1 -2
right_child=1 -3
leaf_value=-0.0008770293973113264 -0.0068387502487540046 0.002166086643295402
leaf_weight=153 13.999999999999998 122
leaf_count=153 14 122
internal_value=0.000137931 0.00138686
internal_weight=289 136
internal_count=289 136
cat_boundaries=0 1
cat_threshold=1
is_linear=0
shrinkage=0.01


Tree=188
num_leaves=3
num_cat=1
split_feature=0 6
split_gain=4.45155 4.6503
threshold=0 83.500000000000014
decision_type=1 2
left_child=1 -1
right_child=-2 -3
leaf_value=0.00075642036824882461 0.0019631273056988042 -0.0040771691470669344
leaf_weight=31 136 122
leaf_count=31 136 122
internal_value=0.000344828 -0.000779221
internal_weight=289 153
internal_count=289 153
cat_boundaries=0 1
cat_threshold=1
is_linear=0
shrinkage=0.01


Tree=189
num_leaves=3
num_cat=1
split_feature=3 4
split_gain=3.91833 2.93931
threshold=9.2825009747997616 0
decision_type=2 9
left_child=1 -1
right_child=-2 -3
leaf_value=0.00098726578821866522 0.005555859724950896 -0.0012553189666029052
leaf_weight=118 18 153
leaf_count=118 18 153
internal_value=0.000344828 0
internal_weight=289 271
internal_count=289 271
cat_boundaries=0 1
cat_threshold=1050640
is_linear=0
shrinkage=0.01


Tree=190
num_leaves=3
num_cat=0
split_feature=9 5
split_gain=3.16388 5.58742
threshold=0.3229683961186029 7.5000000000000009
decision_type=2 2
left_child=1 -1
right_child=-2 -3
leaf_value=-3.1247692755762559e-05 -0.0093892037963086237 0.0037186529440267702
leaf_weight=203 27 59
leaf_count=203 27 59
internal_value=0.000275862 0.000646388
internal_weight=289 262
internal_count=289 262
is_linear=0
shrinkage=0.01


Tree=191
num_leaves=3
num_cat=1
split_feature=0 9
split_gain=4.45155 4.14774
threshold=0 0.20945507931665652
decision_type=1 2
left_child=-1 -2
right_child=1 -3
leaf_value=-0.00090045664679494041 0.0021139420674324595 -0.0037805803951310589
leaf_weight=153 103 33
leaf_count=153 103 33
internal_value=0.000344828 0.00167883
internal_weight=289 136
internal_count=289 136
cat_boundaries=0 1
cat_threshold=1
is_linear=0
shrinkage=0.01


Tree=192
num_leaves=3
num_cat=0
split_feature=5 10
split_gain=3.42544 5.36104
threshold=7.5000000000000009 0.24515340364333657
decision_type=2 2
left_child=-1 -2
right_child=1 -3
leaf_value=-0.00018048488205221647 0.0032938251799908948 -0.005405374954929894
leaf_weight=220 54 14.999999999999998
leaf_count=220 54 15
internal_value=0.000344828 0.00228571
internal_weight=289 69
internal_count=289 69
is_linear=0
shrinkage=0.01


Tree=193
num_leaves=3
num_cat=0
split_feature=5 6
split_gain=3.42544 5.31171
threshold=7.5000000000000009 83.500000000000014
decision_type=2 2
left_child=1 -1
right_child=-2 -3
leaf_value=0.0018337423703379697 0.0018253366934521508 -0.0029123317963214547
leaf_weight=50 69 170
leaf_count=50 69 170
internal_value=0.000344828 -0.000226244
internal_weight=289 220
internal_count=289 220
is_linear=0
shrinkage=0.01


Tree=194
num_leaves=3
num_cat=0
split_feature=9 5
split_gain=3.31351 5.29404
threshold=0.3229683961186029 7.5000000000000009
decision_type=2 2
left_child=1 -1
right_child=-2 -3
leaf_value=-2.3689563374231783e-05 -0.0093374988106120146 0.0036091353751777477
leaf_weight=203 27 59
leaf_count=203 27 59
internal_value=0.000344828 0.000722433
internal_weight=289 262
internal_count=289 262
is_linear=0
shrinkage=0.01


Tree=195
num_leaves=3
num_cat=1
split_feature=0 9
split_gain=4.01411 4.14774
threshold=0 0.20945507931665652
decision_type=1 2
left_child=-1 -2
right_child=1 -3
leaf_value=-0.0009456551613195519 0.0020710962401020439 -0.0037430655623167477
leaf_weight=153 103 33
leaf_count=153 103 33
internal_value=0.000413793 0.00167883
internal_weight=289 136
internal_count=289 136
cat_boundaries=0 1
cat_threshold=1
is_linear=0
shrinkage=0.01


Tree=196
num_leaves=3
num_cat=1
split_feature=0 9
split_gain=4.01411 4.14774
threshold=0 0.20945507931665652
decision_type=1 2
left_child=-1 -2
right_child=1 -3
leaf_value=-0.00093619860970635578 0.0020503852777010233 -0.003705634906693578
leaf_weight=153 103 33
leaf_count=153 103 33
internal_value=0.000413793 0.00167883
internal_weight=289 136
internal_count=289 136
cat_boundaries=0 1
cat_threshold=1
is_linear=0
shrinkage=0.01


Tree=197
num_leaves=3
num_cat=1
split_feature=3 4
split_gain=3.91833 3.43391
threshold=9.2825009747997616 0
decision_type=2 9
left_child=1 -1
right_child=-2 -3
leaf_value=0.00075082340854079718 0.0054550440619718947 -0.0010356115881118933
leaf_weight=109 18 162
leaf_count=109 18 162
internal_value=0.000344828 0
internal_weight=289 271
internal_count=289 271
cat_boundaries=0 1
cat_threshold=1114128
is_linear=0
shrinkage=0.01


Tree=198
num_leaves=3
num_cat=1
split_feature=0 6
split_gain=4.45155 3.73309
threshold=0 457.00000000000006
decision_type=1 2
left_child=-1 -2
right_child=1 -3
leaf_value=-0.00096742474918834812 0.0027062295983615405 -0.0011313577250724838
leaf_weight=153 98 38
leaf_count=153 98 38
internal_value=0.000344828 0.00167883
internal_weight=289 136
internal_count=289 136
cat_boundaries=0 1
cat_threshold=1
is_linear=0
shrinkage=0.01


Tree=199
num_leaves=3
num_cat=0
split_feature=5 6
split_gain=3.89952 6.04078
threshold=7.5000000000000009 83.500000000000014
decision_type=2 2
left_child=1 -1
right_child=-2 -3
leaf_value=0.0017971736201864341 0.0016952066275187994 -0.0028441226816412371
leaf_weight=50 69 170
leaf_count=50 69 170
internal_value=0.000206897 -0.00040724
internal_weight=289 220
internal_count=289 220
is_linear=0
shrinkage=0.01


Tree=200
num_leaves=3
num_cat=1
split_feature=3 4
split_gain=3.91833 2.93931
threshold=9.2825009747997616 0
decision_type=2 9
left_child=1 -1
right_child=-2 -3
leaf_value=0.0011144441386020821 0.0053559694241300318 -0.0012235315534959356
leaf_weight=118 18 153
leaf_count=118 18 153
internal_value=0.000344828 0
internal_weight=289 271
internal_count=289 271
cat_boundaries=0 1
cat_threshold=1050640
is_linear=0
shrinkage=0.01


Tree=201
num_leaves=3
num_cat=1
split_feature=0 3
split_gain=3.44596 4.11293
threshold=0 2.5425050714339776
decision_type=1 2
left_child=-1 -2
right_child=1 -3
leaf_value=-0.000962467252436694 -0.0067459712906815248 0.0020575072057670862
leaf_weight=153 13.999999999999998 122
leaf_count=153 14 122
internal_value=0.000206897 0.00138686
internal_weight=289 136
internal_count=289 136
cat_boundaries=0 1
cat_threshold=1
is_linear=0
shrinkage=0.01


Tree=202
num_leaves=3
num_cat=1
split_feature=0 9
split_gain=3.93335 3.75161
threshold=0 0.20945507931665652
decision_type=1 2
left_child=-1 -2
right_child=1 -3
leaf_value=-0.00095284257991232744 0.0020022116790692703 -0.0037518206674145471
leaf_weight=153 103 33
leaf_count=153 103 33
internal_value=0.000275862 0.00153285
internal_weight=289 136
internal_count=289 136
cat_boundaries=0 1
cat_threshold=1
is_linear=0
shrinkage=0.01


Tree=203
num_leaves=3
num_cat=0
split_feature=6 5
split_gain=3.1542 5.74755
threshold=83.500000000000014 5.5000000000000009
decision_type=2 2
left_child=-1 -2
right_child=1 -3
leaf_value=0.0015792407462356063 -0.0028878421644373711 0.0015977229694472907
leaf_weight=59 158 72
leaf_count=59 158 72
internal_value=0.000275862 -0.00021645
internal_weight=289 230
internal_count=289 230
is_linear=0
shrinkage=0.01


Tree=204
num_leaves=3
num_cat=1
split_feature=3 0
split_gain=3.91833 3.12432
threshold=9.2825009747997616 0
decision_type=2 1
left_child=1 -1
right_child=-2 -3
leaf_value=-0.0023451592673008649 0.0052746978841943723 0.0010849207961068142
leaf_weight=147 18 124
leaf_count=147 18 124
internal_value=0.000344828 0
internal_weight=289 271
internal_count=289 271
cat_boundaries=0 1
cat_threshold=1
is_linear=0
shrinkage=0.01


Tree=205
num_leaves=3
num_cat=1
split_feature=0 9
split_gain=3.93335 3.75161
threshold=0 0.20945507931665652
decision_type=1 2
left_child=-1 -2
right_child=1 -3
leaf_value=-0.0009356549689025506 0.0019819732655116562 -0.0037411288983959425
leaf_weight=153 103 33
leaf_count=153 103 33
internal_value=0.000275862 0.00153285
internal_weight=289 136
internal_count=289 136
cat_boundaries=0 1
cat_threshold=1
is_linear=0
shrinkage=0.01


Tree=206
num_leaves=3
num_cat=1
split_feature=6 4
split_gain=4.03006 4.50962
threshold=83.500000000000014 0
decision_type=2 9
left_child=-1 -2
right_child=1 -3
leaf_value=0.0015962564811352832 0.00131347932949065 -0.0018135918995674683
leaf_weight=59 103 127
leaf_count=59 103 127
internal_value=0.000344828 -0.00021645
internal_weight=289 230
internal_count=289 230
cat_boundaries=0 1
cat_threshold=68157456
is_linear=0
shrinkage=0.01


Tree=207
num_leaves=3
num_cat=1
split_feature=0 6
split_gain=3.93335 3.32492
threshold=0 457.00000000000006
decision_type=1 2
left_child=-1 -2
right_child=1 -3
leaf_value=-0.00094226098402487861 0.0026630613558849569 -0.0011487438665101024
leaf_weight=153 98 38
leaf_count=153 98 38
internal_value=0.000275862 0.00153285
internal_weight=289 136
internal_count=289 136
cat_boundaries=0 1
cat_threshold=1
is_linear=0
shrinkage=0.01


Tree=208
num_leaves=3
num_cat=1
split_feature=0 6
split_gain=3.93335 3.32492
threshold=0 457.00000000000006
decision_type=1 2
left_child=-1 -2
right_child=1 -3
leaf_value=-0.00093283837418463029 0.0026364307423261081 -0.0011372564278449993
leaf_weight=153 98 38
leaf_count=153 98 38
internal_value=0.000275862 0.00153285
internal_weight=289 136
internal_count=289 136
cat_boundaries=0 1
cat_threshold=1
is_linear=0
shrinkage=0.01


Tree=209
num_leaves=3
num_cat=1
split_feature=6 4
split_gain=4.2581 5.01442
threshold=83.500000000000014 0
decision_type=2 9
left_child=-1 -2
right_child=1 -3
leaf_value=0.0015990449099060244 0.0012473496152136355 -0.0018484509015538996
leaf_weight=59 103 127
leaf_count=59 103 127
internal_value=0.000275862 -0.00030303
internal_weight=289 230
internal_count=289 230
cat_boundaries=0 1
cat_threshold=68157456
is_linear=0
shrinkage=0.01


Tree=210
num_leaves=3
num_cat=1
split_feature=3 0
split_gain=3.91833 3.12432
threshold=9.2825009747997616 0
decision_type=2 1
left_child=1 -1
right_child=-2 -3
leaf_value=-0.0023255531452671539 0.0051489711108560201 0.00097700614861728763
leaf_weight=147 18 124
leaf_count=147 18 124
internal_value=0.000344828 0
internal_weight=289 271
internal_count=289 271
cat_boundaries=0 1
cat_threshold=1
is_linear=0
shrinkage=0.01


Tree=211
num_leaves=3
num_cat=1
split_feature=0 3
split_gain=3.0637 4.11293
threshold=0 2.5425050714339776
decision_type=1 2
left_child=-1 -2
right_child=1 -3
leaf_value=-0.00091624490808917436 -0.0066506138440686246 0.0020021649277918432
leaf_weight=153 13.999999999999998 122
leaf_count=153 14 122
internal_value=0.000275862 0.00138686
internal_weight=289 136
internal_count=289 136
cat_boundaries=0 1
cat_threshold=1
is_linear=0
shrinkage=0.01


Tree=212
num_leaves=3
num_cat=0
split_feature=6 5
split_gain=4.03006 5.74755
threshold=83.500000000000014 5.5000000000000009
decision_type=2 2
left_child=-1 -2
right_child=1 -3
leaf_value=0.0016154724413405264 -0.0027813736446800387 0.0015330361963422591
leaf_weight=59 158 72
leaf_count=59 158 72
internal_value=0.000344828 -0.00021645
internal_weight=289 230
internal_count=289 230
is_linear=0
shrinkage=0.01


Tree=213
num_leaves=3
num_cat=0
split_feature=6 5
split_gain=3.80908 5.31367
threshold=83.500000000000014 5.5000000000000009
decision_type=2 2
left_child=-1 -2
right_child=1 -3
leaf_value=0.0015993177169271223 -0.0027535599082332365 0.0015177058343788376
leaf_weight=59 158 72
leaf_count=59 158 72
internal_value=0.000413793 -0.00012987
internal_weight=289 230
internal_count=289 230
is_linear=0
shrinkage=0.01


Tree=214
num_leaves=3
num_cat=0
split_feature=3 7
split_gain=3.78131 2.8797
threshold=9.2825009747997616 1.0000000180025095e-35
decision_type=2 2
left_child=-1 -2
right_child=1 -3
leaf_value=3.1224235236253509e-05 0.010574463389758844 -0.0074790053258742533
leaf_weight=271 13.000000000000002 4.9999999999999991
leaf_count=271 13 5
internal_value=0.000413793 0.00473684
internal_weight=289 18
internal_count=289 18
is_linear=0
shrinkage=0.01


Tree=215
num_leaves=3
num_cat=0
split_feature=6 5
split_gain=2.9608 5.31367
threshold=83.500000000000014 5.5000000000000009
decision_type=2 2
left_child=-1 -2
right_child=1 -3
leaf_value=0.0015830122974054906 -0.0027263365515032634 0.0015022165336826898
leaf_weight=59 158 72
leaf_count=59 158 72
internal_value=0.000344828 -0.00012987
internal_weight=289 230
internal_count=289 230
is_linear=0
shrinkage=0.01


Tree=216
num_leaves=3
num_cat=1
split_feature=0 9
split_gain=3.5235 3.75161
threshold=0 0.20945507931665652
decision_type=1 2
left_child=-1 -2
right_child=1 -3
leaf_value=-0.00095537272591737386 0.0019266024759842361 -0.0038579543586016252
leaf_weight=153 103 33
leaf_count=153 103 33
internal_value=0.000344828 0.00153285
internal_weight=289 136
internal_count=289 136
cat_boundaries=0 1
cat_threshold=1
is_linear=0
shrinkage=0.01


Tree=217
num_leaves=3
num_cat=0
split_feature=10 3
split_gain=3.14195 7.95892
threshold=0.12128704922770626 3.3557991891193035
decision_type=2 2
left_child=1 -1
right_child=-2 -3
leaf_value=0.0020869742297851567 0.00061272844416505824 -0.0052202510071341244
leaf_weight=7.9999999999999991 251 30
leaf_count=8 251 30
internal_value=0.000275862 -0.00230769
internal_weight=289 38
internal_count=289 38
is_linear=0
shrinkage=0.01


Tree=218
num_leaves=3
num_cat=0
split_feature=6 10
split_gain=3.1542 5.2111
threshold=83.500000000000014 0.12128704922770626
decision_type=2 2
left_child=-1 -2
right_child=1 -3
leaf_value=0.0015706086172489586 -0.0052255095716903189 0.00016127525023568623
leaf_weight=59 27 203
leaf_count=59 27 203
internal_value=0.000275862 -0.00021645
internal_weight=289 230
internal_count=289 230
is_linear=0
shrinkage=0.01


Tree=219
num_leaves=3
num_cat=1
split_feature=0 6
split_gain=3.5235 3.32492
threshold=0 457.00000000000006
decision_type=1 2
left_child=-1 -2
right_child=1 -3
leaf_value=-0.00090932257475934814 0.0025779179030385223 -0.0010898689903051273
leaf_weight=153 98 38
leaf_count=153 98 38
internal_value=0.000344828 0.00153285
internal_weight=289 136
internal_count=289 136
cat_boundaries=0 1
cat_threshold=1
is_linear=0
shrinkage=0.01


Tree=220
num_leaves=3
num_cat=0
split_feature=6 5
split_gain=2.9608 5.31367
threshold=83.500000000000014 5.5000000000000009
decision_type=2 2
left_child=-1 -2
right_child=1 -3
leaf_value=0.0015639957568240614 -0.0026762731822786612 0.0014662552060101209
leaf_weight=59 158 72
leaf_count=59 158 72
internal_value=0.000344828 -0.00012987
internal_weight=289 230
internal_count=289 230
is_linear=0
shrinkage=0.01


Tree=221
num_leaves=3
num_cat=0
split_feature=10 3
split_gain=3.3194 7.95892
threshold=0.12128704922770626 3.3557991891193035
decision_type=2 2
left_child=1 -1
right_child=-2 -3
leaf_value=0.0021335028988331462 0.00058644073222573927 -0.005097373646164487
leaf_weight=7.9999999999999991 251 30
leaf_count=8 251 30
internal_value=0.000344828 -0.00230769
internal_weight=289 38
internal_count=289 38
is_linear=0
shrinkage=0.01


Tree=222
num_leaves=3
num_cat=0
split_feature=10 2
split_gain=3.3194 6.44438
threshold=0.12128704922770626 9.6633788648893333
decision_type=2 2
left_child=1 -1
right_child=-2 -3
leaf_value=0.00063117884345058382 0.00058057632490348342 -0.006683208725163565
leaf_weight=18 251 20
leaf_count=18 251 20
internal_value=0.000344828 -0.00230769
internal_weight=289 38
internal_count=289 38
is_linear=0
shrinkage=0.01


Tree=223
num_leaves=3
num_cat=0
split_feature=10 3
split_gain=3.3194 7.95892
threshold=0.12128704922770626 3.3557991891193035
decision_type=2 2
left_child=1 -1
right_child=-2 -3
leaf_value=0.0021058560814103114 0.0005747705616544474 -0.0050527116981373488
leaf_weight=7.9999999999999991 251 30
leaf_count=8 251 30
internal_value=0.000344828 -0.00230769
internal_weight=289 38
internal_count=289 38
is_linear=0
shrinkage=0.01


Tree=224
num_leaves=3
num_cat=0
split_feature=6 10
split_gain=3.1542 5.2111
threshold=83.500000000000014 0.12128704922770626
decision_type=2 2
left_child=-1 -2
right_child=1 -3
leaf_value=0.0015309379230679853 -0.0050422094533945213 0.00013848075938843962
leaf_weight=59 27 203
leaf_count=59 27 203
internal_value=0.000275862 -0.00021645
internal_weight=289 230
internal_count=289 230
is_linear=0
shrinkage=0.01


Tree=225
num_leaves=3
num_cat=0
split_feature=6 10
split_gain=3.1542 5.2111
threshold=83.500000000000014 0.12128704922770626
decision_type=2 2
left_child=-1 -2
right_child=1 -3
leaf_value=0.0015156285438373063 -0.0049917873588605759 0.00013709595179455468
leaf_weight=59 27 203
leaf_count=59 27 203
internal_value=0.000275862 -0.00021645
internal_weight=289 230
internal_count=289 230
is_linear=0
shrinkage=0.01


Tree=226
num_leaves=3
num_cat=1
split_feature=0 9
split_gain=3.5235 3.75161
threshold=0 0.20945507931665652
decision_type=1 2
left_child=-1 -2
right_child=1 -3
leaf_value=-0.00077800203055439449 0.0018756589088236631 -0.0038877302263497751
leaf_weight=153 103 33
leaf_count=153 103 33
internal_value=0.000344828 0.00153285
internal_weight=289 136
internal_count=289 136
cat_boundaries=0 1
cat_threshold=1
is_linear=0
shrinkage=0.01


Tree=227
num_leaves=3
num_cat=1
split_feature=0 9
split_gain=3.13801 3.75161
threshold=0 0.20945507931665652
decision_type=1 2
left_child=-1 -2
right_child=1 -3
leaf_value=-0.00077022201024885112 0.0018569023197354273 -0.0038488529240862769
leaf_weight=153 103 33
leaf_count=153 103 33
internal_value=0.000413793 0.00153285
internal_weight=289 136
internal_count=289 136
cat_boundaries=0 1
cat_threshold=1
is_linear=0
shrinkage=0.01


Tree=228
num_leaves=3
num_cat=1
split_feature=0 9
split_gain=3.13801 3.75161
threshold=0 0.20945507931665652
decision_type=1 2
left_child=-1 -2
right_child=1 -3
leaf_value=-0.00076251979014636101 0.0018383332965380729 -0.003810364394845416
leaf_weight=153 103 33
leaf_count=153 103 33
internal_value=0.000413793 0.00153285
internal_weight=289 136
internal_count=289 136
cat_boundaries=0 1
cat_threshold=1
is_linear=0
shrinkage=0.01


Tree=229
num_leaves=3
num_cat=0
split_feature=10 3
split_gain=3.3194 7.95892
threshold=0.12128704922770626 3.3557991891193035
decision_type=2 2
left_child=1 -1
right_child=-2 -3
leaf_value=0.0022082449270282578 0.0005893745272355711 -0.0049181453665041583
leaf_weight=7.9999999999999991 251 30
leaf_count=8 251 30
internal_value=0.000344828 -0.00230769
internal_weight=289 38
internal_count=289 38
is_linear=0
shrinkage=0.01


Tree=230
num_leaves=3
num_cat=0
split_feature=10 3
split_gain=3.3194 7.95892
threshold=0.12128704922770626 3.3557991891193035
decision_type=2 2
left_child=1 -1
right_child=-2 -3
leaf_value=0.0021861624777579735 0.00058348078196321482 -0.0048689639128391173
leaf_weight=7.9999999999999991 251 30
leaf_count=8 251 30
internal_value=0.000344828 -0.00230769
internal_weight=289 38
internal_count=289 38
is_linear=0
shrinkage=0.01


Tree=231
num_leaves=3
num_cat=0
split_feature=10 3
split_gain=3.3194 7.95892
threshold=0.12128704922770626 3.3557991891193035
decision_type=2 2
left_child=1 -1
right_child=-2 -3
leaf_value=0.0021643008529803943 0.00057764597414358134 -0.0048202742737107271
leaf_weight=7.9999999999999991 251 30
leaf_count=8 251 30
internal_value=0.000344828 -0.00230769
internal_weight=289 38
internal_count=289 38
is_linear=0
