tree
version=v4
num_class=1
num_tree_per_iteration=1
label_index=0
max_feature_idx=6
objective=regression
feature_names=category log_value region start_month planned_days is_repair n_tenderers
feature_infos=-1:0:1:2 [0.0099503308531680833:16.852765098870258] -1:20:11:13:26:16:4:19:8:10:12:1:21:22:29:30:3:6:17:18:2:5:9:14:27:28 [1:12] [1:1977] [0:1] none
tree_sizes=1431 1531 1557 1539 1470 1487 1470 1559 1529 1536 1530 1564 1489 1527 1531 1541 1563 1565 1548 1552 1503 1490 1506 1537 1565 1524 1508 1556 1557 1494 1526 1574 1562 1548 1514 1529 1529 1542 1546 1515 1534 1511 1514 1542 1529 1571 1529 1518 1526 1535 1520 1584 1545 1497 1518 1501 1503 1553 1491 1574 1579 1570 1582 1592 1510 1569 1536 1588 1565 1560 1504 1571 1590 1557 1538 1609 1542 1573 1542 1534 1509 1524 1558 1607 1609 1590 1603 1589 1572 1591 1611 1574 1595 1574 1591 1569 1599 1541 1603 1565 1585 1519 1538 1545 1592 1540 1571 1592 1565 1570 1551 1589 1532 1571 1542 1583 1587 1556 1574 1532 1607 1544 1606 1586 1638 1518 1574 1534 1584 1561 1613 1584 1597 1544 1597 1600 1512 1618 1562 1583 1540 1631 1563 1611 1601 1604 1532 1584 1643 1658 1520 1577 1595 1586 1630 1612 1562 1543 1581 1617 1576 1582 1591 1567 1607 1631 1555 1579 1586 1593 1591 1555 1586 1575 1607 1579 1624 1591 1523 1572 1568 1627 1612 1562 1595 1598 1594 1616 1593 1562 1617 1559 1610 1586 1550 1566 1561 1530 1552 1580 1578 1628 1567 1604 1534 1616 1559 1559 1588 1593 1593 1539 1542 1539 1580 1587 1584 1550 1533 1632 1571 1633 1551 1567 1547 1581 1606 1613 1618 1553 1576 1568 1559 1591 1561 1624 1611 1560 1609 1595 1547 1622 1588 1539 1573 1618 1632 1620 1548 1634

Tree=0
num_leaves=15
num_cat=1
split_feature=0 4 4 4 4 4 4 4 3 3 4 4 4 3
split_gain=50.2385 42.8367 12.6832 11.8181 10.5343 8.61381 16.2042 14.0482 8.55581 12.8516 4.73598 6.54432 5.05325 3.23497
threshold=0 69.500000000000014 489.50000000000006 373.50000000000006 763.00000000000011 790.50000000000011 730.50000000000011 633.50000000000011 6.5000000000000009 1.5000000000000002 134.00000000000003 339.50000000000006 51.000000000000007 6.5000000000000009
decision_type=1 2 2 2 2 2 2 2 2 2 2 2 2 2
left_child=1 -1 8 13 -4 6 7 -5 9 -2 12 -12 -11 -3
right_child=2 3 4 5 -6 -7 -8 -9 -10 10 11 -13 -14 -15
leaf_value=3.6916435158989862 3.7044970065021512 3.6386711998619012 3.6523813384960406 3.6813126554739326 3.6848378558645956 3.643374945064469 3.6990787806302619 3.64125348597172 3.7024673575800584 3.6800972220391346 3.6991800318197869 3.6705236750586852 3.6506313188517945 3.657332257518203
leaf_weight=29 19 51 18 12.999999999999998 18 19 10.999999999999998 20 31 10.000000000000002 13.000000000000002 15.999999999999998 10.999999999999998 9.9999999999999982
leaf_count=29 19 51 18 13 18 19 11 20 31 10 13 16 11 10
internal_value=3.67061 3.65882 3.68388 3.65114 3.66861 3.66026 3.66755 3.65703 3.68938 3.68349 3.67551 3.68337 3.66466 3.64173
internal_weight=289 153 136 124 36 63 44 33 100 69 50 29 21 61
internal_count=289 153 136 124 36 63 44 33 100 69 50 29 21 61
cat_boundaries=0 1
cat_threshold=1
is_linear=0
shrinkage=1


Tree=1
num_leaves=15
num_cat=1
split_feature=0 4 4 4 4 4 4 4 3 3 4 4 4 3
split_gain=47.2694 40.3051 11.9337 11.1197 9.91168 8.10474 15.2465 13.218 8.05016 12.0921 4.45608 6.15755 4.7546 3.20438
threshold=0 69.500000000000014 489.50000000000006 373.50000000000006 763.00000000000011 790.50000000000011 730.50000000000011 633.50000000000011 6.5000000000000009 1.5000000000000002 134.00000000000003 339.50000000000006 51.000000000000007 3.5000000000000004
decision_type=1 2 2 2 2 2 2 2 2 2 2 2 2 2
left_child=1 13 8 -3 -4 6 7 -5 9 -2 12 -12 -11 -1
right_child=2 3 4 5 -6 -7 -8 -9 -10 10 11 -13 -14 -15
leaf_value=0.030034758925437922 0.032868505794751021 -0.028015111824039554 -0.017683692015707492 0.010379686034642732 0.013799130617796133 -0.026419892429227109 0.027612825726920909 -0.028477708004415035 0.030899746341690904 0.009200716137886044 0.027711039483547202 -8.5625000065192583e-05 -0.019381212009625001 0.010078329183161259
leaf_weight=15.000000000000002 19 61 18 12.999999999999998 18 19 10.999999999999998 20 31 10.000000000000002 13.000000000000002 15.999999999999998 10.999999999999998 13.999999999999998
leaf_count=15 19 61 18 13 18 19 11 20 31 10 13 16 11 14
internal_value=1.40037e-10 -0.0114389 0.0128688 -0.0188853 -0.00194228 -0.0100453 -0.00297448 -0.0131702 0.0182008 0.0124955 0.00475375 0.0123749 -0.00577077 0.0204006
internal_weight=289 153 136 124 36 63 44 33 100 69 50 29 21 29
internal_count=289 153 136 124 36 63 44 33 100 69 50 29 21 29
cat_boundaries=0 1
cat_threshold=1
is_linear=0
shrinkage=0.03


Tree=2
num_leaves=15
num_cat=1
split_feature=0 1 3 3 3 3 1 3 1 3 1 5 1 3
split_gain=44.4758 20.641 8.50436 13.8464 3.76006 5.77556 3.71929 3.66645 3.83333 3.69071 3.36147 2.09924 1.72139 1.65963
threshold=0 7.7315214677380846 7.5000000000000009 1.5000000000000002 11.500000000000002 6.5000000000000009 7.5497893265983054 4.5000000000000009 11.915442854498913 3.5000000000000004 10.756523426482445 1.0000000180025095e-35 10.717767570961287 3.5000000000000004
decision_type=1 2 2 2 2 2 2 2 2 2 2 2 2 2
left_child=4 -2 3 -3 5 6 -1 8 9 -5 -8 12 -4 -12
right_child=1 2 11 7 -6 -7 10 -9 -10 -11 13 -13 -14 -15
leaf_value=0.0035898158912147796 -0.023467171971614544 0.031172396709089695 0.026133938571438184 0.014048589666684468 -0.022276786833029725 0.012787096917629243 -0.016613340285462394 0.015083809199154771 -0.013661790937185288 -0.0069286892906977558 -0.00053474258469498671 0.018909438369938962 0.042563946450298477 -0.014297525435686111
leaf_weight=13.999999999999998 12.999999999999998 23 12.000000000000002 18 23 9.9999999999999982 71 19 13.999999999999998 13.000000000000002 23 12.999999999999998 10.999999999999998 11.999999999999998
leaf_count=14 13 23 12 18 23 10 71 19 14 13 23 13 11 12
internal_value=-1.18574e-10 0.0124828 0.0162823 0.011208 -0.0110958 -0.0091176 -0.010943 0.00403326 -0.00063252 0.00525167 -0.0128624 0.0285454 0.0339918 -0.00525341
internal_weight=289 136 123 87 153 130 120 64 45 31 106 36 23 35
internal_count=289 136 123 87 153 130 120 64 45 31 106 36 23 35
cat_boundaries=0 1
cat_threshold=1
is_linear=0
shrinkage=0.03


Tree=3
num_leaves=15
num_cat=0
split_feature=4 1 1 3 5 4 1 4 4 4 4 4 4 1
split_gain=35.8048 24.636 12.1449 13.3138 12.5219 11.571 9.27376 9.09557 7.5024 7.82885 9.0603 10.0653 9.22391 6.83923
threshold=69.500000000000014 13.665684921794645 6.8615189042322591 7.5000000000000009 1.0000000180025095e-35 604.00000000000011 12.328085074052293 7.5000000000000009 134.00000000000003 1097.0000000000002 730.50000000000011 790.50000000000011 339.50000000000006 9.9192048708695939
decision_type=2 2 2 2 2 2 2 2 2 2 2 2 2 2
left_child=6 2 -2 4 8 13 7 -1 -4 10 12 -12 -10 -5
right_child=1 -3 3 5 -6 -7 -8 -9 9 -11 11 -13 -14 -15
leaf_value=0.03830155374482274 -0.03419238531589508 0.026658111825585366 -0.032816505962982773 0.00068219291977584346 0.013791050059474346 -0.013683490268886088 0.047722942002117637 0.007921737927450415 0.004924065917730331 -0.036340593874454499 0.030823200881481157 -0.0099293975532054896 -0.018291860176667347 0.029611507999269586
leaf_weight=11.999999999999998 14.999999999999998 20 15.999999999999998 12.000000000000002 17 14.999999999999998 9.9999999999999982 34 20 9.9999999999999982 10.000000000000002 11.999999999999998 67 19
leaf_count=12 15 20 16 12 17 15 10 34 20 10 10 12 67 19
internal_value=-1.18309e-10 -0.00517677 -0.00816596 -0.00619426 -0.0104738 0.0079468 0.0215391 0.0158469 -0.0135294 -0.0109361 -0.00860545 0.00859451 -0.0129549 0.0184131
internal_weight=289 233 213 198 152 46 56 46 135 119 109 22 87 31
internal_count=289 233 213 198 152 46 56 46 135 119 109 22 87 31
is_linear=0
shrinkage=0.03


Tree=4
num_leaves=15
num_cat=1
split_feature=0 4 1 4 3 3 1 4 4 4 1 1 4 3
split_gain=40.726 36.046 18.6706 10.3427 7.58074 12.8419 7.56851 7.24277 13.6942 11.9336 4.56071 9.21395 3.59972 3.50415
threshold=0 69.500000000000014 7.7315214677380846 373.50000000000006 7.5000000000000009 1.5000000000000002 9.3942138106475408 790.50000000000011 730.50000000000011 633.50000000000011 9.2290131440358625 10.484713625941804 364.50000000000006 4.5000000000000009
decision_type=1 2 2 2 2 2 2 2 2 2 2 2 2 2
left_child=1 6 -2 10 5 -4 -1 8 9 -5 12 -12 -3 -7
right_child=2 3 4 7 -6 13 -8 -9 -10 -11 11 -13 -14 -15
leaf_value=0.0012510784529149528 -0.022246000273869589 -0.026967053144023964 0.029994334497327066 0.010263941459930859 0.027136620230351887 -0.00070315185437599807 0.032368991243488646 -0.024613492837861965 0.026538509333675558 -0.026657446011900898 -0.049309389836647934 -0.019268999889492988 -0.0036489484255964096 0.014661380834509862
leaf_weight=12.000000000000002 12.999999999999998 13 23 12.999999999999998 36 45 17 19 10.999999999999998 20 17 20 11 19
leaf_count=12 13 13 23 13 36 45 17 19 11 20 17 20 11 19
internal_value=7.63991e-11 -0.0106177 0.011945 -0.0176597 0.0155586 0.0107677 0.0194926 -0.00913413 -0.00244987 -0.0121127 -0.0264647 -0.0330713 -0.0162796 0.00385819
internal_weight=289 153 136 124 123 87 29 63 44 33 61 37 24 64
internal_count=289 153 136 124 123 87 29 63 44 33 61 37 24 64
cat_boundaries=0 1
cat_threshold=1
is_linear=0
shrinkage=0.03


Tree=5
num_leaves=15
num_cat=1
split_feature=0 4 1 4 1 4 4 4 4 1 1 1 1 1
split_gain=38.3191 33.9157 17.5671 9.73145 7.12121 6.81473 12.8849 11.2284 6.20174 9.41389 4.29117 8.66941 3.81909 8.24285
threshold=0 69.500000000000014 7.7315214677380846 373.50000000000006 9.3942138106475408 790.50000000000011 730.50000000000011 633.50000000000011 489.50000000000006 10.868178957772248 9.2290131440358625 10.484713625941804 10.537824887377601 12.253004013770777
decision_type=1 2 2 2 2 2 2 2 2 2 2 2 2 2
left_child=1 4 -2 10 -1 6 7 -5 12 -10 -3 -12 -4 -14
right_child=2 3 8 5 -6 -7 -8 -9 9 -11 11 -13 13 -15
leaf_value=0.0012135460227727885 -0.021578621520445897 -0.015791200269013643 0.026400145985872335 0.0099560230569197567 0.031397922082858923 -0.023875088825037603 0.025742353214458988 -0.025857722908258437 -0.020333224207162857 0.014532514097897901 -0.047830108912552106 -0.018690929532051086 0.0014752658531069756 0.025381417820851005
leaf_weight=12.000000000000002 12.999999999999998 24 38 12.999999999999998 17 19 10.999999999999998 20 9.9999999999999982 23 17 20 25 27
leaf_count=12 13 24 38 13 17 19 11 20 10 23 17 20 25 27
internal_value=-1.48883e-11 -0.0102992 0.0115866 -0.0171299 0.0189078 -0.00886011 -0.00237637 -0.0117493 0.0150919 0.00396714 -0.0256708 -0.0320792 0.0191709 0.0138881
internal_weight=289 153 136 124 29 63 44 33 123 33 61 37 90 52
internal_count=289 153 136 124 29 63 44 33 123 33 61 37 90 52
cat_boundaries=0 1
cat_threshold=1
is_linear=0
shrinkage=0.03


Tree=6
num_leaves=15
num_cat=1
split_feature=0 4 1 4 3 3 1 4 4 4 1 1 4 3
split_gain=36.0545 31.9113 16.5289 9.15632 6.96921 11.916 6.70035 6.41198 12.1234 10.5648 4.03757 8.15704 3.38698 3.22424
threshold=0 69.500000000000014 7.7315214677380846 373.50000000000006 7.5000000000000009 1.5000000000000002 9.3942138106475408 790.50000000000011 730.50000000000011 633.50000000000011 9.2290131440358625 10.484713625941804 364.50000000000006 4.5000000000000009
decision_type=1 2 2 2 2 2 2 2 2 2 2 2 2 2
left_child=1 6 -2 10 5 -4 -1 8 9 -5 12 -12 -3 -7
right_child=2 3 4 7 -6 13 -8 -9 -10 -11 11 -13 -14 -15
leaf_value=0.0011771395616233344 -0.020931261227681085 -0.025684305062660801 0.028566047673963979 0.0096573417691084053 0.025740293784377474 -0.00098565461176137147 0.03045598321101245 -0.023158836882365377 0.02497008371082219 -0.025081991393119098 -0.046395205872900344 -0.018130202170461417 -0.0030657440153035245 0.01375246312469244
leaf_weight=12.000000000000002 12.999999999999998 13 23 12.999999999999998 36 45 17 19 10.999999999999998 20 17 20 11 19
leaf_count=12 13 13 23 13 36 45 17 19 11 20 17 20 11 19
internal_value=-1.73342e-10 -0.00999023 0.011239 -0.016616 0.0146391 0.0100455 0.0183406 -0.00859431 -0.00230508 -0.0113968 -0.0249007 -0.0311168 -0.0153175 0.00338972
internal_weight=289 153 136 124 123 87 29 63 44 33 61 37 24 64
internal_count=289 153 136 124 123 87 29 63 44 33 61 37 24 64
cat_boundaries=0 1
cat_threshold=1
is_linear=0
shrinkage=0.03


Tree=7
num_leaves=15
num_cat=1
split_feature=0 1 3 3 3 3 1 3 1 3 1 5 1 3
split_gain=33.9236 15.552 6.55733 11.2118 3.19436 4.95265 3.32409 3.03369 3.85961 3.47784 2.57604 1.9466 1.57668 1.42104
threshold=0 7.7315214677380846 7.5000000000000009 1.5000000000000002 11.500000000000002 6.5000000000000009 7.5497893265983054 4.5000000000000009 11.915442854498913 3.5000000000000004 10.756523426482445 1.0000000180025095e-35 10.717767570961287 3.5000000000000004
decision_type=1 2 2 2 2 2 2 2 2 2 2 2 2 2
left_child=4 -2 3 -3 5 6 -1 8 9 -5 -8 12 -4 -12
right_child=1 2 11 7 -6 -7 10 -9 -10 -11 13 -13 -14 -15
leaf_value=0.0041814512094216693 -0.020303323773237375 0.02770906614544599 0.022692439416423432 0.013487696871161461 -0.019996177388922027 0.01241702851653099 -0.014655755992296715 0.013339889122075156 -0.014029939658939838 -0.0068756323003281751 -0.00034480941684349723 0.015689088862675889 0.038416694023392414 -0.013079971186816692
leaf_weight=13.999999999999998 12.999999999999998 23 12.000000000000002 18 23 9.9999999999999982 71 19 13.999999999999998 13.000000000000002 23 12.999999999999998 10.999999999999998 11.999999999999998
leaf_count=14 13 23 12 18 23 10 71 19 14 13 23 13 11 12
internal_value=4.3263e-11 0.0109018 0.0141999 0.00974417 -0.00969053 -0.00786722 -0.00955757 0.00328803 -0.000956085 0.00494824 -0.0113722 0.0249681 0.0302127 -0.00471115
internal_weight=289 136 123 87 153 130 120 64 45 31 106 36 23 35
internal_count=289 136 123 87 153 130 120 64 45 31 106 36 23 35
cat_boundaries=0 1
cat_threshold=1
is_linear=0
shrinkage=0.03


Tree=8
num_leaves=15
num_cat=0
split_feature=4 1 1 3 5 4 1 4 4 4 4 1 4 4
split_gain=28.9589 19.5773 10.3776 11.2516 9.99816 9.29283 8.15438 8.57495 7.40632 12.7304 6.60541 6.27064 5.56189 10.7969
threshold=69.500000000000014 13.665684921794645 6.8615189042322591 7.5000000000000009 1.0000000180025095e-35 604.00000000000011 12.328085074052293 7.5000000000000009 179.50000000000003 250.00000000000003 26.500000000000004 9.9192048708695939 1097.0000000000002 730.50000000000011
decision_type=2 2 2 2 2 2 2 2 2 2 2 2 2 2
left_child=6 2 -2 4 8 11 7 -1 -4 -10 -9 -5 13 -11
right_child=1 -3 3 5 -6 -7 -8 10 9 12 -12 -13 -14 -15
leaf_value=0.035835742726922033 -0.031378742747008796 0.023723209239542485 -0.02853409043380192 -9.6163903363048991e-05 0.012250251359689763 -0.01188221463561058 0.043923610322177405 -0.012782307179136709 0.023183764457702639 -0.015612377018357316 0.015482776038672612 0.027604517434772692 -0.033525607936084272 0.0084011838144876731
leaf_weight=11.999999999999998 14.999999999999998 20 21 12.000000000000002 17 14.999999999999998 9.9999999999999982 10.999999999999998 9.9999999999999982 72 23 19 9.9999999999999982 22
leaf_count=12 15 20 21 12 17 15 10 11 10 72 23 19 10 22
internal_value=4.20545e-11 -0.00465564 -0.00732032 -0.00549771 -0.00943188 0.00750214 0.0193708 0.0140332 -0.0121622 -0.00914635 0.00633819 0.0168817 -0.012255 -0.00999218
internal_weight=289 233 213 198 152 46 56 46 135 114 34 31 104 94
internal_count=289 233 213 198 152 46 56 46 135 114 34 31 104 94
is_linear=0
shrinkage=0.03


Tree=9
num_leaves=15
num_cat=1
split_feature=0 4 4 4 4 4 4 4 3 3 4 4 4 3
split_gain=31.0107 28.5538 9.77242 8.52279 8.38299 5.90375 11.1593 9.52989 5.05475 8.24753 4.68844 5.16689 3.84559 2.82927
threshold=0 69.500000000000014 489.50000000000006 373.50000000000006 763.00000000000011 790.50000000000011 730.50000000000011 633.50000000000011 6.5000000000000009 1.5000000000000002 134.00000000000003 339.50000000000006 51.000000000000007 3.5000000000000004
decision_type=1 2 2 2 2 2 2 2 2 2 2 2 2 2
left_child=1 13 8 -3 -4 6 7 -5 9 -2 12 -12 -11 -1
right_child=2 3 4 5 -6 -7 -8 -9 -10 10 11 -13 -14 -15
leaf_value=0.026586614206433289 0.027552883593659653 -0.023525590354301889 -0.017456411384046078 0.0095150166406081267 0.011496983831999994 -0.021768858585702745 0.024409634105183861 -0.023479026809334752 0.025311048339090998 0.0070028007477521866 0.026199465497181957 0.00073684450937435027 -0.01870211281559684 0.007834609550024782
leaf_weight=15.000000000000002 19 61 18 12.999999999999998 18 19 10.999999999999998 20 31 10.000000000000002 13.000000000000002 15.999999999999998 10.999999999999998 13.999999999999998
leaf_count=15 19 61 18 13 18 19 11 20 31 10 13 16 11 14
internal_value=-5.78495e-12 -0.00926513 0.0104233 -0.0155327 -0.00297971 -0.00779345 -0.00175862 -0.0104814 0.0152483 0.0107274 0.00433375 0.0121511 -0.00646168 0.0175339
internal_weight=289 153 136 124 36 63 44 33 100 69 50 29 21 29
internal_count=289 153 136 124 36 63 44 33 100 69 50 29 21 29
cat_boundaries=0 1
cat_threshold=1
is_linear=0
shrinkage=0.03


Tree=10
num_leaves=15
num_cat=0
split_feature=4 1 1 3 5 4 1 4 4 4 4 1 4 4
split_gain=25.9417 17.7789 9.74801 10.2689 9.05286 8.29656 7.60089 8.08011 6.98812 11.6351 6.25157 5.8987 5.1602 9.73385
threshold=69.500000000000014 13.665684921794645 6.8615189042322591 7.5000000000000009 1.0000000180025095e-35 604.00000000000011 12.328085074052293 7.5000000000000009 179.50000000000003 250.00000000000003 26.500000000000004 9.9192048708695939 1097.0000000000002 730.50000000000011
decision_type=2 2 2 2 2 2 2 2 2 2 2 2 2 2
left_child=6 2 -2 4 8 11 7 -1 -4 -10 -9 -5 13 -11
right_child=1 -3 3 5 -6 -7 -8 10 9 12 -12 -13 -14 -15
leaf_value=0.034344788491725918 -0.030262981079518796 0.022637524880468846 -0.027438768073916434 -0.00036424418445676551 0.011693924725713099 -0.011075944371521472 0.042038843214511873 -0.012890318557620049 0.022301632225513457 -0.01473503715513895 0.014607294153260147 0.026502367375712644 -0.032066367991268635 0.008065754928710785
leaf_weight=11.999999999999998 14.999999999999998 20 21 12.000000000000002 17 14.999999999999998 9.9999999999999982 10.999999999999998 9.9999999999999982 72 23 19 9.9999999999999982 22
leaf_count=12 15 20 21 12 17 15 10 11 10 72 23 19 10 22
internal_value=-4.29246e-11 -0.00440644 -0.00694578 -0.00517932 -0.00893777 0.00723989 0.0183339 0.0131807 -0.0115358 -0.00860635 0.00571101 0.0161024 -0.0115783 -0.00939868
internal_weight=289 233 213 198 152 46 56 46 135 114 34 31 104 94
internal_count=289 233 213 198 152 46 56 46 135 114 34 31 104 94
is_linear=0
shrinkage=0.03


Tree=11
num_leaves=15
num_cat=1
split_feature=0 1 3 3 1 1 3 3 3 1 1 1 1 1
split_gain=28.3519 13.4584 5.20154 11.2186 3.90033 3.87443 3.35152 2.98943 4.32872 3.21312 2.44775 2.27653 2.83609 2.23811
threshold=0 7.7315214677380846 1.5000000000000002 4.5000000000000009 9.9192048708695939 11.915442854498913 3.5000000000000004 11.500000000000002 6.5000000000000009 7.5497893265983054 9.122966955842438 9.4173652874823883 10.336712310818674 8.1380650739600515
decision_type=1 2 2 2 2 2 2 2 2 2 2 2 2 2
left_child=7 -2 -3 5 -5 6 -4 8 9 -1 13 -12 -13 -11
right_child=1 2 3 4 -6 -7 -8 -9 -10 10 11 12 -14 -15
leaf_value=0.0048322622186969966 -0.019062387289909215 0.025898358345679613 0.013265640462438265 0.0048051771793801053 0.023609472928302625 -0.014131873739617211 -0.0067244630034726379 -0.018828632216495663 0.011868376046419143 -0.0097988739203322978 0.0039709592610597611 -0.01806240243693957 -0.0056663912372744603 -0.028936176245862786
leaf_weight=13.999999999999998 12.999999999999998 23 18 12.999999999999998 42 13.999999999999998 13.000000000000002 23 9.9999999999999982 11.000000000000002 11.999999999999998 26 46 10.999999999999998
leaf_count=14 13 23 18 13 42 14 13 23 10 11 12 26 46 11
internal_value=1.38417e-10 0.00996642 0.0130345 0.0100758 0.0191648 -0.00103295 0.00488269 -0.00885904 -0.00709519 -0.00867549 -0.0104595 -0.00812649 -0.0101427 -0.0193675
internal_weight=289 136 123 100 55 45 31 153 130 120 106 84 72 22
internal_count=289 136 123 100 55 45 31 153 130 120 106 84 72 22
cat_boundaries=0 1
cat_threshold=1
is_linear=0
shrinkage=0.03


Tree=12
num_leaves=15
num_cat=1
split_feature=0 4 1 4 1 4 4 4 3 3 1 1 4 3
split_gain=26.6763 25.5736 12.663 7.93055 6.00665 5.48069 10.2773 8.60184 4.95098 9.2863 4.02255 6.64496 4.22323 2.55911
threshold=0 69.500000000000014 7.7315214677380846 373.50000000000006 9.3942138106475408 790.50000000000011 730.50000000000011 633.50000000000011 7.5000000000000009 1.5000000000000002 9.1336356857604368 9.6049034461322389 364.50000000000006 4.5000000000000009
decision_type=1 2 2 2 2 2 2 2 2 2 2 2 2 2
left_child=1 4 -2 10 -1 6 7 -5 9 -4 12 -12 -3 -11
right_child=2 3 8 5 -6 -7 -8 -9 -10 13 11 -13 -14 -15
leaf_value=0.00051802036818116882 -0.018490515285386488 -0.023976669440453402 0.025121406737876974 0.0093822121161680951 0.028239817334448587 -0.020524610311871295 0.023868142962455749 -0.021964162501506505 0.022000169681413505 -0.0010019611058135827 -0.049108984574675558 -0.020749333405802987 0.0024209324754774567 0.0121282680489515
leaf_weight=12.000000000000002 12.999999999999998 12 23 12.999999999999998 17 19 10.999999999999998 20 36 45 9.9999999999999982 29 10 19
leaf_count=12 13 12 23 13 17 19 11 20 36 45 10 29 10 19
internal_value=2.82357e-11 -0.00859327 0.00966743 -0.0145247 0.0167687 -0.00705925 -0.00124466 -0.00961559 0.0126435 0.00877174 -0.0222349 -0.028021 -0.0119778 0.00289608
internal_weight=289 153 136 124 29 63 44 33 123 87 61 39 22 64
internal_count=289 153 136 124 29 63 44 33 123 87 61 39 22 64
cat_boundaries=0 1
cat_threshold=1
is_linear=0
shrinkage=0.03


Tree=13
num_leaves=15
num_cat=0
split_feature=4 1 1 3 4 4 4 4 4 4 4 1 3 1
split_gain=23.2535 15.6423 10.8044 9.50867 8.38791 13.2203 7.42733 7.35402 8.38388 7.30454 6.53575 5.38086 4.97504 3.82905
threshold=83.500000000000014 13.665684921794645 6.8615189042322591 7.5000000000000009 179.50000000000003 250.00000000000003 380.00000000000006 6.5000000000000009 20.500000000000004 604.00000000000011 489.50000000000006 9.9192048708695939 3.5000000000000004 9.5219337872594618
decision_type=2 2 2 2 2 2 2 2 2 2 2 2 2 2
left_child=7 2 -2 4 -4 -6 -7 -1 -9 11 -8 -5 -12 -10
right_child=1 -3 3 9 5 6 10 8 13 -11 12 -13 -14 -15
leaf_value=0.037762926891446114 -0.033213891884885161 0.021041382674127817 -0.025735740400850773 -0.00044637491926550853 0.025760863829742776 -0.017715674219653012 0.020060184381902216 -0.012922316484153269 0.0056671382619866298 -0.010220899671316147 0.0030988152471504039 0.025213855799091488 -0.014216935436124912 0.025566530703850412
leaf_weight=11.999999999999998 12.999999999999998 20 22 12.000000000000002 10.999999999999998 48 9.9999999999999982 9.9999999999999982 13.999999999999998 14.999999999999998 28 19 32 23
leaf_count=12 13 20 22 12 11 48 10 10 14 15 28 19 32 23
internal_value=4.26346e-11 -0.00431001 -0.00672443 -0.00497639 -0.00861419 -0.00569423 -0.00862649 0.0168017 0.0114499 0.00696507 -0.0023939 0.0152809 -0.00613625 0.018037
internal_weight=289 230 210 197 151 129 118 59 47 46 70 31 60 37
internal_count=289 230 210 197 151 129 118 59 47 46 70 31 60 37
is_linear=0
shrinkage=0.03


Tree=14
num_leaves=15
num_cat=1
split_feature=0 4 1 4 1 4 4 4 4 1 1 1 4 1
split_gain=24.643 23.1063 11.3438 7.87122 5.9652 5.13585 9.87437 7.6413 4.5364 7.95301 3.88704 6.46885 4.51283 8.29087
threshold=0 83.500000000000014 7.7315214677380846 373.50000000000006 9.3942138106475408 790.50000000000011 730.50000000000011 633.50000000000011 489.50000000000006 10.868178957772248 10.537824887377601 12.253004013770777 306.50000000000006 9.2026939371726098
decision_type=1 2 2 2 2 2 2 2 2 2 2 2 2 2
left_child=1 4 -2 -3 -1 6 7 -5 10 -10 12 -12 13 -4
right_child=2 3 8 5 -6 -7 -8 -9 9 -11 11 -13 -14 -15
leaf_value=0.00036728786836777406 -0.017359178702418619 -0.022010306340160823 0.009923305034637446 0.0085673468388043905 0.026811219379305837 -0.01979672015693627 0.023482428464022549 -0.0209770577698946 -0.019741511562955567 0.012304954039661779 -0.00072878640890121458 0.020449201994472078 0.0093542004270212985 0.045688697717019486
leaf_weight=14.000000000000002 12.999999999999998 59 10.000000000000002 12.999999999999998 17 19 10.999999999999998 20 9.9999999999999982 23 25 27 13.999999999999998 13.999999999999998
leaf_count=14 13 59 10 13 17 19 11 20 10 23 25 27 14 14
internal_value=-3.00787e-11 -0.00825929 0.00929171 -0.0141361 0.0148688 -0.00676185 -0.00113316 -0.00933835 0.0121085 0.0025939 0.0155971 0.0102675 0.0228904 0.0307865
internal_weight=289 153 136 122 31 63 44 33 123 33 90 52 38 24
internal_count=289 153 136 122 31 63 44 33 123 33 90 52 38 24
cat_boundaries=0 1
cat_threshold=1
is_linear=0
shrinkage=0.03


Tree=15
num_leaves=15
num_cat=0
split_feature=4 1 1 3 4 4 1 4 3 4 4 1 1 4
split_gain=20.6653 14.0781 10.009 8.81202 8.04138 12.2918 6.951 7.23093 6.75287 6.60212 5.51736 5.18042 5.11235 5.0426
threshold=83.500000000000014 13.665684921794645 6.8615189042322591 7.5000000000000009 179.50000000000003 250.00000000000003 12.328085074052293 7.5000000000000009 2.5000000000000004 604.00000000000011 26.500000000000004 10.95445712733253 9.4828055343948723 373.50000000000006
decision_type=2 2 2 2 2 2 2 2 2 2 2 2 2 2
left_child=6 2 -2 4 -4 -6 7 -1 11 -5 -9 12 -7 -10
right_child=1 -3 3 9 5 8 -8 10 13 -11 -12 -13 -14 -15
leaf_value=0.031423585116863252 -0.031849419875786857 0.019987411022186281 -0.024937288666313343 0.014730426392728282 0.025016258386048401 0.0050692394818179299 0.038632910728454588 -0.013186321754685856 -0.024763728229701517 -0.0095141995288431629 0.012159404965260854 0.014622715761652215 -0.019754544672157082 -0.0080875757923151593
leaf_weight=11.999999999999998 12.999999999999998 20 22 31 10.999999999999998 16.000000000000004 9.9999999999999982 10.999999999999998 25 14.999999999999998 26 15.999999999999998 13.999999999999998 47
leaf_count=12 13 20 22 31 11 16 10 11 25 15 26 16 14 47
internal_value=-4.19579e-11 -0.00406307 -0.0063536 -0.00467113 -0.00817313 -0.00531413 0.0158391 0.0111873 -0.00814154 0.00682457 0.00462419 0.000837123 -0.00651519 -0.0138779
internal_weight=289 230 210 197 151 129 59 49 118 46 37 46 30 72
internal_count=289 230 210 197 151 129 59 49 118 46 37 46 30 72
is_linear=0
shrinkage=0.03


Tree=16
num_leaves=15
num_cat=1
split_feature=0 1 3 3 1 1 3 3 1 1 1 1 1 1
split_gain=22.5763 10.275 4.41028 8.98369 3.90727 3.32542 2.63762 3.65691 2.93046 2.09024 2.36443 2.37047 2.04505 1.84997
threshold=0 7.7315214677380846 1.5000000000000002 4.5000000000000009 9.9834373927398339 9.9192048708695939 11.500000000000002 6.5000000000000009 7.5497893265983054 9.122966955842438 9.4173652874823883 10.756523426482445 8.1380650739600515 10.537824887377601
decision_type=1 2 2 2 2 2 2 2 2 2 2 2 2 2
left_child=6 -2 -3 4 -4 -5 7 8 -1 12 -11 -12 -10 -7
right_child=1 2 3 5 -6 13 -8 -9 9 10 11 -13 -14 -15
leaf_value=0.0051988874093097234 -0.016470762560000785 0.02341939017176628 0.012063423469662667 0.0037242162987016717 -0.0070315645088351543 0.032350395916029805 -0.017269969271576924 0.011181439697742461 -0.0084899578514424211 0.0050799053069204092 -0.014597926651807249 -0.0037068844851372495 -0.026783264396204189 0.017567720854422077
leaf_weight=13.999999999999998 12.999999999999998 23 13.999999999999998 12.999999999999998 31 9.9999999999999982 23 9.9999999999999982 11.000000000000002 11.999999999999998 37 35 10.999999999999998 32
leaf_count=14 13 23 14 13 31 10 23 10 11 12 37 35 11 32
internal_value=1.07892e-10 0.00889354 0.0115743 0.00884995 -0.0010909 0.0169834 -0.00790537 -0.00624855 -0.00770105 -0.00940482 -0.00724887 -0.00930367 -0.0176366 0.0210874
internal_weight=289 136 123 100 45 55 153 130 120 106 84 72 22 42
internal_count=289 136 123 100 45 55 153 130 120 106 84 72 22 42
cat_boundaries=0 1
cat_threshold=1
is_linear=0
shrinkage=0.03


Tree=17
num_leaves=15
num_cat=1
split_feature=0 1 3 3 1 1 3 3 3 1 1 1 1 1
split_gain=21.242 9.66772 4.14963 8.45275 3.75024 3.12889 2.93683 2.48174 3.44078 2.75727 1.9667 2.22469 2.24639 2.23702
threshold=0 7.7315214677380846 1.5000000000000002 4.5000000000000009 11.915442854498913 9.9192048708695939 3.5000000000000004 11.500000000000002 6.5000000000000009 7.5497893265983054 9.122966955842438 9.4173652874823883 10.336712310818674 9.7445511041868915
decision_type=1 2 2 2 2 2 2 2 2 2 2 2 2 2
left_child=7 -2 -3 4 6 -5 -4 8 9 -1 -11 -12 13 -13
right_child=1 2 3 5 -6 -7 -8 -9 -10 10 11 12 -14 -15
leaf_value=0.0050429208435733529 -0.015976640375760884 0.022716808494018473 0.012609091252088547 0.0036124898837162898 -0.013945454609181198 0.020454782954683261 -0.0061034697172446866 -0.016751870511899417 0.010845996290445328 -0.017107512845911763 0.0049275070428848261 -0.0079259903675743485 -0.0050406850683604081 -0.025577746164053679
leaf_weight=13.999999999999998 12.999999999999998 23 18 12.999999999999998 13.999999999999998 42 13.000000000000002 23 9.9999999999999982 22 11.999999999999998 14.000000000000002 46 11.999999999999998
leaf_count=14 13 23 18 13 14 42 13 23 10 22 12 14 46 12
internal_value=-9.22662e-12 0.00862673 0.0112271 0.00858445 -0.00105817 0.0164739 0.00476189 -0.00766821 -0.0060611 -0.00747002 -0.00912267 -0.00703141 -0.00902456 -0.016073
internal_weight=289 136 123 100 45 55 31 153 130 120 106 84 72 26
internal_count=289 136 123 100 45 55 31 153 130 120 106 84 72 26
cat_boundaries=0 1
cat_threshold=1
is_linear=0
shrinkage=0.03


Tree=18
num_leaves=15
num_cat=0
split_feature=4 1 1 3 5 1 4 4 4 4 4 4 4 1
split_gain=19.2725 12.1929 7.40714 7.98801 6.95312 6.19308 6.6617 6.15649 5.87906 6.51887 5.86185 5.60751 5.24904 4.67976
threshold=69.500000000000014 13.665684921794645 6.8615189042322591 7.5000000000000009 1.0000000180025095e-35 12.328085074052293 7.5000000000000009 134.00000000000003 1097.0000000000002 732.50000000000011 604.00000000000011 250.00000000000003 26.500000000000004 9.9192048708695939
decision_type=2 2 2 2 2 2 2 2 2 2 2 2 2 2
left_child=5 2 -2 4 7 6 -1 -4 9 11 13 -9 -8 -5
right_child=1 -3 3 10 -6 -7 12 8 -10 -11 -12 -13 -14 -15
leaf_value=0.030367806106805798 -0.026226548261940479 0.018598065816331655 -0.027424568150454433 -0.00062511807307600957 0.010405414067208766 0.037199804551899432 -0.012676263729279691 0.0079158114790916449 -0.029618565687909722 0.010911944702578088 -0.0088032110910862688 -0.012155451035543687 0.012520258692396886 0.02330507981811503
leaf_weight=11.999999999999998 14.999999999999998 20 15.999999999999998 12.000000000000002 17 9.9999999999999982 10.999999999999998 14.999999999999998 9.9999999999999982 18 14.999999999999998 76 23 19
leaf_count=12 15 20 16 12 17 10 11 15 10 18 15 76 23 19
internal_value=-5.74745e-11 -0.00379802 -0.00590094 -0.00436112 -0.00767598 0.0158025 0.0111509 -0.0099529 -0.00760376 -0.00558406 0.00659232 -0.008847 0.00436844 0.0140418
internal_weight=289 233 213 198 152 56 46 135 119 109 46 91 34 31
internal_count=289 233 213 198 152 56 46 135 119 109 46 91 34 31
is_linear=0
shrinkage=0.03


Tree=19
num_leaves=15
num_cat=1
split_feature=0 4 1 4 1 4 4 4 3 3 4 4 1 4
split_gain=19.3942 19.8024 8.72747 7.26478 5.3492 4.76795 9.15133 6.68281 3.94206 7.70771 4.49205 4.60639 3.64181 10.0345
threshold=0 83.500000000000014 7.7315214677380846 373.50000000000006 9.3942138106475408 790.50000000000011 730.50000000000011 633.50000000000011 1.5000000000000002 4.5000000000000009 250.00000000000003 149.50000000000003 9.9834373927398339 401.50000000000006
decision_type=1 2 2 2 2 2 2 2 2 2 2 2 2 2
left_child=1 4 -2 -3 -1 6 7 -5 -4 12 11 -11 -10 -14
right_child=2 3 8 5 -6 -7 -8 -9 9 10 -12 -13 13 -15
leaf_value=0.00035138684923627535 -0.015133376488318809 -0.020332352555814687 0.021912322698727896 0.00858626592044647 0.025392764664309866 -0.018242400011881009 0.023437499593604694 -0.019043103843927385 0.011629714870027133 0.014898827010217832 0.0072525892805840285 0.040558970326557753 -0.018583420110600331 0.017929016014561056
leaf_weight=14.000000000000002 12.999999999999998 59 23 12.999999999999998 17 19 10.999999999999998 20 13.999999999999998 17.000000000000004 28 9.9999999999999982 21.000000000000004 9.9999999999999982
leaf_count=14 13 59 23 13 17 19 11 20 14 17 28 10 21 10
internal_value=8.92813e-11 -0.0073271 0.00824299 -0.0127676 0.0140838 -0.00568307 -0.00025973 -0.00815881 0.0107137 0.00813797 0.0156717 0.0244026 -0.0010699 -0.00680521
internal_weight=289 153 136 122 31 63 44 33 123 100 55 27 45 31
internal_count=289 153 136 122 31 63 44 33 123 100 55 27 45 31
cat_boundaries=0 1
cat_threshold=1
is_linear=0
shrinkage=0.03


Tree=20
num_leaves=15
num_cat=1
split_feature=0 4 4 4 4 4 4 4 4 4 4 4 4 3
split_gain=18.248 18.6321 7.65858 6.98677 6.83543 4.48616 8.61048 6.28785 2.79222 2.66302 4.73155 4.7026 9.12554 2.97959
threshold=0 83.500000000000014 489.50000000000006 763.00000000000011 373.50000000000006 790.50000000000011 730.50000000000011 633.50000000000011 179.50000000000003 365.50000000000006 334.50000000000006 134.00000000000003 90.500000000000014 1.5000000000000002
decision_type=1 2 2 2 2 2 2 2 2 2 2 2 2 2
left_child=1 -1 9 -4 8 6 7 -6 -3 10 11 12 13 -2
right_child=2 4 3 -5 5 -7 -8 -9 -10 -11 -12 -13 -14 -15
leaf_value=0.013661242421836622 0.030103567628697911 -0.031998950105447038 -0.017085740230977534 0.0093467617857580371 0.00832867824114286 -0.017695128171655691 0.022734374918720938 -0.018471810981631278 -0.016252916919361069 0.024931907616555688 -0.0028607854825493536 0.025480731373906811 -0.011584484923098768 0.010829710561249936
leaf_weight=31 10.999999999999998 12.999999999999998 18 18 12.999999999999998 19 10.999999999999998 20 46 12.999999999999998 19 22 13.999999999999998 21
leaf_count=31 11 13 18 18 13 19 11 20 46 13 19 22 14 21
internal_value=5.53476e-12 -0.00710729 0.0079957 -0.00386949 -0.0123845 -0.00551258 -0.000251938 -0.00791404 -0.0197224 0.0122672 0.0103747 0.0140729 0.00861696 0.0174551
internal_weight=289 153 136 36 122 63 44 33 59 100 87 68 46 32
internal_count=289 153 136 36 122 63 44 33 59 100 87 68 46 32
cat_boundaries=0 1
cat_threshold=1
is_linear=0
shrinkage=0.03


Tree=21
num_leaves=15
num_cat=1
split_feature=0 4 1 4 1 4 4 4 1 1 4 1 1 3
split_gain=17.1695 17.5559 8.18299 5.94062 4.65813 4.22103 8.1016 5.91624 3.90195 6.29697 3.66517 7.07088 3.61971 5.66484
threshold=0 69.500000000000014 7.7315214677380846 373.50000000000006 9.3942138106475408 790.50000000000011 730.50000000000011 633.50000000000011 9.2290131440358625 10.484713625941804 489.50000000000006 10.868178957772248 10.537824887377601 4.5000000000000009
decision_type=1 2 2 2 2 2 2 2 2 2 2 2 2 2
left_child=1 4 -2 8 -1 6 7 -5 -3 -10 12 -12 -4 -14
right_child=2 3 10 5 -6 -7 -8 -9 9 -11 11 -13 13 -15
leaf_value=-0.0001912861876189708 -0.014879603890272286 -0.0090607787133194489 0.020321971548623158 0.0080788178512683287 0.024221144579350949 -0.01716427430706589 0.022052343460646544 -0.017917656222358344 -0.038016367989647033 -0.013182270364835857 -0.019464379215147345 0.010752609547065651 0.0009362757392227649 0.021749589759856462
leaf_weight=12.000000000000002 12.999999999999998 24 38 12.999999999999998 17 19 10.999999999999998 20 17 20 9.9999999999999982 23 34 18
leaf_count=12 13 24 38 13 17 19 11 20 17 20 10 23 34 18
internal_value=1.09777e-10 -0.00689407 0.00775583 -0.0118085 0.0141194 -0.00534721 -0.00024438 -0.00767662 -0.0184817 -0.0245925 0.0101482 0.00159595 0.013284 0.00814088
internal_weight=289 153 136 124 29 63 44 33 61 37 123 33 90 52
internal_count=289 153 136 124 29 63 44 33 61 37 123 33 90 52
cat_boundaries=0 1
cat_threshold=1
is_linear=0
shrinkage=0.03


Tree=22
num_leaves=15
num_cat=1
split_feature=0 4 4 4 4 4 4 4 4 4 4 4 4 3
split_gain=16.1548 16.5267 6.92575 6.39819 6.06032 3.97157 7.6228 5.56659 2.63831 2.50539 4.37577 4.37907 8.67125 2.79556
threshold=0 83.500000000000014 489.50000000000006 763.00000000000011 373.50000000000006 790.50000000000011 730.50000000000011 633.50000000000011 179.50000000000003 365.50000000000006 334.50000000000006 134.00000000000003 90.500000000000014 1.5000000000000002
decision_type=1 2 2 2 2 2 2 2 2 2 2 2 2 2
left_child=1 -1 9 -4 8 6 7 -6 -3 10 11 12 13 -2
right_child=2 4 3 -5 5 -7 -8 -9 -10 -11 -12 -13 -14 -15
leaf_value=0.012872686634523673 0.028908022479577494 -0.030500119603597196 -0.01640741200186312 0.0088872242253273722 0.0078364527397430869 -0.016649345914392096 0.021390773518518969 -0.017380126968026158 -0.015194185742217561 0.023869323203196891 -0.0029786412613956549 0.024314388177272949 -0.011651142151760203 0.010238862319716385
leaf_weight=31 10.999999999999998 12.999999999999998 18 18 12.999999999999998 19 10.999999999999998 20 46 12.999999999999998 19 22 13.999999999999998 21
leaf_count=31 11 13 18 18 13 19 11 20 46 13 19 22 14 21
internal_value=4.40485e-11 -0.00668725 0.00752315 -0.00376009 -0.0116574 -0.00518679 -0.000237049 -0.00744632 -0.0185667 0.0115851 0.00974955 0.013306 0.00804105 0.0166564
internal_weight=289 153 136 36 122 63 44 33 59 100 87 68 46 32
internal_count=289 153 136 36 122 63 44 33 59 100 87 68 46 32
cat_boundaries=0 1
cat_threshold=1
is_linear=0
shrinkage=0.03


Tree=23
num_leaves=15
num_cat=0
split_feature=4 1 1 3 4 4 3 1 4 4 4 1 1 1
split_gain=14.7228 9.9415 6.99259 7.20126 6.09731 10.1991 6.15862 5.68464 6.22353 5.01648 4.75083 4.34531 3.93896 4.36513
threshold=69.500000000000014 13.665684921794645 6.8615189042322591 7.5000000000000009 179.50000000000003 250.00000000000003 2.5000000000000004 12.328085074052293 7.5000000000000009 26.500000000000004 604.00000000000011 9.9192048708695939 10.95445712733253 9.2026939371726098
decision_type=2 2 2 2 2 2 2 2 2 2 2 2 2 2
left_child=7 2 -2 4 -4 -6 12 8 -1 -10 11 -5 13 -7
right_child=1 -3 3 10 5 6 -8 -9 9 -11 -12 -13 -14 -15
leaf_value=0.027929479666054247 -0.024967102511320262 0.016903337323106823 -0.02109954981295311 -0.00074894426390528649 0.02329548125917261 0.01143885254859924 -0.01238629129443628 0.034312044122256337 -0.013863127324730157 0.010768881697693597 -0.0071822579652070992 0.022310309231673413 0.013687186678871512 -0.012836507141590117
leaf_weight=11.999999999999998 14.999999999999998 20 23 12.000000000000002 10.999999999999998 10.000000000000002 72 9.9999999999999982 10.999999999999998 23 14.999999999999998 19 15.999999999999998 20
leaf_count=12 15 20 23 12 11 10 72 10 11 23 15 19 16 20
internal_value=1.28339e-11 -0.00331959 -0.00521845 -0.00372234 -0.00686973 -0.00433263 -0.00690813 0.0138119 0.0093553 0.0027997 0.00667771 0.0133841 0.00166638 -0.00474472
internal_weight=289 233 213 198 152 129 118 56 46 34 46 31 46 30
internal_count=289 233 213 198 152 129 118 56 46 34 46 31 46 30
is_linear=0
shrinkage=0.03


Tree=24
num_leaves=15
num_cat=1
split_feature=0 1 3 3 1 1 3 3 1 1 1 1 1 1
split_gain=14.8041 7.42307 3.41143 6.65088 3.55223 2.5899 2.0228 2.82515 2.30427 1.77821 2.40195 1.9288 1.72281 1.67561
threshold=0 7.7315214677380846 1.5000000000000002 4.5000000000000009 9.9834373927398339 9.9192048708695939 11.500000000000002 6.5000000000000009 7.5497893265983054 9.122966955842438 9.4173652874823883 10.756523426482445 8.1380650739600515 10.537824887377601
decision_type=1 2 2 2 2 2 2 2 2 2 2 2 2 2
left_child=6 -2 -3 4 -4 -5 7 8 -1 12 -11 -12 -10 -7
right_child=1 2 3 5 -6 13 -8 -9 9 10 11 -13 -14 -15
leaf_value=0.0052116168130721362 -0.014357005999638482 0.019898088674830356 0.011073379250509397 0.0023811616662603157 -0.0071333908157483221 0.028423394133802501 -0.014602458990462447 0.010369400024414062 -0.0069355450435118213 0.0066766003763768815 -0.012596291887599068 -0.0027721170649996824 -0.023725848157297478 0.014354585118417161
leaf_weight=13.999999999999998 12.999999999999998 23 13.999999999999998 12.999999999999998 31 9.9999999999999982 23 9.9999999999999982 11.000000000000002 11.999999999999998 37 35 10.999999999999998 32
leaf_count=14 13 23 14 13 31 10 23 10 11 12 37 35 11 32
internal_value=-5.68461e-11 0.00720179 0.00948036 0.00708428 -0.00146906 0.0140825 -0.00640159 -0.00495066 -0.00622734 -0.00773814 -0.00574962 -0.00782065 -0.0153307 0.0177043
internal_weight=289 136 123 100 45 55 153 130 120 106 84 72 22 42
internal_count=289 136 123 100 45 55 153 130 120 106 84 72 22 42
cat_boundaries=0 1
cat_threshold=1
is_linear=0
shrinkage=0.03


Tree=25
num_leaves=15
num_cat=0
split_feature=4 1 3 4 4 3 3 1 4 1 4 1 4 1
split_gain=13.8587 9.23876 9.53361 7.50407 9.62233 6.80974 5.77653 5.44946 5.85238 4.97591 4.64173 4.06943 4.03967 5.6319
threshold=83.500000000000014 6.8615189042322591 7.5000000000000009 179.50000000000003 250.00000000000003 2.5000000000000004 11.500000000000002 12.328085074052293 7.5000000000000009 10.95445712733253 26.500000000000004 9.2026939371726098 730.50000000000011 10.209747860766049
decision_type=2 2 2 2 2 2 2 2 2 2 2 2 2 2
left_child=7 -2 3 -3 -5 9 -4 8 -1 11 -10 -6 -7 -14
right_child=1 2 6 4 5 12 -8 -9 10 -11 -12 -13 13 -15
leaf_value=0.027057497184723615 -0.02789265134013616 -0.021465291322573372 0.023967470526695251 0.022713715955615044 0.011064147993922229 -0.016349305603944233 0.0027134882035401149 0.033153232969343659 -0.013388505009087649 0.014756560072302818 0.0098591360664711542 -0.012374551802873611 -0.019708677738904945 0.0086643853586386224
leaf_weight=11.999999999999998 12.999999999999998 23 15.999999999999998 11.999999999999998 10.000000000000002 48 41 9.9999999999999982 10.999999999999998 20 26 20 10.000000000000002 17
leaf_count=12 13 23 16 12 10 48 41 10 11 20 26 20 10 17
internal_value=-1.04381e-11 -0.00332733 -0.00185568 -0.00560884 -0.00294681 -0.00541022 0.00867952 0.012971 0.00885212 0.00316563 0.00294768 -0.00456165 -0.0111275 -0.00184416
internal_weight=289 230 217 160 137 125 57 59 49 50 37 30 75 27
internal_count=289 230 217 160 137 125 57 59 49 50 37 30 75 27
is_linear=0
shrinkage=0.03


Tree=26
num_leaves=15
num_cat=1
split_feature=0 4 1 4 1 1 1 4 4 4 4 4 1 4
split_gain=13.5919 14.2975 6.7171 5.26726 4.23363 3.63708 5.57951 3.62454 7.23912 5.02503 2.98598 5.45525 2.94878 7.37851
threshold=0 69.500000000000014 7.7315214677380846 373.50000000000006 9.3942138106475408 9.2290131440358625 10.484713625941804 790.50000000000011 730.50000000000011 633.50000000000011 561.50000000000011 763.00000000000011 10.537824887377601 365.50000000000006
decision_type=1 2 2 2 2 2 2 2 2 2 2 2 2 2
left_child=1 4 -2 5 -1 -3 -7 8 9 -5 12 -12 -4 -14
right_child=2 3 10 7 -6 6 -8 -9 -10 -11 11 -13 13 -15
leaf_value=-0.00081355258822441074 -0.013607395600814086 -0.0077569404989480976 0.018008811834913034 0.0077386355686646247 0.022459951585281968 -0.035388268100864748 -0.012011697135865687 -0.015435094311833382 0.021320273767818105 -0.01621994438767433 -0.013790934592342144 0.012025309259838917 0.001896462741106833 0.030444494895637036
leaf_weight=12.000000000000002 12.999999999999998 24 39 12.999999999999998 17 17 20 19 10.999999999999998 20 13.000000000000002 17 44 9.9999999999999982
leaf_count=12 13 24 39 13 17 17 20 19 11 20 13 17 44 10
internal_value=1.27251e-11 -0.00613389 0.00690062 -0.0105689 0.0128295 -0.0168525 -0.0227523 -0.00448477 0.000243782 -0.00678172 0.00906814 0.00083827 0.0117229 0.00718314
internal_weight=289 153 136 124 29 61 37 63 44 33 123 30 93 54
internal_count=289 153 136 124 29 61 37 63 44 33 123 30 93 54
cat_boundaries=0 1
cat_threshold=1
is_linear=0
shrinkage=0.03


Tree=27
num_leaves=15
num_cat=1
split_feature=0 4 1 4 1 4 4 4 3 3 4 4 1 4
split_gain=12.7886 13.474 6.32012 5.36369 4.24527 3.41033 6.81129 4.72806 3.09062 6.05511 3.50864 3.90085 3.37914 9.30435
threshold=0 83.500000000000014 7.7315214677380846 373.50000000000006 9.3942138106475408 790.50000000000011 730.50000000000011 633.50000000000011 1.5000000000000002 4.5000000000000009 250.00000000000003 149.50000000000003 9.9834373927398339 401.50000000000006
decision_type=1 2 2 2 2 2 2 2 2 2 2 2 2 2
left_child=1 4 -2 -3 -1 6 7 -5 -4 12 11 -11 -10 -14
right_child=2 3 8 5 -6 -7 -8 -9 9 10 -12 -13 13 -15
leaf_value=-0.00052212353263582487 -0.013199174186358084 -0.016937645184097148 0.018711897573717263 0.0075064766922822365 0.021786153099554426 -0.014972041664939177 0.020680665590546349 -0.015733345985412598 0.010587260095136506 0.012163398234338003 0.0057521875714883208 0.035776800893247127 -0.018511991075107023 0.01664691571332514
leaf_weight=14.000000000000002 12.999999999999998 59 23 12.999999999999998 17 19 10.999999999999998 20 13.999999999999998 17.000000000000004 28 9.9999999999999982 21.000000000000004 9.9999999999999982
leaf_count=14 13 59 23 13 17 19 11 20 14 17 28 10 21 10
internal_value=3.84291e-11 -0.00594987 0.00669361 -0.0104376 0.0117114 -0.00435023 0.000236468 -0.00657826 0.00879609 0.00651546 0.0131929 0.0209091 -0.0016458 -0.00717041
internal_weight=289 153 136 122 31 63 44 33 123 100 55 27 45 31
internal_count=289 153 136 122 31 63 44 33 123 100 55 27 45 31
cat_boundaries=0 1
cat_threshold=1
is_linear=0
shrinkage=0.03


Tree=28
num_leaves=15
num_cat=1
split_feature=4 1 4 4 4 4 4 1 3 1 0 1 4 4
split_gain=12.0772 12.9769 7.2191 12.9843 7.08071 5.50853 15.7955 6.495 5.87991 4.30962 3.33099 4.47089 2.97903 7.293
threshold=339.50000000000006 6.8615189042322591 365.50000000000006 413.00000000000006 6.5000000000000009 126.50000000000001 106.50000000000001 12.253004013770777 4.5000000000000009 9.1336356857604368 0 10.484713625941804 730.50000000000011 790.50000000000011
decision_type=2 2 2 2 2 2 2 2 2 2 1 2 2 2
left_child=4 -2 9 -4 -1 6 7 -6 -7 -3 11 -11 -5 -14
right_child=1 2 3 12 5 8 -8 -9 -10 10 -12 -13 13 -15
leaf_value=0.029098368473351 -0.035267016626894472 0.00056002261445802805 0.031069226954132317 -0.0076187501241608219 0.0013592160791158676 0.0025859253108501431 -0.033105772936886005 0.02682133214040236 0.026513262732575336 -0.034179268077015872 -0.0040102424574169244 -0.0082826793864369391 0.023344715731218456 -0.0038586761769564713
leaf_weight=11.999999999999998 11.999999999999998 17 11.999999999999998 45 50 19 10.999999999999998 10.999999999999998 18 15.000000000000002 10.999999999999998 9.9999999999999982 11.999999999999998 34
leaf_count=12 12 17 12 45 50 19 11 11 18 15 11 10 12 34
internal_value=-1.50659e-10 -0.00520467 -0.00289218 0.00173717 0.00722631 0.00481838 -1.62228e-05 0.00595075 0.0142263 -0.0118888 -0.0177675 -0.0238206 -0.00213079 0.00323786
internal_weight=289 168 156 103 121 109 72 61 37 53 36 25 91 46
internal_count=289 168 156 103 121 109 72 61 37 53 36 25 91 46
cat_boundaries=0 1
cat_threshold=1
is_linear=0
shrinkage=0.03


Tree=29
num_leaves=15
num_cat=1
split_feature=0 4 4 1 4 1 4 3 1 1 4 4 4 1
split_gain=11.5702 12.1102 5.67906 12.8885 4.78256 3.91659 3.17041 6.26471 2.82263 4.97912 3.30294 2.72064 2.09914 4.67203
threshold=0 83.500000000000014 489.50000000000006 10.868178957772248 373.50000000000006 9.3942138106475408 790.50000000000011 2.5000000000000004 9.2290131440358625 10.484713625941804 364.50000000000006 633.50000000000011 365.50000000000006 10.537824887377601
decision_type=1 2 2 2 2 2 2 2 2 2 2 2 2 2
left_child=1 5 12 -4 8 -1 7 -6 10 -10 -3 -9 13 -2
right_child=2 4 3 -5 6 -7 -8 11 9 -11 -12 -13 -14 -15
leaf_value=-0.0006661181551005157 0.015397279749185842 -0.01916620351374149 -0.027726669827691064 0.0096445582742276399 0.021129676088690756 0.020761186473948114 -0.01440712026075313 0.0072644481360912318 -0.033048302382230756 -0.010965255673974753 0.004082055647264827 -0.011360311880707741 0.021289245555034048 0.0014922159825536338
leaf_weight=14.000000000000002 43 11 12.999999999999998 23 9.9999999999999982 17 19 9.9999999999999982 17 20 11 24 12.999999999999998 44
leaf_count=14 43 11 13 23 10 17 19 10 17 20 11 24 13 44
internal_value=-1.21994e-10 -0.00565934 0.00636676 -0.00385061 -0.00991388 0.0110843 -0.00416574 0.000256676 -0.0160517 -0.0211115 -0.00754207 -0.00588244 0.010045 0.00836483
internal_weight=289 153 136 36 122 31 63 44 59 37 22 34 100 87
internal_count=289 153 136 36 122 31 63 44 59 37 22 34 100 87
cat_boundaries=0 1
cat_threshold=1
is_linear=0
shrinkage=0.03


Tree=30
num_leaves=15
num_cat=2
split_feature=4 1 4 4 4 4 4 1 0 1 4 4 1 0
split_gain=10.9584 12.0622 6.56584 11.7621 6.491 5.27862 14.5259 6.11255 3.94991 3.85382 2.85164 6.8029 5.37306 2.82401
threshold=339.50000000000006 6.8615189042322591 365.50000000000006 413.00000000000006 6.5000000000000009 126.50000000000001 106.50000000000001 12.253004013770777 0 9.1336356857604368 730.50000000000011 790.50000000000011 11.293776790736532 1
decision_type=2 2 2 2 2 2 2 2 1 2 2 2 2 1
left_child=4 -2 9 -4 -1 6 7 -6 -7 -3 -5 -12 -13 -11
right_child=1 2 3 10 5 8 -8 -9 -10 13 11 12 -14 -15
leaf_value=0.027824939808342605 -0.03394134517759085 0.0004639679631766151 0.029604057890246623 -0.0073640548040469489 0.0011131944151595236 0.02332799851110107 -0.031886417554183442 0.025814270878379994 0.0037168607115745543 -0.022440775913000106 0.02267739989707479 -0.014839941337704658 0.0090533094853162757 -0.0042001611028205264
leaf_weight=11.999999999999998 11.999999999999998 17 11.999999999999998 45 50 19 10.999999999999998 10.999999999999998 18 25 11.999999999999998 18 15.999999999999998 10.999999999999998
leaf_count=12 12 17 12 45 50 19 11 11 18 25 12 18 16 11
internal_value=9.61333e-11 -0.00495774 -0.00272824 0.00168669 0.00688348 0.004578 -0.000154637 0.00556749 0.0137874 -0.0113082 -0.00199472 0.00325789 -0.00359606 -0.0168673
internal_weight=289 168 156 103 121 109 72 61 37 53 91 46 34 36
internal_count=289 168 156 103 121 109 72 61 37 53 91 46 34 36
cat_boundaries=0 1 2
cat_threshold=2 1
is_linear=0
shrinkage=0.03


Tree=31
num_leaves=15
num_cat=1
split_feature=0 1 3 3 1 1 3 1 1 1 1 1 1 1
split_gain=10.3165 5.37186 2.82322 5.32274 3.25329 2.45819 1.62839 2.39055 1.44956 2.03645 1.28529 4.32074 4.29698 4.80055
threshold=0 7.7315214677380846 1.5000000000000002 4.5000000000000009 9.9834373927398339 9.9192048708695939 11.500000000000002 7.5497893265983054 10.537824887377601 13.114996146972578 11.915442854498913 12.842306387474991 10.95445712733253 10.581129572319751
decision_type=1 2 2 2 2 2 2 2 2 2 2 2 2 2
left_child=6 -2 -3 4 -4 -5 7 -1 -7 -10 12 -12 13 -9
right_child=1 2 3 5 -6 8 -8 10 9 -11 11 -13 -14 -15
leaf_value=0.0072220971435308454 -0.012327869557417355 0.017427442341071107 0.01012185548033033 0.00063124775599974852 -0.0073019972521691555 0.02552953693270683 -0.01270200044888517 -0.0076415290910435817 0.005769704524427652 0.021025429298835139 0.015470756828784937 -0.011775932928377931 -0.024629470760172061 0.012874145284295082
leaf_weight=14.999999999999998 12.999999999999998 23 13.999999999999998 12.999999999999998 31 9.9999999999999982 23 71 18 13.999999999999998 10.000000000000002 10.999999999999998 10.999999999999998 11.999999999999998
leaf_count=15 13 23 14 13 31 10 23 71 18 14 10 11 11 12
internal_value=-1.18429e-10 0.00601195 0.00795031 0.00577056 -0.00188124 0.0120311 -0.00534396 -0.00404215 0.0155597 0.0124441 -0.0055114 0.00119868 -0.00701046 -0.00467541
internal_weight=289 136 123 100 45 55 153 130 42 32 115 21 94 83
internal_count=289 136 123 100 45 55 153 130 42 32 115 21 94 83
cat_boundaries=0 1
cat_threshold=1
is_linear=0
shrinkage=0.03


Tree=32
num_leaves=15
num_cat=1
split_feature=4 0 4 1 4 4 3 4 3 3 3 1 3 1
split_gain=10.2213 8.59083 6.86955 5.2479 9.41856 4.4785 3.89153 5.39287 4.42988 3.48622 2.95142 3.58667 3.02798 2.98015
threshold=7.5000000000000009 0 83.500000000000014 9.0414609864117157 364.50000000000006 179.50000000000003 7.5000000000000009 134.00000000000003 2.5000000000000004 3.5000000000000004 2.5000000000000004 9.4828055343948723 7.5000000000000009 10.756523426482445
decision_type=2 1 2 2 2 2 2 2 2 2 2 2 2 2
left_child=-1 2 9 4 -3 -4 7 -5 -9 -2 11 -7 -12 -13
right_child=1 3 5 6 -6 10 -8 8 -10 -11 12 13 -14 -15
leaf_value=0.024113213360309603 0.018041274489701851 0.0083454630710184559 -0.025823846229065493 -0.0093267341783004141 -0.028750193701549007 0.012520862645827807 0.016031847288832068 0.020695548908164104 0.0020922018992132509 -0.0051508468911051746 -0.014654031808022409 -0.019382601801306 -0.0017318000923842191 0.0032457849586551841
leaf_weight=14.999999999999998 14.000000000000002 14.000000000000002 12.999999999999998 21 10.999999999999998 12.999999999999998 32 18 32 9.9999999999999982 51 10.000000000000002 24 10.999999999999998
leaf_count=15 14 14 13 21 11 13 32 18 32 10 51 10 24 11
internal_value=-1.08061e-10 -0.00132007 -0.00629391 0.00435322 -0.00797663 -0.00918016 0.0073459 0.00343111 0.00878941 0.00837789 -0.00719514 0.00013673 -0.0105189 -0.00752964
internal_weight=289 274 146 128 25 122 103 71 50 24 109 34 75 21
internal_count=289 274 146 128 25 122 103 71 50 24 109 34 75 21
cat_boundaries=0 1
cat_threshold=1
is_linear=0
shrinkage=0.03


Tree=33
num_leaves=15
num_cat=2
split_feature=4 1 4 4 4 4 4 1 1 0 0 1 4 4
split_gain=9.7689 12.901 6.21254 10.7305 5.79877 4.45066 13.1295 5.6131 4.06767 3.8271 2.81796 4.07744 2.65045 6.57568
threshold=355.00000000000006 6.8615189042322591 365.50000000000006 413.00000000000006 6.5000000000000009 126.50000000000001 106.50000000000001 12.253004013770777 9.2290131440358625 0 1 10.336712310818674 730.50000000000011 790.50000000000011
decision_type=2 2 2 2 2 2 2 2 2 1 1 2 2 2
left_child=4 -2 8 -4 -1 6 7 -6 -3 -7 11 -10 -5 -14
right_child=1 2 3 12 5 9 -8 -9 10 -11 -12 -13 13 -15
leaf_value=0.026182159706950189 -0.036168926547874104 -0.00055447838455438612 0.028365538511425255 -0.0069923234041780235 0.00095317066898569468 0.021541920701041817 -0.030386560979214577 0.024623602615161375 -0.036753491081974711 0.0029828472957015039 -0.0048004013299941996 -0.010285056799650192 0.022340518687851727 -0.0034904298347914046
leaf_weight=11.999999999999998 10.999999999999998 20 11.999999999999998 45 50 20 10.999999999999998 10.999999999999998 11.000000000000002 20 10.000000000000002 9.9999999999999982 11.999999999999998 34
leaf_count=12 11 20 12 45 50 20 11 11 11 20 10 10 12 34
internal_value=1.51445e-10 -0.0047815 -0.00253954 0.00170042 0.00636248 0.00423894 -0.000218528 0.00522161 -0.0111026 0.0122624 -0.0179078 -0.0241495 -0.00181586 0.00324808
internal_weight=289 165 154 103 124 112 72 61 51 40 31 21 91 46
internal_count=289 165 154 103 124 112 72 61 51 40 31 21 91 46
cat_boundaries=0 1 2
cat_threshold=2 1
is_linear=0
shrinkage=0.03


Tree=34
num_leaves=15
num_cat=1
split_feature=4 0 4 3 4 4 4 3 3 4 4 4 4 4
split_gain=9.21546 10.367 4.11398 4.00768 3.65985 4.69292 3.72728 2.79513 2.87888 2.60742 3.64448 2.49844 1.97142 1.42766
threshold=83.500000000000014 0 179.50000000000003 3.5000000000000004 489.50000000000006 763.00000000000011 126.50000000000001 2.5000000000000004 7.5000000000000009 250.00000000000003 365.50000000000006 715.50000000000011 715.50000000000011 715.50000000000011
decision_type=2 1 2 2 2 2 2 2 2 2 2 2 2 2
left_child=3 2 -2 -1 6 -6 -3 13 12 -8 -11 -10 -9 -4
right_child=1 4 7 -5 5 -7 9 8 11 10 -12 -13 -14 -15
leaf_value=0.017517345675521274 -0.024657842383648342 -0.0053446389287710189 -0.003919595560949782 0.0017684411852119061 -0.014585510777930417 0.0070776441258688762 0.019863752126693727 -0.019207286716535172 0.0099829709976911492 -0.00061405531090238821 0.019258547224677524 -0.0096504938708884373 -0.0072980127906934781 0.009220917048779401
leaf_weight=33 12.999999999999998 14.999999999999998 23 26 18 18 21 29 10.000000000000002 23 12.999999999999998 13.999999999999998 22 10.999999999999998
leaf_count=33 13 15 23 26 18 18 21 29 10 23 13 14 22 11
internal_value=-1.06828e-10 -0.00271327 -0.00870588 0.0105772 0.00405616 -0.00375393 0.00796121 -0.00680335 -0.0100379 0.0114627 0.00656216 -0.00146988 -0.01407 0.000331747
internal_weight=289 230 122 59 108 36 72 109 75 57 36 24 51 34
internal_count=289 230 122 59 108 36 72 109 75 57 36 24 51 34
cat_boundaries=0 1
cat_threshold=1
is_linear=0
shrinkage=0.03


Tree=35
num_leaves=15
num_cat=1
split_feature=0 1 3 3 1 1 1 1 1 1 1 3 1 1
split_gain=8.25146 4.57671 2.53768 4.77801 3.10765 2.26513 1.60265 4.61744 2.115 1.44753 4.1114 1.89358 2.03067 2.88846
threshold=0 7.7315214677380846 1.5000000000000002 4.5000000000000009 9.9834373927398339 9.9192048708695939 11.022174988429493 10.756523426482445 11.915442854498913 6.4899144289936013 7.6821933570529319 7.5000000000000009 9.7445511041868915 9.122966955842438
decision_type=1 2 2 2 2 2 2 2 2 2 2 2 2 2
left_child=6 -2 -3 4 -4 -5 7 9 -8 -1 -11 12 13 -12
right_child=1 2 3 5 -6 -7 8 -9 -10 10 11 -13 -14 -15
leaf_value=-0.015765568060800435 -0.011551458766827217 0.0161509444548384 0.0095809100248983921 8.7746628201924843e-05 -0.007448474883792861 0.014417972551392657 -0.020597995407879353 0.016418770283460615 -0.0051727574225515121 0.014439821898937225 -0.012933326918631791 0.0031093793055590462 -0.015126805012114344 0.0022313066400014439
leaf_weight=9.9999999999999982 12.999999999999998 23 13.999999999999998 12.999999999999998 31 42 11.999999999999998 9.9999999999999982 24 9.9999999999999982 20 17 24 26
leaf_count=10 13 23 14 13 31 42 12 10 24 10 20 17 24 26
internal_value=3.84775e-11 0.00537668 0.00716583 0.00509926 -0.00215044 0.0110308 -0.00477927 -0.00307612 -0.0103145 -0.00489807 -0.00377771 -0.00587168 -0.0080528 -0.00436201
internal_weight=289 136 123 100 45 55 153 117 36 107 97 87 70 46
internal_count=289 136 123 100 45 55 153 117 36 107 97 87 70 46
cat_boundaries=0 1
cat_threshold=1
is_linear=0
shrinkage=0.03


Tree=36
num_leaves=15
num_cat=1
split_feature=4 1 0 4 4 1 4 4 4 4 1 1 4 1
split_gain=8.90631 7.34799 5.51166 4.81354 4.14067 8.9814 3.75948 4.00826 5.6097 3.78904 3.23226 4.54675 4.20307 9.38421
threshold=7.5000000000000009 13.665684921794645 0 83.500000000000014 489.50000000000006 10.484713625941804 373.50000000000006 790.50000000000011 730.50000000000011 633.50000000000011 10.537824887377601 11.739315122261234 339.50000000000006 9.2026939371726098
decision_type=2 2 1 2 2 2 2 2 2 2 2 2 2 2
left_child=-1 2 3 -2 10 -6 -5 8 9 -8 12 -12 13 -4
right_child=1 -3 4 6 5 -7 7 -9 -10 -11 11 -13 -14 -15
leaf_value=0.022508720070123674 0.0059494720528955039 0.014997201357846674 0.0040994802596313598 -0.014510991886129665 -0.030289253510534766 0.0039999125364490531 0.008106530485674739 -0.015728969943399229 0.019613853286613119 -0.01321682008355856 -0.012392048787733074 0.0093134093049325444 0.00077661780019601184 0.042150097757577894
leaf_weight=14.999999999999998 23 23 14.000000000000002 58 9.9999999999999982 22 11.999999999999998 18 10.999999999999998 20 15.999999999999998 19 18 9.9999999999999982
leaf_count=15 23 23 14 58 10 22 12 18 11 20 16 19 18 10
internal_value=3.43687e-11 -0.00123223 -0.00271939 -0.00661427 0.00235468 -0.00671545 -0.00904256 -0.00384307 0.00113243 -0.00522056 0.00612409 -0.000609086 0.0117351 0.0199539
internal_weight=289 274 251 142 109 32 119 61 43 32 77 35 42 24
internal_count=289 274 251 142 109 32 119 61 43 32 77 35 42 24
cat_boundaries=0 1
cat_threshold=1
is_linear=0
shrinkage=0.03


Tree=37
num_leaves=15
num_cat=0
split_feature=4 1 1 5 4 4 4 4 3 1 4 4 4 1
split_gain=8.37994 6.91373 4.72842 4.26552 5.62487 6.83239 5.52604 4.89759 4.70449 3.93065 2.91586 5.89461 5.35214 3.6858
threshold=7.5000000000000009 13.665684921794645 6.3065585334332077 1.0000000180025095e-35 1097.0000000000002 730.50000000000011 790.50000000000011 604.00000000000011 7.5000000000000009 9.9192048708695939 83.500000000000014 179.50000000000003 250.00000000000003 11.022174988429493
decision_type=2 2 2 2 2 2 2 2 2 2 2 2 2 2
left_child=-1 2 -2 4 5 7 -7 8 10 -10 -4 -12 -13 -14
right_child=1 -3 3 -5 -6 6 -8 -9 9 -11 11 12 13 -15
leaf_value=0.021833458185195925 -0.020255911260699994 0.014547284653653268 0.0037386008103688553 0.0087027513180228475 -0.025179232165217398 0.027077526263892641 -0.00023574416339397432 -0.016060617976925439 -0.0054693569175221684 0.017293124447266259 -0.021839377613738178 0.016963160455226899 -0.010771233730639021 0.0079410767182707797
leaf_weight=14.999999999999998 12.999999999999998 23 27 31 9.9999999999999982 12.000000000000002 14.999999999999998 27 11.000000000000002 18 20 9.9999999999999982 45 11.999999999999998
leaf_count=15 13 23 27 31 10 12 15 27 11 18 20 10 45 12
internal_value=2.85197e-12 -0.00119526 -0.00263781 -0.00167547 -0.0032297 -0.00211551 0.0119035 -0.00434206 -0.00212946 0.00865908 -0.00487392 -0.00754676 -0.00328031 -0.0068318
internal_weight=289 274 251 238 207 197 27 170 143 29 114 87 67 57
internal_count=289 274 251 238 207 197 27 170 143 29 114 87 67 57
is_linear=0
shrinkage=0.03


Tree=38
num_leaves=15
num_cat=1
split_feature=4 0 4 4 4 4 3 4 3 4 4 5 3 3
split_gain=7.88571 6.57978 5.05508 3.68536 3.16426 4.1998 2.75428 2.57735 5.19883 2.41444 5.80289 7.29541 2.59127 3.05526
threshold=6.5000000000000009 0 83.500000000000014 373.50000000000006 489.50000000000006 763.00000000000011 3.5000000000000004 790.50000000000011 2.5000000000000004 126.50000000000001 90.500000000000014 1.0000000180025095e-35 2.5000000000000004 4.5000000000000009
decision_type=2 1 2 2 2 2 2 2 2 2 2 2 2 2
left_child=-1 2 6 -4 9 -6 -2 8 -5 10 11 -3 -11 -14
right_child=1 4 3 7 5 -7 -8 -9 -10 12 -12 -13 13 -15
leaf_value=0.023809051141142845 0.015040380005724725 -0.0040213226526975634 -0.013285872297266781 0.020149967885110528 -0.013924513378491004 0.0065688989808162053 -0.0052855268195271489 -0.012085948743318257 -0.0044571623425273326 0.020467224734670976 -0.01745142947543751 0.028642931891139586 -0.0069767683202570131 0.011591880253419794
leaf_weight=11.999999999999998 15.000000000000002 15.999999999999998 59 9.9999999999999982 18 18 9.9999999999999982 19 34 17 10.999999999999998 10.000000000000002 10.999999999999998 29
leaf_count=12 15 16 59 10 18 18 10 19 34 17 11 10 11 29
internal_value=-6.04715e-11 -0.00103144 -0.00537954 -0.0078979 0.00388526 -0.00367781 0.00691002 -0.00285201 0.00113537 0.00678176 0.00081412 0.00854185 0.0106555 0.0064855
internal_weight=289 277 147 122 130 36 25 63 44 94 37 26 57 40
internal_count=289 277 147 122 130 36 25 63 44 94 37 26 57 40
cat_boundaries=0 1
cat_threshold=1
is_linear=0
shrinkage=0.03


Tree=39
num_leaves=15
num_cat=2
split_feature=4 4 4 4 4 4 4 0 4 4 3 3 0 4
split_gain=7.50251 4.85526 10.8405 4.53065 4.46684 3.60077 5.03986 3.42766 6.99509 6.75314 3.34293 3.22565 2.51893 2.25696
threshold=355.00000000000006 365.50000000000006 413.00000000000006 6.5000000000000009 20.500000000000004 730.50000000000011 790.50000000000011 0 69.500000000000014 179.50000000000003 2.5000000000000004 3.5000000000000004 1 126.50000000000001
decision_type=2 2 2 2 2 2 2 1 2 2 2 2 1 2
left_child=3 -2 -3 -1 -5 10 -7 13 -9 11 -4 -10 -8 -6
right_child=1 2 5 4 7 6 12 8 9 -11 -12 -13 -14 -15
leaf_value=0.02309478010982275 -0.011671243076616863 0.025106094697347054 0.0041076484788209197 -0.015435540821403266 0.0051599672123005518 0.016959695335743683 -0.011723370546180951 0.013990803975611924 -0.02548803757410496 0.010087813442306859 -0.014055350674806457 -0.0037790599058974868 0.0044323708908632397 0.019598536949604749
leaf_weight=11.999999999999998 53 12.999999999999998 11.999999999999998 9.9999999999999982 19 13.999999999999998 19 24 14 13.999999999999998 38 11 15.999999999999998 20
leaf_count=12 53 13 12 10 19 14 19 24 14 14 38 11 16 20
internal_value=1.45016e-12 -0.00419029 -0.000650203 0.00557579 0.00369876 -0.00403234 0.00174714 0.00557467 0.00124772 -0.00659417 -0.00969623 -0.0159361 -0.00433789 0.0125644
internal_weight=289 165 112 124 112 99 49 102 63 39 50 25 35 39
internal_count=289 165 112 124 112 99 49 102 63 39 50 25 35 39
cat_boundaries=0 1 2
cat_threshold=2 1
is_linear=0
shrinkage=0.03


Tree=40
num_leaves=15
num_cat=0
split_feature=4 1 1 1 3 5 3 1 3 4 4 1 1 1
split_gain=7.07815 6.18323 4.53826 3.67183 3.95324 5.07734 3.95208 5.2729 3.87071 5.68162 6.12084 4.29257 3.71732 2.95173
threshold=7.5000000000000009 13.665684921794645 6.3065585334332077 7.5497893265983054 7.5000000000000009 1.0000000180025095e-35 11.500000000000002 11.022174988429493 3.5000000000000004 83.500000000000014 134.00000000000003 9.122966955842438 9.4828055343948723 10.868178957772248
decision_type=2 2 2 2 2 2 2 2 2 2 2 2 2 2
left_child=-1 2 -2 -4 5 8 -6 -8 9 -5 -11 -12 -13 -14
right_child=1 -3 3 4 6 -7 7 -9 -10 10 11 12 13 -15
leaf_value=0.020066051810979844 -0.0197229272313416 0.013789163387340047 0.013385138703244074 0.011992864485241865 0.020813880224119532 0.0095996168106794351 0.0067979823797941199 -0.01835649946331978 -0.012414252001792192 -0.028225517615675925 -0.021042208928614855 0.015918220728635787 -0.010618821999523789 0.0052086480589289413
leaf_weight=14.999999999999998 12.999999999999998 23 13.999999999999998 19 10.999999999999998 20 30 9.9999999999999982 60 9.9999999999999982 9.9999999999999982 10.999999999999998 24 19
leaf_count=15 13 23 14 19 11 20 30 10 60 10 10 11 24 19
internal_value=-9.97708e-11 -0.00109851 -0.00246272 -0.00151993 -0.0024515 -0.00461539 0.00488877 0.000509362 -0.00647356 -0.00264086 -0.00639817 -0.00298764 0.000355797 -0.00362529
internal_weight=289 274 251 238 224 173 51 40 153 93 74 64 54 43
internal_count=289 274 251 238 224 173 51 40 153 93 74 64 54 43
is_linear=0
shrinkage=0.03


Tree=41
num_leaves=15
num_cat=0
split_feature=4 1 4 4 1 1 4 1 1 1 1 1 3 3
split_gain=6.86966 11.1718 4.80815 8.34113 4.14341 16.6478 5.89812 5.55392 4.10385 3.90249 5.57234 3.50823 2.33343 2.33198
threshold=355.00000000000006 6.8615189042322591 365.50000000000006 413.00000000000006 11.075219845898893 12.253004013770777 93.500000000000014 9.122966955842438 9.2290131440358625 10.209747860766049 10.617213310524951 8.0344139676396598 2.5000000000000004 3.5000000000000004
decision_type=2 2 2 2 2 2 2 2 2 2 2 2 2 2
left_child=4 -2 8 -4 7 -6 -7 11 -3 -9 -11 -1 -10 -5
right_child=1 2 3 13 5 6 -8 9 12 10 -12 -13 -14 -15
leaf_value=0.0094430157185221714 -0.033217890127138654 0.0011382855651900171 0.025316291502676901 0.0049246735662660177 -0.02523155953077709 0.028414625003933897 -0.00075198088700954727 0.026970174312591549 -0.0066070135281636145 -0.0044248843326100268 0.021891697939485311 -0.009560695430811712 -0.023286836644013723 -0.0050025439281996932
leaf_weight=18 10.999999999999998 20 11.999999999999998 34 17 12.000000000000002 12.999999999999998 18 13.000000000000002 14.000000000000002 14.999999999999998 17 18 57
leaf_count=18 11 20 12 34 17 12 13 18 13 14 15 17 18 57
internal_value=1.03444e-11 -0.00400967 -0.00192337 0.00180669 0.00533545 -0.00232707 0.013248 0.00926015 -0.00945664 0.0159977 0.00918714 0.000212642 -0.0162921 -0.00129347
internal_weight=289 165 154 103 124 42 25 82 51 47 29 35 31 91
internal_count=289 165 154 103 124 42 25 82 51 47 29 35 31 91
is_linear=0
shrinkage=0.03


Tree=42
num_leaves=15
num_cat=2
split_feature=4 4 4 4 4 4 4 0 4 4 3 3 0 4
split_gain=6.46366 4.27825 9.52313 3.94554 4.35178 3.37237 4.75584 3.2189 6.08844 6.28586 3.00845 2.92964 2.40162 2.1661
threshold=355.00000000000006 365.50000000000006 413.00000000000006 6.5000000000000009 20.500000000000004 730.50000000000011 790.50000000000011 0 69.500000000000014 179.50000000000003 2.5000000000000004 3.5000000000000004 1 126.50000000000001
decision_type=2 2 2 2 2 2 2 1 2 2 2 2 1 2
left_child=3 -2 -3 -1 -5 10 -7 13 -9 11 -4 -10 -8 -6
right_child=1 2 5 4 7 6 12 8 9 -11 -12 -13 -14 -15
leaf_value=0.021524050459265708 -0.010911750695053136 0.023574295608470072 0.0038775095902383325 -0.015462499860674141 0.0047950222303992816 0.016634597836860589 -0.011265626396787794 0.012970820637419819 -0.02434988897559898 0.0098606574482151439 -0.013352876289894707 -0.0036609566143967882 0.0045094132306985552 0.018939953707158563
leaf_weight=11.999999999999998 53 12.999999999999998 11.999999999999998 9.9999999999999982 19 13.999999999999998 19 24 14 13.999999999999998 38 11 15.999999999999998 20
leaf_count=12 53 13 12 10 19 14 19 24 14 14 38 11 16 20
internal_value=-4.6405e-11 -0.00388938 -0.000566297 0.00517539 0.00342374 -0.00373627 0.0018569 0.00527534 0.00108222 -0.00623384 -0.00921758 -0.0152468 -0.00405418 0.0120488
internal_weight=289 165 112 124 112 99 49 102 63 39 50 25 35 39
internal_count=289 165 112 124 112 99 49 102 63 39 50 25 35 39
cat_boundaries=0 1 2
cat_threshold=2 1
is_linear=0
shrinkage=0.03


Tree=43
num_leaves=15
num_cat=0
split_feature=4 1 1 1 3 5 3 1 4 4 4 4 4 1
split_gain=6.14726 5.63562 4.05428 3.47399 3.68556 4.63571 3.62004 4.74284 3.58449 4.1495 3.43192 3.11069 5.20592 2.63639
threshold=7.5000000000000009 13.665684921794645 6.3065585334332077 7.5497893265983054 7.5000000000000009 1.0000000180025095e-35 11.500000000000002 11.022174988429493 1097.0000000000002 732.50000000000011 83.500000000000014 179.50000000000003 306.50000000000006 9.4828055343948723
decision_type=2 2 2 2 2 2 2 2 2 2 2 2 2 2
left_child=-1 2 -2 -4 5 8 -6 13 9 10 -5 -12 -13 -8
right_child=1 -3 3 4 6 -7 7 -9 -10 -11 11 12 -14 -15
leaf_value=0.018700045228004458 -0.018640042471771055 0.013189401670318582 0.0130629299474614 0.0030828086217865348 0.019987701407887717 0.0091522275265306235 -0.0043730726465582839 -0.017337650321424005 -0.023570328544825315 0.0089209910920437629 -0.019927495289593936 0.012469831556081772 -0.009730898758662598 0.013780422260363896
leaf_weight=14.999999999999998 12.999999999999998 23 13.999999999999998 25 10.999999999999998 20 12.000000000000002 9.9999999999999982 9.9999999999999982 17 20 10.999999999999998 70 18
leaf_count=15 13 23 14 25 11 20 12 10 10 17 20 11 70 18
internal_value=-6.02782e-11 -0.00102373 -0.00232612 -0.00143503 -0.00234115 -0.0044305 0.00474625 0.000554856 -0.00620602 -0.00499173 -0.00686884 -0.00933213 -0.00671598 0.00651902
internal_weight=289 274 251 238 224 173 51 40 153 143 126 101 81 30
internal_count=289 274 251 238 224 173 51 40 153 143 126 101 81 30
is_linear=0
shrinkage=0.03


Tree=44
num_leaves=15
num_cat=2
split_feature=4 4 4 4 4 4 4 0 4 4 3 3 0 3
split_gain=5.86667 3.9408 8.8082 3.4949 4.20356 3.11563 4.41207 3.0661 5.60384 5.66701 2.84076 2.6469 2.22078 2.14246
threshold=355.00000000000006 365.50000000000006 413.00000000000006 6.5000000000000009 20.500000000000004 730.50000000000011 790.50000000000011 0 69.500000000000014 179.50000000000003 2.5000000000000004 3.5000000000000004 1 4.5000000000000009
decision_type=2 2 2 2 2 2 2 1 2 2 2 2 1 2
left_child=3 -2 -3 -1 -5 10 -7 -6 -9 11 -4 -10 -8 -12
right_child=1 2 5 4 7 6 12 8 9 -11 13 -13 -14 -15
leaf_value=0.020317326784133911 -0.010445143397862337 0.022700685139458911 0.0038916183635592455 -0.015279812056571244 0.01171257210465578 0.016044902865375792 -0.01081675685942173 0.012415081365033984 -0.023219917544296805 0.0092722622943775986 -0.024011869904669848 -0.0035546589236367825 0.0043527458561584348 -0.0083049258879489361
leaf_weight=11.999999999999998 53 12.999999999999998 11.999999999999998 9.9999999999999982 39 13.999999999999998 19 24 14 13.999999999999998 10.999999999999998 11 15.999999999999998 27
leaf_count=12 53 13 12 10 39 14 19 24 14 14 11 11 16 27
internal_value=-1.15046e-11 -0.00370542 -0.000516081 0.00493059 0.00328202 -0.00356475 0.00181131 0.0051018 0.00100942 -0.00600945 -0.00883328 -0.0145672 -0.00388213 -0.0128517
internal_weight=289 165 112 124 112 99 49 102 63 39 50 25 35 38
internal_count=289 165 112 124 112 99 49 102 63 39 50 25 35 38
cat_boundaries=0 1 2
cat_threshold=2 1
is_linear=0
shrinkage=0.03


Tree=45
num_leaves=15
num_cat=1
split_feature=4 0 4 4 3 3 3 4 5 4 3 3 3 4
split_gain=5.53421 4.4821 3.91556 2.96819 2.85093 2.7184 4.01698 3.50551 3.00887 4.56246 2.64407 2.20785 2.49252 2.01754
threshold=7.5000000000000009 0 83.500000000000014 179.50000000000003 3.5000000000000004 7.5000000000000009 2.5000000000000004 134.00000000000003 1.0000000180025095e-35 250.00000000000003 4.5000000000000009 2.5000000000000004 7.5000000000000009 715.50000000000011
decision_type=2 1 2 2 2 2 2 2 2 2 2 2 2 2
left_child=-1 2 4 -4 -2 6 7 -3 9 -7 -8 -5 -13 -14
right_child=1 5 3 11 -6 8 10 -9 -10 -11 -12 12 13 -15
leaf_value=0.017743107080459591 0.015251506300909172 -0.0026165736714998879 -0.020292717717014824 0.0012143552922369801 -0.0057212713966146109 0.032012772426009167 -0.011239469578040057 0.015059616135676268 -0.00037778817117214205 0.0045754504948854443 0.002738170081283897 -0.011753502010422594 0.010262403979897495 -0.0073806624540260863
leaf_weight=14.999999999999998 14.000000000000002 18 12.999999999999998 34 9.9999999999999982 10.000000000000002 29 23 14.999999999999998 11.999999999999998 21 51 10.000000000000002 13.999999999999998
leaf_count=15 14 18 13 34 10 10 29 23 15 12 21 51 10 14
internal_value=-1.42599e-12 -0.000971338 -0.00456399 -0.00674304 0.00651285 0.00312653 0.000338789 0.00729934 0.00998287 0.017047 -0.00536886 -0.00512703 -0.00800178 -2.93848e-05
internal_weight=289 274 146 122 24 128 91 41 37 22 50 109 75 24
internal_count=289 274 146 122 24 128 91 41 37 22 50 109 75 24
cat_boundaries=0 1
cat_threshold=1
is_linear=0
shrinkage=0.03


Tree=46
num_leaves=15
num_cat=1
split_feature=4 4 4 4 4 4 4 0 4 4 3 3 3 4
split_gain=5.28249 3.72356 8.1696 3.10234 3.99919 2.99131 4.21035 2.74089 5.11964 5.68901 2.54534 2.54244 2.1313 2.00086
threshold=355.00000000000006 365.50000000000006 413.00000000000006 6.5000000000000009 20.500000000000004 730.50000000000011 790.50000000000011 0 83.500000000000014 179.50000000000003 2.5000000000000004 3.5000000000000004 4.5000000000000009 126.50000000000001
decision_type=2 2 2 2 2 2 2 1 2 2 2 2 2 2
left_child=3 -2 -3 -1 -5 10 -7 13 -9 11 -4 -10 -8 -6
right_child=1 2 5 4 7 6 12 8 9 -11 -12 -13 -14 -15
leaf_value=0.019175513908267019 -0.010067429256939575 0.021943412761275583 0.0035307605285197496 -0.014979555806145071 0.0041791564069296183 0.015820120418710368 -0.0096905803467546188 0.011233160223525303 -0.02406363645425209 0.0089400300596441523 -0.012318053003400563 -0.0039431450888514508 0.0054207797188843996 0.017773870758712292
leaf_weight=11.999999999999998 53 12.999999999999998 11.999999999999998 9.9999999999999982 19 13.999999999999998 21 26 13 13.999999999999998 38 10 13.999999999999998 20
leaf_count=12 53 13 12 10 19 14 21 26 13 14 38 10 14 20
internal_value=-9.24475e-13 -0.0035161 -0.000415912 0.00467868 0.00312544 -0.00335198 0.00191572 0.00490044 0.00103117 -0.00613779 -0.00851434 -0.0153156 -0.00364604 0.0111508
internal_weight=289 165 112 124 112 99 49 102 63 37 50 23 35 39
internal_count=289 165 112 124 112 99 49 102 63 37 50 23 35 39
cat_boundaries=0 1
cat_threshold=2
is_linear=0
shrinkage=0.03


Tree=47
num_leaves=15
num_cat=2
split_feature=1 4 1 1 1 1 1 4 1 0 1 0 1 4
split_gain=5.31654 4.91857 9.38042 7.45424 10.0313 5.18955 3.56144 5.47379 3.50559 4.32967 3.2461 2.68257 2.48924 2.95135
threshold=13.665684921794645 355.00000000000006 6.8615189042322591 11.075219845898893 12.253004013770777 9.122966955842438 9.7445511041868915 38.500000000000007 7.8124791694194018 0 8.0344139676396598 1 11.963899012821242 373.50000000000006
decision_type=2 2 2 2 2 2 2 2 2 1 2 1 2 2
left_child=1 3 -3 5 -5 10 -7 -8 -4 12 -1 -2 13 -10
right_child=11 2 8 4 -6 6 7 -9 9 -11 -12 -13 -14 -15
leaf_value=0.0083864495872209479 0.0042948075032864614 -0.031430854228409855 0.014454026699066161 -0.024502706019317397 0.0097893119816269188 0.028121322210018448 -0.0077461604244837695 0.017984125740502191 -0.013845665353749479 0.0031979895988479257 -0.0098935156008776483 0.024424376338720317 -0.022158543705940247 -0.0014403541274368762
leaf_weight=18 13 10.999999999999998 9.9999999999999982 17.000000000000004 13.999999999999998 12.999999999999998 10.999999999999998 23 28 48 17 11 9.9999999999999982 45
leaf_count=18 13 11 10 17 14 13 11 23 28 48 17 11 10 45
internal_value=5.07071e-11 -0.00122453 -0.00474852 0.00351571 -0.00901599 0.0082533 0.014766 0.00965962 -0.00266692 -0.00397387 -0.000492391 0.0135209 -0.00812145 -0.00619856
internal_weight=289 265 152 113 31 82 47 34 141 131 35 24 83 73
internal_count=289 265 152 113 31 82 47 34 141 131 35 24 83 73
cat_boundaries=0 1 2
cat_threshold=1 4
is_linear=0
shrinkage=0.03


Tree=48
num_leaves=15
num_cat=0
split_feature=1 4 1 1 1 1 1 1 1 1 4 4 1 4
split_gain=5.00234 4.62788 8.82603 7.0137 9.43849 4.88285 3.36981 5.59144 3.29841 3.05425 2.13709 6.95 4.89686 3.05314
threshold=13.665684921794645 355.00000000000006 6.8615189042322591 11.075219845898893 12.253004013770777 9.122966955842438 10.209747860766049 10.617213310524951 7.8124791694194018 8.0344139676396598 365.50000000000006 489.50000000000006 9.1336356857604368 730.50000000000011
decision_type=2 2 2 2 2 2 2 2 2 2 2 2 2 2
left_child=1 3 -3 5 -5 9 -7 -8 -4 -1 12 -12 -10 -13
right_child=-2 2 8 4 -6 6 7 -9 10 -11 11 13 -14 -15
leaf_value=0.0081348557583987707 0.013115234172873897 -0.030487928038293664 0.014020405232906341 -0.023767625062781218 0.0094956334041697635 0.024519259432951607 -0.0056409291923046091 0.020720700628706255 0.0087227093875408175 -0.009596709871993344 0.016660260114585979 -0.011937136981974949 -0.015420276746454256 0.00032203993237600093
leaf_weight=18 24 10.999999999999998 9.9999999999999982 17.000000000000004 13.999999999999998 18 14.000000000000002 14.999999999999998 9.9999999999999982 17 15.999999999999998 33 31 41
leaf_count=18 24 11 10 17 14 18 14 15 10 17 16 33 31 41
internal_value=1.86768e-11 -0.00118779 -0.00460607 0.00341024 -0.00874551 0.0080057 0.0143231 0.0079944 -0.00258692 -0.000477619 -0.00385465 -0.00126842 -0.00953174 -0.00514489
internal_weight=289 265 152 113 31 82 47 29 141 35 131 90 41 74
internal_count=289 265 152 113 31 82 47 29 141 35 131 90 41 74
is_linear=0
shrinkage=0.03


Tree=49
num_leaves=15
num_cat=2
split_feature=4 1 1 1 0 4 3 4 3 0 1 1 4 4
split_gain=4.76588 4.39429 3.4879 3.1395 4.33379 3.6927 3.37215 3.05352 3.14141 2.06117 1.9758 2.5932 5.24915 4.68236
threshold=7.5000000000000009 13.665684921794645 6.3065585334332077 7.5497893265983054 0 83.500000000000014 7.5000000000000009 179.50000000000003 4.5000000000000009 1 9.0414609864117157 10.484713625941804 355.00000000000006 365.50000000000006
decision_type=2 2 2 2 1 2 2 2 2 1 2 2 2 2
left_child=-1 2 -2 -4 5 -5 7 -7 -9 -3 -6 12 -12 -13
right_child=1 9 3 4 10 6 -8 8 -10 -11 11 13 -14 -15
leaf_value=0.016465439975261689 -0.017182980729983404 0.0037725063019360479 0.012557406798005103 0.0071965584547861528 -0.0074267212301492684 -0.02623876151663717 0.0020717197470366956 -0.0059937298510755813 -0.023369050838730553 0.021888838961720461 0.026841187849640836 -0.0071088011409606655 0.00022097215428948402 0.010154487765752352
leaf_weight=14.999999999999998 12.999999999999998 13 13.999999999999998 17 14.999999999999998 9.9999999999999982 24 63 10.999999999999998 10 12.000000000000002 31 14.999999999999998 26
leaf_count=15 13 13 14 17 15 10 24 63 11 10 12 31 15 26
internal_value=-2.04109e-11 -0.000901393 -0.00205144 -0.00122493 -0.00208633 -0.00579992 -0.00784566 -0.0106792 -0.00857655 0.0116492 0.00260254 0.00439348 0.0120522 0.000765682
internal_weight=289 274 251 238 224 125 108 84 74 23 99 84 27 57
internal_count=289 274 251 238 224 125 108 84 74 23 99 84 27 57
cat_boundaries=0 1 2
cat_threshold=1 4
is_linear=0
shrinkage=0.03


Tree=50
num_leaves=15
num_cat=2
split_feature=4 1 1 1 0 4 4 1 4 0 1 4 4 1
split_gain=4.48421 4.13459 3.28176 2.95395 4.07766 3.47446 2.51351 2.74117 2.70877 1.93935 1.85903 2.50362 3.71062 1.68221
threshold=7.5000000000000009 13.665684921794645 6.3065585334332077 7.5497893265983054 0 83.500000000000014 373.50000000000006 10.537824887377601 763.00000000000011 1 9.0414609864117157 126.50000000000001 306.50000000000006 9.2290131440358625
decision_type=2 2 2 2 1 2 2 2 2 1 2 2 2 2
left_child=-1 2 -2 -4 5 -5 13 8 -8 -3 -6 -12 -13 -7
right_child=1 9 3 4 10 6 7 -9 -10 -11 11 12 -14 -15
leaf_value=0.015971476674079894 -0.016667490590077178 0.0036593308837081368 0.012180684826203754 0.006980661735048189 -0.0072039199024438857 -0.0046987132976452507 0.010894995003062133 -0.010590577861294149 -0.0072966537911158336 0.021232174113392826 -0.003263582850082053 0.023478981791148809 0.0040832399645739275 -0.015931073636747894
leaf_weight=14.999999999999998 12.999999999999998 13 13.999999999999998 17 14.999999999999998 18 17.000000000000004 24 12.999999999999998 10 27 10.999999999999998 46 36
leaf_count=15 13 13 14 17 15 18 17 24 13 10 27 11 46 36
internal_value=3.98793e-11 -0.000874351 -0.0019899 -0.00118818 -0.00202374 -0.00562592 -0.00761029 -0.00303362 0.00301195 0.0112997 0.00252447 0.00426168 0.00782628 -0.012187
internal_weight=289 274 251 238 224 125 108 54 30 23 99 84 57 54
internal_count=289 274 251 238 224 125 108 54 30 23 99 84 57 54
cat_boundaries=0 1 2
cat_threshold=1 4
is_linear=0
shrinkage=0.03


Tree=51
num_leaves=15
num_cat=1
split_feature=4 2 4 4 1 1 1 3 1 1 1 1 3 4
split_gain=4.2192 3.9492 5.03326 7.19787 5.14822 6.63311 6.38796 4.80823 3.52373 2.84383 3.30579 4.11972 2.67636 1.77724
threshold=7.5000000000000009 0 732.50000000000011 364.50000000000006 10.793452247274908 9.122966955842438 12.328085074052293 7.5000000000000009 7.5497893265983054 10.815681464423035 12.328085074052293 11.507504940887815 11.500000000000002 134.00000000000003
decision_type=2 9 2 2 2 2 2 2 2 2 2 2 2 2
left_child=-1 7 3 4 5 -3 -6 8 -2 -10 11 -11 -9 -7
right_child=1 2 -4 -5 6 13 -8 12 9 10 -12 -13 -14 -15
leaf_value=0.015492332160472869 0.014077887472051839 -0.0053558269036667683 0.011706413164734839 -0.014967859393020845 -0.024294652413310743 0.0098417982654646005 0.0062553951144218439 0.025344100847840306 -0.008083644562840081 -0.00083949268928595921 -0.0061903596882309231 0.023694301234050228 0.007175886664125654 0.027727651745080947
leaf_weight=14.999999999999998 12.999999999999998 21 14.999999999999998 53 14.000000000000002 10.000000000000002 10.999999999999998 9.9999999999999982 44 14.000000000000002 21 10.999999999999998 27 9.9999999999999982
leaf_count=15 13 21 15 53 14 10 11 10 44 14 21 11 27 10
internal_value=-1.14526e-10 -0.00084812 -0.00434579 -0.00673437 -0.000122631 0.00642005 -0.0108526 0.00262273 -0.000522145 -0.00263104 0.0025845 0.00995538 0.0120862 0.0187847
internal_weight=289 274 134 119 66 41 25 140 103 90 46 25 37 20
internal_count=289 274 134 119 66 41 25 140 103 90 46 25 37 20
cat_boundaries=0 1
cat_threshold=68159504
is_linear=0
shrinkage=0.03


Tree=52
num_leaves=15
num_cat=1
split_feature=4 4 4 0 4 4 4 4 3 3 3 4 3 3
split_gain=4.03785 2.99188 7.0229 2.5088 3.35647 5.23737 2.49429 4.12051 2.31205 2.28345 1.97923 1.83785 2.81472 1.75853
threshold=355.00000000000006 365.50000000000006 413.00000000000006 0 83.500000000000014 179.50000000000003 730.50000000000011 790.50000000000011 3.5000000000000004 2.5000000000000004 4.5000000000000009 126.50000000000001 3.5000000000000004 1.5000000000000002
decision_type=2 2 2 1 2 2 2 2 2 2 2 2 2 2
left_child=3 13 -3 11 -5 8 9 -8 -6 -4 -11 12 -1 -2
right_child=1 2 6 4 5 -7 7 -9 -10 10 -12 -13 -14 -15
leaf_value=0.013993118611665868 0.0023850571811199184 0.020435680953355937 0.0036772454599849876 0.0066738980885462035 -0.022866599720257976 0.0087485769816807342 0.015548095314630441 -0.0037092536560126713 -0.003679394854232668 -0.022060735422101886 -0.006963988931642638 0.016522828862071036 -0.0061555520817637441 -0.011581850244208823
leaf_weight=13.000000000000002 9.9999999999999982 12.999999999999998 11.999999999999998 42 13 13.999999999999998 13.999999999999998 35 10 10.999999999999998 27 20 11.999999999999998 43
leaf_count=13 10 13 12 42 13 14 14 35 10 11 27 20 12 43
internal_value=7.48764e-11 -0.00307409 -0.000295139 0.00409052 0.000869925 -0.00571837 -0.00301737 0.00179285 -0.0145243 -0.00773138 -0.0113341 0.00974446 0.00432176 -0.00894658
internal_weight=289 165 112 124 79 37 99 49 23 50 38 45 25 53
internal_count=289 165 112 124 79 37 99 49 23 50 38 45 25 53
cat_boundaries=0 1
cat_threshold=2
is_linear=0
shrinkage=0.03


Tree=53
num_leaves=15
num_cat=0
split_feature=1 4 1 1 1 1 1 4 4 1 4 3 1 3
split_gain=4.09554 3.70431 8.11268 6.18024 8.51166 4.35751 3.16745 4.54702 4.24589 3.02059 5.27892 3.14012 2.71461 2.32698
threshold=13.665684921794645 355.00000000000006 6.8615189042322591 11.075219845898893 12.253004013770777 9.122966955842438 9.2026939371726098 365.50000000000006 489.50000000000006 9.7445511041868915 38.500000000000007 4.5000000000000009 8.0344139676396598 3.5000000000000004
decision_type=2 2 2 2 2 2 2 2 2 2 2 2 2 2
left_child=1 3 -3 5 -5 12 -4 -8 -9 -7 -11 -12 -1 -10
right_child=-2 2 6 4 -6 9 7 8 13 10 11 -13 -14 -15
leaf_value=0.0074582658369035919 0.011867115381173788 -0.028946870050647042 0.0053413060554177369 -0.022637201883583598 0.0089506970133100237 0.025620061239370932 -0.015213755278715066 0.014538203626871108 0.0033108255915019818 -0.0084752567603506822 0.0041541651785373685 0.02651493483437941 -0.0092583561206565183 -0.0086646715365350235
leaf_weight=18 24 10.999999999999998 37 17.000000000000004 13.999999999999998 12.999999999999998 28 12.999999999999998 23 10.999999999999998 10 13 17 40
leaf_count=18 24 11 37 17 14 13 28 13 23 11 10 13 17 40
internal_value=-5.99005e-11 -0.00107476 -0.00413298 0.00303896 -0.0083717 0.00735275 -0.00219715 -0.0048791 -0.0010716 0.0133206 0.00861788 0.0167929 -0.000661236 -0.00429266
internal_weight=289 265 152 113 31 82 141 104 76 47 34 23 35 63
internal_count=289 265 152 113 31 82 141 104 76 47 34 23 35 63
is_linear=0
shrinkage=0.03


Tree=54
num_leaves=15
num_cat=2
split_feature=1 0 1 1 4 1 4 4 1 4 4 0 4 4
split_gain=3.85349 3.68978 3.71343 4.2404 3.33671 7.13223 2.60887 3.20384 2.57009 2.78453 2.55529 2.24636 1.76436 2.88099
threshold=13.665684921794645 0 11.022174988429493 10.756523426482445 489.50000000000006 10.484713625941804 38.500000000000007 373.50000000000006 9.2290131440358625 364.50000000000006 763.00000000000011 1 339.50000000000006 633.50000000000011
decision_type=2 1 2 2 2 2 2 2 2 2 2 1 2 2
left_child=1 2 3 6 -3 -6 -1 8 9 -8 -9 -2 -4 -14
right_child=11 4 12 -5 5 -7 7 10 -10 -11 -12 -13 13 -15
leaf_value=0.0085835970712027383 0.0030684275509646297 0.0060474082783741109 -0.023793413311243048 0.016938085466623305 -0.026325411172583697 0.00423067239113152 -0.011866859589867731 0.0069304243057966234 -0.017791109674650689 0.0075043019787831722 -0.008145063773674124 0.021488808176734226 0.0031710713803768148 -0.019077665257182987
leaf_weight=13.999999999999998 13 85 10.000000000000002 9.9999999999999982 9.9999999999999982 22 17 25 23 11.000000000000002 17 11 10.000000000000002 10.999999999999998
leaf_count=14 13 85 10 10 10 22 17 25 23 11 17 11 10 11
internal_value=6.53537e-11 -0.00104251 -0.00418998 -0.00174392 0.00293889 -0.0053181 -0.00348991 -0.00530742 -0.0103605 -0.00425676 0.000828441 0.0115111 -0.0134219 -0.00848303
internal_weight=289 265 148 117 117 32 107 93 51 28 42 24 31 21
internal_count=289 265 148 117 117 32 107 93 51 28 42 24 31 21
cat_boundaries=0 1 2
cat_threshold=1 4
is_linear=0
shrinkage=0.03


Tree=55
num_leaves=15
num_cat=2
split_feature=1 4 1 1 0 4 4 4 1 0 1 4 4 1
split_gain=3.75486 3.35316 2.9105 2.6204 3.33159 3.06073 2.1547 2.59303 1.97723 1.705 1.6145 2.48472 3.12866 1.44303
threshold=6.3065585334332077 7.5000000000000009 13.665684921794645 7.5497893265983054 0 83.500000000000014 373.50000000000006 790.50000000000011 11.022174988429493 1 9.0414609864117157 126.50000000000001 306.50000000000006 9.2290131440358625
decision_type=2 2 2 2 1 2 2 2 2 1 2 2 2 2
left_child=-1 -2 3 -3 5 -5 13 8 -8 -4 -6 -12 -13 -7
right_child=1 2 9 4 10 6 7 -9 -10 -11 11 12 -14 -15
leaf_value=-0.015756218691284841 0.01453545844554901 0.011556063549859183 0.0029763748382146539 0.0067538461549317133 -0.0067772698095068338 -0.0042428032929698626 0.0082335187587887042 -0.012000442966818809 -0.0059154861455317587 0.019453267827630041 -0.0035891186942656832 0.021831737420606342 0.0040217915934551013 -0.014646035898476838
leaf_weight=12.999999999999998 14.999999999999998 13.999999999999998 13 17 14.999999999999998 18 20 18 15.999999999999998 10 27 10.999999999999998 46 36
leaf_count=13 15 14 13 17 15 18 20 18 16 10 27 11 46 36
internal_value=1.40665e-11 0.000742141 -5.05787e-05 -0.00103541 -0.00182237 -0.00507838 -0.00694086 -0.00270343 0.00194507 0.0101402 0.00228875 0.00390768 0.0074588 -0.0111783
internal_weight=289 276 261 238 224 125 108 54 36 23 99 84 57 54
internal_count=289 276 261 238 224 125 108 54 36 23 99 84 57 54
cat_boundaries=0 1 2
cat_threshold=1 4
is_linear=0
shrinkage=0.03


Tree=56
num_leaves=15
num_cat=4
split_feature=1 1 2 5 1 1 0 1 1 0 0 1 1 1
split_gain=3.53295 3.00073 2.67387 4.79319 3.86649 7.48032 3.82452 3.63813 3.23949 3.38507 2.00136 1.80242 2.48899 1.73588
threshold=6.3065585334332077 13.665684921794645 0 1.0000000180025095e-35 9.0661409084408504 9.2290131440358625 1 10.305634732188654 10.95445712733253 2 3 10.581129572319751 8.4859397773082019 7.9703919818921705
decision_type=2 2 9 2 2 2 1 2 2 1 1 2 2 2
left_child=-1 2 8 4 13 -6 -7 -5 11 -10 -3 12 -2 -4
right_child=1 10 3 7 5 6 -8 -9 9 -11 -12 -13 -14 -15
leaf_value=-0.015283532050939706 0.0082717494219541558 0.0028870834725407447 -0.0018693472594022746 0.00025160278786312443 0.026258073855530129 0.010898563116788863 -0.0044978062035340187 0.022393692897304016 0.0011692205550415174 -0.017127965837717054 0.020273958011107009 0.010573987392708659 -0.0059646470392388951 -0.016074821182410232
leaf_weight=12.999999999999998 14.999999999999998 13 15.000000000000002 11.000000000000002 10.999999999999998 20 53 17 14 26 11 11.999999999999998 42 15.999999999999998
leaf_count=13 15 13 15 11 11 20 53 17 14 26 11 12 42 16
internal_value=1.74986e-11 0.000719877 -0.000245475 0.0023964 -0.000146183 0.00319555 -0.000279623 0.013695 -0.00360092 -0.010724 0.0108561 6.50601e-06 -0.00221823 -0.0092012
internal_weight=289 276 252 143 115 84 73 28 109 40 24 69 57 31
internal_count=289 276 252 143 115 84 73 28 109 40 24 69 57 31
cat_boundaries=0 1 2 3 4
cat_threshold=1581056 2 2 4
is_linear=0
shrinkage=0.03


Tree=57
num_leaves=15
num_cat=2
split_feature=4 1 1 1 0 4 3 3 1 1 1 1 0 1
split_gain=3.49818 2.99457 2.58009 2.4406 2.95347 2.88485 2.88916 2.71411 2.0566 1.94517 2.3292 1.75736 1.50123 1.42346
threshold=7.5000000000000009 6.3065585334332077 13.665684921794645 7.5497893265983054 0 83.500000000000014 7.5000000000000009 4.5000000000000009 11.075219845898893 10.336712310818674 9.4828055343948723 9.122966955842438 1 9.0414609864117157
decision_type=2 2 2 2 1 2 2 2 2 2 2 2 1 2
left_child=-1 -2 3 -3 5 -5 7 8 9 10 11 -7 -4 -6
right_child=1 2 12 4 13 6 -8 -9 -10 -11 -12 -13 -14 -15
leaf_value=0.014106619000434875 -0.014825026576335613 0.011152262905878679 0.0028004708943458697 0.0066625040660009665 -0.0064009889997541898 -0.0095717515796422941 0.0025468186475336549 -0.022464691735804079 -0.016539744269102812 0.005340275811696691 -0.01572981873527169 0.0066641563177108768 0.018261450469493862 0.0036318878935916081
leaf_weight=14.999999999999998 12.999999999999998 13.999999999999998 13 17 14.999999999999998 12.000000000000002 24 11.999999999999998 15.999999999999998 13.999999999999998 18 11.999999999999998 10 84
leaf_count=15 13 14 13 17 15 12 24 12 16 14 18 12 10 84
internal_value=-5.84896e-11 -0.00077226 -7.2314e-05 -0.000999557 -0.00175905 -0.00482472 -0.00663289 -0.00925567 -0.00705417 -0.004344 -0.00757209 -0.0014538 0.00952264 0.00211176
internal_weight=289 274 261 238 224 125 108 84 72 56 42 24 23 99
internal_count=289 274 261 238 224 125 108 84 72 56 42 24 23 99
cat_boundaries=0 1 2
cat_threshold=1 4
is_linear=0
shrinkage=0.03


Tree=58
num_leaves=15
num_cat=0
split_feature=4 1 1 1 4 1 1 4 3 4 4 1 1 3
split_gain=3.30459 7.81556 2.94881 11.3846 4.89012 3.80331 2.92696 5.23131 2.8295 2.6378 4.71242 3.02265 2.49226 1.90974
threshold=355.00000000000006 6.8615189042322591 11.075219845898893 12.253004013770777 93.500000000000014 9.122966955842438 9.7445511041868915 38.500000000000007 4.5000000000000009 365.50000000000006 413.00000000000006 9.1336356857604368 8.0344139676396598 3.5000000000000004
decision_type=2 2 2 2 2 2 2 2 2 2 2 2 2 2
left_child=2 -2 5 -4 -5 12 -7 -8 -9 11 -11 -3 -1 -12
right_child=1 9 3 4 -6 6 7 8 -10 10 13 -13 -14 -15
leaf_value=0.0073042841193576655 -0.027210989648645573 0.0037129356843583722 -0.02170457901104408 0.023926047272980207 -0.0026315470727590416 0.024694253005660496 -0.0090582460706884194 0.0040983649045228943 0.025324364614028191 0.019397544115781783 0.0050237031941137772 -0.011780095727675978 -0.0087130972392418793 -0.003959934229129239
leaf_weight=18 10.999999999999998 17 17 12.000000000000002 12.999999999999998 12.999999999999998 10.999999999999998 10 13 11.999999999999998 34 34 17 57
leaf_count=18 11 17 17 12 13 13 11 10 13 12 34 34 17 57
internal_value=-9.57103e-12 -0.00278099 0.00370052 -0.0027637 0.0101161 0.00701146 0.0125869 0.00795764 0.0160957 -0.00103599 0.0017268 -0.00661575 -0.000475587 -0.00060341
internal_weight=289 165 124 42 25 82 47 34 23 154 103 51 35 91
internal_count=289 165 124 42 25 82 47 34 23 154 103 51 35 91
is_linear=0
shrinkage=0.03


Tree=59
num_leaves=15
num_cat=1
split_feature=4 1 4 4 1 5 4 4 0 4 1 1 4 3
split_gain=3.2048 2.68728 2.78152 3.11686 4.77822 3.59496 3.65648 2.55025 3.46186 5.01854 4.86798 2.97261 2.43243 4.2928
threshold=6.5000000000000009 13.665684921794645 1097.0000000000002 732.50000000000011 10.209747860766049 1.0000000180025095e-35 106.50000000000001 604.00000000000011 0 83.500000000000014 9.0661409084408504 9.9834373927398339 83.500000000000014 7.5000000000000009
decision_type=2 2 2 2 2 2 2 2 1 2 2 2 2 2
left_child=-1 2 3 5 -5 7 -7 8 9 -2 -11 -12 -10 -14
right_child=1 -3 -4 4 -6 6 -8 -9 12 10 11 -13 13 -15
leaf_value=0.015178272128105163 -0.014626407399773597 0.0091619914575763357 -0.014078088887035847 -0.0058518833220005013 0.021731426417827604 0.022695343717932692 6.9977579017480214e-05 -0.010551459190125267 0.0026950815402799182 -0.0072555172722786661 0.028710703320801247 0.0088377918728760312 -0.011302149443555686 0.0077419445205193305
leaf_weight=11.999999999999998 9.9999999999999982 23 14.999999999999998 10.000000000000002 12.999999999999998 10.000000000000002 18 36 27 11.999999999999998 10.000000000000002 21 59 12.999999999999998
leaf_count=12 10 23 15 10 13 10 18 36 27 12 10 21 59 13
internal_value=-2.35892e-11 -0.000657542 -0.00154671 -0.000760225 0.00973868 -0.00187816 0.00815047 -0.00337179 -0.00167134 0.00451642 0.00896824 0.0152484 -0.00498398 -0.00786363
internal_weight=289 277 254 239 23 216 28 188 152 53 43 31 99 72
internal_count=289 277 254 239 23 216 28 188 152 53 43 31 99 72
cat_boundaries=0 1
cat_threshold=2
is_linear=0
shrinkage=0.03


Tree=60
num_leaves=15
num_cat=1
split_feature=4 1 1 1 1 4 1 4 0 4 1 5 4 4
split_gain=3.01772 2.59516 2.2463 2.34584 2.89608 2.46791 1.79998 2.18594 2.83755 4.16369 3.16345 3.13108 3.08289 2.84463
threshold=7.5000000000000009 6.3065585334332077 13.665684921794645 12.842306387474991 12.253004013770777 26.500000000000004 7.5497893265983054 83.500000000000014 0 373.50000000000006 9.0414609864117157 1.0000000180025095e-35 489.50000000000006 633.50000000000011
decision_type=2 2 2 2 2 2 2 2 1 2 2 2 2 2
left_child=-1 -2 3 4 5 -3 -7 -8 10 -10 -9 12 -12 -11
right_child=1 2 -4 -5 -6 6 7 8 9 13 11 -13 -14 -15
leaf_value=0.013102109730243682 -0.013799331572193365 -0.014652974039993501 0.0088871313550550005 -0.010764077173545957 0.014971139999953182 0.0112077840231359 0.0083259379118680952 -0.0095621593525776483 -0.010372995009743853 0.014987335665659469 0.01745296756271273 -0.0074747595191001891 -0.002372980859130621 -0.0023364862794742771
leaf_weight=14.999999999999998 12.999999999999998 10.999999999999998 23 20 10.999999999999998 11.999999999999998 21 12.999999999999998 57 10.999999999999998 24 9.9999999999999982 9.9999999999999982 38
leaf_count=15 13 11 23 20 11 12 21 13 57 11 24 10 10 38
internal_value=-4.33113e-11 -0.000717269 -6.56718e-05 -0.000930859 -2.87286e-05 -0.000825823 -4.98094e-05 -0.000784 -0.00195767 -0.00486025 0.0034401 0.00728168 0.0116218 0.00155253
internal_weight=289 274 261 238 218 207 196 184 163 106 57 44 34 49
internal_count=289 274 261 238 218 207 196 184 163 106 57 44 34 49
cat_boundaries=0 1
cat_threshold=2
is_linear=0
shrinkage=0.03


Tree=61
num_leaves=15
num_cat=0
split_feature=4 1 4 4 3 1 1 1 4 4 1 1 1 3
split_gain=2.91474 7.11671 2.83139 3.6089 6.01381 5.04268 3.4732 5.13091 2.4136 4.26765 2.9318 2.32175 2.11576 1.9065
threshold=355.00000000000006 6.8615189042322591 179.50000000000003 90.500000000000014 8.5000000000000018 12.253004013770777 9.7445511041868915 8.1380650739600515 365.50000000000006 413.00000000000006 9.1336356857604368 10.581129572319751 10.581129572319751 2.5000000000000004
decision_type=2 2 2 2 2 2 2 2 2 2 2 2 2 2
left_child=2 -2 3 5 -5 6 7 -1 10 -10 -3 -8 -4 -12
right_child=1 8 12 4 -6 -7 11 -9 9 -11 13 -13 -14 -15
leaf_value=-0.0038533721757786602 -0.025923998301679439 0.0038882516236866224 0.020782740669181708 -0.019350624421940129 0.0072008302627779922 0.022640327513217925 -0.016303517203778026 0.022320296603899732 0.018512299284338951 -0.00052139502880931064 -0.0023411794121448808 0.0014005961045622825 0.0039753265998193196 -0.016959529350112589
leaf_weight=14.000000000000002 10.999999999999998 17 13.000000000000002 17 14.000000000000002 11.999999999999998 12.000000000000002 12.999999999999998 11.999999999999998 91 12.999999999999998 14.999999999999998 13.999999999999998 21
leaf_count=14 11 17 13 17 14 12 12 13 12 91 13 15 14 21
internal_value=4.0272e-11 -0.00261181 0.00347539 0.00108369 -0.00735964 0.0050495 0.00114043 0.00874876 -0.000946653 0.00169612 -0.00628402 -0.0064679 0.0120678 -0.0113702
internal_weight=289 165 124 97 31 66 54 27 154 103 51 27 27 34
internal_count=289 165 124 97 31 66 54 27 154 103 51 27 27 34
is_linear=0
shrinkage=0.03


Tree=62
num_leaves=15
num_cat=1
split_feature=4 2 4 4 4 3 1 1 1 1 1 1 1 4
split_gain=2.76969 2.96197 4.36546 6.14348 3.62274 3.25098 3.07275 3.44254 4.68174 4.9554 5.02763 2.96377 5.62422 3.14931
threshold=6.5000000000000009 0 732.50000000000011 364.50000000000006 1094.5000000000002 7.5000000000000009 7.5497893265983054 10.336712310818674 10.95445712733253 11.739315122261234 12.764672046258074 11.507504940887815 9.122966955842438 126.50000000000001
decision_type=2 9 2 2 2 2 2 2 2 2 2 2 2 2
left_child=-1 4 3 11 5 6 -2 -8 -9 -10 -11 12 -3 -14
right_child=1 2 -4 -5 -6 -7 7 8 9 10 -12 -13 13 -15
leaf_value=0.014110324308276176 0.014744675486133649 -0.0069325747713446613 0.011378446608781814 -0.013436464453643222 -0.012540671980151763 0.012030560098150197 -0.0086206149171630386 0.020313647165894507 -0.018129591296469287 0.022577633321285238 -0.0045386177860200407 -0.0095144486892968418 0.004736152883619069 0.025869747373190793
leaf_weight=11.999999999999998 12.999999999999998 22 14.999999999999998 53 12.999999999999998 34 32 11.999999999999998 10.999999999999998 10.000000000000002 15.999999999999998 20 15.000000000000002 10.999999999999998
leaf_count=12 13 22 15 53 13 34 32 12 11 10 16 20 15 11
internal_value=-2.6562e-11 -0.000611278 -0.0036209 -0.00577958 0.00237966 0.00408091 0.00120551 -0.000967444 0.00403055 -0.00125046 0.00589071 0.000188293 0.0042311 0.0136773
internal_weight=289 277 136 121 141 128 94 81 49 37 26 68 48 26
internal_count=289 277 136 121 141 128 94 81 49 37 26 68 48 26
cat_boundaries=0 1
cat_threshold=68159504
is_linear=0
shrinkage=0.03


Tree=63
num_leaves=15
num_cat=2
split_feature=4 4 2 4 4 0 4 4 3 4 3 4 3 4
split_gain=2.606 2.59597 3.46038 5.04189 5.12849 4.54788 5.96431 3.87529 3.73832 4.3346 2.98493 1.74847 2.38909 1.14873
threshold=6.5000000000000009 20.500000000000004 0 38.500000000000007 732.50000000000011 1 222.50000000000003 1094.5000000000002 1.5000000000000002 179.50000000000003 7.5000000000000009 364.50000000000006 7.5000000000000009 106.50000000000001
decision_type=2 2 9 2 2 1 2 2 2 2 2 2 2 2
left_child=-1 -2 7 -4 5 6 -5 10 -7 -10 13 -11 -13 -3
right_child=1 2 3 4 -6 8 -8 -9 9 11 -12 12 -14 -15
leaf_value=0.013687014803290366 -0.015599683812819422 0.0098363659679889665 0.01680008429288864 0.014609340154565871 0.011037093222141267 0.0017350784955280165 -0.010250525029964352 -0.012164451932677857 -0.031579217852267902 -0.00021103470772504808 0.012781609757380052 -0.021547364271000811 -0.0055313416719436643 0.00075190966642510731
leaf_weight=11.999999999999998 9.9999999999999982 14.999999999999998 9.9999999999999982 15.999999999999998 14.999999999999998 13.999999999999998 19 12.999999999999998 11.999999999999998 9.9999999999999982 33 19 14.999999999999998 76
leaf_count=12 10 15 10 16 15 14 19 13 12 10 33 19 15 76
internal_value=3.50092e-11 -0.000592939 -3.08889e-05 -0.00340424 -0.00537162 -0.00771572 0.00111398 0.00318603 -0.0121306 -0.015597 0.00505229 -0.0112382 -0.0144815 0.00224935
internal_weight=289 277 267 130 120 105 35 137 70 56 124 44 34 91
internal_count=289 277 267 130 120 105 35 137 70 56 124 44 34 91
cat_boundaries=0 1 2
cat_threshold=68159504 2
is_linear=0
shrinkage=0.03


Tree=64
num_leaves=15
num_cat=2
split_feature=1 4 4 1 4 0 4 4 4 1 1 4 1 0
split_gain=2.6087 2.74318 2.45191 4.47042 3.09136 3.32395 1.88523 2.81292 2.27124 1.77406 3.23661 2.30758 1.63981 1.63493
