tree
version=v4
num_class=1
num_tree_per_iteration=1
label_index=0
max_feature_idx=10
objective=binary sigmoid:1
feature_names=category sector log_value value_per_day region start_month planned_days is_repair n_tenderers buyer_rate supplier_rate
feature_infos=-1:0:1:2 -1:1:4:2:5:3 [0.0099503308531680833:17.813613580918108] [1.3698536311609338e-05:15.192818885977694] -1:20:26:11:16:22:13:4:19:21:28:8:6:27:3:18:7:12:17:2:30:1:29:5:10:9:24:14:0:23 [1:12] [1:1977] [0:1] none [0.002912308281435798:0.48640509378764413] [0.0063385533184190899:0.33189517417705339]
tree_sizes=1667 1714 1702 1702 1707 1718 1712 1717 1721 1708 1720 1719 1695 1718 1716 1707 1724 1710 1713 1712 1710 1717 1719 1718 1721 1718 1718 1719 1719 1715 1717 1721 1717 1718 1708 1720 1720 1707 1704 1715 1700 1718 1715 1709 1720 1709 1713 1718 1717 1722 1713 1702 1707 1718 1720 1716 1721 1719 1715 1724 1714 1712 1725 1730 1697 1710 1713 1724 1729 1714 1708 1716 1730 1716 1730 1715 1687 1713 1725 1715 1682 1708 1728 1728 1713 1729 1708 1729 1704 1735 1714 1725 1723 1705 1717 1727 1720 1733 1730 1716 1739 1734 1725 1721 1728 1711 1714 1721 1724 1727 1726 1725 1697 1741 1723 1754 1734 1725 1725 1750 1716 1756 1728 1726 1726 1754 1758 1752 1752 1749 1737 1750 1751 1755 1717 1751 1752 1750 1751 1738 1758 1738 1716 1746 1743 1764 1760 1753 1698 1749 1740 1735 1736 1758 1732 1734 1730 1734 1715 1751 1733 1746 1737 1734 1762 1754 1707 1724 1740 1752 1765 1754 1728 1763 1750 1765 1765 1744 1764 1736 1758 1761 1767 1726 1766 1763 1735 1736 1760 1766 1762 1754 1766 1754 1735 1769 1736 1774 1724 1754 1769 1732 1777 1723 1752 1777 1778 1734 1764 1753 1750 1722 1764 1763 1722 1768 1734 1754 1751 1765 1717 1745 1735 1728 1749 1735 1762 1774 1752 1737 1760 1712 1726 1721 1771 1754 1736 1751 1766 1755 1737 1736 1749 1746 1749 1766 1747 1742 1742 1742 1738 1771 1735 1767 1750 1765 1744 1745 1753 1757 1760 1756 1763 1705 1774 1753 1755 1775 1756 1709 1761 1719 1773 1748 1749 1743 1772 1742 1752 1728 1712 1749 1733 1743 1740 1741 1773 1769 1769 1749 1740 1749 1750 1774 1726 1754 1743 1765 1730 1768 1727 1727 1742 1756 1767 1721 1750 1778 1744 1715 1760 1747 1765 1763 1739 1747 1750 1736 1742 1744 1738 1746 1759 1744 1760 1710 1702 1760 1751 1723 1769 1735 1743 1720 1714 1721 1700 1780 1752 1660 1727 1736 1710 1728 1723 1758 1729 1743 1760 1736 1726 1762 1733 1710 1754 1703 1769 1731 1749 1770 1736 1734 1750 1735 1735 1731 1754 1721 1734 1730 1775 1739 1732 1744 1744 1738 1704 1711 1720 1748 1743 1689 1710 1758 1747 1766 1717 1751 1736 1736 1757 1745 1734 1730 1754 1713 1731 1759 1767 1749

Tree=0
num_leaves=15
num_cat=0
split_feature=9 9 9 7 2 9 2 2 9 2 9 5 5 9
split_gain=17206.6 1438.3 137.819 341.708 235.66 158.854 146.128 133.189 99.32 83.8986 78.0336 136.764 64.2503 119.236
threshold=0.054506897837434752 0.11949250414015516 0.042201106550557442 1.0000000180025095e-35 11.737141912913794 0.044051404835419486 12.919626477174129 12.505995722876273 0.18387540870762351 11.90454913996401 0.076683983538503878 1.5000000000000002 11.500000000000002 0.032704138702460854
decision_type=2 2 2 2 2 2 2 2 2 2 2 2 2 2
left_child=2 10 12 4 -4 -5 7 -6 -3 -7 11 -2 -1 -14
right_child=1 8 3 5 6 9 -8 -9 -10 -11 -12 -13 13 -15
leaf_value=-2.6877683324044699 -2.6464442342591972 -2.4911836672425238 -2.6876276289564824 -2.5483322813851652 -2.6404207771185404 -2.6850412051356711 -2.6844134461971896 -2.5073544013409026 -2.4612432472491679 -2.5994266734070126 -2.5313090717878839 -2.5548974106501352 -2.6859459657659341 -2.5883965272298295
leaf_weight=104.67911553382874 4.745158612728118 81.128883004188538 53.337365627288818 7.2770816683769253 4.0799533724784833 4.8983294963836652 3.9307582378387451 3.1084063649177551 131.6177304983139 4.4105681180953979 59.087551176548004 32.131986856460571 7.3777308464050275 3.8663092851638794
leaf_count=1731 65 345 882 53 54 81 65 11 318 46 398 262 122 37
internal_value=-2.56402 -2.49422 -2.67355 -2.65864 -2.67431 -2.59898 -2.61316 -2.57495 -2.47218 -2.64362 -2.54394 -2.56598 -2.68405 -2.65092
internal_weight=505.677 308.711 196.966 81.0425 64.4565 16.586 11.1191 7.18836 212.747 9.3089 95.9647 36.8771 115.923 11.244
internal_count=4470 1388 3082 1192 1012 180 130 65 663 127 725 327 1890 159
is_linear=0
shrinkage=1


Tree=1
num_leaves=15
num_cat=0
split_feature=10 9 9 6 9 10 6 10 10 9 9 6 6 9
split_gain=19124.7 1819.81 582.267 439.637 376.255 238.972 50.6545 38.7903 29.3844 24.9533 43.9369 35.7169 40.0445 20.7208
threshold=0.055705508543267522 0.054506897837434752 0.18387540870762351 245.50000000000003 0.032704138702460854 0.12730189567879432 4.5000000000000009 0.085460943325876226 0.14545081994746425 0.055900561102926467 0.057099171808759237 38.500000000000007 29.500000000000004 0.14611685930897342
decision_type=2 2 2 2 2 2 2 2 2 2 2 2 2 2
left_child=2 4 6 -4 -2 7 -1 -6 -3 -8 -11 12 -12 -13
right_child=1 8 3 -5 5 -7 9 -9 -10 10 11 13 -14 -15
leaf_value=0.042742200890653594 -0.014409470258004708 0.16412067418137119 0.13112939977840113 -0.014315415292218976 0.056917785586576126 0.12411872181167247 -0.015933070683144649 -0.012544536403090945 0.18911000782167611 0.048268969510716297 -0.010080575145803784 -0.015794124207619206 0.075753321323585518 0.009970967040861466
leaf_weight=3.1959365084767333 9.1265621110796911 51.23904500156641 11.281448006629946 7.4612262099981299 2.4798851162195232 18.073483694344759 162.53394231945276 3.9550462737679482 233.04066002368927 2.8775010854005805 2.0504699051380149 39.116741649806499 1.8667370751500132 7.8022470474243155
leaf_count=36 153 146 48 103 26 120 2709 66 316 30 30 576 14 97
internal_value=0.0965083 0.172555 -0.00511155 0.0739724 0.0665835 0.096729 -0.012053 0.0153169 0.184928 -0.0129942 -0.00389798 -0.00743827 0.0330702 -0.0112915
internal_weight=556.101 317.915 238.186 18.7427 33.635 24.5084 219.444 6.43493 284.28 216.248 53.7137 50.8362 3.91721 46.919
internal_count=4470 827 3643 151 365 212 3492 92 462 3456 747 717 44 673
is_linear=0
shrinkage=0.015


Tree=2
num_leaves=15
num_cat=0
split_feature=9 9 9 2 9 6 3 9 9 9 9 3 9 6
split_gain=10255.5 601.607 130.618 259.804 287.208 113.99 148.524 122.024 100.576 127.494 81.4687 73.3011 69.0048 54.265
threshold=0.054506897837434752 0.11949250414015516 0.042201106550557442 11.737141912913794 0.044051404835419486 255.50000000000003 5.4034118334473886 0.085460943325876226 0.053739385629405119 0.046720198146372648 0.067946705636140595 4.4024658205251388 0.10706212714392245 788.50000000000011
decision_type=2 2 2 2 2 2 2 2 2 2 2 2 2 2
left_child=2 5 -1 4 11 -2 7 13 9 -5 -8 -4 -12 -7
right_child=1 -3 3 8 -6 6 10 -9 -10 -11 12 -13 -14 -15
leaf_value=-0.012078472692890418 0.1178394807455912 0.14214905743947176 0.09179281966563306 0.031404842199868006 -0.01573096700501259 0.046096613840537676 0.074653089055861127 0.12132142655991207 -0.012007898798220056 0.11851603088096618 -0.013970512992555683 -0.0091900661757047947 0.081619148423829044 0.10287920400029361
leaf_weight=113.67802339419723 54.486784279346466 289.49233248084784 7.5423481240868551 8.6383827701211029 53.889274016022682 13.426184933632614 9.0522502884268778 26.294990062713623 3.3298405744135371 7.5565876662731162 6.5467786751687509 1.7537566423416135 1.7214333415031431 6.7866716347634783
leaf_count=1890 264 663 56 105 908 133 72 113 54 41 97 28 9 37
internal_value=0.0873973 0.130239 -0.00163209 0.0126217 -0.00216813 0.10056 0.0848907 0.0990771 0.0597177 0.0748324 0.044666 0.0724796 0.00859518 0.0675473
internal_weight=604.196 407.807 196.388 82.7102 63.1854 118.315 63.8283 46.5078 19.5248 16.195 17.3205 9.2961 8.26821 20.2129
internal_count=4470 1388 3082 1192 992 725 461 283 200 146 178 84 106 170
is_linear=0
shrinkage=0.015


Tree=3
num_leaves=15
num_cat=0
split_feature=10 10 6 2 5 6 3 6 5 5 10 2 3 10
split_gain=12645 266.427 178.338 264.08 152.765 102.883 51.0223 37.9276 32.9512 46.4844 21.5793 7.30969 26.3238 6.45669
threshold=0.055705508543267522 0.14545081994746425 128.50000000000003 9.0503476589439078 3.5000000000000004 119.50000000000001 3.3734836759480205 90.500000000000014 10.500000000000002 11.500000000000002 0.076174864594371852 12.828599494344941 5.9182968053142391 0.046720198146372648
decision_type=2 2 2 2 2 2 2 2 2 2 2 2 2 2
left_child=2 10 3 4 -1 8 7 -6 -5 -10 -2 12 -7 -4
right_child=1 -3 13 5 6 11 -8 -9 9 -11 -12 -13 -14 -15
leaf_value=-0.012994831497424928 0.071426140210070946 0.13766125093037537 -0.015950391304491766 -0.015722204690985595 0.072109730951352383 0.060924986024339343 0.10224531385607953 -0.010058978969687705 0.072677719721023951 -0.011832244810475966 0.10839155853630124 0.082876717873463748 -0.0088687131665234273 -0.0094518011344250138
leaf_weight=4.4165612310171154 9.3785066753625852 325.66866751387715 107.10837380215526 39.922592896968126 1.9574038013815869 2.3156932070851322 10.475526817142962 2.1081905886530876 1.9407655298709858 3.0894269235432148 70.705088641494513 1.6947452351450918 1.6552785485982893 66.651214346289635
leaf_count=68 63 471 1718 638 11 18 54 36 10 47 293 10 27 1006
internal_value=0.0800758 0.131296 -0.00539548 0.0147765 0.0617634 -0.0031063 0.0846455 0.0314235 -0.0110139 0.0230405 0.104626 0.0542232 0.0324161 -0.013535
internal_weight=649.088 405.752 243.336 69.5762 18.9577 50.6185 14.5411 4.06559 44.9528 5.03019 80.0836 5.66572 3.97097 173.76
internal_count=4470 827 3643 919 169 750 101 47 695 57 356 55 45 2724
is_linear=0
shrinkage=0.015


Tree=4
num_leaves=15
num_cat=0
split_feature=9 9 9 2 9 9 9 5 3 6 3 3 9 6
split_gain=7103.31 334.613 122.148 222.535 248.955 79.4323 87.3361 60.9497 105.243 52.4627 113.625 140.854 63.9934 120.376
threshold=0.054506897837434752 0.13069848371861797 0.042201106550557442 11.737141912913794 0.044051404835419486 0.053739385629405119 0.046720198146372648 11.500000000000002 3.9393996155389881 151.50000000000003 5.8296281020702976 7.2145259011440741 0.065833672293403853 788.50000000000011
decision_type=2 2 2 2 2 2 2 2 2 2 2 2 2 2
left_child=2 9 7 4 -4 6 -5 -1 -9 -2 12 -12 13 -11
right_child=1 -3 3 5 -6 -7 -8 8 -10 10 11 -13 -14 -15
leaf_value=-0.015849956482887822 0.098798683959531328 0.11293391459229239 0.062533177420329794 0.028693916864777659 -0.015725110965997716 -0.011911949344134337 0.097383048222272409 0.074864051949783919 -0.014079933794726504 0.010074312696319981 -0.013936423614948285 0.06846537404789399 0.091938401891564339 0.10457658140335085
leaf_weight=101.31876896321774 53.986799344420433 340.33541863411665 10.504682462662457 9.1687705256044918 53.468480844050646 3.2610700018703929 9.0299803763627988 4.2703522406518442 7.4417560547590256 7.7036518305540067 6.302252750843766 14.817751623690127 65.422467097640038 4.8742246925830841
leaf_count=1731 204 614 84 105 908 54 41 35 124 84 91 96 286 13
internal_value=0.0739395 0.104394 -0.00181352 0.0116392 -0.00237312 0.0528552 0.0648703 -0.0120541 0.0194732 0.0850555 0.0770365 0.043776 0.0856107 0.0498677
internal_weight=691.906 493.443 198.464 85.433 63.9732 21.4598 18.1988 113.031 11.7121 153.107 99.1203 21.12 78.0003 12.5779
internal_count=4470 1388 3082 1192 992 200 146 1890 159 774 570 187 383 97
is_linear=0
shrinkage=0.015


Tree=5
num_leaves=15
num_cat=0
split_feature=10 9 9 6 9 10 10 6 9 10 9 9 6 9
split_gain=9186.88 690.583 407.167 280.575 122.954 164.991 110.801 42.2653 40.0261 19.3331 19.0907 37.2216 28.1349 31.1415
threshold=0.055705508543267522 0.042201106550557442 0.18387540870762351 245.50000000000003 0.059115059995932487 0.12730189567879432 0.18683196619438233 4.5000000000000009 0.044051404835419486 0.21587519490204057 0.055900561102926467 0.057099171808759237 38.500000000000007 0.090574198359433269
decision_type=2 2 2 2 2 2 2 2 2 2 2 2 2 2
left_child=2 6 7 -4 5 8 -2 -1 -3 -7 -9 -12 13 -13
right_child=1 4 3 -5 -6 9 -8 10 -10 -11 11 12 -14 -15
leaf_value=0.0341083438156288 -0.014836826763921991 0.055486268475242705 0.087676329065987352 -0.014945428966685905 0.11236300721227049 0.079035170622297882 0.068077909688292193 -0.015887892855374449 -0.013155353460474552 0.11738172040492567 0.038459571270968274 0.05694386208332685 -0.012117250636417391 -0.011293462579850767
leaf_weight=3.8073180541396132 11.612713094800712 2.5244896858930579 16.095543578267101 9.0063901469111425 433.34683298319578 17.639078438282016 4.6465155929327002 156.31176026165485 4.5255157873034477 10.832176610827444 3.4649033769965163 2.4615639969706526 53.610950112342834 2.4886943101882935
leaf_count=36 180 17 48 103 421 87 34 2709 65 23 30 15 673 29
internal_value=0.0687699 0.106665 -0.00561997 0.0509907 0.109997 0.079759 0.00973492 -0.0121507 0.0124775 0.0956574 -0.0130677 -0.00577035 -0.00881773 0.0233732
internal_weight=732.374 485.127 247.247 25.1019 468.868 35.5213 16.2592 222.145 7.05001 28.4713 218.338 62.0261 58.5612 4.95026
internal_count=4470 827 3643 151 613 192 214 3492 82 110 3456 747 717 44
is_linear=0
shrinkage=0.015


Tree=6
num_leaves=15
num_cat=0
split_feature=10 6 2 10 5 6 10 5 5 6 10 10 10 5
split_gain=7850.58 164.155 215.313 128.174 116.27 91.0226 31.5799 29.8284 37.1946 22.5791 9.52287 6.27608 81.115 36.5944
threshold=0.055705508543267522 128.50000000000003 9.0503476589439078 0.14545081994746425 3.5000000000000004 119.50000000000001 0.033246150809317025 10.500000000000002 11.500000000000002 87.500000000000014 0.076174864594371852 0.046720198146372648 0.05253147765731659 3.5000000000000004
decision_type=2 2 2 2 2 2 2 2 2 2 2 2 2 2
left_child=1 2 4 10 -1 7 9 -4 -9 -6 -2 -3 13 -13
right_child=3 11 5 -5 6 -7 -8 8 -10 -11 -12 12 -14 -15
leaf_value=-0.013074676782119031 0.057463557851298072 -0.015953894423203996 -0.015750114338117144 0.10095590527499478 0.052874797885369605 0.047803906112890857 0.082463650299437474 0.06008072737495989 -0.011957089824002816 -0.0092012199251538009 0.082633167183045544 0.052280561436942735 -0.015898704658048251 -0.011011012478932769
leaf_weight=4.4630407989025143 11.171941783279179 105.83686057850718 39.766346529126167 424.82253924757242 2.6265705451369312 6.258791882544755 12.615373775362967 2.3282767087221137 3.1478127390146255 1.7528236955404279 88.669678870588541 5.8260068073868734 58.669421043246984 2.5631792135536671
leaf_count=68 63 1718 638 471 16 55 56 10 47 29 293 52 912 42
internal_value=0.0643488 -0.00556621 0.0131903 0.097099 0.0525435 -0.00340944 0.0700855 -0.0111033 0.0198805 0.0280953 0.0801919 -0.0135396 -0.0095283 0.0325675
internal_weight=770.519 245.855 72.959 524.664 21.4578 51.5012 16.9948 45.2424 5.47609 4.37939 99.8416 172.895 67.0586 8.38919
internal_count=4470 3643 919 827 169 750 101 695 57 45 356 2724 1006 94
is_linear=0
shrinkage=0.015


Tree=7
num_leaves=15
num_cat=0
split_feature=10 9 9 6 10 9 10 6 9 9 9 2 3 3
split_gain=6800.5 530.025 374.187 232.042 95.0028 92.0712 125.68 39.8309 35.7169 19.2448 34.9721 33.6549 76.0989 52.5386
threshold=0.055705508543267522 0.042201106550557442 0.18387540870762351 245.50000000000003 0.18683196619438233 0.059115059995932487 0.12730189567879432 4.5000000000000009 0.044051404835419486 0.055900561102926467 0.057099171808759237 9.9227175017052911 3.8280470103832518 4.4635765613628662
decision_type=2 2 2 2 2 2 2 2 2 2 2 2 2 2
left_child=2 4 7 -4 -2 6 8 -1 -3 -9 -11 12 -12 -14
right_child=1 5 3 -5 -6 -7 -8 9 -10 10 11 -13 13 -15
leaf_value=0.03182974228168315 -0.014985743931136351 0.04904341686319251 0.077492375572315364 -0.014863317515178012 0.057881759441914385 0.093699644934692711 0.0799287603722834 -0.015859650379262551 -0.013383103197314682 0.036364826399457297 -0.014977562274148166 -0.01600331341975985 0.077051267233181522 -0.010124900004657128
leaf_weight=4.0014604851603499 12.318244941532614 2.8123837485909453 17.827463671565059 8.7938792258501035 5.3347456306219092 504.04127528518438 33.059688866138458 152.59630349650979 4.7824793234467506 3.6160657480359069 10.58349831402302 40.977661453187466 4.1381613016128531 1.9707648456096647
leaf_count=36 180 17 48 103 34 421 110 2709 65 30 137 537 19 24
internal_value=0.0604997 0.0891938 -0.00551179 0.0469962 0.00760946 0.0918147 0.0674078 -0.0120545 0.0104084 -0.0129829 -0.00562818 -0.00868013 0.00880365 0.0491547
internal_weight=806.854 562.349 244.505 26.6213 17.653 544.696 40.6546 217.884 7.59486 213.882 61.2862 57.6701 16.6924 6.10893
internal_count=4470 827 3643 151 214 613 192 3492 82 3456 747 717 180 43
is_linear=0
shrinkage=0.015


Tree=8
num_leaves=15
num_cat=0
split_feature=10 9 9 10 10 9 10 10 2 9 9 9 2 9
split_gain=5964.19 450.737 355.698 126.605 89.0302 75.4263 107.916 72.8467 129.133 33.7476 33.6711 45.7218 65.0409 44.0957
threshold=0.055705508543267522 0.042201106550557442 0.18387540870762351 0.05253147765731659 0.18683196619438233 0.059115059995932487 0.12730189567879432 0.046720198146372648 8.543784996036301 0.044051404835419486 0.055900561102926467 0.072629439010149136 9.0157264656693972 0.057099171808759237
decision_type=2 2 2 2 2 2 2 2 2 2 2 2 2 2
left_child=2 4 10 7 -2 6 9 8 -4 -3 -1 12 -12 -14
right_child=1 5 3 -5 -6 -7 -8 -9 -10 -11 11 -13 13 -15
leaf_value=-0.015845489665490837 -0.014953538507632038 0.046838542189071311 0.079586260333754627 -0.014289275737299757 0.054705851084556618 0.086539067814491777 0.074216910829489086 0.09289344696305761 -0.014323408386229289 -0.013336760690747837 0.058443499591107707 -0.011220427346932203 0.045664840566440622 -0.014928683722366666
leaf_weight=151.76469895616174 12.161857411265375 2.9232723340392104 6.2173834443092399 5.9971332699060431 5.5868216902017585 537.33363758027554 35.092117130756378 9.3389202207326871 5.9937357008457184 4.7292498424649239 5.2836659699678448 44.175824735313654 2.996495582163333 11.329443104565142
leaf_count=2729 180 17 11 66 34 421 110 9 65 65 32 549 21 161
internal_value=0.0571522 0.0826085 -0.00546054 0.0447543 0.00746055 0.0848865 0.0631786 0.061477 0.0341511 0.0101931 -0.0120014 -0.00268638 0.0159668 -0.000636122
internal_weight=840.924 597.827 243.097 27.5472 17.7487 580.078 42.7446 21.55 12.2111 7.65252 215.55 63.7854 19.6096 14.3259
internal_count=4470 827 3643 151 214 613 192 85 76 82 3492 763 214 182
is_linear=0
shrinkage=0.015


Tree=9
num_leaves=15
num_cat=0
split_feature=9 9 9 6 3 9 5 9 2 2 6 2 2 9
split_gain=3592.28 119.102 106.812 146.002 94.0347 100.034 112.835 81.4231 42.8357 34.0795 26.4535 25.3359 57.2031 13.0632
threshold=0.054506897837434752 0.14611685930897342 0.032704138702460854 364.50000000000006 5.6185617738373077 0.044051404835419486 3.5000000000000004 0.044051404835419486 14.002949572561187 12.958037101376918 600.00000000000011 6.8005888887801405 6.6904589662989133 0.098798386550064413
decision_type=2 2 2 2 2 2 2 2 2 2 2 2 2 2
left_child=2 13 -1 8 5 6 -5 -6 11 -9 -11 12 -4 -2
right_child=1 -3 3 4 7 -7 -8 9 -10 10 -12 -13 -14 -15
leaf_value=-0.015749937532306937 0.057325922021167895 0.075852074816565862 -0.013136450865289922 -0.01410046535013961 -0.012091064702133645 -0.015235580325659335 0.055572123803477994 0.080788747217614351 0.038686251103807766 0.054493858714199532 -0.01030478144840208 -0.015728718122829891 0.075048189224569059 0.066835944416046345
leaf_weight=76.576147768646479 132.98537847772241 419.37875126302242 4.82374658063054 7.5429789945483234 3.3784948252141502 18.175089277327061 14.491804890334604 10.567848842591046 3.4321734979748717 2.5431502945721141 2.1025973819196224 52.73820262029767 1.8715190030634401 122.44747880473733
leaf_count=1379 583 493 83 129 56 310 101 30 29 12 31 915 7 312
internal_value=0.054202 0.0706832 -0.00189783 0.00678791 0.023717 0.0103216 0.0316052 0.0512661 -0.00899075 0.0657502 0.0255578 -0.0121689 0.0139735 0.0620357
internal_weight=873.055 674.812 198.244 121.668 58.802 40.2099 22.0348 18.5921 62.8656 15.2136 4.64575 59.4335 6.69527 255.433
internal_count=4470 1388 3082 1703 669 540 230 129 1034 73 43 1005 90 895
is_linear=0
shrinkage=0.015


Tree=10
num_leaves=15
num_cat=0
split_feature=10 9 9 6 10 9 10 6 9 9 9 3 3 10
split_gain=4887.5 341.743 314.922 182.349 81.2537 51.3892 88.0999 36.9072 30.3163 17.3533 30.6315 26.0585 58.3937 14.0464
threshold=0.055705508543267522 0.042201106550557442 0.18387540870762351 245.50000000000003 0.18683196619438233 0.059115059995932487 0.12730189567879432 4.5000000000000009 0.044051404835419486 0.055900561102926467 0.057099171808759237 4.4222141531499242 3.8280470103832518 0.21587519490204057
decision_type=2 2 2 2 2 2 2 2 2 2 2 2 2 2
left_child=2 4 7 -4 -2 6 8 -1 -3 -9 -11 12 -12 -8
right_child=1 5 3 -5 -6 -7 13 9 -10 10 11 -13 -14 -15
leaf_value=0.028989267599692479 -0.01489766296719533 0.042604845962982182 0.063637439048540703 -0.015017135991110478 0.050636610306624398 0.07588491297060819 0.055111330757464057 -0.015816812472710537 -0.01333604355101684 0.031094889070131915 -0.01523561781216197 -0.016043346142591182 0.035777276351861897 0.081069244673883642
leaf_weight=4.2657625898718825 11.887953173369171 3.1566594243049613 20.81588647514582 9.1891381293535215 5.9402804747223845 595.16144151985645 23.418296687304974 146.9516281299293 4.7089807987213135 4.0514944419264785 12.310105934739115 39.821993410587311 7.7715116366744033 14.896952591836451
leaf_count=36 180 17 48 103 34 421 87 2709 65 30 153 507 57 23
internal_value=0.0515261 0.0727803 -0.00561786 0.039452 0.00731453 0.0745813 0.0569872 -0.0120144 0.00942238 -0.0129458 -0.00616102 -0.00904147 0.00453134 0.0663113
internal_weight=904.348 659.171 245.178 30.005 17.8282 641.342 46.1809 215.172 7.86564 210.907 63.9551 59.9036 20.0816 38.3152
internal_count=4470 827 3643 151 214 613 192 3492 82 3456 747 717 210 110
is_linear=0
shrinkage=0.015


Tree=11
num_leaves=15
num_cat=0
split_feature=10 9 9 6 10 9 10 6 9 9 9 3 3 10
split_gain=4398.24 301.503 300.87 167.152 76.6176 44.3619 77.7895 35.8469 28.7952 17.3851 29.4907 25.7206 55.7127 11.2606
threshold=0.055705508543267522 0.18387540870762351 0.042201106550557442 245.50000000000003 0.18683196619438233 0.059115059995932487 0.12730189567879432 4.5000000000000009 0.044051404835419486 0.055900561102926467 0.057099171808759237 4.4222141531499242 3.8280470103832518 0.21587519490204057
decision_type=2 2 2 2 2 2 2 2 2 2 2 2 2 2
left_child=1 7 4 -3 -2 6 8 -1 -4 -9 -11 12 -12 -8
right_child=2 3 5 -5 -6 -7 13 9 -10 10 11 -13 -14 -15
leaf_value=0.028012950479624918 -0.014865777674747492 0.060126335647254017 0.040884544340932201 -0.014975042085763283 0.048154852843673171 0.07133077810847685 0.052255636497527846 -0.015800937403213793 -0.013289589845491926 0.030014036630400292 -0.015199494893927986 -0.016015736468485673 0.034349140879673397 0.075665455655004932
leaf_weight=4.3648769259452811 11.73695905134082 21.722984448075298 3.2603708729147902 9.0789785236120206 6.1766407340764991 623.46868333220482 24.347599372267723 144.90865198895335 4.6567013263702393 4.1516637355089179 12.156615674495699 39.297095436602831 7.9922784492373458 15.75031244009733
leaf_count=36 180 48 17 103 34 421 87 2709 65 30 153 507 57 23
internal_value=0.0491757 -0.00556781 0.0685261 0.0378648 0.00717409 0.0701452 0.0540189 -0.0119615 0.0092325 -0.0128993 -0.00609907 -0.0089756 0.00444713 0.0624543
internal_weight=933.07 243.673 689.397 30.802 17.9136 671.484 48.015 212.871 7.91707 208.506 63.5977 59.446 20.1489 40.0979
internal_count=4470 3643 827 151 214 613 192 3492 82 3456 747 717 210 110
is_linear=0
shrinkage=0.015


Tree=12
num_leaves=15
num_cat=0
split_feature=5 2 2 3 6 6 6 5 2 6 6 2 6 6
split_gain=98.0308 51.4981 66.2919 39.3874 63.6817 45.5301 124.8 41.5893 40.4804 34.3683 74.8134 26.9749 42.9217 88.6769
threshold=11.500000000000002 10.090184421510182 10.180721951607739 7.8158088243231942 412.00000000000006 364.50000000000006 359.50000000000006 2.5000000000000004 14.056040019055393 333.50000000000006 247.50000000000003 8.8208972061776638 83.500000000000014 187.50000000000003
decision_type=2 2 2 2 2 2 2 2 2 2 2 2 2 2
left_child=1 11 -3 5 7 6 9 -5 -6 10 -4 12 -1 -14
right_child=-2 2 3 4 8 -7 -8 -9 -10 -11 -12 -13 13 -15
leaf_value=0.058476205337804676 0.058958207997909948 -0.013283844212333433 0.035827496376266081 0.063368396069955993 0.052945708589104246 0.043534021964227079 -0.014857258158979033 0.042532157965002731 -0.013715469604827226 0.056876743743981099 -0.014129484270300615 0.053849847835922816 0.011621007279604486 0.045273505857209226
leaf_weight=41.826129198074341 142.26638523489237 4.5294875390827647 92.472594369202852 52.425822667777538 2.5378959067165834 210.61973504722118 11.411489501595495 53.087164048105478 5.6141482293605804 16.808650404214859 6.7892046459019175 188.56512421369553 22.249261625111103 108.9410585872829
leaf_count=108 370 70 625 99 2 1083 189 253 85 49 111 639 260 527
internal_value=0.0470592 0.0449455 0.0413249 0.041903 0.0500809 0.0390617 0.031473 0.0532058 0.00803107 0.0361365 0.0322817 0.0494304 0.0444293 0.0396889
internal_weight=960.144 817.878 456.296 451.767 113.665 338.102 127.482 105.513 8.15204 116.07 99.2618 361.582 173.016 131.19
internal_count=4470 4100 2566 2496 439 2057 974 352 87 785 736 1534 895 787
is_linear=0
shrinkage=0.015


Tree=13
num_leaves=15
num_cat=0
split_feature=10 9 9 6 10 9 10 6 9 9 9 3 3 9
split_gain=3861.37 279.686 261.702 149.235 69.6485 39.175 67.8186 33.6375 26.267 16.6133 27.2499 24.3275 51.1533 9.82714
threshold=0.055705508543267522 0.18387540870762351 0.042201106550557442 245.50000000000003 0.18683196619438233 0.059115059995932487 0.12730189567879432 4.5000000000000009 0.044051404835419486 0.055900561102926467 0.057099171808759237 4.4222141531499242 3.8280470103832518 0.045144881218706724
decision_type=2 2 2 2 2 2 2 2 2 2 2 2 2 2
left_child=1 7 4 -3 -2 6 8 -1 -4 -9 -11 12 -12 -8
right_child=2 3 5 -5 -6 -7 13 9 -10 10 11 -13 -14 -15
leaf_value=0.02560420138957108 -0.014924081510511712 0.054746868728872973 0.037202680218074588 -0.015039753629445112 0.043617320810478671 0.064733144075863766 0.072556899994158888 -0.015823124867161854 -0.01338970778540019 0.027215410382495666 -0.015270080402316788 -0.01605023867317756 0.031136793174223208 0.049521253015897014
leaf_weight=4.6259270533919326 12.010258525609972 23.255499318242073 3.5015969574451429 9.2462689056992513 6.653124287724494 668.91169546544552 11.48602521419525 147.65954597294331 4.7666162773966789 4.4306660518050185 12.45855486392975 39.920990593731403 8.5307561233639699 31.629718735814095
leaf_count=36 180 48 17 103 34 421 14 2709 65 30 153 507 57 96
internal_value=0.0449906 -0.00591677 0.0622246 0.0347393 0.00614693 0.0636619 0.0490831 -0.0120887 0.00808052 -0.0130005 -0.0064362 -0.00920784 0.00352783 0.0565913
internal_weight=989.087 250.128 738.959 32.5018 18.6634 720.296 51.384 217.626 8.26821 213.001 65.341 60.9103 20.9893 43.1157
internal_count=4470 3643 827 151 214 613 192 3492 82 3456 747 717 210 110
is_linear=0
shrinkage=0.015


Tree=14
num_leaves=15
num_cat=0
split_feature=9 9 2 9 3 9 9 9 5 9 9 9 2 2
split_gain=2336.17 95.9742 98.8744 93.349 78.0198 70.1752 53.163 43.5435 115.411 39.5796 34.6918 28.3813 8.9146 34.5717
threshold=0.054506897837434752 0.032704138702460854 11.737141912913794 0.044051404835419486 4.4024658205251388 0.11949250414015516 0.042201106550557442 0.042201106550557442 11.500000000000002 0.053739385629405119 0.046720198146372648 0.045144881218706724 10.418927811481842 10.79974901972664
decision_type=2 2 2 2 2 2 2 2 2 2 2 2 2 2
left_child=1 -1 3 4 7 12 -4 8 -3 10 11 -8 -2 -14
right_child=5 2 6 -5 -6 -7 9 -9 -10 -11 -12 -13 13 -15
leaf_value=-0.015734280292835679 0.050738912064347767 -0.01472098660294578 -0.013371147196575254 -0.015765055094856761 -0.01492948086086145 0.057383316969805191 0.035823113692213672 0.048671228364037471 0.071842449342146869 -0.011627041899569073 0.058059058749802293 -0.012381335889767288 0.0093550564851363986 0.044691319863422015
leaf_weight=75.225508809089661 105.99326477199793 11.326789774000643 5.4619583636522284 51.770639482885599 13.356999468058346 598.36120466887951 7.6647497527301347 12.596546232700348 4.3745253831148156 3.0654437318444243 13.772891044616699 3.5452272072434425 7.5500235818326464 99.279264252632856
leaf_count=1379 293 197 98 908 232 663 51 56 12 54 41 54 57 375
internal_value=0.0432448 -0.00233885 0.00557137 -0.00231467 0.0142129 0.0546088 0.0274887 0.0282493 0.0104063 0.035803 0.0420311 0.0200599 0.0466567 0.0423191
internal_weight=1013.35 202.161 126.936 93.4255 41.6549 811.184 33.5103 28.2979 15.7013 28.0483 24.9829 11.21 212.823 106.829
internal_count=4470 3082 1703 1405 497 1388 298 265 209 200 146 105 725 432
is_linear=0
shrinkage=0.015


Tree=15
num_leaves=15
num_cat=0
split_feature=10 6 2 6 10 10 10 2 3 3 6 10 10 6
split_gain=3341.88 135.565 142.051 70.7438 47.2435 45.3714 26.0807 27.9419 22.0362 37.8305 6.19177 5.84153 67.7219 24.4485
threshold=0.055705508543267522 128.50000000000003 9.0503476589439078 119.50000000000001 0.14545081994746425 0.05253147765731659 0.033246150809317025 4.5727296961031749 5.7586438434391924 5.7341380937435327 42.500000000000007 0.046720198146372648 0.05253147765731659 455.50000000000006
decision_type=2 2 2 2 2 2 2 2 2 2 2 2 2 2
left_child=1 2 5 8 -2 6 7 -1 9 -4 -8 -3 13 -13
right_child=4 11 3 -5 -6 -7 10 -9 -10 -11 -12 12 -14 -15
leaf_value=0.046466586164342141 0.048179270915013922 -0.01597476048758913 -0.01309420837372728 0.036767349204687633 0.058691829234017417 -0.012175983927692488 0.064733134857984861 -0.012137995307746039 -0.01586610096778121 0.053794858989169567 0.036446462014125276 0.039403144107346674 -0.015937674601154937 -0.011061121573170105
leaf_weight=2.8669204190373483 144.77499962598085 103.18343919888139 4.4887599237263194 7.5403749532997599 641.7194934412837 3.1568819284439078 9.9684799984097499 3.3574722297489643 38.659899849444628 2.5125909186899662 7.4765495695173732 7.1922902539372426 58.098024729639292 2.461115900427103
leaf_count=8 356 1718 74 55 471 44 21 56 618 3 40 58 912 36
internal_value=0.041598 -0.0060262 0.0099906 -0.00412378 0.0567981 0.0378198 0.0449122 0.0151876 -0.011364 0.0118963 0.0543813 -0.0135759 -0.00972242 0.0258876
internal_weight=1037.46 250.963 80.0279 53.2016 786.494 26.8263 23.6694 6.22439 45.6613 7.00135 17.445 170.935 67.7514 9.65341
internal_count=4470 3643 919 750 827 169 125 64 695 77 61 2724 1006 94
is_linear=0
shrinkage=0.015


Tree=16
num_leaves=15
num_cat=0
split_feature=10 9 9 6 10 9 10 6 9 9 9 2 3 10
split_gain=3082.36 248.247 211.881 127.838 60.8907 32.5195 56.2221 31.2476 23.1517 15.3549 25.3065 28.2286 56.0405 9.39092
threshold=0.055705508543267522 0.18387540870762351 0.042201106550557442 245.50000000000003 0.18683196619438233 0.059115059995932487 0.12730189567879432 4.5000000000000009 0.044051404835419486 0.055900561102926467 0.057099171808759237 9.9227175017052911 3.8280470103832518 0.21587519490204057
decision_type=2 2 2 2 2 2 2 2 2 2 2 2 2 2
left_child=1 7 4 -3 -2 6 8 -1 -4 -9 -11 12 -12 -8
right_child=2 3 5 -5 -6 -7 13 9 -10 10 11 -13 -14 -15
leaf_value=0.023344104988155093 -0.014971964462401888 0.04817157902974107 0.032565748250241083 -0.015114503886887759 0.038074487700895152 0.056435673265614487 0.041188715923847312 -0.015785702229733797 -0.013543122925422877 0.024745929028771745 -0.015190098567380086 -0.016126977192815958 0.035647528133238925 0.059847755379340811
leaf_weight=4.8875319361686698 12.234506215900185 25.390509709715843 3.8483416959643346 9.4437942430376989 7.3235890492796889 734.3649627417326 28.645495407283306 142.51256420835853 4.9226076081395149 4.7022152468562117 11.357153393328192 43.284372601658106 7.714813068509101 18.826195515692234
leaf_count=36 180 48 17 103 34 421 87 2709 65 30 137 537 43 23
internal_value=0.0401153 -0.00597313 0.0543012 0.030831 0.00497149 0.0555081 0.0428736 -0.0120439 0.00654388 -0.0129585 -0.00676671 -0.00944031 0.00537639 0.0492915
internal_weight=1059.46 249.293 810.166 34.8343 19.5581 790.608 56.2426 214.459 8.77095 209.571 67.0586 62.3563 19.072 47.4717
internal_count=4470 3643 827 151 214 613 192 3492 82 3456 747 717 180 110
is_linear=0
shrinkage=0.015


Tree=17
num_leaves=15
num_cat=0
split_feature=9 9 6 9 9 9 9 6 6 2 2 2 3 9
split_gain=1864.18 90.7602 110.712 68.2034 60.876 54.6448 43.0301 41.8918 34.8099 33.2606 23.0335 43.0188 20.4333 27.7324
threshold=0.054506897837434752 0.032704138702460854 364.50000000000006 0.053739385629405119 0.046720198146372648 0.14611685930897342 0.045144881218706724 370.50000000000006 914.50000000000011 14.002949572561187 6.8005888887801405 6.6904589662989133 4.4024658205251388 0.044051404835419486
decision_type=2 2 2 2 2 2 2 2 2 2 2 2 2 2
left_child=1 -1 9 4 6 -2 7 -4 12 10 11 -3 -9 -14
right_child=5 2 3 -5 -6 -7 -8 8 -10 -11 -12 -13 13 -15
leaf_value=-0.01570585765951699 0.042948107044593314 -0.013200192738576751 -0.013420183095359237 -0.014767364730690017 0.050852106746840674 0.051252261522112062 -0.014465463124203815 0.046309085952720229 -0.012043941286677367 0.029249263159444098 -0.015743946205945495 0.058663476752072487 -0.012632068335320958 0.043645210080406074
leaf_weight=72.98980413749814 327.20198122411966 4.7671362757682791 5.3206236921250847 10.82598417252302 15.166221920400856 551.32204172760248 8.1178692877292615 16.404649190604694 3.2461500689387313 4.1528984308242789 50.958563763648272 2.3594630248844624 3.797688838094472 3.0214916877448559
leaf_count=1379 895 83 90 188 51 493 131 82 54 29 915 7 62 11
internal_value=0.0387677 -0.00238711 0.0051727 0.0186935 0.0254795 0.0481941 0.0151417 0.0230412 0.0307612 -0.00905907 -0.0121523 0.0118951 0.0371882 0.0125571
internal_weight=1079.65 201.129 128.139 65.9007 55.0747 878.524 39.9085 31.7906 26.47 62.2381 58.0852 7.1266 23.2238 6.81918
internal_count=4470 3082 1703 669 481 1388 430 299 209 1034 1005 90 155 73
is_linear=0
shrinkage=0.015


Tree=18
num_leaves=15
num_cat=0
split_feature=10 9 9 10 10 10 2 9 10 9 9 2 9 9
split_gain=2727.95 227.603 178.983 78.6793 56.688 39.8057 86.4338 27.1673 49.5525 25.1509 36.6743 44.2137 32.076 21.2886
threshold=0.055705508543267522 0.18387540870762351 0.042201106550557442 0.05253147765731659 0.18683196619438233 0.046720198146372648 8.387073514229801 0.059115059995932487 0.12730189567879432 0.055900561102926467 0.072629439010149136 9.0157264656693972 0.057099171808759237 0.044051404835419486
decision_type=2 2 2 2 2 2 2 2 2 2 2 2 2 2
left_child=1 9 4 5 -2 6 -3 8 13 -1 11 -11 -13 -4
right_child=2 3 7 -5 -6 -7 -8 -9 -10 10 -12 12 -14 -15
leaf_value=-0.01576486825750148 -0.014916451789426181 0.052360257597531275 0.030207603423531723 -0.015158821623546453 0.035901037841245258 0.057903713598109557 -0.01534395902021779 0.052153762955590828 0.045758086990477259 0.040941715512320377 -0.012020463758406609 0.031334615532840476 -0.015165810039556049 -0.013531829144880254
leaf_weight=140.46355226635933 11.961907364428045 8.5878517925739271 4.044709771871565 7.0730999931693068 7.615612566471099 13.535068839788437 7.38536261022091 771.96416561305523 49.843452259898186 6.9306897073984173 49.513636142015457 3.9788318797946003 12.320501610636709 4.886004738509655
leaf_count=2729 180 9 17 66 34 9 67 421 110 32 549 21 161 65
internal_value=0.0374702 -0.00607535 0.0502669 0.0281875 0.00487966 0.038907 0.0210857 0.051324 0.0399503 -0.0120414 -0.00469055 0.0105408 -0.00277337 0.00603372
internal_weight=1100.1 249.789 850.316 36.5814 19.5775 29.5083 15.9732 830.738 58.7742 213.207 72.7437 23.23 16.2993 8.93071
internal_count=4470 3643 827 151 214 85 76 613 192 3492 763 214 182 82
is_linear=0
shrinkage=0.015


Tree=19
num_leaves=15
num_cat=0
split_feature=9 9 6 9 9 5 9 9 2 2 2 6 9 6
split_gain=1614.51 87.7295 103.576 63.3398 52.7841 85.4256 49.3616 38.3655 31.6039 22.5993 39.6873 18.3627 35.3608 35.1132
threshold=0.054506897837434752 0.032704138702460854 364.50000000000006 0.053739385629405119 0.046720198146372648 3.5000000000000004 0.11949250414015516 0.045144881218706724 14.002949572561187 6.8005888887801405 6.6904589662989133 255.50000000000003 0.057807484680478562 1144.5000000000002
decision_type=2 2 2 2 2 2 2 2 2 2 2 2 2 2
left_child=1 -1 8 4 5 -4 11 -7 9 10 -3 -2 13 -13
right_child=6 2 3 -5 -6 7 -8 -9 -10 -11 -12 12 -14 -15
leaf_value=-0.015675952702785129 0.043165748810723742 -0.013149566901610581 -0.015009446584800731 -0.014746085216960282 0.0471985805933871 0.037223841191298408 0.046893625672944729 -0.012531784334662005 0.027780592744405742 -0.015724357644682337 0.055046584148946906 -0.015116832654813665 0.035949837733846871 0.043400427020252992
leaf_weight=71.063125170767307 116.98650865256786 4.6802913174033156 13.82739347591996 10.629690561443565 15.950773820281027 23.051196422427896 678.90171585232019 3.592818107455968 4.2841286286711684 49.772112816572189 2.4930925294756889 6.2516701072454435 113.42034700512886 2.966557577252388
leaf_count=1379 264 83 241 188 51 132 663 57 29 915 7 57 401 3
internal_value=0.0363159 -0.00233985 0.00502179 0.0178776 0.024231 0.0145304 0.0447101 0.030131 -0.00896571 -0.0120785 0.0116169 0.0384079 0.0336516 0.00420717
internal_weight=1117.87 199.345 128.281 67.0519 56.4222 40.4714 918.527 26.644 61.2296 56.9455 7.17338 239.625 122.639 9.21823
internal_count=4470 3082 1703 669 481 430 1388 189 1034 1005 90 725 461 60
is_linear=0
shrinkage=0.015


Tree=20
num_leaves=15
num_cat=0
split_feature=9 9 6 9 9 5 9 9 2 2 2 6 9 6
split_gain=1507.22 86.1703 99.7081 60.5351 48.7375 81.3578 47.0531 36.0326 30.6727 22.2822 37.5575 15.9656 31.6918 33.7414
threshold=0.054506897837434752 0.032704138702460854 364.50000000000006 0.053739385629405119 0.046720198146372648 3.5000000000000004 0.11261355579800385 0.045144881218706724 14.002949572561187 6.8005888887801405 6.6904589662989133 255.50000000000003 0.057807484680478562 1144.5000000000002
decision_type=2 2 2 2 2 2 2 2 2 2 2 2 2 2
left_child=1 -1 8 4 5 -4 11 -7 9 10 -3 -2 13 -13
right_child=6 2 3 -5 -6 7 -8 -9 -10 -11 -12 12 -14 -15
leaf_value=-0.015659246391096542 0.041276456858441959 -0.013105582309862489 -0.014980383709144946 -0.014713595600694797 0.045263088532618991 0.035798048318559705 0.045125895991219377 -0.01248206745859203 0.026939654310713271 -0.015704604162790393 0.052702609919526182 -0.015058781871106205 0.034367608381739086 0.042045237167000538
leaf_weight=70.079786460846663 109.6828943118453 4.6276341825723639 13.648721363395451 10.495479762554167 16.401210598647594 23.625204429030422 714.21793016791344 3.5552960559725753 4.3665640205144873 49.09293507039547 2.5864226706326008 6.1840702891349775 104.40364298224449 3.0318517088890076
leaf_count=1379 250 83 241 188 51 132 710 57 29 915 7 57 368 3
internal_value=0.0351959 -0.0023154 0.00494191 0.0174315 0.0235329 0.0141804 0.0431423 0.0291005 -0.00890535 -0.0120298 0.0114028 0.0366778 0.0320114 0.00415232
internal_weight=1136 198.479 128.399 67.7259 57.2304 40.8292 937.52 27.1805 60.6736 56.307 7.21406 223.302 113.62 9.21592
internal_count=4470 3082 1703 669 481 430 1388 189 1034 1005 90 678 428 60
is_linear=0
shrinkage=0.015


Tree=21
num_leaves=15
num_cat=0
split_feature=10 6 2 6 5 10 5 2 10 10 10 5 10 3
split_gain=2347.59 121.691 112.882 61.1946 56.6794 34.7684 20.7955 23.8404 9.34686 5.47633 61.5653 20.9058 3.49325 2.82722
threshold=0.055705508543267522 128.50000000000003 9.0503476589439078 119.50000000000001 3.5000000000000004 0.14545081994746425 10.500000000000002 9.9481289569032452 0.033246150809317025 0.046720198146372648 0.05253147765731659 3.5000000000000004 0.064897027498581741 7.8889604778003832
decision_type=2 2 2 2 2 2 2 2 2 2 2 2 2 2
left_child=1 2 4 6 -1 12 -4 -8 -6 -3 11 -11 -2 -5
right_child=5 9 3 13 8 -7 7 -9 -10 10 -12 -13 -14 -15
leaf_value=-0.013580173070493695 0.024235988422074219 -0.01600848834581518 -0.015914569000522596 0.019245177657743178 0.018346197302552061 0.046965128609159128 0.038563084904913308 -0.012973461163223262 0.046018628187300334 0.034732672259770954 -0.015998598769009321 -0.011007374926894672 0.039298231987112818 0.046099393459791298
leaf_weight=4.7244741022586849 9.3583563789725286 100.69422729313374 38.199242524802685 5.3329822942614538 5.4596495442092445 736.27825266867876 3.2553416341543189 3.6876106970012188 19.431280594319105 7.7733236141502839 57.823444295674562 2.5130613297224045 155.67072490975261 2.9206351339817047
leaf_count=68 35 1718 638 44 45 471 8 49 56 52 912 42 321 11
internal_value=0.0341492 -0.00630647 0.00847373 -0.00446131 0.0317312 0.0454577 -0.0115111 0.0111501 0.0407251 -0.0136227 -0.00989515 0.0228704 0.0385652 0.031695
internal_weight=1153.12 251.815 83.0112 53.3958 29.6154 901.307 45.1422 6.94295 24.8909 168.804 68.1098 10.2864 165.029 8.25362
internal_count=4470 3643 919 750 169 827 695 57 101 2724 1006 94 356 55
is_linear=0
shrinkage=0.015


Tree=22
num_leaves=15
num_cat=0
split_feature=10 9 9 6 9 9 10 6 9 9 9 2 3 9
split_gain=2204.81 197.032 104.397 102.199 83.2672 59.1376 32.5876 27.5989 23.641 12.2246 22.704 25.0106 47.2695 11.7772
threshold=0.055705508543267522 0.18387540870762351 0.046720198146372648 245.50000000000003 0.032704138702460854 0.045144881218706724 0.18683196619438233 4.5000000000000009 0.042201106550557442 0.055900561102926467 0.057099171808759237 9.9227175017052911 3.8280470103832518 0.059115059995932487
decision_type=2 2 2 2 2 2 2 2 2 2 2 2 2 2
left_child=1 7 4 -3 -2 6 8 -1 -6 -9 -11 12 -12 -4
right_child=2 3 13 -5 5 -7 -8 9 -10 10 11 -13 -14 -15
leaf_value=0.019856563761818328 -0.014868942981898675 0.03852933159813246 0.034879204853776373 -0.015411655018781539 -0.012240802073120822 -0.014089953013729393 0.053430979851188415 -0.015716513251694257 0.032084580127002438 0.020777549567947796 -0.015415891212043445 -0.016281524745877778 0.029027887825815793 0.045552701380831645
leaf_weight=5.3293548934161654 10.593315597623585 29.115258604288101 39.439282070845366 10.234968446195124 3.3428192697465429 4.8036186173558226 17.416841134428978 132.88046571239829 8.0693167150020599 5.1916566714644423 12.189731374382974 46.288721084594727 8.7872791215777379 834.48493692278862
leaf_count=36 153 48 111 103 46 49 22 2709 25 30 137 537 43 421
internal_value=0.0332001 -0.00625497 0.0439497 0.0242938 0.0208055 0.0323149 0.0404112 -0.0120407 0.0185025 -0.0129512 -0.00770404 -0.01015 0.00309478 0.0450998
internal_weight=1168.17 250.017 918.15 39.3502 44.2259 33.6326 28.829 210.667 11.4121 205.338 72.4574 67.2657 20.977 873.924
internal_count=4470 3643 827 151 295 142 93 3492 71 3456 747 717 180 532
is_linear=0
shrinkage=0.015


Tree=23
num_leaves=15
num_cat=0
split_feature=10 9 9 6 9 9 10 6 5 9 9 2 2 6
split_gain=2076.72 191.205 98.1971 97.0018 89.2754 62.2092 28.5235 26.9864 21.4596 12.2706 22.0634 24.7183 41.7018 32.1449
threshold=0.055705508543267522 0.18387540870762351 0.054506897837434752 245.50000000000003 0.032704138702460854 0.053739385629405119 0.12730189567879432 4.5000000000000009 2.5000000000000004 0.055900561102926467 0.057099171808759237 9.9227175017052911 9.9030144405911749 44.500000000000007
decision_type=2 2 2 2 2 2 2 2 2 2 2 2 2 2
left_child=1 7 4 -3 -2 6 8 -1 -6 -9 -11 12 13 -12
right_child=2 3 -4 -5 5 -7 -8 9 -10 10 11 -13 -14 -15
leaf_value=0.019331955254064993 -0.01483410130612226 0.037268320329854922 0.043928121953358677 -0.015366974847912419 0.032960873010355732 -0.014414092265580913 0.042137174839968608 -0.015701983264774177 -0.013498911879389949 0.020218415589849343 0.029631049034582135 -0.016251340216862302 0.055365715675901976 -0.015676954477005706
leaf_weight=5.4048546180129042 10.461093831807373 29.661571398377419 868.11189946532249 10.113127596676348 3.7933310344815245 5.3815381005406371 41.785407669842243 131.02281384170055 3.9826708137989044 5.2684380412101737 4.0564032122492852 45.68455109372735 2.4803504943847647 14.465694725513456
leaf_count=36 153 48 462 103 22 55 91 2709 44 30 16 537 5 159
internal_value=0.0323246 -0.00620759 0.0425736 0.0236744 0.024284 0.0319339 0.0372101 -0.0119902 0.00888119 -0.0129065 -0.00763957 -0.0100861 0.00304169 -0.00484203
internal_weight=1181.67 248.158 933.516 39.7747 65.404 54.9429 49.5614 208.383 7.776 202.978 71.9554 66.687 21.0024 18.5221
internal_count=4470 3643 827 151 365 212 157 3492 66 3456 747 717 180 175
is_linear=0
shrinkage=0.015


Tree=24
num_leaves=15
num_cat=0
split_feature=10 9 9 6 9 9 10 6 9 9 6 9 9 9
split_gain=1959.67 185.627 92.8275 92.2079 75.0211 54.5293 28.2687 26.395 22.2454 12.3226 21.4468 48.8203 14.0754 22.9608
threshold=0.055705508543267522 0.18387540870762351 0.046720198146372648 245.50000000000003 0.032704138702460854 0.045144881218706724 0.18683196619438233 4.5000000000000009 0.042201106550557442 0.055900561102926467 120.50000000000001 0.080271664034741425 0.14611685930897342 0.15621892866020384
decision_type=2 2 2 2 2 2 2 2 2 2 2 2 2 2
left_child=1 7 4 -3 -2 6 8 -1 -6 -9 11 -11 -12 -14
right_child=2 3 -4 -5 5 -7 -8 9 -10 10 12 -13 13 -15
leaf_value=0.018828618536425281 -0.014799381871137975 0.036089136476169847 0.042356407687049652 -0.015322622587190715 -0.012297039807528545 -0.01417122529120669 0.049474076547295083 -0.015687642285680713 0.030320833882380518 0.032891526484794098 -0.016199631288337235 -0.015291570683882467 0.028063226243120187 -0.014515394970760521
leaf_weight=5.4788973182439795 10.330507311969994 30.183563262224197 902.67780318856239 9.9926196411252004 3.3785478733479986 4.8581792786717406 18.331879705190659 129.18969715759158 8.335439145565033 8.0569946169853228 42.731229618191719 9.9234723448753339 4.2834610417485219 6.4293778538703918
leaf_count=36 153 48 532 103 46 49 22 2709 25 39 513 105 23 67
internal_value=0.031503 -0.00615958 0.0412938 0.0230865 0.0196936 0.0301791 0.0377103 -0.0119392 0.0174147 -0.0128615 -0.00757199 0.00619905 -0.0123586 0.00233274
internal_weight=1194.18 246.269 947.912 40.1762 45.2346 34.904 30.0459 206.093 11.714 200.614 71.4245 17.9805 53.4441 10.7128
internal_count=4470 3643 827 151 295 142 93 3492 71 3456 747 144 603 90
is_linear=0
shrinkage=0.015


Tree=25
num_leaves=15
num_cat=0
split_feature=10 9 9 6 9 9 6 10 5 9 9 2 2 6
split_gain=1853.03 180.305 88.9176 87.7739 80.2189 58.2394 25.8255 24.805 20.3527 12.3615 21.1993 24.4217 38.5662 30.5807
threshold=0.055705508543267522 0.18387540870762351 0.054506897837434752 245.50000000000003 0.032704138702460854 0.053739385629405119 4.5000000000000009 0.12730189567879432 2.5000000000000004 0.055900561102926467 0.057099171808759237 9.9227175017052911 9.9030144405911749 44.500000000000007
decision_type=2 2 2 2 2 2 2 2 2 2 2 2 2 2
left_child=1 6 4 -3 -2 7 -1 8 -6 -8 -11 12 13 -12
right_child=2 3 -4 -5 5 -7 9 -9 -10 10 11 -13 -14 -15
leaf_value=0.01834529022163486 -0.014764778325049844 0.034983799381654482 0.041368630165941715 -0.015278586105742169 0.031454310877068764 -0.014520425493085342 -0.015673486245289605 0.039307324188930563 -0.013511022823199192 0.019538223400167427 0.028274478092996418 -0.016201774794214169 0.05218156608061409 -0.015607243314239386
leaf_weight=5.5515113100409499 10.201540704816578 30.682106494903564 894.2784938365221 9.8734380155801755 3.9095410183072081 5.4954470843076697 127.38084183260798 43.528509028255939 3.9678792655467987 5.3599033281207076 4.17173400521279 44.661767210811377 2.6066362708806983 14.138954021036623
leaf_count=36 153 48 462 103 22 55 2709 91 44 30 16 537 5 159
internal_value=0.0307278 -0.00611377 0.0401008 0.0225275 0.0229119 0.0298672 -0.0118892 0.0348511 0.00845528 -0.0128172 -0.00750966 -0.00996494 0.00306884 -0.00472513
internal_weight=1205.81 244.427 961.381 40.5555 67.1029 56.9014 203.871 51.4059 7.87742 198.32 70.939 65.5791 20.9173 18.3107
internal_count=4470 3643 827 151 365 212 3492 157 66 3456 747 717 180 175
is_linear=0
shrinkage=0.015


Tree=26
num_leaves=15
num_cat=0
split_feature=10 9 9 6 9 10 6 9 9 5 9 6 9 9
split_gain=1755.08 175.194 84.8797 83.6622 82.1621 51.2339 25.2747 15.327 14.7423 21.1808 12.4072 20.913 46.0853 13.9064
threshold=0.055705508543267522 0.18387540870762351 0.059115059995932487 245.50000000000003 0.032704138702460854 0.14545081994746425 4.5000000000000009 0.053739385629405119 0.046720198146372648 2.5000000000000004 0.055900561102926467 120.50000000000001 0.080271664034741425 0.14611685930897342
decision_type=2 2 2 2 2 2 2 2 2 2 2 2 2 2
left_child=1 6 4 -3 -2 7 -1 8 9 -6 -8 12 -12 -13
right_child=2 3 -4 -5 5 -7 10 -9 -10 -11 11 13 -14 -15
leaf_value=0.017880812162590184 -0.014730283391889521 0.03394532812130175 0.040412884484825107 -0.015234853614092721 0.028371588702599662 0.03617338752200723 -0.015659510888888867 -0.014309317203486126 0.041908857428003127 -0.014317259818087749 0.031467164633511457 -0.016150036372918695 -0.015222938548307054 0.0023275656207486289
leaf_weight=5.6227240562438956 10.07417895644903 31.158043727278709 885.35288895666599 9.7555765211582166 4.1979571506381053 61.040922231972218 125.59597745165229 4.9721684008836737 3.0054970979690543 5.2366140559315681 8.275969862937929 41.722618401050568 9.7250921353697759 10.690317392349241
leaf_count=36 153 48 421 103 24 120 2709 51 2 56 39 513 105 90
internal_value=0.0300001 -0.00606705 0.0389889 0.0219952 0.0245166 0.0297127 -0.0118386 0.00626746 0.0153065 0.00439434 -0.0127726 -0.00744355 0.0061077 -0.0122532
internal_weight=1216.43 242.546 973.88 40.9136 88.5273 78.4532 201.633 17.4122 12.4401 9.43457 196.01 70.414 18.0011 52.4129
internal_count=4470 3643 827 151 406 253 3492 133 82 80 3456 747 144 603
is_linear=0
shrinkage=0.015


Tree=27
num_leaves=15
num_cat=0
split_feature=10 9 9 6 9 10 6 9 9 5 9 6 9 9
split_gain=1665.6 170.3 80.9622 79.8403 78.2906 47.8288 24.7422 14.9001 14.0238 20.3951 12.4469 20.5179 44.1903 13.7908
threshold=0.055705508543267522 0.18387540870762351 0.059115059995932487 245.50000000000003 0.032704138702460854 0.14545081994746425 4.5000000000000009 0.053739385629405119 0.046720198146372648 2.5000000000000004 0.055900561102926467 120.50000000000001 0.080271664034741425 0.14611685930897342
decision_type=2 2 2 2 2 2 2 2 2 2 2 2 2 2
left_child=1 6 4 -3 -2 7 -1 8 9 -6 -8 12 -12 -13
right_child=2 3 -4 -5 5 -7 10 -9 -10 -11 11 13 -14 -15
leaf_value=0.017434112323731359 -0.014695889772706713 0.032967599159578267 0.039333474302237457 -0.015191414221307393 0.027522912256684958 0.035023988972864108 -0.015645712390843433 -0.014252765745548889 0.040723767802198635 -0.014262873103995996 0.030420038736113795 -0.016121174929405742 -0.015179705748129643 0.0022903551940032024
leaf_weight=5.6925631090998641 9.9484070874750596 31.612186282873154 895.93596448004246 9.6390279009938222 4.2772963494062441 62.106607906520367 123.83483206480742 4.919399954378604 3.060687616467475 5.1800661869347095 8.4483102709054965 41.175367850810289 9.6087979152798635 10.709017418324946
leaf_count=36 153 48 421 103 24 120 2709 51 2 56 39 513 105 90
internal_value=0.0293134 -0.00602203 0.0379514 0.0214877 0.02389 0.0288712 -0.0117882 0.00617335 0.0150157 0.0043155 -0.0127279 -0.00738093 0.00599551 -0.0121922
internal_weight=1226.15 240.72 985.428 41.2512 89.4925 79.5441 199.469 17.4375 12.5181 9.45736 193.776 69.9415 18.0571 51.8844
internal_count=4470 3643 827 151 406 253 3492 133 82 80 3456 747 144 603
is_linear=0
shrinkage=0.015


Tree=28
num_leaves=15
num_cat=0
split_feature=10 9 9 6 9 10 6 9 9 5 9 9 2 3
split_gain=1583.14 165.601 77.4366 76.2798 74.6908 44.7325 24.2273 14.4891 13.3587 19.6507 12.484 20.1525 24.2047 41.128
threshold=0.055705508543267522 0.18387540870762351 0.059115059995932487 245.50000000000003 0.032704138702460854 0.14545081994746425 4.5000000000000009 0.053739385629405119 0.046720198146372648 2.5000000000000004 0.055900561102926467 0.057099171808759237 9.9227175017052911 3.8280470103832518
decision_type=2 2 2 2 2 2 2 2 2 2 2 2 2 2
left_child=1 6 4 -3 -2 7 -1 8 9 -6 -8 -12 13 -13
right_child=2 3 -4 -5 5 -7 10 -9 -10 -11 11 12 -14 -15
leaf_value=0.017004199053733633 -0.014661591017691147 0.032045210516795382 0.038322791915458641 -0.015148254816494944 0.026716262108727372 0.033945348142418681 -0.015632087004779562 -0.014196492380695412 0.039610265242295474 -0.014208740019028514 0.018772467474550178 -0.015214642150936208 -0.016138853261088604 0.026176869098068128
leaf_weight=5.7610549405217162 9.8242096640169603 32.045318409800529 905.7081907838583 9.5237859860062581 4.3548433780670184 63.12687111645937 122.09713617712259 4.8671919107437125 3.1131764426827422 5.1241308934986591 5.4604828357696524 11.402798667550089 43.306934848427773 9.3017230629920942
leaf_count=36 153 48 421 103 24 120 2709 51 2 56 30 137 537 43
internal_value=0.0286642 -0.00597757 0.0369786 0.021003 0.0232942 0.0280757 -0.0117379 0.00608124 0.0147348 0.00423806 -0.0126833 -0.00731892 -0.00978915 0.003206
internal_weight=1235.02 238.899 996.119 41.5691 90.4104 80.5862 197.33 17.4593 12.5922 9.47897 191.569 69.4719 64.0115 20.7045
internal_count=4470 3643 827 151 406 253 3492 133 82 80 3456 747 717 180
is_linear=0
shrinkage=0.015


Tree=29
num_leaves=15
num_cat=0
split_feature=9 9 6 9 9 9 9 6 2 6 2 2 3 9
split_gain=924.704 73.0416 78.0316 46.0424 31.9273 31.4353 30.6823 28.2497 25.2323 22.8019 20.9473 29.118 11.3786 19.1062
threshold=0.054506897837434752 0.032704138702460854 364.50000000000006 0.053739385629405119 0.046720198146372648 0.11949250414015516 0.045144881218706724 370.50000000000006 14.002949572561187 914.50000000000011 6.8005888887801405 6.6904589662989133 4.4024658205251388 0.044051404835419486
decision_type=2 2 2 2 2 2 2 2 2 2 2 2 2 2
left_child=1 -1 8 4 6 -2 7 -4 10 12 11 -3 -9 -14
right_child=5 2 3 -5 -6 -7 -8 9 -10 -11 -12 -13 13 -15
leaf_value=-0.015536984171470524 0.028857300639968369 -0.012938619812118758 -0.013331705719721738 -0.014666965115908129 0.035854055656116511 0.035188202166807223 -0.014447233177967707 0.033775465122835142 0.022244530641050479 -0.012079488733507357 -0.015720083917802632 0.043553778961584383 -0.012767910000762108 0.032254145548253503
leaf_weight=62.484949599951506 274.24223157763481 4.2985339909791938 4.9868608601391307 9.7290070280432683 18.681122299283743 777.85509237647057 7.5113595388829699 19.781647417694337 4.7745243869721881 3.0960884094238272 45.333121698349714 2.9900539293885231 3.6473839208483687 3.6431063264608383
leaf_count=1379 725 83 90 188 51 663 131 82 29 54 915 7 62 11
internal_value=0.0280498 -0.00227614 0.00415057 0.0146495 0.019501 0.0335596 0.0118349 0.0177846 -0.0087355 0.0233063 -0.0118705 0.010582 0.0277708 0.00939337
internal_weight=1243.06 190.958 128.473 71.0766 61.3476 1052.1 42.6664 35.1551 57.3962 30.1682 52.6217 7.28859 27.0721 7.29049
internal_count=4470 3082 1703 669 481 1388 430 299 1034 209 1005 90 155 73
is_linear=0
shrinkage=0.015


Tree=30
num_leaves=15
num_cat=0
split_feature=10 9 6 9 9 10 6 9 9 5 9 6 9 9
split_gain=1468.8 155.204 72.0555 70.6352 68.6539 41.0145 23.3319 13.8445 12.3701 18.4973 11.7138 19.4737 41.1242 13.33
threshold=0.055705508543267522 0.18387540870762351 245.50000000000003 0.059115059995932487 0.032704138702460854 0.14545081994746425 4.5000000000000009 0.053739385629405119 0.046720198146372648 2.5000000000000004 0.055900561102926467 120.50000000000001 0.080271664034741425 0.14611685930897342
decision_type=2 2 2 2 2 2 2 2 2 2 2 2 2 2
left_child=1 6 -3 4 -2 7 -1 8 9 -6 -8 12 -12 -13
right_child=3 2 -4 -5 5 -7 10 -9 -10 -11 11 13 -14 -15
leaf_value=0.016162814091917058 -0.014591129020479585 0.030243144188046942 -0.015205221568098278 0.03657014849483773 0.025339925774384171 0.032286401153155078 -0.015610222624417016 -0.01418916432610976 0.037690821770552052 -0.014174061412340211 0.028231673503337065 -0.016129796047599978 -0.015216824412908047 0.0018115048293518737
leaf_weight=5.8927671089768401 9.5729891806840879 32.901582062244415 9.6760139539837819 922.10264998674393 4.4848964437842387 64.674687400460243 119.08808785676956 4.8339459151029578 3.2038042768836013 5.0701797977089882 8.8198012039065379 41.236553728580475 9.6832986697554571 10.941493034362791
leaf_count=36 153 48 103 421 24 120 2709 51 2 56 39 513 105 90
internal_value=0.0274259 -0.006052 0.019684 0.0352985 0.0223202 0.0267682 -0.0117265 0.00573598 0.0141011 0.00396465 -0.0126721 -0.0075416 0.00529683 -0.0122437
internal_weight=1252.18 238.24 42.5776 1013.94 91.8405 82.2675 195.662 17.5928 12.7589 9.55508 189.769 70.6811 18.5031 52.178
internal_count=4470 3643 151 827 406 253 3492 133 82 80 3456 747 144 603
is_linear=0
shrinkage=0.015


Tree=31
num_leaves=15
num_cat=0
split_feature=10 9 9 6 5 6 9 9 9 10 9 3 3 9
split_gain=1401.75 151.115 89.6181 69.0722 65.1356 22.938 27.7806 47.1994 17.664 26.6391 15.6655 14.9152 36.8676 15.3814
threshold=0.055705508543267522 0.18387540870762351 0.042201106550557442 245.50000000000003 11.500000000000002 38.500000000000007 0.062826249067859816 0.080271664034741425 0.059115059995932487 0.12730189567879432 0.044051404835419486 8.6759186209709203 8.7501071943797779 0.14611685930897342
decision_type=2 2 2 2 2 2 2 2 2 2 2 2 2 2
left_child=1 5 4 -3 -2 6 -1 -8 9 10 -4 13 -13 -7
right_child=2 3 8 -5 -6 11 7 -9 -10 -11 -12 12 -14 -15
leaf_value=-0.014444552486286486 -0.015375800974115119 0.029465482294612707 0.021905459612833553 -0.015161973732524156 0.039504418289985292 -0.015868364254653305 0.044865386957841001 -0.014291164836919402 0.035725336605122796 0.03064077816046604 -0.013804170033035293 0.044309461987526541 -0.014190757738508013 0.0019285704345466596
leaf_weight=10.265942186117174 13.747189600020649 33.273701682686806 4.8459561467170698 9.5603565573692304 6.8573440238833419 150.92723562568426 6.2928099781274778 4.8875939100980759 929.70218792557716 62.109168991446495 5.0729697681963444 2.9783202633261663 7.3496612496674061 10.865118131041525
leaf_count=215 195 48 17 103 19 2997 12 45 421 110 65 11 123 89
internal_value=0.0268723 -0.00600831 0.034482 0.0192718 0.00303658 -0.0116764 0.00260899 0.0188578 0.0351195 0.0270043 0.00313616 -0.0135022 0.00325359 -0.0146247
internal_weight=1258.74 236.401 1022.33 42.8341 20.6045 193.567 21.4463 11.1804 1001.73 72.0281 9.91893 172.12 10.328 161.792
internal_count=4470 3643 827 151 214 3492 272 57 613 192 82 3220 134 3086
is_linear=0
shrinkage=0.015


Tree=32
num_leaves=15
num_cat=0
split_feature=10 9 6 9 9 10 6 9 9 3 3 9 9 9
split_gain=1339.24 147.185 66.2699 65.6372 63.2411 36.8099 22.6507 26.9411 44.7822 14.7813 35.2959 15.3078 19.8547 13.2065
threshold=0.055705508543267522 0.18387540870762351 245.50000000000003 0.059115059995932487 0.032704138702460854 0.14545081994746425 38.500000000000007 0.062826249067859816 0.080271664034741425 8.6759186209709203 8.7501071943797779 0.14611685930897342 0.15621892866020384 0.053739385629405119
decision_type=2 2 2 2 2 2 2 2 2 2 2 2 2 2
left_child=1 6 -3 4 -2 13 7 -1 -9 11 -11 -8 -13 -6
right_child=3 2 -4 -5 5 -7 9 8 -10 10 -12 12 -14 -15
leaf_value=-0.014415039535653831 -0.014534423696250699 0.028726562695254875 -0.015118999863005503 0.034928236365320144 0.013570617431624851 0.030573422271527942 -0.015852031065281026 0.043235157934879358 -0.014233427938652489 0.042722990266369915 -0.014152793885108971 0.024547643884376445 -0.014450771325224676 -0.014137503423869578
leaf_weight=10.134668096899988 9.3738785907626134 33.6277676820755 9.4460002928972226 936.61294037103653 12.893197301775219 66.344299055635929 148.832773655653 6.4497668743133527 4.8362242504954338 3.0605112798511964 7.2608458139002323 4.6486342251300794 6.2320246770977974 4.7685515917837611
leaf_count=215 153 48 103 421 82 120 2997 12 45 11 123 24 65 51
internal_value=0.026347 -0.00596574 0.018876 0.0337112 0.0213029 0.025453 -0.0116283 0.00256481 0.0184135 -0.0134626 0.00321383 -0.0145938 0.0018983 0.0054934
internal_weight=1264.52 234.529 43.0738 1029.99 93.3799 84.006 191.455 21.4207 11.286 170.035 10.3214 159.713 10.8807 17.6617
internal_count=4470 3643 151 827 406 253 3492 272 57 3220 134 3086 89 133
is_linear=0
shrinkage=0.015


Tree=33
num_leaves=15
num_cat=0
split_feature=10 9 9 6 9 10 6 2 3 3 9 2 9 9
split_gain=1280.83 143.403 63.6497 63.6332 60.5739 34.8578 22.3672 46.8384 14.6484 33.8284 15.2175 22.3387 12.8118 11.5414
threshold=0.055705508543267522 0.18387540870762351 0.059115059995932487 245.50000000000003 0.032704138702460854 0.14545081994746425 38.500000000000007 9.0503476589439078 8.6759186209709203 8.7501071943797779 0.14611685930897342 9.9772312363546209 0.053739385629405119 0.046720198146372648
decision_type=2 2 2 2 2 2 2 2 2 2 2 2 2 2
left_child=1 6 4 -3 -2 12 7 -1 10 -10 -8 -12 13 -6
right_child=2 3 -4 -5 5 -7 8 -9 9 -11 11 -13 -14 -15
leaf_value=0.028950829453999013 -0.01450048171760337 0.028023396841864411 0.03417488254174119 -0.015076288547815793 0.0035249572628806669 0.029748667884716019 -0.015835918240558158 -0.015135905964087185 0.041241974664177734 -0.014114872107308623 0.027159810346673439 -0.014568850550726131 -0.014081436159507764 0.035728141975648456
leaf_weight=8.6093856096267718 9.2569343075156194 33.96443235874176 942.86328710615635 9.3329378291964513 9.7024613693356532 67.168369598686695 146.76550643891096 12.781612385064362 3.1401961259543878 7.1731518059968948 4.338943272829054 6.5495422929525375 4.7180963419377795 3.2968776673078528
leaf_count=50 153 48 421 103 80 120 2997 222 11 123 21 68 51 2
internal_value=0.0258453 -0.00592428 0.0329796 0.0184958 0.020812 0.0248131 -0.0115815 0.00252136 -0.0134242 0.00317416 -0.0145641 0.00186338 0.00538717 0.0132687
internal_weight=1269.66 232.656 1037.01 43.2974 94.1427 84.8858 189.358 21.391 167.967 10.3133 157.654 10.8885 17.7174 12.9993
internal_count=4470 3643 827 151 406 253 3492 272 3220 134 3086 89 133 82
is_linear=0
shrinkage=0.015


Tree=34
num_leaves=15
num_cat=0
split_feature=10 9 9 6 9 10 6 2 9 9 2 9 5 5
split_gain=1226.36 139.737 61.6873 61.1484 58.1101 32.9031 22.1138 45.1337 12.4787 12.0202 22.6216 11.063 17.5825 9.016
threshold=0.055705508543267522 0.18387540870762351 0.059115059995932487 245.50000000000003 0.032704138702460854 0.14545081994746425 38.500000000000007 9.0503476589439078 0.053739385629405119 0.14611685930897342 9.9772312363546209 0.046720198146372648 2.5000000000000004 11.500000000000002
decision_type=2 2 2 2 2 2 2 2 2 2 2 2 2 2
left_child=1 6 4 -3 -2 8 7 -1 11 -8 -11 12 -6 -7
right_child=2 3 -4 -5 5 13 9 -9 -10 10 -12 -13 -14 -15
leaf_value=0.028071447244003876 -0.014466598059702402 0.027353293838051677 0.033461733944255244 -0.015033828492750031 0.02397314192468069 0.025428675609822593 -0.014494988699794343 -0.015103204954624187 -0.014025619733851866 0.026357775027171175 -0.014738538612702815 0.034895547332105613 -0.014236567164824821 0.041603835367864932
leaf_weight=8.7603974752128142 9.141477167606352 34.284327909350395 948.48054657876492 9.2211613506078702 4.6204910576343554 54.734573386609554 154.27749606966972 12.619451086968182 4.6681855618953696 4.4185078367590886 7.2267499417066574 3.3365305140614501 5.1056099906563759 13.221163555979727
leaf_count=50 153 48 421 103 24 111 3123 222 51 21 76 2 56 9
internal_value=0.0253678 -0.00588225 0.0322878 0.01813 0.0203535 0.0242176 -0.011533 0.00248206 0.00531191 -0.013386 0.000680094 0.0130378 0.00346658 0.0289661
internal_weight=1274.12 230.808 1043.31 43.5055 94.828 85.6866 187.303 21.3798 17.7308 165.923 11.6453 13.0626 9.7261 67.9557
internal_count=4470 3643 827 151 406 253 3492 272 133 3220 97 82 80 120
is_linear=0
shrinkage=0.015


Tree=35
num_leaves=15
num_cat=0
split_feature=10 9 9 6 9 10 6 9 9 3 3 9 9 9
split_gain=1175.63 136.175 59.7927 58.8034 55.8175 31.1147 21.8519 25.355 40.6832 14.7046 32.7136 15.0445 18.7156 12.1574
threshold=0.055705508543267522 0.18387540870762351 0.059115059995932487 245.50000000000003 0.032704138702460854 0.14545081994746425 38.500000000000007 0.062826249067859816 0.080271664034741425 8.6759186209709203 8.7501071943797779 0.14611685930897342 0.15621892866020384 0.053739385629405119
decision_type=2 2 2 2 2 2 2 2 2 2 2 2 2 2
left_child=1 6 4 -3 -2 13 7 -1 -9 11 -11 -8 -13 -6
right_child=2 3 -4 -5 5 -7 9 8 -10 10 -12 12 -14 -15
leaf_value=-0.014363162188312751 -0.014432767107114233 0.026713828646801264 0.032785621833952172 -0.01499161018583722 0.01281716310272513 0.028233320575150767 -0.015805642261538966 0.040399331797467637 -0.014149406320674239 0.040338737575343613 -0.014037928127146842 0.023361914920910349 -0.014378557517805465 -0.01397004456207511
leaf_weight=9.8940686807036418 9.0274920761585218 34.588064014911652 953.49104371666908 9.1106626167893392 13.113138571381571 68.694860942661762 142.87911858409643 6.726569712162016 4.7460741102695465 3.1902329549193364 6.9984328262507915 4.7749378979206067 6.121760681271553 4.6188162826001635
leaf_count=215 153 48 421 103 82 120 2997 12 45 11 123 24 65 51
internal_value=0.0249112 -0.00583974 0.0316322 0.0177778 0.0199216 0.0236587 -0.0114817 0.00244335 0.0175583 -0.0133438 0.00337712 -0.0145076 0.00180063 0.00523651
internal_weight=1277.98 229.03 1048.95 43.6987 95.4543 86.4268 185.331 21.3667 11.4726 163.964 10.1887 153.776 10.8967 17.732
internal_count=4470 3643 827 151 406 253 3492 272 57 3220 134 3086 89 133
is_linear=0
shrinkage=0.015


Tree=36
num_leaves=15
num_cat=0
split_feature=10 9 9 9 3 10 5 3 9 9 2 9 5 5
split_gain=1127.72 132.768 58.279 53.5909 51.6584 29.8295 23.9287 25.2318 20.9064 28.898 28.1064 24.0776 14.5647 12.3935
threshold=0.055705508543267522 0.18387540870762351 0.059115059995932487 0.032704138702460854 6.0520629098698668 0.12730189567879432 3.5000000000000004 6.0126486633611025 0.055900561102926467 0.072629439010149136 9.0157264656693972 0.057099171808759237 2.5000000000000004 1.5000000000000002
decision_type=2 2 2 2 2 2 2 2 2 2 2 2 2 2
left_child=1 8 3 -2 6 12 7 -3 -1 10 -10 -12 -5 -11
right_child=2 4 -4 5 -6 -7 -8 -9 9 13 11 -13 -14 -15
leaf_value=-0.015545273664567979 -0.014398982544798069 -0.015230279009710119 0.032143701060773633 0.017493296652614912 -0.017121463556406296 0.026537839140045726 0.031846984199119133 0.032931616149140822 0.029399235114504631 0.001108698892090629 0.023211412950252062 -0.015088252877577831 -0.014604642519240861 -0.016144016181509561
leaf_weight=111.04321398958564 8.9149637669324857 5.7644408419728261 957.92009262740612 5.5849766358733159 7.4455315321683875 75.475300215184689 27.199700690805912 3.4679893255233765 8.4208606481552142 11.465553086251019 4.7304205968976047 11.713365968316792 6.1353536583483219 35.926161002367735
leaf_count=2729 153 54 421 38 54 145 41 2 32 112 21 161 70 437
internal_value=0.0244747 -0.00579987 0.0310066 0.0194874 0.0174384 0.0230999 0.0248406 0.00285264 -0.0114357 -0.00495358 0.00786108 -0.00326804 0.00016688 -0.0118454
internal_weight=1281.21 227.177 1054.03 96.1106 43.8777 87.1956 36.4321 9.23243 183.3 72.2564 24.8646 16.4438 11.7203 47.3917
internal_count=4470 3643 827 406 151 253 97 56 3492 763 214 182 108 549
is_linear=0
shrinkage=0.015


Tree=37
num_leaves=15
num_cat=0
split_feature=10 6 2 6 10 3 3 10 10 2 2 3 6 6
split_gain=1082.78 93.9273 74.0793 48.0788 24.6849 16.7882 18.8435 5.91867 52.6626 9.76403 12.1915 10.1515 5.4924 5.58686
threshold=0.055705508543267522 128.50000000000003 9.0503476589439078 119.50000000000001 0.14545081994746425 5.7586438434391924 5.7341380937435327 0.046720198146372648 0.05253147765731659 9.9030144405911749 10.090184421510182 6.0126486633611025 38.500000000000007 109.50000000000001
decision_type=2 2 2 2 2 2 2 2 2 2 2 2 2 2
left_child=1 2 12 5 -2 6 -4 -3 9 -9 -11 -12 -1 -14
right_child=4 7 3 -5 -6 -7 -8 8 -10 10 11 -13 13 -15
leaf_value=0.031323767973830047 0.025184036489816475 -0.015854765653932845 -0.013008197808617934 0.02564162079248172 0.031563135047978468 -0.016142045960293422 0.031605105834535178 -0.0086484350871022641 -0.015779883403356603 0.052145852726251864 -0.01039484212813313 0.025120680576689411 0.0056786507638894642 0.02473287884306721
leaf_weight=15.921169720590113 194.40246547758579 83.703007478266954 3.8751833997666827 9.0441515035927278 864.12252441048622 33.541142556816339 3.4860800616443157 1.5894130989909161 48.295103654265404 2.5728059262037259 2.2178795598447323 4.2225930467247963 8.1535702645778674 8.7576192468404752
leaf_count=52 356 1718 74 55 471 618 3 31 912 2 42 19 77 40
internal_value=0.0240562 -0.00575825 0.00686587 -0.00452358 0.0304111 -0.0116038 0.00783172 -0.0131373 -0.00904805 0.0202696 0.0263439 0.011942 0.0242251 0.0164037
internal_weight=1283.9 225.38 82.7789 49.9466 1058.52 40.9024 7.36126 142.601 58.8978 10.6027 9.01328 6.44047 32.8324 16.9112
internal_count=4470 3643 919 750 827 695 77 2724 1006 94 63 61 169 117
is_linear=0
shrinkage=0.015


Tree=38
num_leaves=15
num_cat=0
split_feature=5 2 2 3 5 6 6 2 2 6 6 6 5 3
split_gain=25.1527 11.1109 26.3908 7.50377 23.1752 22.3428 15.0158 20.8972 17.5766 11.9473 46.3153 9.96383 11.9104 7.24335
threshold=11.500000000000002 10.090184421510182 10.180721951607739 7.7386922535610951 2.5000000000000004 9.5000000000000018 412.00000000000006 13.748826054314545 10.61449212297976 364.50000000000006 359.50000000000006 55.500000000000007 3.5000000000000004 2.2909640066226258
decision_type=2 2 2 2 2 2 2 2 2 2 2 2 2 2
left_child=1 13 -3 9 -5 -6 7 8 -7 10 11 12 -4 -1
right_child=-2 2 3 4 5 6 -8 -9 -10 -11 -12 -13 -14 -15
leaf_value=0.020926790640122393 0.028757833470402464 -0.014312938920431693 0.01440049167382957 0.030147983550815643 0.029151359663205461 0.020121869967733713 -0.013418478006762661 0.020319528955644012 -0.016011393058973419 0.022146046324474995 -0.014995152151476225 0.019963258360980937 -0.014084655435133911 0.025785784375807662
leaf_weight=132.82151414081454 201.36990750208497 4.1196727491915217 10.591254580765961 84.458599489182234 27.016555357724428 4.2567994371056539 4.2241310328245154 33.035805940628052 7.6465670503675938 276.81043669953942 9.2664210796356183 127.42476760968566 4.0253165960311881 359.54031227529049
leaf_count=540 370 70 45 132 30 10 68 114 112 1077 188 645 75 994
internal_value=0.0236457 0.0226774 0.0211212 0.0213938 0.0245397 0.0180682 0.0115945 0.0142324 -0.00219474 0.0201687 0.0164407 0.0185895 0.00585331 0.0245128
internal_weight=1286.61 1085.24 592.876 588.757 160.638 76.1799 49.1633 44.9392 11.9034 428.118 151.308 142.041 14.6166 492.362
internal_count=4470 4100 2566 2496 466 334 304 236 122 2030 953 765 120 1534
is_linear=0
shrinkage=0.015


Tree=39
num_leaves=15
num_cat=0
split_feature=10 9 9 6 9 10 6 2 9 2 9 9 5 5
split_gain=1038.27 125.514 60.6108 53.2489 50.2935 28.0763 20.8981 39.1847 11.6446 20.5815 11.2464 10.5413 15.9916 8.45203
threshold=0.055705508543267522 0.18387540870762351 0.059115059995932487 245.50000000000003 0.032704138702460854 0.14545081994746425 38.500000000000007 9.0503476589439078 0.14611685930897342 9.9772312363546209 0.053739385629405119 0.046720198146372648 2.5000000000000004 11.500000000000002
decision_type=2 2 2 2 2 2 2 2 2 2 2 2 2 2
left_child=1 6 4 -3 -2 10 7 -1 -8 -10 11 12 -6 -7
right_child=2 3 -4 -5 5 13 8 -9 9 -11 -12 -13 -14 -15
leaf_value=0.024874554206346624 -0.014482257320018866 0.024802876166917183 0.030535259255863364 -0.014950241891288147 0.021307230967641897 0.022286431709565114 -0.014432198052546443 -0.015019366041069163 0.02423361906061958 -0.01465097404313623 -0.014123749147088874 0.032281175042602313 -0.014402742079473733 0.037298336716181699
leaf_weight=9.3015700951218623 9.1891396902501565 35.398156777024269 967.22401669621468 8.9982476606965047 4.9137075841426867 57.443355180323124 149.36652006953955 12.136443167924879 4.6263356655836088 7.0619883388280869 4.7462674193084231 3.4570842236280432 5.2725074850022793 13.948431164026259
leaf_count=50 153 48 421 103 24 111 3123 222 21 76 51 2 56 9
internal_value=0.0231747 -0.00592407 0.0293739 0.0165019 0.0178524 0.0213068 -0.011451 0.00212044 -0.0133049 0.000487284 0.00414798 0.0113093 0.00231244 0.0255628
internal_weight=1293.08 226.889 1066.19 44.3964 98.9705 89.7814 182.493 21.438 161.055 11.6883 18.3896 13.6433 10.1862 71.3918
internal_count=4470 3643 827 151 406 253 3492 272 3220 97 133 82 80 120
is_linear=0
shrinkage=0.015


Tree=40
num_leaves=15
num_cat=0
split_feature=10 9 9 9 3 10 9 9 2 9 10 3 3 2
split_gain=999.508 122.45 59.0508 48.4888 47.6506 26.7814 20.4473 27.6339 24.7922 22.7758 11.1236 10.6606 44.2612 10.5243
threshold=0.055705508543267522 0.18387540870762351 0.059115059995932487 0.032704138702460854 6.0520629098698668 0.12730189567879432 0.055900561102926467 0.072629439010149136 9.0157264656693972 0.057099171808759237 0.085460943325876226 3.8547451722705071 3.8280470103832518 8.5242194027113936
decision_type=2 2 2 2 2 2 2 2 2 2 2 2 2 2
left_child=1 6 3 -2 13 10 -1 8 -8 -10 -5 12 -9 -3
right_child=2 4 -4 5 -6 -7 7 11 9 -11 -12 -13 -14 -15
leaf_value=-0.015528594400845083 -0.014448384624549386 0.03131058720481155 0.030000718847221792 0.013556296810427346 -0.017142557912909941 0.024054552835519598 0.027165055514207916 -0.014999438792183725 0.022067135720061883 -0.015017986010242231 -0.01410845492491036 -0.016104822394148861 0.048671856086423042 0.013640570001059241
leaf_weight=108.70374569669366 9.0745574794709665 19.013914711773396 969.68034794926643 6.2079890593886358 7.3924356624484053 78.256063118577003 8.7530445009470004 9.940491780638693 4.8515616357326534 11.422055121511219 5.8806431703269482 34.186496686190367 2.7123259678483 18.118921346962452
leaf_count=2729 153 19 421 31 54 145 32 123 21 161 77 424 2 78
internal_value=0.0228073 -0.00588256 0.0288548 0.0175093 0.0162057 0.0208637 -0.0114003 -0.00498803 0.00745918 -0.00318665 0 -0.0118057 0 0.0231836
internal_weight=1294.19 225.095 1069.1 99.4193 44.5253 90.3447 180.57 71.866 25.0267 16.2736 12.0886 46.8393 12.6528 37.1328
internal_count=4470 3643 827 406 151 253 3492 763 214 182 108 549 125 97
is_linear=0
shrinkage=0.015


Tree=41
num_leaves=15
num_cat=0
split_feature=10 9 9 6 9 10 6 2 3 3 9 5 9 9
split_gain=962.602 119.502 57.7913 50.7643 46.7258 25.7497 20.5891 37.2289 14.5081 29.491 14.5791 18.8762 10.7992 9.97026
threshold=0.055705508543267522 0.18387540870762351 0.059115059995932487 245.50000000000003 0.032704138702460854 0.14545081994746425 38.500000000000007 9.0503476589439078 8.6759186209709203 8.7501071943797779 0.14611685930897342 1.5000000000000002 0.053739385629405119 0.046720198146372648
decision_type=2 2 2 2 2 2 2 2 2 2 2 2 2 2
left_child=1 6 4 -3 -2 12 7 -1 10 -10 -8 -12 13 -6
right_child=2 3 -4 -5 5 -7 8 -9 9 -11 11 -13 -14 -15
leaf_value=0.023977458982952334 -0.014414561608255385 0.023924636256255728 0.029490179326262394 -0.014930685614415759 0.0021547959564574902 0.024441212306804252 -0.015762475245328235 -0.014953141843766657 0.03736826964871294 -0.013895786544304595 0.023572417825523301 -0.014395009887701798 -0.014079826415095314 0.03116938455662464
leaf_weight=9.452137980610134 8.9614378474652749 35.753895133733749 971.66360411047935 8.9424281194806081 10.230061355978252 72.514551393687725 136.37130918353796 11.823998015373943 3.3513850495219213 6.6752854324877262 4.6881422698497754 6.2215863615274429 4.6883427798748007 3.5053764581680289
leaf_count=50 153 48 421 103 80 120 2997 222 11 123 22 67 51 2
internal_value=0.0224538 -0.00584035 0.0283564 0.0159057 0.0171624 0.0204179 -0.0113541 0.00215118 -0.0132292 0.00348765 -0.014426 0.00158109 0.00395879 0.0109211
internal_weight=1294.84 223.28 1071.56 44.6963 99.8998 90.9383 178.584 21.2761 157.308 10.0267 147.281 10.9097 18.4238 13.7354
internal_count=4470 3643 827 151 406 253 3492 272 3220 134 3086 89 133 82
is_linear=0
shrinkage=0.015


Tree=42
num_leaves=15
num_cat=0
split_feature=10 6 2 6 5 10 3 3 10 10 2 2 3 10
split_gain=927.758 87.2493 63.9676 44.5364 32.983 23.9025 15.8119 17.0717 5.82571 49.2044 8.66915 9.45396 9.12198 4.76804
threshold=0.055705508543267522 128.50000000000003 9.0503476589439078 119.50000000000001 3.5000000000000004 0.14545081994746425 5.7586438434391924 5.7341380937435327 0.046720198146372648 0.05253147765731659 9.9030144405911749 10.090184421510182 6.0126486633611025 0.21587519490204057
decision_type=2 2 2 2 2 2 2 2 2 2 2 2 2 2
left_child=1 2 4 6 -1 -2 7 -4 -3 10 -10 -12 -13 -7
right_child=5 8 3 -5 -6 13 -8 -9 9 -11 11 12 -14 -15
leaf_value=-0.013765912091399279 0.022821270343548992 -0.015833331557885206 -0.013008690828173578 0.023978682175239935 0.027826559354560049 0.027176883017744766 -0.016138450475883533 0.029392300719562916 -0.0085149497848528155 -0.015745264637436338 0.046261490288691143 -0.010241934898785101 0.023472725654192523 0.030199099693797467
leaf_weight=4.4390379823744288 198.04127404093742 80.982833493500948 3.7904696427285662 9.2842723056673986 29.403862427920103 353.75283844396472 32.394304804503918 3.5748890973627567 1.5553170889616001 46.722315479069948 2.8152475580573064 2.1551763452589512 4.3230734542012215 521.71762140840292
leaf_count=68 356 1718 74 55 101 273 618 3 31 912 2 42 19 198
internal_value=0.0221151 -0.00580087 0.00628803 -0.00453723 0.0220317 0.0278805 -0.0115974 0.00717793 -0.0130833 -0.00898284 0.0188904 0.0244432 0.0112516 0.0290027
internal_weight=1294.95 221.441 82.8868 49.0439 33.8429 1073.51 39.7597 7.36536 138.554 57.5711 10.8488 9.2935 6.47825 875.47
internal_count=4470 3643 919 750 169 827 695 77 2724 1006 94 63 61 471
is_linear=0
shrinkage=0.015


Tree=43
num_leaves=15
num_cat=0
split_feature=10 6 2 6 5 10 3 3 10 10 2 2 3 10
split_gain=894.141 85.6856 61.5785 43.22 31.6667 23.5793 15.5882 16.5795 5.81853 48.1966 8.36346 8.82517 8.822 4.74739
threshold=0.055705508543267522 128.50000000000003 9.0503476589439078 119.50000000000001 3.5000000000000004 0.14545081994746425 5.7586438434391924 5.7341380937435327 0.046720198146372648 0.05253147765731659 9.9030144405911749 10.090184421510182 6.0126486633611025 0.21587519490204057
decision_type=2 2 2 2 2 2 2 2 2 2 2 2 2 2
left_child=1 2 4 6 -1 -2 7 -4 -3 10 -10 -12 -13 -7
right_child=5 8 3 -5 -6 13 -8 -9 9 -11 11 12 -14 -15
leaf_value=-0.013713303162951522 0.022399055095933207 -0.015815768793044256 -0.012958150747580695 0.023372440776553462 0.027164731413394358 0.026712888014119241 -0.016110740542988604 0.028859173168655362 -0.0084659172117147029 -0.015724905205490657 0.044780067655809649 -0.010190901428468204 0.022970717173838501 0.029712411798237897
leaf_weight=4.3915031477808943 198.75162157788873 79.865631017833948 3.7504267990589133 9.3943364992737752 29.678504344075918 354.50177980214357 31.967345099896193 3.5953942909836769 1.5438427813351143 46.086497511714697 2.8807886466383916 2.136127021163702 4.3619166426360607 522.31273777782917
leaf_count=68 356 1718 74 55 101 273 618 3 31 912 2 42 19 198
internal_value=0.021779 -0.00576056 0.00620223 -0.00449537 0.0215566 0.0274102 -0.011553 0.00708811 -0.0130461 -0.00893183 0.0185076 0.0239106 0.0110484 0.0285241
internal_weight=1295.22 219.652 82.7775 48.7075 34.07 1075.57 39.3132 7.34582 136.875 57.0092 10.9227 9.37883 6.49804 876.815
internal_count=4470 3643 919 750 169 827 695 77 2724 1006 94 63 61 471
is_linear=0
shrinkage=0.015


Tree=44
num_leaves=15
num_cat=0
split_feature=10 9 9 6 9 10 9 6 9 9 9 9 9 5
split_gain=862.257 112.695 60.4326 46.3692 44.0673 24.1071 20.4168 29.8141 52.3829 12.0512 16.1134 10.1981 9.73803 14.9812
threshold=0.055705508543267522 0.18387540870762351 0.059115059995932487 245.50000000000003 0.032704138702460854 0.14545081994746425 0.055900561102926467 120.50000000000001 0.080271664034741425 0.14611685930897342 0.15621892866020384 0.053739385629405119 0.046720198146372648 2.5000000000000004
decision_type=2 2 2 2 2 2 2 2 2 2 2 2 2 2
left_child=1 6 4 -3 -2 11 -1 8 -8 -9 -11 12 13 -6
right_child=2 3 -4 -5 5 -7 7 9 -10 10 -12 -13 -14 -15
leaf_value=-0.01548807748867409 -0.014498910857697571 0.022804247990718236 0.028124693032603062 -0.01480210781382511 0.019481749433073521 0.022687071818883495 0.028908303312296626 -0.015856362546169341 -0.015322865145057065 0.020750322912478674 -0.014144747485967378 -0.014203810110352197 0.029698908123628784 -0.014566751107541211
leaf_weight=103.25756311789155 9.2380046844482404 36.127967700362206 974.80870591104031 8.6133739054203016 5.1256649568676966 74.23109108954668 12.765873119235041 35.841834951192141 10.376136742532251 5.0155584961175901 5.8745461776852608 4.7990512400865546 3.5672288835048667 5.4286663420498371
leaf_count=2729 153 48 421 103 24 120 41 513 119 23 67 51 2 56
internal_value=0.021455 -0.00572074 0.0269586 0.0153151 0.0157013 0.0188378 -0.0112286 -0.00476207 0.00885459 -0.0116863 0.0014735 0.00315448 0.00985043 0.00142355
internal_weight=1295.07 217.873 1077.2 44.7413 102.39 93.1517 173.132 69.8739 23.142 46.7319 10.8901 18.9206 14.1216 10.5543
internal_count=4470 3643 827 151 406 253 3492 763 160 603 90 133 82 80
is_linear=0
shrinkage=0.015


Tree=45
num_leaves=15
num_cat=0
split_feature=9 9 6 9 9 9 5 2 2 2 6 3 5 6
split_gain=525.18 55.1288 55.2594 32.8609 23.6578 20.9791 44.6411 19.248 19.2978 22.096 16.4384 5.44418 9.41582 6.34034
threshold=0.054506897837434752 0.032704138702460854 364.50000000000006 0.053739385629405119 0.11261355579800385 0.046720198146372648 3.5000000000000004 14.002949572561187 6.8005888887801405 6.6904589662989133 370.50000000000006 4.4024658205251388 4.5000000000000009 729.50000000000011
decision_type=2 2 2 2 2 2 2 2 2 2 2 2 2 2
left_child=1 -1 7 5 -2 6 -4 8 9 -3 -8 13 -13 -12
right_child=4 2 3 -5 -6 -7 10 -9 -10 -11 11 12 -14 -15
leaf_value=-0.015385374723389005 0.020857450431654368 -0.012900732729100032 -0.015223664813796813 -0.014890166907141828 0.02628286398913315 0.027474052546890622 -0.012268361361021645 0.017166971338343211 -0.015930958532522025 0.035545575981737312 0.030807285181299819 0.020372805157116928 -0.012385099210956908 0.010156768101274895
leaf_weight=52.971288986504078 268.63028573617339 3.9404805153608313 12.015396371483801 8.8738164938986284 845.39012204110622 20.558049947023392 3.0297637730836859 5.1142727173864833 40.749985352158546 3.4006336480379105 15.474488850682979 4.5555820837616912 2.5261807776987553 6.6587045341730109
leaf_count=1379 678 83 241 188 710 51 53 29 915 7 31 20 38 47
internal_value=0.0211522 -0.00258686 0.00273622 0.0111602 0.0249913 0.014928 0.00869127 -0.00878696 -0.0118496 0.00942019 0.0179282 0.0214658 0.00765216 0.0252876
internal_weight=1293.89 179.869 126.897 73.692 1114.02 64.8182 44.2601 53.2054 48.0911 7.34111 32.2447 29.215 7.08176 22.1332
internal_count=4470 3082 1703 669 1388 481 430 1034 1005 90 189 136 58 78
is_linear=0
shrinkage=0.015


Tree=46
num_leaves=15
num_cat=0
split_feature=10 9 9 3 9 10 9 9 9 9 2 9 5 3
split_gain=820.327 106.728 57.5482 42.9279 41.3499 22.6636 31.782 20.3201 19.4024 25.5744 21.34 20.6047 19.0329 21.1588
threshold=0.055705508543267522 0.18387540870762351 0.059115059995932487 6.0520629098698668 0.032704138702460854 0.17807749670165782 0.053739385629405119 0.046720198146372648 0.055900561102926467 0.072629439010149136 9.0157264656693972 0.057099171808759237 3.5000000000000004 6.0126486633611025
decision_type=2 2 2 2 2 2 2 2 2 2 2 2 2 2
left_child=1 8 4 12 -2 6 7 -6 -1 10 -10 -12 13 -3
right_child=2 3 -4 -5 5 -7 -8 -9 9 -11 11 -13 -14 -15
leaf_value=-0.015468144725616376 -0.014428959658174803 -0.015374000904765643 0.027319851266926227 -0.017238940753534673 0.0040641555571521108 0.02483363387786329 -0.016798904992660988 0.027924435183219177 0.024686315966542308 -0.011704645776109 0.020094319451235111 -0.014928196465074921 0.02708516664944938 0.02813856827200422
leaf_weight=100.62088166177273 9.0018981769680959 5.6960913315415365 975.00960762798786 7.3441102504730216 17.740418508648872 52.35238441079855 7.7158001810312262 15.973362281918524 9.0985987707972544 45.492876220494509 5.0477695837616947 11.007155351340769 28.46974653750658 3.6926364153623581
leaf_count=2729 153 54 421 54 105 68 66 14 32 549 21 161 41 2
internal_value=0.020829 -0.00577817 0.0261801 0.0145428 0.0152157 0.0182022 0.00944738 0.0158311 -0.0112119 -0.00497817 0.00688606 -0.00318953 0.0210479 0.00153873
internal_weight=1294.26 216.47 1077.79 45.2026 102.784 93.782 41.4296 33.7138 171.267 70.6464 25.1535 16.0549 37.8585 9.38873
internal_count=4470 3643 827 151 406 253 185 119 3492 763 214 182 97 56
is_linear=0
shrinkage=0.015


Tree=47
num_leaves=15
num_cat=0
split_feature=10 9 9 6 9 10 6 2 3 3 9 5 5 5
split_gain=793.056 104.272 56.3674 43.6813 40.0151 21.7358 19.481 32.3723 14.0528 25.9494 14.0212 16.8978 12.4834 8.80538
threshold=0.055705508543267522 0.18387540870762351 0.059115059995932487 245.50000000000003 0.032704138702460854 0.12730189567879432 38.500000000000007 9.0503476589439078 8.6759186209709203 8.7501071943797779 0.14611685930897342 1.5000000000000002 2.5000000000000004 11.500000000000002
decision_type=2 2 2 2 2 2 2 2 2 2 2 2 2 2
left_child=1 6 4 -3 -2 12 7 -1 10 -10 -8 -12 -6 -7
right_child=2 3 -4 -5 5 13 8 -9 9 -11 11 -13 -14 -15
leaf_value=0.021591879510619721 -0.014395137112750471 0.021528920561011185 0.026921131747979398 -0.014826240507315198 0.014144632634056237 0.017818974718729234 -0.015712757606095119 -0.014827660861741719 0.033993479434157835 -0.013748786315639751 0.02147727626073985 -0.014274949429905606 -0.014785084526019473 0.031956042644493476
leaf_weight=9.837267320603134 8.8897225037217122 36.572294816374779 974.61831206083298 8.6694082021713239 6.0724949464201909 66.856318354606628 127.6810174882412 11.111049463972448 3.5416972003877145 6.3367876932024956 4.8948371782898885 6.0421596243977547 6.3336258009076118 14.867220163345335
leaf_count=50 153 48 421 103 38 135 2997 222 11 123 22 67 70 10
internal_value=0.0205475 -0.00573917 0.0257916 0.0143125 0.0149543 0.0178668 -0.0111634 0.00202982 -0.0130755 0.00345848 -0.0143159 0.00130956 -4.41813e-05 0.0206607
internal_weight=1292.32 214.687 1077.64 45.2417 103.019 94.1297 169.445 20.9483 148.496 9.87848 138.618 10.937 12.4061 81.7235
internal_count=4470 3643 827 151 406 253 3492 272 3220 134 3086 89 108 145
is_linear=0
shrinkage=0.015


Tree=48
num_leaves=15
num_cat=0
split_feature=10 6 3 5 10 10 10 10 10 3 3 3 10 5
split_gain=766.966 79.447 49.5942 40.9871 23.0867 21.5971 63.7536 5.79564 45.8126 6.2708 9.1267 8.52315 5.54294 4.27018
threshold=0.055705508543267522 128.50000000000003 5.9008427596233286 3.5000000000000004 0.17807749670165782 0.03966393604421635 0.03741903174394292 0.046720198146372648 0.05253147765731659 3.8280470103832518 3.9024472793187832 6.0126486633611025 0.09643767089236889 4.5000000000000009
decision_type=2 2 2 2 2 2 2 2 2 2 2 2 2 2
left_child=1 2 3 -1 12 6 -4 -3 9 -9 -11 -12 13 -2
right_child=4 7 5 -5 -6 -7 -8 8 -10 10 11 -13 -14 -15
leaf_value=-0.01482139041662385 0.012606983324968726 -0.015792384114736956 -0.014986875589889675 0.023524057817470703 0.027057853262509843 -0.016189172725979278 0.042295353805004987 -0.0073260400030669562 -0.015686824149346929 0.042835147148147672 -0.010511296091081651 0.021426170131803188 0.023130525179444913 0.021552284830174469
leaf_weight=6.9798224158585063 33.198715571314096 75.948627660050988 11.407512381672861 35.624064804986119 716.35190289095044 21.576591173186898 6.354373797774314 1.2738317735493172 44.035092985257506 2.9561986066400987 2.2940406687557697 4.4317350722849369 293.38673900812864 34.243359792977571
leaf_count=126 112 1718 249 141 327 397 6 26 912 2 47 19 337 51
internal_value=0.0202751 -0.0057015 0.00579767 0.0169688 0.025416 -0.00617368 0.00569228 -0.0129494 -0.00878096 0.0177945 0.0220336 0.00952136 0.0221028 0.0173845
internal_weight=1290.06 212.882 81.9424 42.6039 1077.18 39.3385 17.7619 130.94 54.9909 10.9558 9.68197 6.72578 360.829 67.4421
internal_count=4470 3643 919 267 827 652 255 2724 1006 94 68 66 500 163
is_linear=0
shrinkage=0.015


Tree=49
num_leaves=15
num_cat=0
split_feature=10 9 9 6 9 10 9 9 9 6 9 9 2 9
split_gain=741.647 100.37 57.0783 41.2505 38.3241 20.8884 30.3059 19.3197 19.283 27.4191 46.8587 11.5974 16.9582 8.71391
threshold=0.055705508543267522 0.18387540870762351 0.059115059995932487 245.50000000000003 0.032704138702460854 0.17807749670165782 0.053739385629405119 0.046720198146372648 0.055900561102926467 120.50000000000001 0.080271664034741425 0.14611685930897342 9.9772312363546209 0.044051404835419486
decision_type=2 2 2 2 2 2 2 2 2 2 2 2 2 2
left_child=1 8 4 -3 -2 6 7 13 -1 10 -10 -11 -13 -6
right_child=2 3 -4 -5 5 -7 -8 -9 9 11 -12 12 -14 -15
leaf_value=-0.015437542858990421 -0.014414100350789626 0.020894772462171109 0.026184898044869131 -0.014741795781433101 0.009406975109898439 0.023355951486900162 -0.016881261185535231 0.026592506815707743 0.026419097144536954 -0.015808455260651506 -0.015273588431149478 0.021621446721954374 -0.014231574459059938 -0.014159231113749813
leaf_weight=96.672957509756088 8.9470792897045595 36.740041837096214 972.79941932857037 8.4567380771040899 14.0203078314662 53.201643496751785 7.7591495662927619 16.176078528165817 13.264523752033712 34.857222076505423 10.181053355336187 4.8346019089221937 6.1080653965473175 4.0137691870331755
leaf_count=2729 153 48 421 103 67 68 66 14 41 513 119 20 70 38
internal_value=0.0200029 -0.00566436 0.0250419 0.0139744 0.0142164 0.0170477 0.00869368 0.01487 -0.011085 -0.00483381 0.00806029 -0.0116122 0.00120589 0.0035168
internal_weight=1288.03 211.115 1076.92 45.1968 104.118 95.1709 41.9693 34.2102 165.918 69.2455 23.4456 45.7999 10.9427 18.0341
internal_count=4470 3643 827 151 406 253 185 119 3492 763 160 603 90 105
is_linear=0
shrinkage=0.015


Tree=50
num_leaves=15
num_cat=0
split_feature=10 9 9 3 9 6 3 10 9 9 6 9 9 9
split_gain=718.073 98.0905 55.9925 40.3485 37.1353 28.0571 23.7888 20.0093 29.4643 19.2053 26.8323 45.1931 18.6396 11.4894
threshold=0.055705508543267522 0.18387540870762351 0.059115059995932487 6.0520629098698668 0.032704138702460854 135.50000000000003 6.0126486633611025 0.17807749670165782 0.053739385629405119 0.055900561102926467 120.50000000000001 0.080271664034741425 0.046720198146372648 0.14611685930897342
decision_type=2 2 2 2 2 2 2 2 2 2 2 2 2 2
left_child=1 9 4 5 -2 -3 -7 8 12 -1 11 -11 -6 -12
right_child=2 3 -4 -5 7 6 -8 -9 -10 10 13 -13 -14 -15
leaf_value=-0.015426264711068611 -0.014380278278225293 0.028094658218454232 0.02582903875367824 -0.017271000604288274 0.003450968019165323 -0.015353685702588547 0.029428041295902648 0.022902803755390187 -0.016807868405056187 0.025742312903338234 -0.015783412970707237 -0.015231636034821741 0.026094480892082203 0.0011825002334420998
leaf_weight=95.303149839863181 8.8356161415576917 27.030642330646515 971.42603671550751 7.2475458830595008 18.05888007953763 7.4237672537565214 3.5237040519714355 53.448450371623039 7.6789229996502391 13.420998781919481 34.393125116825104 10.058260545134543 16.246532626450062 10.931418985128401
leaf_count=2729 153 16 421 54 105 80 1 68 66 41 513 119 14 90
internal_value=0.0197488 -0.00562903 0.0246947 0.0137539 0.0139822 0.020017 0 0.0167475 0.00855769 -0.0110418 -0.00479304 0.00792515 0.0146109 -0.0115596
internal_weight=1285.03 209.333 1075.69 45.2257 104.268 37.9781 10.9475 95.4328 41.9843 164.107 68.8038 23.4793 34.3054 45.3245
internal_count=4470 3643 827 151 406 97 81 253 185 3492 763 160 119 603
is_linear=0
shrinkage=0.015


Tree=51
num_leaves=15
num_cat=0
split_feature=5 6 3 5 3 6 2 6 2 6 3 6 3 5
split_gain=18.5553 7.60581 7.17084 13.1495 21.4743 20.2004 19.0224 18.8851 16.466 13.6428 13.3413 14.5684 11.0336 9.07686
threshold=11.500000000000002 7.5000000000000009 4.5184533407632061 2.5000000000000004 4.6797195941649106 212.50000000000003 10.91905584685154 670.50000000000011 11.947588128247565 1459.5000000000002 7.3043529439549078 24.500000000000004 7.7386922535610951 8.5000000000000018
decision_type=2 2 2 2 2 2 2 2 2 2 2 2 2 2
left_child=1 -1 -3 7 -5 6 13 12 -8 -9 -10 -12 -4 -6
right_child=-2 2 3 4 5 -7 8 9 10 -11 11 -13 -14 -15
leaf_value=0.024771028732503933 0.023896514613228052 0.019742262036816897 0.018030182646682678 -0.016446105819595797 0.010235703099995091 0.018133617511299615 -0.018003075120375273 -0.0038344385996817673 0.021032090459555709 0.0201365515670077 0.016438790520694364 -0.017038161346533937 0.02582277151940357 0.023655616689705967
leaf_weight=54.373061552643776 201.61673265323043 505.69932156987488 129.80802353471518 4.3100751861929885 56.613235477358103 184.84846054762602 8.4226622916758078 12.678858056664469 7.8550390936434296 8.1543953921645862 4.2244314663112146 6.8836623970419168 79.918231343850493 16.248674556612968
leaf_count=66 370 1646 600 68 368 771 136 168 9 15 9 100 111 33
internal_value=0.019504 0.0186664 0.0183236 0.0169118 0.0146157 0.0151395 0.00948153 0.0197236 -0.000916291 0.00544859 0.00655515 -0.00350101 0.0210897 0.0134715
internal_weight=1281.65 1080.04 1025.67 519.966 289.406 285.096 100.248 230.56 27.3858 20.8333 18.9631 11.1081 209.726 72.8619
internal_count=4470 4100 4034 2388 1494 1426 655 894 254 183 118 109 711 401
is_linear=0
shrinkage=0.015


Tree=52
num_leaves=15
num_cat=0
split_feature=10 9 9 3 9 6 3 10 9 6 9 9 9 9
split_gain=697.625 94.6159 56.2714 38.732 35.7195 26.8947 23.0545 19.245 18.6971 25.9509 43.0895 11.2264 14.4744 8.7743
threshold=0.055705508543267522 0.18387540870762351 0.059115059995932487 6.0520629098698668 0.032704138702460854 135.50000000000003 6.0126486633611025 0.14545081994746425 0.055900561102926467 120.50000000000001 0.080271664034741425 0.14611685930897342 0.15621892866020384 0.053739385629405119
decision_type=2 2 2 2 2 2 2 2 2 2 2 2 2 2
left_child=1 8 4 5 -2 -3 -7 13 -1 10 -10 -11 -13 -6
right_child=2 3 -4 -5 7 6 -8 -9 9 11 -12 12 -14 -15
leaf_value=-0.015426614505649881 -0.014386893884820458 0.027224787576139522 0.025226114955773631 -0.017221875399703712 0.0082522078726916491 -0.015360659208459479 0.028622957584945402 0.019450401117771372 0.02465460262431407 -0.015785298427502342 -0.015230059412597672 0.018680968770850296 -0.014119483306441328 -0.014141837101691614
leaf_weight=95.306670961901546 8.8558281995356065 27.153985291719437 968.19550505280495 7.2240571379661551 14.553612023591997 7.426402345299719 3.548731803894043 76.87067686021328 13.664543800055982 34.416411221027374 10.033925473690031 5.2424161508679372 5.8306609019637108 4.7133255451917639
leaf_count=2729 153 16 421 54 82 80 1 120 41 513 119 23 67 51
internal_value=0.0191921 -0.0057808 0.0240826 0.0132266 0.0133969 0.0193379 0 0.0160951 -0.011091 -0.00494331 0.00749175 -0.0115956 0.000897621 0.00217533
internal_weight=1283.04 209.848 1073.19 45.3532 104.993 38.1291 10.9751 96.1376 164.495 69.188 23.6985 45.4895 11.0731 19.2669
internal_count=4470 3643 827 151 406 97 81 253 3492 763 160 603 90 133
is_linear=0
shrinkage=0.015


Tree=53
num_leaves=15
num_cat=0
split_feature=10 9 9 3 9 10 9 9 9 2 9 9 5 3
split_gain=676.059 92.5901 55.4533 37.6959 34.6124 18.785 27.9777 18.6217 22.6769 18.1992 18.27 18.0494 16.3147 18.5289
threshold=0.055705508543267522 0.18387540870762351 0.059115059995932487 6.0520629098698668 0.032704138702460854 0.17807749670165782 0.053739385629405119 0.055900561102926467 0.072629439010149136 9.0157264656693972 0.057099171808759237 0.046720198146372648 3.5000000000000004 6.0126486633611025
decision_type=2 2 2 2 2 2 2 2 2 2 2 2 2 2
left_child=1 7 4 12 -2 6 11 -1 9 -9 -11 -6 13 -3
right_child=2 3 -4 -5 5 -7 -8 8 -10 10 -12 -13 -14 -15
leaf_value=-0.015415443512879943 -0.014353098025614719 -0.015419290537773427 0.02490435005440202 -0.017136372613808203 0.0029044617824921823 0.021733204491272442 -0.016856247091313323 0.022197132939933712 -0.011479635864297944 0.017905977183719599 -0.014860006685897854 0.025016916009860952 0.024573983066335656 0.025283380499675805
leaf_weight=93.955624807626009 8.7455379292368871 5.5107402354478818 966.0166899561882 7.154221609234809 18.364692363888025 54.028541602194309 7.6613009572029105 9.4103285893797892 43.487609002739191 5.2464763745665541 10.594179831445215 16.380860380828381 28.803499616682529 3.7976086735725403
leaf_count=2729 153 54 421 54 105 68 66 32 549 21 161 14 41 2
internal_value=0.0189615 -0.0057474 0.0237659 0.0130537 0.0131709 0.0158055 0.00791319 -0.0110483 -0.00490253 0.00613637 -0.00333299 0.0137492 0.0190636 0.000864236
internal_weight=1279.16 207.96 1071.2 45.2661 105.181 96.4354 42.4069 162.694 68.7386 25.251 15.8407 34.7456 38.1118 9.30835
internal_count=4470 3643 827 151 406 253 185 3492 763 214 182 119 97 56
is_linear=0
shrinkage=0.015


Tree=54
num_leaves=15
num_cat=0
split_feature=10 9 9 3 9 5 3 9 9 2 9 10 9 9
split_gain=655.756 103.382 52.4134 37.669 32.9029 17.8815 18.9201 17.6556 22.7876 17.8361 18.0035 17.0067 27.0471 16.719
threshold=0.058840889195426703 0.18387540870762351 0.059115059995932487 6.0520629098698668 0.032704138702460854 3.5000000000000004 6.0126486633611025 0.055900561102926467 0.072629439010149136 9.0157264656693972 0.057099171808759237 0.17807749670165782 0.053739385629405119 0.046720198146372648
decision_type=2 2 2 2 2 2 2 2 2 2 2 2 2 2
left_child=1 7 4 5 -2 6 -3 -1 9 -9 -11 12 13 -6
right_child=2 3 -4 -5 11 -7 -8 8 -10 10 -12 -13 -14 -15
leaf_value=-0.015408877315542151 -0.014271842799194724 -0.016008945974138551 0.024651547910884242 -0.017051950807006729 0.0031779038779822487 0.024175203273016331 0.024878611588590137 0.021695498858348195 -0.011726900244595275 0.017515920205026264 -0.014870788960019025 0.02133627278562136 -0.016772922695038647 0.024579097314120942
leaf_weight=93.21739287674427 8.3511211797595006 5.7027395442128164 958.7225100249052 7.0847953781485549 18.083794374018908 32.73854187130928 3.8095461130142212 9.4944064319133776 43.840100709348917 5.2936316430568686 10.68022971972823 54.216018930077553 7.3636207953095427 16.431074470281601
leaf_count=2739 147 55 415 54 101 43 2 32 552 21 163 68 64 14
internal_value=0.018738 -0.00532049 0.0235395 0.0135371 0.0131918 0.0189813 4.15691e-05 -0.0111148 -0.00516294 0.00585544 -0.0034769 0.0157177 0.00810109 0.0137858
internal_weight=1275.03 211.861 1063.17 49.3356 104.446 42.2508 9.51229 162.526 69.3084 25.4683 15.9739 96.0945 41.8785 34.5149
internal_count=4470 3661 809 154 394 100 57 3507 768 216 184 247 179 115
is_linear=0
shrinkage=0.015


Tree=55
num_leaves=15
num_cat=0
split_feature=10 9 9 5 9 9 9 2 9 10 9 9 5 9
split_gain=636.13 101.07 51.5679 33.8373 31.932 17.6248 22.3305 17.1619 17.5705 16.331 26.3265 16.1654 11.8418 13.7467
threshold=0.058840889195426703 0.18387540870762351 0.059115059995932487 2.5000000000000004 0.032704138702460854 0.055900561102926467 0.072629439010149136 9.0157264656693972 0.057099171808759237 0.17807749670165782 0.053739385629405119 0.046720198146372648 1.5000000000000002 0.14611685930897342
decision_type=2 2 2 2 2 2 2 2 2 2 2 2 2 2
left_child=1 5 4 -3 -2 -1 7 -7 -9 10 11 -6 13 -8
right_child=2 3 -4 -5 9 6 12 8 -10 -11 -12 -13 -14 -15
leaf_value=-0.015397885256114678 -0.014237549852856083 -0.01630932742848528 0.02435083341570269 0.018391244678713899 0.0031264956000736062 0.021212231510085972 -0.013742034124407124 0.017138671577390695 -0.014836328311765295 0.020952268174826854 -0.016699472995108176 0.024157043916625816 -0.016214157195436084 0.018116027726006043
leaf_weight=91.894982315599918 8.2476508952677232 6.786159671843051 956.02985054254532 42.499758467078209 18.113420404493809 9.5758173614740389 5.7810645028948766 5.339653566479682 10.54662876576185 54.389348819851875 7.2878386452794066 16.475761942565441 32.3071572445333 5.3489210829138756
leaf_count=2739 147 63 415 91 101 32 86 21 163 68 64 14 440 26
internal_value=0.0185214 -0.00528575 0.0232446 0.0133469 0.0129862 -0.0110671 -0.0051135 0.00577469 -0.00343626 0.0154577 0.00798136 0.0135591 -0.0116597 0.00104425
internal_weight=1270.62 210.08 1060.54 49.2859 104.514 160.794 68.8992 25.4621 15.8863 96.2664 41.877 34.5892 43.4371 11.13
internal_count=4470 3661 809 154 394 3507 768 216 184 247 179 115 552 112
is_linear=0
shrinkage=0.015


Tree=56
num_leaves=15
num_cat=0
split_feature=10 9 9 3 9 9 6 9 5 3 10 9 9 9
split_gain=617.436 98.7528 50.7614 36.4799 30.9987 17.5742 23.4925 41.8912 16.6769 18.1462 15.6896 25.63 15.6389 10.6584
threshold=0.058840889195426703 0.18387540870762351 0.059115059995932487 6.0520629098698668 0.032704138702460854 0.055900561102926467 120.50000000000001 0.080271664034741425 3.5000000000000004 6.0126486633611025 0.17807749670165782 0.053739385629405119 0.046720198146372648 0.14611685930897342
decision_type=2 2 2 2 2 2 2 2 2 2 2 2 2 2
left_child=1 5 4 8 -2 -1 7 -7 9 -3 11 12 -6 -8
right_child=2 3 -4 -5 10 6 13 -9 -10 -11 -12 -13 -14 -15
leaf_value=-0.015386997582614838 -0.014203277963980406 -0.015899105148086307 0.024060029708707697 -0.017024560177044887 0.0030760052710843487 0.023382787232446623 -0.015737388401091221 -0.015743512917357344 0.023464819328059508 0.024242618287055321 0.020580488859592985 -0.016626747250487184 0.023749831123091456 0.00054028357461854135
leaf_weight=90.590769955888391 8.1455146148800832 5.5954144820570928 953.0991640239954 7.0572590231895438 18.142563950270414 13.886360153555872 33.342993505299091 10.108707595616577 32.852372631430626 3.8254855871200562 54.549094781279564 7.212673593312501 16.515146970748901 11.117531560361384
leaf_count=2739 147 55 415 54 101 41 515 121 43 2 68 64 14 91
